<?xml version="1.0"?>
<opencv_storage>
<stage10>
  <maxWeakCount>95</maxWeakCount>
  <stageThreshold>-1.8857705593109131e+00</stageThreshold>
  <weakClassifiers>
    <_>
      <internalNodes>
        0 -1 167 -1 -722141185 -1 -2293761 -1 1156644863 -526337
        2000748303</internalNodes>
      <leafValues>
        -3.8601148128509521e-01 1.5034253895282745e-01</leafValues></_>
    <_>
      <internalNodes>
        0 -1 1008 -10551297 -177144009 -66561 -198115334 -12582947
        -9177568 -3145745 -587137776</internalNodes>
      <leafValues>
        -3.0541530251502991e-01 1.9645373523235321e-01</leafValues></_>
    <_>
      <internalNodes>
        0 -1 761 -20689 -956301313 -285299154 -856691217 -210503899
        -109880201 -8933593 -8918017</internalNodes>
      <leafValues>
        -1.7894923686981201e-01 2.8750184178352356e-01</leafValues></_>
    <_>
      <internalNodes>
        0 -1 755 473838612 -2343812 534724605 -147843 -1073758275 -18434
        801062333 -1088944120</internalNodes>
      <leafValues>
        -2.5222402811050415e-01 1.9326364994049072e-01</leafValues></_>
    <_>
      <internalNodes>
        0 -1 20 825439025 -34082823 -1113630889 -33 -1078216773 -1089
        926888831 -25089</internalNodes>
      <leafValues>
        -1.8405584990978241e-01 2.3748230934143066e-01</leafValues></_>
    <_>
      <internalNodes>
        0 -1 301 1580878943 2142986207 -8454145 1060863999 -21361444
        -45185 -327681 708525695</internalNodes>
      <leafValues>
        -2.6347526907920837e-01 1.2561672925949097e-01</leafValues></_>
    <_>
      <internalNodes>
        0 -1 685 -4178 -4113 -353383416 -2609 1383547415 1883206709
        -264765687 -210763777</internalNodes>
      <leafValues>
        -2.2442258894443512e-01 1.7456974089145660e-01</leafValues></_>
    <_>
      <internalNodes>
        0 -1 910 -590031376 -196611 -1 -8227 -1073889283 -16419
        -1075838977 -1080345541</internalNodes>
      <leafValues>
        -1.3087750971317291e-01 2.7422496676445007e-01</leafValues></_>
    <_>
      <internalNodes>
        0 -1 906 -252644144 -555992232 -537001985 -537067523 -1078329347
        -26115 -2113537 -1078255333</internalNodes>
      <leafValues>
        -1.3732121884822845e-01 2.5200194120407104e-01</leafValues></_>
    <_>
      <internalNodes>
        0 -1 362 -269813854 -923881474 -16969 -839918168 -551355405
        -1979652366 1399314423 -842009345</internalNodes>
      <leafValues>
        -1.2827572226524353e-01 2.4330313503742218e-01</leafValues></_>
    <_>
      <internalNodes>
        0 -1 1001 7340151 -201330945 -361037825 1625292767 -212815921
        -4194817 -272580609 -79298593</internalNodes>
      <leafValues>
        -2.4528199434280396e-01 1.1901710927486420e-01</leafValues></_>
    <_>
      <internalNodes>
        0 -1 671 -600260880 -245763 -106497 -49153 -262148 -5586946
        -67125253 -1073805125</internalNodes>
      <leafValues>
        -1.1929446458816528e-01 2.4627818167209625e-01</leafValues></_>
    <_>
      <internalNodes>
        0 -1 757 -856771468 -1359167490 1040170493 -1348550659
        -1073758219 -1080099585 1073690109 -1346434008</internalNodes>
      <leafValues>
        -1.7123453319072723e-01 1.6476997733116150e-01</leafValues></_>
    <_>
      <internalNodes>
        0 -1 921 -361566609 -227313155 -1464422738 1073803215 -78139900
        -99539884 -2912593 -264119588</internalNodes>
      <leafValues>
        -1.6338013112545013e-01 1.7187613248825073e-01</leafValues></_>
    <_>
      <internalNodes>
        0 -1 160 69468160 -2070180696 1375293712 -572527139 -2086817615
        -1879380295 -1254111979 -11041</internalNodes>
      <leafValues>
        -2.6087409257888794e-01 1.0605747252702713e-01</leafValues></_>
    <_>
      <internalNodes>
        0 -1 839 -599796427 213907383 -1610612739 -1380057091
        -1073741827 -1886519298 1073692157 -1342231361</internalNodes>
      <leafValues>
        -1.3222412765026093e-01 2.0817831158638000e-01</leafValues></_>
    <_>
      <internalNodes>
        0 -1 56 857945907 -1065008 -44041739 -570436105 -136841225
        1323755518 1429730775 -707791395</internalNodes>
      <leafValues>
        -1.3716870546340942e-01 1.8948921561241150e-01</leafValues></_>
    <_>
      <internalNodes>
        0 -1 470 -410066656 -858864184 2138945312 -137364 923002673
        -2013087788 924303653 -808455713</internalNodes>
      <leafValues>
        -1.6840912401676178e-01 1.5474790334701538e-01</leafValues></_>
    <_>
      <internalNodes>
        0 -1 810 538191700 2044475221 786792447 536762367 -1146831376
        -1074053635 1006451644 -1088814920</internalNodes>
      <leafValues>
        -1.9377094507217407e-01 1.2551124393939972e-01</leafValues></_>
    <_>
      <internalNodes>
        0 -1 325 -5234 50782775 -43002110 -170988754 -71716949 49477458
        2138570603 1470430679</internalNodes>
      <leafValues>
        -2.1526807546615601e-01 1.1185918748378754e-01</leafValues></_>
    <_>
      <internalNodes>
        0 -1 189 -957354521 -990580753 -1363245418 -285278438
        -1056967187 -2133458947 -1862810571 -856208336</internalNodes>
      <leafValues>
        -1.6591151058673859e-01 1.3869638741016388e-01</leafValues></_>
    <_>
      <internalNodes>
        0 -1 527 81686292 1056857855 529940349 536746622 1878332789
        -1075942081 1071595448 -1889007094</internalNodes>
      <leafValues>
        -1.7683979868888855e-01 1.2807840108871460e-01</leafValues></_>
    <_>
      <internalNodes>
        0 -1 913 -1909537616 1057004720 -1880104961 -1080022866
        239072629 -1106772557 260011903 750724159</internalNodes>
      <leafValues>
        -2.0739063620567322e-01 1.0316886752843857e-01</leafValues></_>
    <_>
      <internalNodes>
        0 -1 547 -1593904560 -1090585761 530530269 1073627135
        -1078477520 -1077936641 -17607 -1358230773</internalNodes>
      <leafValues>
        -1.4178399741649628e-01 1.5358802676200867e-01</leafValues></_>
    <_>
      <internalNodes>
        0 -1 1018 -153139185 1551830793 -1261244417 1343613951 -9206524
        611256581 -86337 -251396225</internalNodes>
      <leafValues>
        -1.2375851720571518e-01 1.7933410406112671e-01</leafValues></_>
    <_>
      <internalNodes>
        0 -1 1000 112 312102655 44744191 50871039 845153348 -84004867
        -1262945281 -1082130757</internalNodes>
      <leafValues>
        -2.7687215805053711e-01 7.7712744474411011e-02</leafValues></_>
    <_>
      <internalNodes>
        0 -1 80 -83951642 1409183631 -67585 -6325585 1146119663
        -185579521 1946122207 -545819777</internalNodes>
      <leafValues>
        -1.0322114825248718e-01 2.0228226482868195e-01</leafValues></_>
    <_>
      <internalNodes>
        0 -1 690 -285233626 -2073057294 -285757912 -286137404 846689591
        70742901 -243990777 -982326168</internalNodes>
      <leafValues>
        -2.1651126444339752e-01 1.0031685978174210e-01</leafValues></_>
    <_>
      <internalNodes>
        0 -1 38 -230173113 -190513945 -299892941 -1001392401 1467336641
        -102896145 -11010303 -993148089</internalNodes>
      <leafValues>
        -1.3416701555252075e-01 1.5724603831768036e-01</leafValues></_>
    <_>
      <internalNodes>
        0 -1 838 478942516 -121349 -1064971 -1073867395 -1677976131
        -508547 1069318077 -1342559176</internalNodes>
      <leafValues>
        -2.0523504912853241e-01 1.0065381973981857e-01</leafValues></_>
    <_>
      <internalNodes>
        0 -1 970 -1023523617 -86046241 -1561313537 16515071 -231702784
        1060722972 -70254628 -212606993</internalNodes>
      <leafValues>
        -1.4650233089923859e-01 1.3537764549255371e-01</leafValues></_>
    <_>
      <internalNodes>
        0 -1 0 18878480 32514144 1425870933 -570600204 960435249 -17417
        970200415 -64019</internalNodes>
      <leafValues>
        -2.9052948951721191e-01 7.0310167968273163e-02</leafValues></_>
    <_>
      <internalNodes>
        0 -1 157 -362615041 -84007937 -21336482 980553267 1248283854
        2121747295 -814281633 724782103</internalNodes>
      <leafValues>
        -1.5514531731605530e-01 1.2827347218990326e-01</leafValues></_>
    <_>
      <internalNodes>
        0 -1 533 583539828 -1193529988 1998536703 1040064500 -1411369708
        -1108578947 -1782300679 -1953883016</internalNodes>
      <leafValues>
        -2.0222333073616028e-01 9.5280990004539490e-02</leafValues></_>
    <_>
      <internalNodes>
        0 -1 566 -335810642 16545719 1877640588 -710238737 1647529983
        7478677 -71858932 368083592</internalNodes>
      <leafValues>
        -1.7105299234390259e-01 1.1220134794712067e-01</leafValues></_>
    <_>
      <internalNodes>
        0 -1 200 -1682984029 -894782240 -1610643593 -25 -1079071813
        -1937350675 393737663 -842022401</internalNodes>
      <leafValues>
        -9.7167484462261200e-02 2.0996956527233124e-01</leafValues></_>
    <_>
      <internalNodes>
        0 -1 1038 -1626353616 193655968 -167838256 -650838544 469760445
        -1884293247 451876340 -1930801100</internalNodes>
      <leafValues>
        -1.6843669116497040e-01 1.0895308107137680e-01</leafValues></_>
    <_>
      <internalNodes>
        0 -1 245 -171639086 -2071146770 -1619657130 -2049972562
        -313137248 -1210778908 -8958133 785350478</internalNodes>
      <leafValues>
        -1.6141168773174286e-01 1.1352668702602386e-01</leafValues></_>
    <_>
      <internalNodes>
        0 -1 574 -1069830392 1359324453 250514438 -959533329 -791351407
        -260833433 -1000550656 537144838</internalNodes>
      <leafValues>
        -2.5285461544990540e-01 7.4477545917034149e-02</leafValues></_>
    <_>
      <internalNodes>
        0 -1 88 -299373790 -285561710 -137439243 -33653828 185468839
        2762144 1146484180 -707529227</internalNodes>
      <leafValues>
        -1.6762591898441315e-01 1.1069463193416595e-01</leafValues></_>
    <_>
      <internalNodes>
        0 -1 134 -297079126 -18165925 -4800514 1073659134 605293908
        -296728709 1059327472 199312695</internalNodes>
      <leafValues>
        -1.7777894437313080e-01 1.0341173410415649e-01</leafValues></_>
    <_>
      <internalNodes>
        0 -1 110 -153309208 -87236689 -363884971 -829424657 1263837180
        -4969909 -268447989 734995211</internalNodes>
      <leafValues>
        -1.4770755171775818e-01 1.2661337852478027e-01</leafValues></_>
    <_>
      <internalNodes>
        0 -1 167 2551330 1795942382 1057663812 -852522454 368441343
        -1258291729 1983217524 -2001272446</internalNodes>
      <leafValues>
        -1.4564810693264008e-01 1.3092118501663208e-01</leafValues></_>
    <_>
      <internalNodes>
        0 -1 674 1748529268 964439420 2142202879 1006583803 -1099788
        -98388 -9486337 -1081145349</internalNodes>
      <leafValues>
        -1.3133768737316132e-01 1.4190007746219635e-01</leafValues></_>
    <_>
      <internalNodes>
        0 -1 765 -83891537 -570749985 -122558230 -1048849 1983865639
        813456965 -1472070689 -243990801</internalNodes>
      <leafValues>
        -1.5891395509243011e-01 1.1881601810455322e-01</leafValues></_>
    <_>
      <internalNodes>
        0 -1 131 1929294770 -929256881 1676488479 -269505617 1148496824
        -120276484 -685285 115155751</internalNodes>
      <leafValues>
        -1.6729085147380829e-01 1.0679236054420471e-01</leafValues></_>
    <_>
      <internalNodes>
        0 -1 938 -589323244 1354473565 802467743 285211567 -1166789612
        -1737861884 -1346589458 -1155324389</internalNodes>
      <leafValues>
        -1.1986418068408966e-01 1.4894621074199677e-01</leafValues></_>
    <_>
      <internalNodes>
        0 -1 6 540221472 8414148 897017600 1441062880 2000156471
        15758783 642987313 1431598420</internalNodes>
      <leafValues>
        -4.4039571285247803e-01 3.9973292499780655e-02</leafValues></_>
    <_>
      <internalNodes>
        0 -1 653 181170164 -18071845 247364469 1006059519 -1166692868
        -2934532 -1174622212 -1952840694</internalNodes>
      <leafValues>
        -1.4383433759212494e-01 1.1796251684427261e-01</leafValues></_>
    <_>
      <internalNodes>
        0 -1 312 -360838401 -67490177 -1710327220 964300758 -30209964
        -546144407 -910238740 -1413477212</internalNodes>
      <leafValues>
        -1.3858450949192047e-01 1.1914640665054321e-01</leafValues></_>
    <_>
      <internalNodes>
        0 -1 114 -857813794 1476333310 -1881149474 1071632286
        -1426537304 -1431807595 2027998360 997410144</internalNodes>
      <leafValues>
        -1.7550611495971680e-01 9.6064753830432892e-02</leafValues></_>
    <_>
      <internalNodes>
        0 -1 755 -523203600 679919031 -1365590049 -1097193030 1282684784
        -1615582340 -1134087326 144904087</internalNodes>
      <leafValues>
        -1.6961874067783356e-01 9.8399005830287933e-02</leafValues></_>
    <_>
      <internalNodes>
        0 -1 1014 47842543 7032223 -458688615 268595023 -730411008
        272338245 -19927060 -534709281</internalNodes>
      <leafValues>
        -1.9138807058334351e-01 8.5188150405883789e-02</leafValues></_>
    <_>
      <internalNodes>
        0 -1 960 -117503281 -67146563 -1566410049 1366899967 -16311552
        -26649577 -88559682 -76837121</internalNodes>
      <leafValues>
        -1.1173319071531296e-01 1.4565394818782806e-01</leafValues></_>
    <_>
      <internalNodes>
        0 -1 103 -823202010 -17159409 -306782466 2138759230 1080312838
        67257671 1165031382 -951622586</internalNodes>
      <leafValues>
        -1.7099507153034210e-01 9.5694527029991150e-02</leafValues></_>
    <_>
      <internalNodes>
        0 -1 389 83783526 -487042566 266087822 1060911662 1611951541
        -2147478105 1447378873 1332879402</internalNodes>
      <leafValues>
        -1.7726649343967438e-01 9.3241825699806213e-02</leafValues></_>
    <_>
      <internalNodes>
        0 -1 440 -1614809693 -1064372054 -167893248 -855646010
        -1893820633 75660020 -1209536217 -672139345</internalNodes>
      <leafValues>
        -1.3387759029865265e-01 1.2525168061256409e-01</leafValues></_>
    <_>
      <internalNodes>
        0 -1 740 534560756 -1078935939 264181631 -1346486689 786317173
        -1108329099 -269546647 795554679</internalNodes>
      <leafValues>
        -1.6592684388160706e-01 9.7574114799499512e-02</leafValues></_>
    <_>
      <internalNodes>
        0 -1 332 1355277294 1355079919 -1996269171 -1896888625
        1967257473 -177740049 -14680319 -1393622141</internalNodes>
      <leafValues>
        -1.3136367499828339e-01 1.2085521966218948e-01</leafValues></_>
    <_>
      <internalNodes>
        0 -1 551 169476880 1062223830 -1224950531 1005592057 -1149367020
        -1369460933 792215409 -1431828448</internalNodes>
      <leafValues>
        -2.4787145853042603e-01 6.5257750451564789e-02</leafValues></_>
    <_>
      <internalNodes>
        0 -1 24 -60492220 -1675582902 -318769835 -310396116 73725437
        -1934197967 -2068455983 2097220</internalNodes>
      <leafValues>
        -3.2155698537826538e-01 4.8949934542179108e-02</leafValues></_>
    <_>
      <internalNodes>
        0 -1 943 -458764 -1170457160 -1622001665 -33776137 -1142880771
        171451445 795029245 -1887758273</internalNodes>
      <leafValues>
        -1.2732483446598053e-01 1.2720233201980591e-01</leafValues></_>
    <_>
      <internalNodes>
        0 -1 868 -1464458748 1118767389 -809660914 1356260319 -77318828
        -579926924 -1896563300 -1154331526</internalNodes>
      <leafValues>
        -1.6463774442672729e-01 9.7570516169071198e-02</leafValues></_>
    <_>
      <internalNodes>
        0 -1 572 1349740450 31588234 1296700676 15400686 1886516625
        1962270627 1842191936 606923296</internalNodes>
      <leafValues>
        -2.2163063287734985e-01 6.8382136523723602e-02</leafValues></_>
    <_>
      <internalNodes>
        0 -1 558 -496042379 -285462657 -1895874721 737812223 -9470092
        -2149379 729628497 -1342501110</internalNodes>
      <leafValues>
        -1.1498766392469406e-01 1.3135492801666260e-01</leafValues></_>
    <_>
      <internalNodes>
        0 -1 313 -902627501 -8487049 -1342677025 666529783 1798643312
        -9026223 -1343484065 -1355207133</internalNodes>
      <leafValues>
        -1.0850120335817337e-01 1.4345869421958923e-01</leafValues></_>
    <_>
      <internalNodes>
        0 -1 650 1879043908 75037989 -270565409 -1112670628 -275251723
        -1985872636 -77613591 -2012612085</internalNodes>
      <leafValues>
        -1.1723638325929642e-01 1.3087829947471619e-01</leafValues></_>
    <_>
      <internalNodes>
        0 -1 36 38732034 14718654 1751544660 -1934835714 930575325
        935598044 -11045032 534081102</internalNodes>
      <leafValues>
        -2.0772774517536163e-01 7.2800189256668091e-02</leafValues></_>
    <_>
      <internalNodes>
        0 -1 335 -1079270095 -894505502 1475064663 -36708924 -1483083341
        -1889346618 286610807 -948961858</internalNodes>
      <leafValues>
        -1.2359996140003204e-01 1.2088481336832047e-01</leafValues></_>
    <_>
      <internalNodes>
        0 -1 625 -272650715 1882202879 -425726435 -1526822145 -26280329
        -177966730 -268570795 68481654</internalNodes>
      <leafValues>
        -1.6073454916477203e-01 9.3608431518077850e-02</leafValues></_>
    <_>
      <internalNodes>
        0 -1 632 -333717532 67565344 -1342242945 1064138623 -419435100
        -1796475099 -806359221 -1993348373</internalNodes>
      <leafValues>
        -9.9415607750415802e-02 1.4798212051391602e-01</leafValues></_>
    <_>
      <internalNodes>
        0 -1 847 -253433174 1978892011 1786428502 2105539575 -250495063
        1634852661 -276304232 755362952</internalNodes>
      <leafValues>
        -1.4062641561031342e-01 1.0534773766994476e-01</leafValues></_>
    <_>
      <internalNodes>
        0 -1 156 -394899762 1983806495 -88805638 1913813726 1526678604
        2036226894 -232859034 -565555625</internalNodes>
      <leafValues>
        -1.4709243178367615e-01 9.8001673817634583e-02</leafValues></_>
    <_>
      <internalNodes>
        0 -1 175 -10490065 -536877057 1559079441 -570426113 -155193409
        -623037562 -524877 336976693</internalNodes>
      <leafValues>
        -1.0102047026157379e-01 1.4173012971878052e-01</leafValues></_>
    <_>
      <internalNodes>
        0 -1 951 -1150042123 -1661199147 1844868861 -77745427
        -1351510020 -820036503 494893567 -12896742</internalNodes>
      <leafValues>
        -7.6712787151336670e-02 1.8592730164527893e-01</leafValues></_>
    <_>
      <internalNodes>
        0 -1 560 -13714525 -2144291928 -1563616 -923922710 1978758772
        139622226 2008428562 -536873510</internalNodes>
      <leafValues>
        -1.4915511012077332e-01 9.5795325934886932e-02</leafValues></_>
    <_>
      <internalNodes>
        0 -1 100 -324359318 -458348754 -34755652 -33766422 136971584
        168433394 1463808497 -977152556</internalNodes>
      <leafValues>
        -1.6725811362266541e-01 8.5430420935153961e-02</leafValues></_>
    <_>
      <internalNodes>
        0 -1 41 1463600 -732527171 -328067 -673209091 1978725287
        -605643269 838079997 -574319144</internalNodes>
      <leafValues>
        -1.6978931427001953e-01 8.4543079137802124e-02</leafValues></_>
    <_>
      <internalNodes>
        0 -1 668 1019092020 -67223569 -1510654981 -1363275969
        -1275127755 -67174921 522140769 -1359476174</internalNodes>
      <leafValues>
        -1.8971239030361176e-01 7.6910272240638733e-02</leafValues></_>
    <_>
      <internalNodes>
        0 -1 487 -167840508 -185182889 523700015 -176705729 -63183427
        816993397 -293771599 205595147</internalNodes>
      <leafValues>
        -1.4112477004528046e-01 1.0228998959064484e-01</leafValues></_>
    <_>
      <internalNodes>
        0 -1 1028 -1619025404 134295328 -1901200420 7911391 -1079515644
        246382164 -1901400404 -2110587078</internalNodes>
      <leafValues>
        -1.7340426146984100e-01 8.2536056637763977e-02</leafValues></_>
    <_>
      <internalNodes>
        0 -1 957 204749872 -1951767384 931043326 -1615036676 -1620372040
        -17035784 942215164 -1358430184</internalNodes>
      <leafValues>
        -1.9790126383304596e-01 7.1787498891353607e-02</leafValues></_>
    <_>
      <internalNodes>
        0 -1 109 2146433006 183435167 1867491695 -1343227249 2002741060
        -575540506 2143248202 1867338306</internalNodes>
      <leafValues>
        -1.2882561981678009e-01 1.1277122050523758e-01</leafValues></_>
    <_>
      <internalNodes>
        0 -1 302 -366026800 1929035771 2079325151 1065236221 -50451436
        -1166314156 -545808968 -1411186431</internalNodes>
      <leafValues>
        -1.1123695224523544e-01 1.2617309391498566e-01</leafValues></_>
    <_>
      <internalNodes>
        0 -1 30 -663294009 301463487 2129129132 -288949763 1903670158
        -1242383037 2002778094 -134975497</internalNodes>
      <leafValues>
        -1.0199175775051117e-01 1.3728344440460205e-01</leafValues></_>
    <_>
      <internalNodes>
        0 -1 1022 -486552028 822061125 -1224052784 1897922303
        -1192776064 1467732 -1343573624 -97321093</internalNodes>
      <leafValues>
        -1.0632757097482681e-01 1.2836049497127533e-01</leafValues></_>
    <_>
      <internalNodes>
        0 -1 965 1794589935 -1026088257 -1023922514 2313215 -69830332
        1500718672 -1154236469 -215773285</internalNodes>
      <leafValues>
        -1.4722028374671936e-01 9.4029799103736877e-02</leafValues></_>
    <_>
      <internalNodes>
        0 -1 26 808445184 82593790 -19973096 -309965226 894482235
        1420066554 1870091804 1157647686</internalNodes>
      <leafValues>
        -2.1602968871593475e-01 6.3168339431285858e-02</leafValues></_>
    <_>
      <internalNodes>
        0 -1 991 -357843691 -1696047276 796710270 1417330520 -1351901480
        -1635825794 717680892 -1089326024</internalNodes>
      <leafValues>
        -1.2088394910097122e-01 1.1136882007122040e-01</leafValues></_>
    <_>
      <internalNodes>
        0 -1 1035 -810561488 -1962386392 -134251376 -64168512 520069008
        -1902235303 1054145704 -2011541448</internalNodes>
      <leafValues>
        -1.4067094027996063e-01 9.8163902759552002e-02</leafValues></_>
    <_>
      <internalNodes>
        0 -1 652 -431095772 2082742327 780568484 -425746185 -871823759
        -432795034 -15029468 608675051</internalNodes>
      <leafValues>
        -1.7520430684089661e-01 7.8963994979858398e-02</leafValues></_>
    <_>
      <internalNodes>
        0 -1 595 -1046313564 -792968721 232001414 -406944753 -2145125771
        275928564 1055362457 242680328</internalNodes>
      <leafValues>
        -1.7305816709995270e-01 7.8029774129390717e-02</leafValues></_>
    <_>
      <internalNodes>
        0 -1 0 302006305 -1807908099 358028757 1971187517 -636248898
        -1107444810 -140542063 -1075841265</internalNodes>
      <leafValues>
        -1.4883130788803101e-01 9.0307548642158508e-02</leafValues></_>
    <_>
      <internalNodes>
        0 -1 1039 -1715998687 210236210 -282594764 -1343488010 250328480
        233045942 791092449 -1646283527</internalNodes>
      <leafValues>
        -1.2694399058818817e-01 1.0574799776077271e-01</leafValues></_>
    <_>
      <internalNodes>
        0 -1 760 -102766865 543840245 249572522 1760050662 -158264265
        -1629027225 -143151872 -574648914</internalNodes>
      <leafValues>
        -1.2935978174209595e-01 1.0377257317304611e-01</leafValues></_></weakClassifiers></stage10>
</opencv_storage>
