<?xml version="1.0"?>
<opencv_storage>
<stage11>
  <maxWeakCount>100</maxWeakCount>
  <stageThreshold>-1.9034254550933838e+00</stageThreshold>
  <weakClassifiers>
    <_>
      <internalNodes>
        0 -1 187 -1 -196609 -1 -3211350 1979187199 284229631 2146926587
        1459650314</internalNodes>
      <leafValues>
        -4.2538359761238098e-01 8.4057688713073730e-02</leafValues></_>
    <_>
      <internalNodes>
        0 -1 1006 -1066349313 -226562305 -17367041 1079050239 -11337729
        -262211 -10420225 -83820577</internalNodes>
      <leafValues>
        -2.6176080107688904e-01 2.0480120182037354e-01</leafValues></_>
    <_>
      <internalNodes>
        0 -1 63 -1 -421527874 -406849737 -268464502 -654967300
        -2131695372 -235679504 -1057767224</internalNodes>
      <leafValues>
        -2.1551294624805450e-01 2.0685692131519318e-01</leafValues></_>
    <_>
      <internalNodes>
        0 -1 40 825440048 -168061999 -8440491 -33688067 926398261
        -5903372 903296341 -572525067</internalNodes>
      <leafValues>
        -2.8055301308631897e-01 1.3581272959709167e-01</leafValues></_>
    <_>
      <internalNodes>
        0 -1 141 1589267550 2138799871 -19202049 1069252607 1490830556
        -296449 -50667810 993755007</internalNodes>
      <leafValues>
        -2.0837512612342834e-01 1.7873126268386841e-01</leafValues></_>
    <_>
      <internalNodes>
        0 -1 680 -4182 15461575 -286347774 -1058028306 -168593661
        280982774 -9175294 -2065</internalNodes>
      <leafValues>
        -2.1910089254379272e-01 1.7307573556900024e-01</leafValues></_>
    <_>
      <internalNodes>
        0 -1 1000 11141375 -67172609 573898751 -67424257 -156565765 -277
        -71631873 -4097</internalNodes>
      <leafValues>
        -2.0477120578289032e-01 1.7437964677810669e-01</leafValues></_>
    <_>
      <internalNodes>
        0 -1 835 -591399563 -537124865 -2097667 -1 -1610629635
        -1074921475 1073690045 -1078252005</internalNodes>
      <leafValues>
        -1.3683594763278961e-01 2.6893126964569092e-01</leafValues></_>
    <_>
      <internalNodes>
        0 -1 850 -218149361 -788564773 -421155154 1123807231 -144224252
        -227060396 -9261297 -210505857</internalNodes>
      <leafValues>
        -1.6383767127990723e-01 1.8480090796947479e-01</leafValues></_>
    <_>
      <internalNodes>
        0 -1 669 1357902964 1070868094 1073659901 -1135859 -201459779
        -1074414083 1073688361 722274831</internalNodes>
      <leafValues>
        -1.9637680053710938e-01 1.3465847074985504e-01</leafValues></_>
    <_>
      <internalNodes>
        0 -1 320 556511265 42574114 1998524689 -33554969 857732659
        176864663 2002728247 -671090689</internalNodes>
      <leafValues>
        -2.5340586900711060e-01 1.1242040991783142e-01</leafValues></_>
    <_>
      <internalNodes>
        0 -1 482 -420829406 -387412130 1879021329 -153604 994228215
        -1910342766 2138568163 -838904325</internalNodes>
      <leafValues>
        -1.5394645929336548e-01 1.6687782108783722e-01</leafValues></_>
    <_>
      <internalNodes>
        0 -1 541 81539924 1056751231 1610489855 1071398783 -1083162764
        -1075192871 -68206595 -1884551160</internalNodes>
      <leafValues>
        -2.0409312844276428e-01 1.2191989272832870e-01</leafValues></_>
    <_>
      <internalNodes>
        0 -1 317 -296554761 -102401 -8388609 1005731711 1853835423
        -8692129 -573441 -1145368773</internalNodes>
      <leafValues>
        -1.0783407092094421e-01 2.2037954628467560e-01</leafValues></_>
    <_>
      <internalNodes>
        0 -1 187 1610983074 1356050350 1873936608 -1903098305 -834865665
        -34081289 -1256614508 -1394113407</internalNodes>
      <leafValues>
        -1.3349980115890503e-01 1.7396774888038635e-01</leafValues></_>
    <_>
      <internalNodes>
        0 -1 767 -218632278 2013230847 -717558130 1577058047 -176820315
        1978792181 -52326776 83873003</internalNodes>
      <leafValues>
        -1.5889173746109009e-01 1.5090309083461761e-01</leafValues></_>
    <_>
      <internalNodes>
        0 -1 859 -193790153 -243796105 -327520973 -266177293 -184103051
        -42637449 -302076380 -1407014366</internalNodes>
      <leafValues>
        -1.7906381189823151e-01 1.2493240088224411e-01</leafValues></_>
    <_>
      <internalNodes>
        0 -1 0 269553937 -1082291408 1475556693 -57891 1027520443
        -4474369 399971775 -57601</internalNodes>
      <leafValues>
        -1.9601677358150482e-01 1.0790280997753143e-01</leafValues></_>
    <_>
      <internalNodes>
        0 -1 282 -143348828 -469456340 1726778199 -290477393 -2782464
        -69948632 -29941 718217730</internalNodes>
      <leafValues>
        -2.1980608999729156e-01 9.8383247852325439e-02</leafValues></_>
    <_>
      <internalNodes>
        0 -1 258 -162210096 -728958292 -825426346 -1886396354 -44699712
        -292769812 -3151022 735011394</internalNodes>
      <leafValues>
        -1.8297207355499268e-01 1.1619302630424500e-01</leafValues></_>
    <_>
      <internalNodes>
        0 -1 69 1649407738 -792271282 247461790 231734959 2002089872
        -19858571 2002222858 1876917087</internalNodes>
      <leafValues>
        -1.6004703938961029e-01 1.3190226256847382e-01</leafValues></_>
    <_>
      <internalNodes>
        0 -1 920 -352384370 -620887299 706913006 7130879 -227314172
        1884385284 -77402418 -216793089</internalNodes>
      <leafValues>
        -1.8441574275493622e-01 1.1455252021551132e-01</leafValues></_>
    <_>
      <internalNodes>
        0 -1 917 -856697551 219084306 -1342188039 -1377961601 536870077
        263191733 218062333 -1430570993</internalNodes>
      <leafValues>
        -1.3407123088836670e-01 1.5959115326404572e-01</leafValues></_>
    <_>
      <internalNodes>
        0 -1 166 -1045436638 -2131842065 -1087435264 -578426450
        -1210669313 13768703 2138273627 -168540673</internalNodes>
      <leafValues>
        -1.8021549284458160e-01 1.1445683240890503e-01</leafValues></_>
    <_>
      <internalNodes>
        0 -1 916 238820400 -1158005540 -1140998153 -1073990375
        -1902313480 -1073972099 1044256767 -1078329296</internalNodes>
      <leafValues>
        -2.1279060840606689e-01 9.4770528376102448e-02</leafValues></_>
    <_>
      <internalNodes>
        0 -1 101 -620822530 -383046 -302055467 -128788 -2002774852
        -1162212168 -870253108 -915192527</internalNodes>
      <leafValues>
        -1.5711300075054169e-01 1.2194156646728516e-01</leafValues></_>
    <_>
      <internalNodes>
        0 -1 1006 987701844 233905663 -842039305 -1179660545 -1393973508
        1064693030 -89145345 -1937768593</internalNodes>
      <leafValues>
        -1.2424877285957336e-01 1.5561009943485260e-01</leafValues></_>
    <_>
      <internalNodes>
        0 -1 118 1325330286 -562102401 2013249534 -282156498 1086342253
        -22001849 -336736257 1330069571</internalNodes>
      <leafValues>
        -1.5454570949077606e-01 1.2561991810798645e-01</leafValues></_>
    <_>
      <internalNodes>
        0 -1 930 -354687249 -796981931 -1896108417 1342659805 -67191292
        -666406576 -7929874 -82576801</internalNodes>
      <leafValues>
        -1.0888276994228363e-01 1.7131885886192322e-01</leafValues></_>
    <_>
      <internalNodes>
        0 -1 807 914358052 292683061 1065164798 1375600509 -1208224268
        -1204182763 266176680 222267450</internalNodes>
      <leafValues>
        -1.4090219140052795e-01 1.2817333638668060e-01</leafValues></_>
    <_>
      <internalNodes>
        0 -1 316 -889565473 -107786 -856758018 1054478079 -126139304
        -16888721 -92898562 -1103462541</internalNodes>
      <leafValues>
        -1.3581846654415131e-01 1.3242402672767639e-01</leafValues></_>
    <_>
      <internalNodes>
        0 -1 568 -549483262 1150606423 -15028306 -824275722 2082865141
        70278565 -139477216 207883808</internalNodes>
      <leafValues>
        -2.4252924323081970e-01 7.4770651757717133e-02</leafValues></_>
    <_>
      <internalNodes>
        0 -1 216 -14441165 -940921966 925892049 -134369538 -9721857
        -341121105 1441265663 -840968737</internalNodes>
      <leafValues>
        -8.1327810883522034e-02 2.1932743489742279e-01</leafValues></_>
    <_>
      <internalNodes>
        0 -1 834 137428016 -1114097027 -1623426095 -1610858787
        -1074201607 -3331204 -1080148035 -1349903360</internalNodes>
      <leafValues>
        -1.8289050459861755e-01 9.6046008169651031e-02</leafValues></_>
    <_>
      <internalNodes>
        0 -1 1021 -142607051 -15698576 -289522177 -593472140 -1109392
        -718008208 -273275350 69747824</internalNodes>
      <leafValues>
        -2.5773516297340393e-01 6.5951332449913025e-02</leafValues></_>
    <_>
      <internalNodes>
        0 -1 893 662678564 2159876 1072623100 9305949 527691172 3518753
        268274856 1040539</internalNodes>
      <leafValues>
        -2.1849961578845978e-01 7.6330624520778656e-02</leafValues></_>
    <_>
      <internalNodes>
        0 -1 872 1115622926 201262479 -487130226 433061887 1936156180
        275985492 -680285240 1555791</internalNodes>
      <leafValues>
        -2.1238957345485687e-01 7.9694546759128571e-02</leafValues></_>
    <_>
      <internalNodes>
        0 -1 72 654568355 -823472140 -1476528395 -35232532 1179559927
        142610038 1464169685 -842541611</internalNodes>
      <leafValues>
        -1.5222789347171783e-01 1.1227072775363922e-01</leafValues></_>
    <_>
      <internalNodes>
        0 -1 677 708054132 -1160107425 -1073971713 469376735 -1073987724
        -360525 -1631838371 -1363539920</internalNodes>
      <leafValues>
        -2.2976210713386536e-01 7.1871086955070496e-02</leafValues></_>
    <_>
      <internalNodes>
        0 -1 745 -419521163 -1405833865 -1086342273 -1363169473
        -872436233 -469843972 -319870081 -1363466381</internalNodes>
      <leafValues>
        -1.2049449980258942e-01 1.3865326344966888e-01</leafValues></_>
    <_>
      <internalNodes>
        0 -1 170 -4145 58063355 -288373248 1993146367 -73400389
        -1277476154 -8815769 -957292714</internalNodes>
      <leafValues>
        -1.4024069905281067e-01 1.1687391996383667e-01</leafValues></_>
    <_>
      <internalNodes>
        0 -1 655 -825311372 -1661290010 1030701055 -1111588098
        -1342865675 -1073975553 1291271097 -1883570165</internalNodes>
      <leafValues>
        -1.1505655199289322e-01 1.4315670728683472e-01</leafValues></_>
    <_>
      <internalNodes>
        0 -1 1005 586350815 2073757183 -1359476741 570101119 -227538944
        -42328308 -1104101414 -1287475297</internalNodes>
      <leafValues>
        -1.5873444080352783e-01 1.0676140338182449e-01</leafValues></_>
    <_>
      <internalNodes>
        0 -1 720 780070444 419359807 1071525804 1505504798 -1216873099
        7827537 -1880258168 157263928</internalNodes>
      <leafValues>
        -1.8521262705326080e-01 8.9360460638999939e-02</leafValues></_>
    <_>
      <internalNodes>
        0 -1 555 -489489552 2130362335 2146909183 737819511 -671121419
        -33697793 -473424007 -1343544790</internalNodes>
      <leafValues>
        -1.2560816109180450e-01 1.3186250627040863e-01</leafValues></_>
    <_>
      <internalNodes>
        0 -1 139 1349563218 1090305599 114897751 1324322479 1276424085
        -804244712 1995947805 1136993031</internalNodes>
      <leafValues>
        -1.7143249511718750e-01 9.3940459191799164e-02</leafValues></_>
    <_>
      <internalNodes>
        0 -1 63 -999889872 -717214903 111781092 -222888052 546501335
        -1068174341 43275524 994843154</internalNodes>
      <leafValues>
        -1.7777469754219055e-01 9.1134496033191681e-02</leafValues></_>
    <_>
      <internalNodes>
        0 -1 294 -365232321 -84255745 -8522401 1063140991 1715354961
        -17142433 -402915347 -1879113665</internalNodes>
      <leafValues>
        -9.5063708722591400e-02 1.7087684571743011e-01</leafValues></_>
    <_>
      <internalNodes>
        0 -1 340 -134225021 62646198 -747680506 1468451502 -1510037577
        7796658 595322319 1205123005</internalNodes>
      <leafValues>
        -1.5600079298019409e-01 9.8518230020999908e-02</leafValues></_>
    <_>
      <internalNodes>
        0 -1 125 -890582310 -671473698 -641826945 -35 -1163073288
        -353350374 -312147971 -344763021</internalNodes>
      <leafValues>
        -9.9791400134563446e-02 1.5401266515254974e-01</leafValues></_>
    <_>
      <internalNodes>
        0 -1 759 201995312 135960380 234857919 -1393117089 146617649
        238943605 267326517 774832170</internalNodes>
      <leafValues>
        -2.4537405371665955e-01 6.1600450426340103e-02</leafValues></_>
    <_>
      <internalNodes>
        0 -1 180 -6295117 -806453180 -550537385 -1213764 -1717639749
        -1913718785 331190719 -572541475</internalNodes>
      <leafValues>
        -6.7822895944118500e-02 2.2113482654094696e-01</leafValues></_>
    <_>
      <internalNodes>
        0 -1 1 1328 -1787812704 2139061557 -37415071 999371571
        -1077610817 1430595333 -174779051</internalNodes>
      <leafValues>
        -3.4315741062164307e-01 4.7261275351047516e-02</leafValues></_>
    <_>
      <internalNodes>
        0 -1 379 -1665360636 -587309203 782181910 -1908728017
        -1462741259 816989628 -1343025376 156707331</internalNodes>
      <leafValues>
        -1.7449863255023956e-01 8.2869373261928558e-02</leafValues></_>
    <_>
      <internalNodes>
        0 -1 100 -336665157 -1433491800 -6094884 -88532 149202598
        176293152 1432604896 -841821916</internalNodes>
      <leafValues>
        -1.5509480237960815e-01 9.8599039018154144e-02</leafValues></_>
    <_>
      <internalNodes>
        0 -1 374 -530419792 -925090338 1576431413 -570676424 708847089
        -1977454285 1130870159 -1912909574</internalNodes>
      <leafValues>
        -1.1089166998863220e-01 1.3248783349990845e-01</leafValues></_>
    <_>
      <internalNodes>
        0 -1 961 1785865846 2019624919 683832831 30079 -1087361536
        -76120739 -1357860919 -11159091</internalNodes>
      <leafValues>
        -1.7288480699062347e-01 8.1789560616016388e-02</leafValues></_>
    <_>
      <internalNodes>
        0 -1 447 -186660946 1374962919 -686061650 -579040122 1026685813
        68450213 2134359968 477440802</internalNodes>
      <leafValues>
        -1.6137576103210449e-01 8.9905321598052979e-02</leafValues></_>
    <_>
      <internalNodes>
        0 -1 145 -627384526 1255575551 926886935 1868508790 -667415399
        -1066104154 -947399 1140262435</internalNodes>
      <leafValues>
        -1.4442344009876251e-01 9.8967753350734711e-02</leafValues></_>
    <_>
      <internalNodes>
        0 -1 554 203435632 1063130968 2145386111 993136510 -142840720
        -68358410 -696665155 -1436021744</internalNodes>
      <leafValues>
        -2.2301334142684937e-01 6.5546266734600067e-02</leafValues></_>
    <_>
      <internalNodes>
        0 -1 1000 -128955904 628655855 -84379649 620756189 137954576
        834617087 -1061507074 -268451841</internalNodes>
      <leafValues>
        -1.5426057577133179e-01 9.2295639216899872e-02</leafValues></_>
    <_>
      <internalNodes>
        0 -1 1019 2054597844 1961897232 2138635773 1039465584
        -1150644316 447743232 -1149334038 487622734</internalNodes>
      <leafValues>
        -1.8392932415008545e-01 7.9190917313098907e-02</leafValues></_>
    <_>
      <internalNodes>
        0 -1 451 -67149042 298720223 -1565637376 166526959 812992477
        -239097713 -8554660 -1412599991</internalNodes>
      <leafValues>
        -1.4333540201187134e-01 1.0254541784524918e-01</leafValues></_>
    <_>
      <internalNodes>
        0 -1 999 254800912 -1364223472 1013678064 -1380980622 182429153
        -1900372163 512430324 -1896217552</internalNodes>
      <leafValues>
        -1.7097236216068268e-01 8.2137793302536011e-02</leafValues></_>
    <_>
      <internalNodes>
        0 -1 31 1438861186 292023295 111662988 -307987781 2004223902
        -1208594466 2012706568 2146727710</internalNodes>
      <leafValues>
        -1.4270547032356262e-01 9.8153226077556610e-02</leafValues></_>
    <_>
      <internalNodes>
        0 -1 19 1141245700 -995826515 570879488 -991629579 1475676933
        -1804088150 -76022015 67371776</internalNodes>
      <leafValues>
        -3.0181851983070374e-01 4.7891486436128616e-02</leafValues></_>
    <_>
      <internalNodes>
        0 -1 1033 -1354525440 -1958209260 2112778748 457766588
        1048552704 -1902551791 -1111967816 -2143652040</internalNodes>
      <leafValues>
        -1.6367886960506439e-01 8.4696643054485321e-02</leafValues></_>
    <_>
      <internalNodes>
        0 -1 257 -36440094 72131244 2130408942 797895182 -143253952
        1963261088 2138000203 709851752</internalNodes>
      <leafValues>
        -1.7122080922126770e-01 8.0853745341300964e-02</leafValues></_>
    <_>
      <internalNodes>
        0 -1 989 -611158571 -29874920 -1680703535 -46893460 1069003768
        -288465419 -1073979395 -1879375853</internalNodes>
      <leafValues>
        -1.1716200411319733e-01 1.1910679191350937e-01</leafValues></_>
    <_>
      <internalNodes>
        0 -1 570 -70254673 -1111651075 -1364201974 -1963991073 124744955
        -797085269 -672727042 -2135032065</internalNodes>
      <leafValues>
        -1.0695696622133255e-01 1.2797710299491882e-01</leafValues></_>
    <_>
      <internalNodes>
        0 -1 974 -1023540721 1492583887 -88641669 1372790543 -285507032
        -1904605867 -70996834 -211553698</internalNodes>
      <leafValues>
        -9.3066453933715820e-02 1.4931350946426392e-01</leafValues></_>
    <_>
      <internalNodes>
        0 -1 841 -365697025 1612584179 -1404522577 1089122251 -80494779
        -9144459 -1087926353 -83509608</internalNodes>
      <leafValues>
        -8.9032717049121857e-02 1.5436209738254547e-01</leafValues></_>
    <_>
      <internalNodes>
        0 -1 1011 1886553855 412575673 -269058725 503101434 2064825336
        2099256725 -43601922 -83697826</internalNodes>
      <leafValues>
        -1.0441634058952332e-01 1.2866155803203583e-01</leafValues></_>
    <_>
      <internalNodes>
        0 -1 304 1659040592 1885238911 1073364759 665726471 2125806260
        484453561 1828137864 260908547</internalNodes>
      <leafValues>
        -1.4355240762233734e-01 9.1837301850318909e-02</leafValues></_>
    <_>
      <internalNodes>
        0 -1 754 -490197932 -1076085056 -1234397187 1065098879
        -1074002060 -1091297572 -1342291971 -1442117094</internalNodes>
      <leafValues>
        -1.4084859192371368e-01 9.6533335745334625e-02</leafValues></_>
    <_>
      <internalNodes>
        0 -1 141 -1993373459 1517552690 838533114 -1942406 70949936
        2117392977 521433420 -487570224</internalNodes>
      <leafValues>
        -1.2775063514709473e-01 1.0930094867944717e-01</leafValues></_>
    <_>
      <internalNodes>
        0 -1 836 -54723856 -1077402635 796538751 -285560961 -1414569987
        -1076084836 -1074021121 -1346692689</internalNodes>
      <leafValues>
        -8.7917216122150421e-02 1.5145187079906464e-01</leafValues></_>
    <_>
      <internalNodes>
        0 -1 112 -1023541214 -880136692 -557252900 -68261892 1075070244
        143279890 1430582772 -985349644</internalNodes>
      <leafValues>
        -1.8625840544700623e-01 7.1847967803478241e-02</leafValues></_>
    <_>
      <internalNodes>
        0 -1 808 -316236012 -612843727 1332616785 -1917932609
        -1960344523 955429813 255733543 201793539</internalNodes>
      <leafValues>
        -1.5916270017623901e-01 8.6486168205738068e-02</leafValues></_>
    <_>
      <internalNodes>
        0 -1 431 674901586 1001525192 2143057919 993536626 -1394860475
        -12641510 -79366752 -1439691664</internalNodes>
      <leafValues>
        -2.0109795033931732e-01 6.3967779278755188e-02</leafValues></_>
    <_>
      <internalNodes>
        0 -1 678 -998314128 -295780482 662041591 268217111 -1344296523
        -1073890380 795819897 -1409339653</internalNodes>
      <leafValues>
        -1.0365279018878937e-01 1.2697830796241760e-01</leafValues></_>
    <_>
      <internalNodes>
        0 -1 581 -755768030 1353863521 2132398063 -584077329 -197987771
        1361245557 224889997 -713740631</internalNodes>
      <leafValues>
        -1.2514600157737732e-01 1.0434731841087341e-01</leafValues></_>
    <_>
      <internalNodes>
        0 -1 1037 -34606303 195189920 -35201040 -579993646 1070328317
        -1448094212 535821816 -285478472</internalNodes>
      <leafValues>
        -8.6468972265720367e-02 1.5108701586723328e-01</leafValues></_>
    <_>
      <internalNodes>
        0 -1 1025 -289724406 139928861 -1670225921 1079440859 -478475756
        213581888 -1880456020 -804205732</internalNodes>
      <leafValues>
        -1.7465375363826752e-01 7.2956614196300507e-02</leafValues></_>
    <_>
      <internalNodes>
        0 -1 108 -1967477221 -1895850370 -810930935 -286330926
        -1192117832 -2131637516 -1309067517 1372551010</internalNodes>
      <leafValues>
        -1.3220678269863129e-01 9.5975145697593689e-02</leafValues></_>
    <_>
      <internalNodes>
        0 -1 432 -229968940 -17163209 -8445953 1073127159 -1612728844
        -120987 -335726695 -1343289309</internalNodes>
      <leafValues>
        -8.9992716908454895e-02 1.4567764103412628e-01</leafValues></_>
    <_>
      <internalNodes>
        0 -1 10 -270537017 45807383 -1090662908 -707271875 -279047265
        -549255607 1876819963 -805834889</internalNodes>
      <leafValues>
        -1.1739941686391830e-01 1.1525822430849075e-01</leafValues></_>
    <_>
      <internalNodes>
        0 -1 88 -341382521 -134739314 -26314764 -100728904 773195047
        67770118 1113380341 -733491007</internalNodes>
      <leafValues>
        -1.3155193626880646e-01 9.7639910876750946e-02</leafValues></_>
    <_>
      <internalNodes>
        0 -1 953 706208980 -1947591443 -472154211 -571444611 -1080574068
        -1161915916 240989433 -1439169776</internalNodes>
      <leafValues>
        -1.4085976779460907e-01 9.2059955000877380e-02</leafValues></_>
    <_>
      <internalNodes>
        0 -1 1039 2067789104 253977378 -84176 1038810592 443266555
        244296091 1057748208 -1392509488</internalNodes>
      <leafValues>
        -1.2129671871662140e-01 1.0195560008287430e-01</leafValues></_>
    <_>
      <internalNodes>
        0 -1 441 -10513101 -822440518 2146025269 -2019059393 305194295
        -1931429442 1700115729 -47726597</internalNodes>
      <leafValues>
        -8.5625350475311279e-02 1.4592196047306061e-01</leafValues></_>
    <_>
      <internalNodes>
        0 -1 614 -374723296 -923256846 -8671427 -196571 -1687901195
        -1401192475 -1744920129 -1347747702</internalNodes>
      <leafValues>
        -9.0998061001300812e-02 1.3437265157699585e-01</leafValues></_>
    <_>
      <internalNodes>
        0 -1 263 1325287278 -631885889 794787838 2100898874 1366574103
        -60666617 -160129121 -547930102</internalNodes>
      <leafValues>
        -9.9523514509201050e-02 1.2851294875144958e-01</leafValues></_>
    <_>
      <internalNodes>
        0 -1 845 1747444391 -738227297 1791020970 -838864937 1931440983
        -1264239618 -578822150 -171966465</internalNodes>
      <leafValues>
        -1.2086229771375656e-01 1.0273548215627670e-01</leafValues></_>
    <_>
      <internalNodes>
        0 -1 284 -822992645 2054688410 -891257383 964578456 1265909504
        -272220827 2090988229 -1961147148</internalNodes>
      <leafValues>
        -1.2371543049812317e-01 1.0138477385044098e-01</leafValues></_>
    <_>
      <internalNodes>
        0 -1 557 773732432 788139792 -85093001 950681047 -1369765295
        -268542351 -1703510401 -1343615888</internalNodes>
      <leafValues>
        -1.9373825192451477e-01 6.2310971319675446e-02</leafValues></_>
    <_>
      <internalNodes>
        0 -1 599 1391195022 280544717 -1621405844 -1985487186 1896313743
        -239862027 738021194 -1376944587</internalNodes>
      <leafValues>
        -1.1467115581035614e-01 1.0907170921564102e-01</leafValues></_>
    <_>
      <internalNodes>
        0 -1 415 -330680526 -16896001 1006549887 -1644291541 -315998732
        -277412033 -137414727 -1956446165</internalNodes>
      <leafValues>
        -9.9966853857040405e-02 1.2280209362506866e-01</leafValues></_>
    <_>
      <internalNodes>
        0 -1 1010 -589347121 -755012131 989069271 1349207975 -260571248
        -662798483 -1078403110 -217842725</internalNodes>
      <leafValues>
        -8.2478478550910950e-02 1.4699575304985046e-01</leafValues></_>
    <_>
      <internalNodes>
        0 -1 590 -1414355422 -2097378320 -268760282 -33781906
        -1223639193 -1984368706 357945600 -973634129</internalNodes>
      <leafValues>
        -1.3877835869789124e-01 8.6925886571407318e-02</leafValues></_></weakClassifiers></stage11>
</opencv_storage>
