<?xml version="1.0"?>
<opencv_storage>
<stage4>
  <maxWeakCount>35</maxWeakCount>
  <stageThreshold>-2.0808253288269043e+00</stageThreshold>
  <weakClassifiers>
    <_>
      <internalNodes>
        0 -1 43 -1 -2 -3 -2 -587407875 -855965698 -571154956 -937376688</internalNodes>
      <leafValues>
        -5.5010616779327393e-01 1.6348357498645782e-01</leafValues></_>
    <_>
      <internalNodes>
        0 -1 165 -134219869 32764839 -134218377 -134219777 -2049
        66320383 -1 -134217729</internalNodes>
      <leafValues>
        -3.4234660863876343e-01 3.6411213874816895e-01</leafValues></_>
    <_>
      <internalNodes>
        0 -1 686 -4340 -67109057 -290534130 -5242961 1886779141
        1903556405 -8925425 -210239617</internalNodes>
      <leafValues>
        -3.3640462160110474e-01 3.0970925092697144e-01</leafValues></_>
    <_>
      <internalNodes>
        0 -1 1001 1081082103 -83890177 -285278209 1660932095 -93261857
        -1 -269156353 -67108865</internalNodes>
      <leafValues>
        -2.9646030068397522e-01 3.0116111040115356e-01</leafValues></_>
    <_>
      <internalNodes>
        0 -1 836 473184368 -245763 1063206909 -2113539 -1073889283
        -147459 -1073790979 -1077999560</internalNodes>
      <leafValues>
        -2.9247462749481201e-01 3.0140471458435059e-01</leafValues></_>
    <_>
      <internalNodes>
        0 -1 1030 -4456459 -5229196 -8201 -575122380 -1086324737 -262667
        1072643583 213586995</internalNodes>
      <leafValues>
        -3.1272122263908386e-01 2.1157850325107574e-01</leafValues></_>
    <_>
      <internalNodes>
        0 -1 20 858994481 -1275609168 1073692533 -4675 1069529011
        -1077938205 934229303 -1073801739</internalNodes>
      <leafValues>
        -2.8906467556953430e-01 2.4535517394542694e-01</leafValues></_>
    <_>
      <internalNodes>
        0 -1 840 -352326929 -1056964609 -930681138 -521408769 1884643396
        1885824359 -231347388 -260833329</internalNodes>
      <leafValues>
        -2.9576095938682556e-01 2.3052842915058136e-01</leafValues></_>
    <_>
      <internalNodes>
        0 -1 545 3147508 -260097 -131073 534523901 -1073954819
        -1090994177 -1145520131 -1415049992</internalNodes>
      <leafValues>
        -3.0811977386474609e-01 2.2196738421916962e-01</leafValues></_>
    <_>
      <internalNodes>
        0 -1 326 -974657626 13427687 -811366144 -844175450 -705239041
        83159031 2138552271 1442174974</internalNodes>
      <leafValues>
        -3.1790012121200562e-01 1.8496777117252350e-01</leafValues></_>
    <_>
      <internalNodes>
        0 -1 656 -998988300 -30109697 -1075888129 -1346916609 -856346635
        -1033 -285266049 -1342232021</internalNodes>
      <leafValues>
        -2.2668884694576263e-01 2.4949124455451965e-01</leafValues></_>
    <_>
      <internalNodes>
        0 -1 918 137376048 -1095224003 -1108393987 -1073856513
        1073689085 -1073741827 1071595005 -1346499528</internalNodes>
      <leafValues>
        -3.1992805004119873e-01 1.6655921936035156e-01</leafValues></_>
    <_>
      <internalNodes>
        0 -1 642 -10158316 -803961548 -1368507077 -1883263425 -268567083
        -1204773583 -302010581 137306635</internalNodes>
      <leafValues>
        -2.6799264550209045e-01 1.7937667667865753e-01</leafValues></_>
    <_>
      <internalNodes>
        0 -1 56 620967731 -2145058893 2134899573 -101713944 670562295
        1156206453 -707266603 -975178287</internalNodes>
      <leafValues>
        -2.4623143672943115e-01 2.0067633688449860e-01</leafValues></_>
    <_>
      <internalNodes>
        0 -1 960 1660553471 -83891489 -1359287073 1077667327 -29226492
        -81168522 -361698306 -78643201</internalNodes>
      <leafValues>
        -2.3462413251399994e-01 2.1237957477569580e-01</leafValues></_>
    <_>
      <internalNodes>
        0 -1 666 -16978060 -114689 -1074003969 1073692671 -163843 -1
        -49281 -1073791233</internalNodes>
      <leafValues>
        -1.8582573533058167e-01 2.6385498046875000e-01</leafValues></_>
    <_>
      <internalNodes>
        0 -1 611 -193986580 1345635452 -1078005874 -1912615378
        -1253705743 825359793 -42467416 387938</internalNodes>
      <leafValues>
        -2.9545098543167114e-01 1.6042290627956390e-01</leafValues></_>
    <_>
      <internalNodes>
        0 -1 0 12336 548446304 892950357 -570559137 339686911
        -1346374151 863499739 -18465</internalNodes>
      <leafValues>
        -3.2092538475990295e-01 1.4900799095630646e-01</leafValues></_>
    <_>
      <internalNodes>
        0 -1 43 -597361168 -1064517967 -10496484 -303630183 225703670
        -1376511503 -1501858471 939483045</internalNodes>
      <leafValues>
        -2.5312134623527527e-01 1.8128180503845215e-01</leafValues></_>
    <_>
      <internalNodes>
        0 -1 316 -898496929 2063467167 -830838017 981081855 1960444940
        -26317729 -17535394 -1363530145</internalNodes>
      <leafValues>
        -2.2575262188911438e-01 1.9493438303470612e-01</leafValues></_>
    <_>
      <internalNodes>
        0 -1 447 -235411538 1425335783 -76116050 -72010 1949433853
        83122167 2134093739 930556787</internalNodes>
      <leafValues>
        -2.0110878348350525e-01 2.1438917517662048e-01</leafValues></_>
    <_>
      <internalNodes>
        0 -1 754 886095732 -37961857 -1074995211 -1107410951 -147528
        -1108002435 -4931587 -1078195656</internalNodes>
      <leafValues>
        -2.3295128345489502e-01 1.7654740810394287e-01</leafValues></_>
    <_>
      <internalNodes>
        0 -1 680 -6481 11107063 -7427326 -521362194 1987539251 976498807
        2074988324 -202906129</internalNodes>
      <leafValues>
        -2.2294920682907104e-01 1.9073064625263214e-01</leafValues></_>
    <_>
      <internalNodes>
        0 -1 1022 -16789993 1490545415 -1126236291 2293725 -1160401664
        -2007948027 -1090854264 -1608319170</internalNodes>
      <leafValues>
        -2.1684430539608002e-01 1.8265517055988312e-01</leafValues></_>
    <_>
      <internalNodes>
        0 -1 822 9236 -1761841187 -4342819 -1141098625 -1145784931
        -1141539878 -1083850756 -1430778856</internalNodes>
      <leafValues>
        -2.7302008867263794e-01 1.4148092269897461e-01</leafValues></_>
    <_>
      <internalNodes>
        0 -1 846 1122190862 1375678015 145493678 300666863 1879394053
        842350437 -1523478902 826654685</internalNodes>
      <leafValues>
        -3.0411693453788757e-01 1.2835945188999176e-01</leafValues></_>
    <_>
      <internalNodes>
        0 -1 92 -151591178 -587558995 -18960708 -1383200242 1219495092
        551551465 -315603900 1296516359</internalNodes>
      <leafValues>
        -2.7615904808044434e-01 1.3566184043884277e-01</leafValues></_>
    <_>
      <internalNodes>
        0 -1 897 -562511916 -1380401283 -1 -1342399009 -1082310659
        -1090666497 -1344635137 -1360066449</internalNodes>
      <leafValues>
        -1.8412281572818756e-01 1.9557121396064758e-01</leafValues></_>
    <_>
      <internalNodes>
        0 -1 335 -1347700989 -1934959190 -1343800015 -322009944
        -2084841549 14739438 387442487 -842021750</internalNodes>
      <leafValues>
        -2.0843514800071716e-01 1.7215256392955780e-01</leafValues></_>
    <_>
      <internalNodes>
        0 -1 999 -1891649743 179224497 -16549387 -1343357961 802401713
        -1347487243 268383733 -1414590415</internalNodes>
      <leafValues>
        -1.9920548796653748e-01 1.7500688135623932e-01</leafValues></_>
    <_>
      <internalNodes>
        0 -1 1000 11534557 436088567 -1461127681 11713279 422707800
        -1811947684 851111658 -513</internalNodes>
      <leafValues>
        -2.6725801825523376e-01 1.2968041002750397e-01</leafValues></_>
    <_>
      <internalNodes>
        0 -1 94 -590418010 1928789951 -268501202 -1619334642 1091979263
        74870615 2001041339 1195602759</internalNodes>
      <leafValues>
        -2.3591303825378418e-01 1.4371213316917419e-01</leafValues></_>
    <_>
      <internalNodes>
        0 -1 434 208815184 1576935295 -65673 1069187069 1547325008
        -164231 -17015204 -1430635408</internalNodes>
      <leafValues>
        -2.7188169956207275e-01 1.2760090827941895e-01</leafValues></_>
    <_>
      <internalNodes>
        0 -1 39 -194066490 -792402257 -298388636 -456331545 -706377983
        -1058687001 -1179904 -990565597</internalNodes>
      <leafValues>
        -2.1922926604747772e-01 1.6210937500000000e-01</leafValues></_>
    <_>
      <internalNodes>
        0 -1 848 -1001062742 -143331329 -1934045546 -1876889606
        -199884880 -42598539 -416313846 -335483382</internalNodes>
      <leafValues>
        -2.2615951299667358e-01 1.5745507180690765e-01</leafValues></_></weakClassifiers></stage4>
</opencv_storage>
