<?xml version="1.0"?>
<opencv_storage>
<stage6>
  <maxWeakCount>50</maxWeakCount>
  <stageThreshold>-1.9676939249038696e+00</stageThreshold>
  <weakClassifiers>
    <_>
      <internalNodes>
        0 -1 47 -1 -536870913 -1 -4438 -1057628932 -923473676 -789065488
        -1060781888</internalNodes>
      <leafValues>
        -4.9245786666870117e-01 1.3068999350070953e-01</leafValues></_>
    <_>
      <internalNodes>
        0 -1 446 -285216850 1157556223 -861696764 -844173393 -4113
        -2063669249 -536883761 -570429441</internalNodes>
      <leafValues>
        -3.2269805669784546e-01 2.8414291143417358e-01</leafValues></_>
    <_>
      <internalNodes>
        0 -1 1006 -1066218241 -218697729 -285802497 1892745215 -59703297
        -8388611 -983041 -79626273</internalNodes>
      <leafValues>
        -2.6706749200820923e-01 3.1098127365112305e-01</leafValues></_>
    <_>
      <internalNodes>
        0 -1 765 -83890513 -1 -390070546 -2081 1349976141 1886484349
        -251659281 -201326593</internalNodes>
      <leafValues>
        -2.8018999099731445e-01 2.5498673319816589e-01</leafValues></_>
    <_>
      <internalNodes>
        0 -1 0 322114865 -1212216011 2147317719 -2154691 465540543 -261
        939463679 -1073758721</internalNodes>
      <leafValues>
        -2.8285780549049377e-01 2.5039407610893250e-01</leafValues></_>
    <_>
      <internalNodes>
        0 -1 560 -4196573 10545139 -1050848 -991122270 -143133643
        7534450 -134745824 -705169413</internalNodes>
      <leafValues>
        -3.2465255260467529e-01 1.3457027077674866e-01</leafValues></_>
    <_>
      <internalNodes>
        0 -1 106 -822153426 -331969 2147417854 -365010 1078216559
        -59748761 1878884351 1332105794</internalNodes>
      <leafValues>
        -2.2930373251438141e-01 2.2960330545902252e-01</leafValues></_>
    <_>
      <internalNodes>
        0 -1 834 -126608076 -2293761 -4358145 -16929 -1073889283 -196612
        -1073758213 -1079039478</internalNodes>
      <leafValues>
        -1.7686703801155090e-01 2.7891784906387329e-01</leafValues></_>
    <_>
      <internalNodes>
        0 -1 750 -801063052 -221345 -1 -16385 -147460 -2293762 -16387
        -1414583798</internalNodes>
      <leafValues>
        -1.9207306206226349e-01 2.6142811775207520e-01</leafValues></_>
    <_>
      <internalNodes>
        0 -1 200 -1481919693 -2132082762 -134217769 -33558017
        -1212172361 217055223 938997111 -840960513</internalNodes>
      <leafValues>
        -1.9075025618076324e-01 2.4327981472015381e-01</leafValues></_>
    <_>
      <internalNodes>
        0 -1 1000 7472383 -201381889 -1024917505 2075766239 -528874849
        -21069825 -352915457 -71304193</internalNodes>
      <leafValues>
        -2.2117586433887482e-01 2.0300313830375671e-01</leafValues></_>
    <_>
      <internalNodes>
        0 -1 919 -583011019 522977075 -131595 -4849665 738178485
        -1346373705 503260349 -1342192197</internalNodes>
      <leafValues>
        -1.4427943527698517e-01 3.1036657094955444e-01</leafValues></_>
    <_>
      <internalNodes>
        0 -1 930 -486603217 -755025953 -285298945 1358948223 -210275068
        -126397100 -721169 -210501793</internalNodes>
      <leafValues>
        -1.7356862127780914e-01 2.4561372399330139e-01</leafValues></_>
    <_>
      <internalNodes>
        0 -1 143 -904212990 1381125759 -6628353 792362879 1280330956
        -615358497 -1364161608 594767415</internalNodes>
      <leafValues>
        -2.6790061593055725e-01 1.4238345623016357e-01</leafValues></_>
    <_>
      <internalNodes>
        0 -1 914 204475440 -1090732039 -1359332355 -1615053060 771571708
        -1076969476 1023098364 -1431829472</internalNodes>
      <leafValues>
        -3.5014477372169495e-01 1.1748915910720825e-01</leafValues></_>
    <_>
      <internalNodes>
        0 -1 100 -286265689 -290543694 -302580268 -33904854 202327334
        176294946 1170494548 -973613724</internalNodes>
      <leafValues>
        -2.5433614850044250e-01 1.4736032485961914e-01</leafValues></_>
    <_>
      <internalNodes>
        0 -1 622 1996488588 274169133 -328204356 832569071 1701688717
        284534069 -67121720 8387195</internalNodes>
      <leafValues>
        -2.4466137588024139e-01 1.5904809534549713e-01</leafValues></_>
    <_>
      <internalNodes>
        0 -1 849 -799867077 -176947369 -1061488870 -802098329 -598422480
        -61542795 -1400058368 -402592254</internalNodes>
      <leafValues>
        -2.3216921091079712e-01 1.5693220496177673e-01</leafValues></_>
    <_>
      <internalNodes>
        0 -1 56 574039345 99024656 1606284277 -135463436 658974647
        1147332497 1427600853 -976763692</internalNodes>
      <leafValues>
        -2.6462134718894958e-01 1.3862347602844238e-01</leafValues></_>
    <_>
      <internalNodes>
        0 -1 47 -973609776 -196035872 -269251500 -324888555 -654645257
        -2067924321 623989772 221916703</internalNodes>
      <leafValues>
        -2.2521781921386719e-01 1.6424463689327240e-01</leafValues></_>
    <_>
      <internalNodes>
        0 -1 888 -17367116 946921268 -1342248142 -1120338150 -13113411
        942679296 -815034454 151251983</internalNodes>
      <leafValues>
        -2.1499206125736237e-01 1.5923182666301727e-01</leafValues></_>
    <_>
      <internalNodes>
        0 -1 965 -352385841 -553973569 -1963266305 5910511 -229482240
        -596218287 -273170449 -217845889</internalNodes>
      <leafValues>
        -1.9722889363765717e-01 1.7534102499485016e-01</leafValues></_>
    <_>
      <internalNodes>
        0 -1 906 68420628 -1627635875 -196611 -4442307 -1141559364
        -1073890947 -1342624003 -1347810792</internalNodes>
      <leafValues>
        -2.4618580937385559e-01 1.3512800633907318e-01</leafValues></_>
    <_>
      <internalNodes>
        0 -1 440 -4457053 -2138132574 -186592 -34681594 -249579785
        -1966935086 -143298509 -540018785</internalNodes>
      <leafValues>
        -1.5214402973651886e-01 2.1903406083583832e-01</leafValues></_>
    <_>
      <internalNodes>
        0 -1 317 -831336833 2054303607 -16809985 1060253279 1115638357
        -2138497 -268473409 -1409601990</internalNodes>
      <leafValues>
        -1.5010619163513184e-01 2.2288849949836731e-01</leafValues></_>
    <_>
      <internalNodes>
        0 -1 15 -288362745 335380479 -285741551 -170526721 -10764353
        -1077059917 -8388737 -683313802</internalNodes>
      <leafValues>
        -1.5357805788516998e-01 2.1016940474510193e-01</leafValues></_>
    <_>
      <internalNodes>
        0 -1 156 -897923361 2050897471 -92602660 2119856090 1280787532
        -277123571 -25371416 -93684142</internalNodes>
      <leafValues>
        -1.6984814405441284e-01 1.8802903592586517e-01</leafValues></_>
    <_>
      <internalNodes>
        0 -1 49 1076356994 284223455 1332104526 -575668545 1951684026
        1420883423 1836283866 1156867919</internalNodes>
      <leafValues>
        -2.4477817118167877e-01 1.2710461020469666e-01</leafValues></_>
    <_>
      <internalNodes>
        0 -1 648 -327894156 -323184833 -269605025 -1879069129 -345137883
        -2211971 -1342234785 -1426118109</internalNodes>
      <leafValues>
        -1.8563941121101379e-01 1.6443850100040436e-01</leafValues></_>
    <_>
      <internalNodes>
        0 -1 114 -654652162 1014369790 -6627330 -1140899842 -2010098244
        -123184836 -311423272 706892800</internalNodes>
      <leafValues>
        -2.8612974286079407e-01 1.0697788745164871e-01</leafValues></_>
    <_>
      <internalNodes>
        0 -1 1028 -67127531 303136573 -1611727489 979435487 -31232
        -1086374639 -1359024468 -401410978</internalNodes>
      <leafValues>
        -1.7417466640472412e-01 1.7241431772708893e-01</leafValues></_>
    <_>
      <internalNodes>
        0 -1 838 150214516 -1397084491 -1895999489 -1078132737
        1073692149 -1073824003 1069236221 -1346754496</internalNodes>
      <leafValues>
        -2.7389159798622131e-01 1.1045283079147339e-01</leafValues></_>
    <_>
      <internalNodes>
        0 -1 139 1349972850 1415359037 266021747 1342156463 1209830673
        -1655391683 2138550025 1741103911</internalNodes>
      <leafValues>
        -2.0186357200145721e-01 1.4250135421752930e-01</leafValues></_>
    <_>
      <internalNodes>
        0 -1 575 -438851805 15990771 519618306 -906709244 858928439
        15908391 1030992160 -908405362</internalNodes>
      <leafValues>
        -2.0680624246597290e-01 1.3935242593288422e-01</leafValues></_>
    <_>
      <internalNodes>
        0 -1 435 -365756588 1593458679 -622721 1069170591 -151175247
        -86081601 -1757320 -1884353525</internalNodes>
      <leafValues>
        -1.5035116672515869e-01 1.9195191562175751e-01</leafValues></_>
    <_>
      <internalNodes>
        0 -1 72 590063392 -60643404 1879048180 -571942920 118826276
        142632688 1430737397 -975702572</internalNodes>
      <leafValues>
        -2.4003425240516663e-01 1.1906878650188446e-01</leafValues></_>
    <_>
      <internalNodes>
        0 -1 26 1161291008 1156894207 865586464 -174029442 -1218447937
        1287028735 2138535327 -582728369</internalNodes>
      <leafValues>
        -2.0097577571868896e-01 1.4926254749298096e-01</leafValues></_>
    <_>
      <internalNodes>
        0 -1 1038 -1909474000 136888096 -1208132427 -1107952240
        737131709 -1900019786 183327216 -1931739851</internalNodes>
      <leafValues>
        -1.9363282620906830e-01 1.4302909374237061e-01</leafValues></_>
    <_>
      <internalNodes>
        0 -1 865 1113056942 1951786999 -1426665682 1572863979 1899476925
        894956853 -78524536 -1996119028</internalNodes>
      <leafValues>
        -1.6719581186771393e-01 1.6443704068660736e-01</leafValues></_>
    <_>
      <internalNodes>
        0 -1 607 -1394438900 1425593821 796856238 -571011461 -1223428619
        817254709 -268456024 223815715</internalNodes>
      <leafValues>
        -2.0449481904506683e-01 1.3648815453052521e-01</leafValues></_>
    <_>
      <internalNodes>
        0 -1 850 -825029626 5649499 -1434939730 1078493148 -193518284
        1382506325 -298398180 -132972744</internalNodes>
      <leafValues>
        -2.6872950792312622e-01 1.0441993176937103e-01</leafValues></_>
    <_>
      <internalNodes>
        0 -1 160 134395136 -2069847904 -550038159 -192527 934795193
        -1611595781 891655445 -18497</internalNodes>
      <leafValues>
        -2.3278543353080750e-01 1.2023337930440903e-01</leafValues></_>
    <_>
      <internalNodes>
        0 -1 533 80610420 -629392033 530579455 1069031148 612378613
        -1159836298 -1350172935 -1901458312</internalNodes>
      <leafValues>
        -2.1666406095027924e-01 1.2150572985410690e-01</leafValues></_>
    <_>
      <internalNodes>
        0 -1 178 -1071127982 -242876689 -998257038 -997261585 -244201517
        -1144132224 -11010221 -456790266</internalNodes>
      <leafValues>
        -1.7233873903751373e-01 1.6044932603836060e-01</leafValues></_>
    <_>
      <internalNodes>
        0 -1 1022 -1025536979 275942148 -625443528 1343543806
        -1358975308 542508308 -1075659352 -229442722</internalNodes>
      <leafValues>
        -1.8064510822296143e-01 1.4563468098640442e-01</leafValues></_>
    <_>
      <internalNodes>
        0 -1 760 -67138902 3819195 -1897091282 44219630 2088138357
        1886800917 -83650560 -80487124</internalNodes>
      <leafValues>
        -2.1982461214065552e-01 1.2058426439762115e-01</leafValues></_>
    <_>
      <internalNodes>
        0 -1 957 242879792 -1972755014 -1216520195 -1125073196 779370172
        -807604239 1001865212 -1364582400</internalNodes>
      <leafValues>
        -2.6387226581573486e-01 1.0142270475625992e-01</leafValues></_>
    <_>
      <internalNodes>
        0 -1 399 1283239924 -17138377 1803365789 746110483 743441585
        -1465119273 771033435 140708387</internalNodes>
      <leafValues>
        -2.2631300985813141e-01 1.1249723285436630e-01</leafValues></_>
    <_>
      <internalNodes>
        0 -1 20 830945075 -1863337096 529743157 -541118470 -1498468933
        -1382383628 930558783 -536898371</internalNodes>
      <leafValues>
        -1.6168150305747986e-01 1.5338405966758728e-01</leafValues></_>
    <_>
      <internalNodes>
        0 -1 247 -306 -536305118 -883630309 -286987217 -473136895
        1114945267 -546070783 1074110983</internalNodes>
      <leafValues>
        -2.1642878651618958e-01 1.1376892775297165e-01</leafValues></_></weakClassifiers></stage6>
</opencv_storage>
