<?xml version="1.0"?>
<opencv_storage>
<stage5>
  <maxWeakCount>47</maxWeakCount>
  <stageThreshold>-2.0253832340240479e+00</stageThreshold>
  <weakClassifiers>
    <_>
      <internalNodes>
        0 -1 767 -18 -134217729 -65538 -33554433 -176816140 1970631989
        -34734100 1442180333</internalNodes>
      <leafValues>
        -4.9029532074928284e-01 1.5503622591495514e-01</leafValues></_>
    <_>
      <internalNodes>
        0 -1 2 -587074288 -572656163 -4194443 -572654115 -167772171 -513
        -168429579 -572662307</internalNodes>
      <leafValues>
        -3.7758338451385498e-01 2.4191509187221527e-01</leafValues></_>
    <_>
      <internalNodes>
        0 -1 325 -268439646 2614179 -269490430 -974131225 -4196353
        31717367 -1 1476392959</internalNodes>
      <leafValues>
        -4.1389638185501099e-01 1.9682355225086212e-01</leafValues></_>
    <_>
      <internalNodes>
        0 -1 1005 15859967 -1023471873 721092607 50270207 -19256578 -1
        -17629185 -67375105</internalNodes>
      <leafValues>
        -3.0292218923568726e-01 2.8615978360176086e-01</leafValues></_>
    <_>
      <internalNodes>
        0 -1 427 -1435332618 -86017 -114689 -1074123265 -1344521220
        -249857 -475139 -1886910328</internalNodes>
      <leafValues>
        -2.5550529360771179e-01 2.7074769139289856e-01</leafValues></_>
    <_>
      <internalNodes>
        0 -1 0 822292753 -1679855215 1576482165 -523 -1140869185
        -1074020673 -1073743937 -1</internalNodes>
      <leafValues>
        -2.4621960520744324e-01 2.5054454803466797e-01</leafValues></_>
    <_>
      <internalNodes>
        0 -1 455 -2141 -1058018609 -2253 -839915633 -143656973
        -2132085774 938997619 -973080577</internalNodes>
      <leafValues>
        -2.0979750156402588e-01 3.1745448708534241e-01</leafValues></_>
    <_>
      <internalNodes>
        0 -1 901 -4197003 -14678992 -269548237 -173734858 -12847755
        -9210831 -12619977 591086711</internalNodes>
      <leafValues>
        -2.7305686473846436e-01 1.9806584715843201e-01</leafValues></_>
    <_>
      <internalNodes>
        0 -1 845 -496571666 -69226753 -536809489 -579080193 1884778567
        2000650046 -177733633 -134217729</internalNodes>
      <leafValues>
        -2.3632101714611053e-01 2.3106406629085541e-01</leafValues></_>
    <_>
      <internalNodes>
        0 -1 677 140521332 1073627103 -1073922561 1073618687 -1073922051
        -507905 -1078509569 -1346490838</internalNodes>
      <leafValues>
        -3.0394068360328674e-01 1.6028876602649689e-01</leafValues></_>
    <_>
      <internalNodes>
        0 -1 567 -6362 1423203839 2147454958 -823136593 1899364149
        1949661173 -13107285 611695295</internalNodes>
      <leafValues>
        -2.1809899806976318e-01 2.2176960110664368e-01</leafValues></_>
    <_>
      <internalNodes>
        0 -1 350 -1565808845 -856759862 -168839873 -571478021
        -2023491657 -1937050634 359135223 -974129697</internalNodes>
      <leafValues>
        -1.9039314985275269e-01 2.4875219166278839e-01</leafValues></_>
    <_>
      <internalNodes>
        0 -1 555 -1026359472 -84262913 -1073758209 1072704343 2146926069
        -98305 -3194887 -1342305248</internalNodes>
      <leafValues>
        -2.0674170553684235e-01 2.1389995515346527e-01</leafValues></_>
    <_>
      <internalNodes>
        0 -1 685 -4433 -67108929 -890311028 -621805825 1350518357
        276264228 1886650268 1886318591</internalNodes>
      <leafValues>
        -2.4419991672039032e-01 1.8161492049694061e-01</leafValues></_>
    <_>
      <internalNodes>
        0 -1 119 -824639492 -285290545 1876930335 -806375633 -2135913088
        -2131735091 -441282807 31653891</internalNodes>
      <leafValues>
        -2.8518912196159363e-01 1.4745241403579712e-01</leafValues></_>
    <_>
      <internalNodes>
        0 -1 826 7344372 -52652033 -8195 -214539 -1077297411 -1073956100
        -1342328837 -1079506920</internalNodes>
      <leafValues>
        -2.3978570103645325e-01 1.8209852278232574e-01</leafValues></_>
    <_>
      <internalNodes>
        0 -1 1018 -855651201 1392479775 -1500053505 1345125327
        -186733548 678822149 -86290 -96272545</internalNodes>
      <leafValues>
        -1.8629817664623260e-01 2.2787252068519592e-01</leafValues></_>
    <_>
      <internalNodes>
        0 -1 2 553524149 1741585718 -1757937665 -1089754 1333130523
        -839125699 1602190430 -815301578</internalNodes>
      <leafValues>
        -2.1470534801483154e-01 1.9042100012302399e-01</leafValues></_>
    <_>
      <internalNodes>
        0 -1 662 2063400948 -1900228867 1073725439 -1346387969
        -1368055951 -1074219555 -1073795265 -1342231749</internalNodes>
      <leafValues>
        -2.0227104425430298e-01 2.0327065885066986e-01</leafValues></_>
    <_>
      <internalNodes>
        0 -1 160 -1291402832 -2065117560 -536906379 -2236929 -1547782729
        -1879310337 892559729 -33</internalNodes>
      <leafValues>
        -1.9021636247634888e-01 1.9695608317852020e-01</leafValues></_>
    <_>
      <internalNodes>
        0 -1 112 -873550849 -286330950 -5177892 -67016 216485364
        -2002231501 1432712660 -839649932</internalNodes>
      <leafValues>
        -2.0200125873088837e-01 1.8358039855957031e-01</leafValues></_>
    <_>
      <internalNodes>
        0 -1 258 -44761384 -729481562 -822088108 -273679185 -44699691
        -186339355 -4517 713914895</internalNodes>
      <leafValues>
        -1.9991135597229004e-01 1.8284544348716736e-01</leafValues></_>
    <_>
      <internalNodes>
        0 -1 157 -294203817 2029660119 -16896386 980565555 1584352591
        2122280799 -19517874 -1145354429</internalNodes>
      <leafValues>
        -1.9090178608894348e-01 1.8555092811584473e-01</leafValues></_>
    <_>
      <internalNodes>
        0 -1 911 -1392967948 -1090990152 1610612735 -1347571713
        1073741823 -8454157 -1074298881 -1359004545</internalNodes>
      <leafValues>
        -1.8509344756603241e-01 1.8672396242618561e-01</leafValues></_>
    <_>
      <internalNodes>
        0 -1 31 -201857758 298186739 -45099250 -574310417 2004080602
        -705234945 2138560458 -3121398</internalNodes>
      <leafValues>
        -1.7475202679634094e-01 2.0197193324565887e-01</leafValues></_>
    <_>
      <internalNodes>
        0 -1 229 -705167646 1086648042 1326415838 231141118 -513542256
        -36388867 2138570523 736067454</internalNodes>
      <leafValues>
        -2.1589115262031555e-01 1.7665898799896240e-01</leafValues></_>
    <_>
      <internalNodes>
        0 -1 1003 1278271060 2104557431 -18940417 2100363262 252712604
        -25725131 -297861382 -65997006</internalNodes>
      <leafValues>
        -2.7382218837738037e-01 1.2207945436239243e-01</leafValues></_>
    <_>
      <internalNodes>
        0 -1 445 -6482 12553983 -368065024 -1024790802 1475704447
        41940949 2013265412 -681056308</internalNodes>
      <leafValues>
        -2.8456872701644897e-01 1.1288991570472717e-01</leafValues></_>
    <_>
      <internalNodes>
        0 -1 1000 80 447745469 12376063 284323583 807665728 -67155095
        -1733230866 -1208025153</internalNodes>
      <leafValues>
        -3.3130925893783569e-01 9.8850011825561523e-02</leafValues></_>
    <_>
      <internalNodes>
        0 -1 432 1651649392 2147104991 -75620355 737161215 2138455504
        -770499 1073577913 -1347681248</internalNodes>
      <leafValues>
        -2.2158925235271454e-01 1.5080350637435913e-01</leafValues></_>
    <_>
      <internalNodes>
        0 -1 88 -282679389 -288716158 -838877355 -68272194 200746915
        109062118 1146582517 -974129675</internalNodes>
      <leafValues>
        -1.8859532475471497e-01 1.7154747247695923e-01</leafValues></_>
    <_>
      <internalNodes>
        0 -1 934 -822105555 -621062307 -1359026433 1525637087 -71875824
        -127978668 -1073877318 -1154744705</internalNodes>
      <leafValues>
        -1.3807912170886993e-01 2.3009476065635681e-01</leafValues></_>
    <_>
      <internalNodes>
        0 -1 816 541332496 995638773 1073692671 -1078182145 -1409958916
        -149003 -1612866648 -1146484552</internalNodes>
      <leafValues>
        -2.0864720642566681e-01 1.5215736627578735e-01</leafValues></_>
    <_>
      <internalNodes>
        0 -1 199 -867697020 -201019665 -1002648555 -993071361 -705378495
        -262829145 -145363136 6630150</internalNodes>
      <leafValues>
        -2.8011420369148254e-01 1.1439020931720734e-01</leafValues></_>
    <_>
      <internalNodes>
        0 -1 1039 -1691372239 170031650 -557859311 -1982861519 465288949
        -1900020289 499070449 -1895836431</internalNodes>
      <leafValues>
        -1.8911439180374146e-01 1.5874326229095459e-01</leafValues></_>
    <_>
      <internalNodes>
        0 -1 554 236989968 1004024700 -19203073 1031487487 -48487344
        -243585 -538626052 -1356200928</internalNodes>
      <leafValues>
        -2.6054748892784119e-01 1.1067430675029755e-01</leafValues></_>
    <_>
      <internalNodes>
        0 -1 856 1081231054 -239122561 -420303042 16771583 1953968917
        1903648069 -135229684 536997133</internalNodes>
      <leafValues>
        -2.7582064270973206e-01 1.0043284296989441e-01</leafValues></_>
    <_>
      <internalNodes>
        0 -1 949 -84627468 -622264556 -196609 -555960453 -1097860675
        -345099 -1084350661 -1343540673</internalNodes>
      <leafValues>
        -1.5525326132774353e-01 1.8305814266204834e-01</leafValues></_>
    <_>
      <internalNodes>
        0 -1 320 723977248 76162242 1068306736 -1171024 906224561
        128939454 387405104 -136334145</internalNodes>
      <leafValues>
        -2.7905911207199097e-01 9.8989710211753845e-02</leafValues></_>
    <_>
      <internalNodes>
        0 -1 152 -327233825 1610238591 -226732290 2052209914 1483096128
        2121684839 -294715682 -97357962</internalNodes>
      <leafValues>
        -1.5694521367549896e-01 1.7798353731632233e-01</leafValues></_>
    <_>
      <internalNodes>
        0 -1 45 1881401122 1440138687 1878740516 -1054930 1903654839
        1156745207 2004307791 -586871029</internalNodes>
      <leafValues>
        -1.6366508603096008e-01 1.7002382874488831e-01</leafValues></_>
    <_>
      <internalNodes>
        0 -1 1025 -270596077 40906525 -1225385475 277937631 -287331056
        4136213 -1343308552 -937231397</internalNodes>
      <leafValues>
        -1.8680590391159058e-01 1.4814884960651398e-01</leafValues></_>
    <_>
      <internalNodes>
        0 -1 832 -860965388 -1766281260 795836285 1000112796 1071497205
        -1174540811 532618429 -1430712801</internalNodes>
      <leafValues>
        -1.4863787591457367e-01 1.8740096688270569e-01</leafValues></_>
    <_>
      <internalNodes>
        0 -1 173 1465109166 1954598633 -835327056 -991106018 1453449612
        1356124157 -162025728 1285885700</internalNodes>
      <leafValues>
        -2.5432473421096802e-01 1.0705312341451645e-01</leafValues></_>
    <_>
      <internalNodes>
        0 -1 925 -898170225 1383548638 1287024559 1086277615 -78188992
        -145137068 -1949455414 -78913666</internalNodes>
      <leafValues>
        -1.5087373554706573e-01 1.7736861109733582e-01</leafValues></_>
    <_>
      <internalNodes>
        0 -1 40 1060779571 -67462494 937818101 -33555313 399751079
        -2004454442 902121431 -707791471</internalNodes>
      <leafValues>
        -1.6042098402976990e-01 1.6548408567905426e-01</leafValues></_>
    <_>
      <internalNodes>
        0 -1 758 250617456 -1090777106 -271958051 704253559 -1075232779
        -4444167 -2152451 -1359270400</internalNodes>
      <leafValues>
        -2.2935582697391510e-01 1.1211809515953064e-01</leafValues></_></weakClassifiers></stage5>
</opencv_storage>
