<?xml version="1.0"?>
<opencv_storage>
<stage1>
  <maxWeakCount>13</maxWeakCount>
  <stageThreshold>-2.0637938976287842e+00</stageThreshold>
  <weakClassifiers>
    <_>
      <internalNodes>
        0 -1 0 457127731 1073725375 -32905 -1 1073692607 -1 1073706871
        -1</internalNodes>
      <leafValues>
        -6.2358754873275757e-01 4.2520076036453247e-01</leafValues></_>
    <_>
      <internalNodes>
        0 -1 960 50268799 1124036607 788201471 50331647 1988052831
        2139062143 -1 -1</internalNodes>
      <leafValues>
        -5.2095752954483032e-01 3.9880594611167908e-01</leafValues></_>
    <_>
      <internalNodes>
        0 -1 23 -65547 -65539 -3 -3 -587334147 -318767105 -571089420
        -856630156</internalNodes>
      <leafValues>
        -4.5229208469390869e-01 3.7054806947708130e-01</leafValues></_>
    <_>
      <internalNodes>
        0 -1 325 -268439633 15728639 -4346 -402653185 -1 16777215 -9
        -134217729</internalNodes>
      <leafValues>
        -3.6432203650474548e-01 4.4411876797676086e-01</leafValues></_>
    <_>
      <internalNodes>
        0 -1 1010 150867199 1124011775 -285278209 49696767 -150995073
        -8396929 -1 -93126657</internalNodes>
      <leafValues>
        -3.4474709630012512e-01 4.3668866157531738e-01</leafValues></_>
    <_>
      <internalNodes>
        0 -1 959 138360113 -1346371585 -1 -1075838977 1073690613
        -1342177281 1073690101 -1342227152</internalNodes>
      <leafValues>
        -3.8796216249465942e-01 2.6825198531150818e-01</leafValues></_>
    <_>
      <internalNodes>
        0 -1 56 589543201 -2040332335 -4194443 -523 -138414281
        -822083657 1475867989 -704645675</internalNodes>
      <leafValues>
        -3.2352998852729797e-01 3.2155442237854004e-01</leafValues></_>
    <_>
      <internalNodes>
        0 -1 760 -268439761 -1358967041 -285233618 -353435906 -8423883
        -25198977 -11141372 -8388609</internalNodes>
      <leafValues>
        -2.7908772230148315e-01 3.4424453973770142e-01</leafValues></_>
    <_>
      <internalNodes>
        0 -1 756 202649460 -1073987585 -1073774593 -1073857537
        -1073905671 -147459 -32771 -1346884048</internalNodes>
      <leafValues>
        -4.2017871141433716e-01 2.1606504917144775e-01</leafValues></_>
    <_>
      <internalNodes>
        0 -1 215 -68157489 -1006571602 -307327482 -829510002 -581578879
        -737891553 -145248511 99075</internalNodes>
      <leafValues>
        -3.5963693261146545e-01 2.3357757925987244e-01</leafValues></_>
    <_>
      <internalNodes>
        0 -1 667 47987540 -1107542017 -1073790977 -1073860609
        -1074315275 -131073 -1073856580 -1414002168</internalNodes>
      <leafValues>
        -3.1208541989326477e-01 2.5678187608718872e-01</leafValues></_>
    <_>
      <internalNodes>
        0 -1 925 -822131137 -755011969 -1367871505 9367295 -226527488
        -159678635 -67114122 -229114017</internalNodes>
      <leafValues>
        -2.6957809925079346e-01 2.8001508116722107e-01</leafValues></_>
    <_>
      <internalNodes>
        0 -1 180 -1355827405 -1900038213 -1082951913 -16641 -1077954637
        -1880096769 356464149 -838867563</internalNodes>
      <leafValues>
        -2.3956283926963806e-01 3.0230623483657837e-01</leafValues></_></weakClassifiers></stage1>
</opencv_storage>
