<?xml version="1.0"?>
<opencv_storage>
<stage14>
  <maxWeakCount>100</maxWeakCount>
  <stageThreshold>-1.8869093656539917e+00</stageThreshold>
  <weakClassifiers>
    <_>
      <internalNodes>
        0 -1 221 -1 -65537 -2097153 -4522070 -67371009 815810046
        2138832895 2063609610</internalNodes>
      <leafValues>
        -4.0640863776206970e-01 6.4946338534355164e-02</leafValues></_>
    <_>
      <internalNodes>
        0 -1 1013 -8388609 -147783824 -149955585 -734986768 -1094
        -80677616 -8388614 -601829360</internalNodes>
      <leafValues>
        -2.9024136066436768e-01 1.5466907620429993e-01</leafValues></_>
    <_>
      <internalNodes>
        0 -1 561 -67115089 -1058101777 -1073795296 -268458577 -1312777
        -2131298307 -9175261 -639633473</internalNodes>
      <leafValues>
        -1.4182601869106293e-01 2.6062178611755371e-01</leafValues></_>
    <_>
      <internalNodes>
        0 -1 552 -1438499888 -81921 1070284799 1073626071 -540676 -65538
        -16385 -1346434390</internalNodes>
      <leafValues>
        -1.7334268987178802e-01 1.8585720658302307e-01</leafValues></_>
    <_>
      <internalNodes>
        0 -1 0 990064913 -37784263 498990975 -673 -1145045057 -4194309
        -16385 -37</internalNodes>
      <leafValues>
        -1.6504651308059692e-01 1.9889399409294128e-01</leafValues></_>
    <_>
      <internalNodes>
        0 -1 792 -16777428 2080366951 -67121170 1406140415 -212355836
        276132948 -9064692 1364721279</internalNodes>
      <leafValues>
        -2.8881874680519104e-01 7.4429415166378021e-02</leafValues></_>
    <_>
      <internalNodes>
        0 -1 547 -792677680 -214017 1069432829 -1073856513 -213508
        -459585 -16391 -1884550488</internalNodes>
      <leafValues>
        -1.2501886487007141e-01 2.1283495426177979e-01</leafValues></_>
    <_>
      <internalNodes>
        0 -1 986 -1087225872 -1078976716 -1349222531 -570884612
        993144760 -1413871703 791285755 -1342478977</internalNodes>
      <leafValues>
        -1.7213748395442963e-01 1.3970281183719635e-01</leafValues></_>
    <_>
      <internalNodes>
        0 -1 845 -488119569 -68178947 -536699393 1811415023 1886877567
        1932492671 -147324929 -201326593</internalNodes>
      <leafValues>
        -1.8004603683948517e-01 1.3302597403526306e-01</leafValues></_>
    <_>
      <internalNodes>
        0 -1 221 -155518490 -795103298 -1444999668 -1938971073 338969844
        -822463563 -1230694637 -2064658249</internalNodes>
      <leafValues>
        -1.5880078077316284e-01 1.6074256598949432e-01</leafValues></_>
    <_>
      <internalNodes>
        0 -1 41 -719850063 -570558979 -134217731 -33558307 -134217729
        -538532355 2137520125 -573710883</internalNodes>
      <leafValues>
        -9.1382071375846863e-02 2.1441391110420227e-01</leafValues></_>
    <_>
      <internalNodes>
        0 -1 1014 179965183 -629444801 2063499263 1349156815 -25166433
        -30426091 -70844417 -83689633</internalNodes>
      <leafValues>
        -1.5975962579250336e-01 1.2758451700210571e-01</leafValues></_>
    <_>
      <internalNodes>
        0 -1 28 -989345547 -44769585 2078277470 -275804662 -973733899
        -990511116 -772550412 -842022912</internalNodes>
      <leafValues>
        -1.5496815741062164e-01 1.2964135408401489e-01</leafValues></_>
    <_>
      <internalNodes>
        0 -1 354 -270604382 107935722 -269551734 -542444570 -1946161169
        16046066 -536881201 1206367231</internalNodes>
      <leafValues>
        -1.9843479990959167e-01 9.4968743622303009e-02</leafValues></_>
    <_>
      <internalNodes>
        0 -1 309 -361610670 2071097303 2003845117 997334655 -1350629028
        -8687010 -307425896 -1346435960</internalNodes>
      <leafValues>
        -1.4995127916336060e-01 1.2573154270648956e-01</leafValues></_>
    <_>
      <internalNodes>
        0 -1 555 -84214800 -67436545 935215103 1073360503 -15
        -1141358601 -1082369 -1343287637</internalNodes>
      <leafValues>
        -9.4577029347419739e-02 1.9759640097618103e-01</leafValues></_>
    <_>
      <internalNodes>
        0 -1 679 -855642060 204472121 266284413 -1349538105 -1176502347
        991936445 234826815 801082411</internalNodes>
      <leafValues>
        -1.5626481175422668e-01 1.1872778832912445e-01</leafValues></_>
    <_>
      <internalNodes>
        0 -1 440 -1078991069 -2138119006 1979667712 -575672594
        -1086851789 4384656 1600614707 -706742273</internalNodes>
      <leafValues>
        -1.6371425986289978e-01 1.0895337164402008e-01</leafValues></_>
    <_>
      <internalNodes>
        0 -1 120 -893726840 -891424929 490409737 -822083617 -2131718904
        -2131173891 -1279546621 1409244999</internalNodes>
      <leafValues>
        -1.6326411068439484e-01 1.0597873479127884e-01</leafValues></_>
    <_>
      <internalNodes>
        0 -1 897 -68927499 -1085264579 744456191 -1615094273 -1073795075
        -1157704195 -1343258689 -1346691549</internalNodes>
      <leafValues>
        -1.3268117606639862e-01 1.2621295452117920e-01</leafValues></_>
    <_>
      <internalNodes>
        0 -1 860 -16784145 -788572705 -320540945 -389023745 -76221420
        -596224652 -16973905 -79954049</internalNodes>
      <leafValues>
        -9.4629012048244476e-02 1.7884844541549683e-01</leafValues></_>
    <_>
      <internalNodes>
        0 -1 813 779546400 540071716 1035876221 -718431267 -1082673228
        -2009858667 234555816 226490408</internalNodes>
      <leafValues>
        -1.5690919756889343e-01 1.0100252181291580e-01</leafValues></_>
    <_>
      <internalNodes>
        0 -1 434 137497714 1062368123 -621117449 993673215 -289534904
        -27492770 -18994360 -1440084880</internalNodes>
      <leafValues>
        -2.1118544042110443e-01 7.2932250797748566e-02</leafValues></_>
    <_>
      <internalNodes>
        0 -1 44 924819491 -1812992026 -541079697 -705705994 -8407109
        -1830359042 1058502591 -976816137</internalNodes>
      <leafValues>
        -1.0282073169946671e-01 1.4977110922336578e-01</leafValues></_>
    <_>
      <internalNodes>
        0 -1 685 -1061204 -10524017 -2033400596 -822149905 1345781809
        1917022213 1345516172 1885793996</internalNodes>
      <leafValues>
        -2.0828525722026825e-01 7.3457278311252594e-02</leafValues></_>
    <_>
      <internalNodes>
        0 -1 753 787414068 -1908757380 -1343386113 -1364284359
        1047205237 -1116995722 1073692535 -1342233038</internalNodes>
      <leafValues>
        -1.8139825761318207e-01 8.2365848124027252e-02</leafValues></_>
    <_>
      <internalNodes>
        0 -1 1000 537919504 871565015 545952703 43516925 271319729
        -84000787 -1464811797 -1347440657</internalNodes>
      <leafValues>
        -2.4231480062007904e-01 6.1134282499551773e-02</leafValues></_>
    <_>
      <internalNodes>
        0 -1 1013 -386859022 -59245065 -17113093 -336399745 -59725483
        -59433546 -1003315679 601845743</internalNodes>
      <leafValues>
        -9.9034719169139862e-02 1.5221466124057770e-01</leafValues></_>
    <_>
      <internalNodes>
        0 -1 240 402549710 1372491055 2146366414 2066628239 94526859
        -1498388481 -539009073 1342136947</internalNodes>
      <leafValues>
        -1.2160251289606094e-01 1.2035075575113297e-01</leafValues></_>
    <_>
      <internalNodes>
        0 -1 247 -1054006 -533978578 -833688749 -286332161 -404780288
        7611237 -524543 71607044</internalNodes>
      <leafValues>
        -2.4090199172496796e-01 6.3621751964092255e-02</leafValues></_>
    <_>
      <internalNodes>
        0 -1 970 -620785939 -839715 -16896001 1507036671 -9240764
        -1183425708 -71254065 -83624113</internalNodes>
      <leafValues>
        -8.0620206892490387e-02 1.8790599703788757e-01</leafValues></_>
    <_>
      <internalNodes>
        0 -1 425 -634225552 -9929994 -92538881 2080062463 -1085755411
        -294945 -1075380737 -1414855425</internalNodes>
      <leafValues>
        -8.6847715079784393e-02 1.6644226014614105e-01</leafValues></_>
    <_>
      <internalNodes>
        0 -1 661 1116402132 -321069066 1063206911 -67322925 -271220747
        -4241409 1794062333 -1356135424</internalNodes>
      <leafValues>
        -1.2331287562847137e-01 1.2111926078796387e-01</leafValues></_>
    <_>
      <internalNodes>
        0 -1 335 -1279285341 -1917915762 100524407 -537920020
        -1307920461 -1916731420 119485719 -840968722</internalNodes>
      <leafValues>
        -1.2181220203638077e-01 1.2117898464202881e-01</leafValues></_>
    <_>
      <internalNodes>
        0 -1 557 -1441124613 997854999 -5079041 993673183 -1074000680
        -360705 -12550401 -1075171969</internalNodes>
      <leafValues>
        -1.3048027455806732e-01 1.0902837663888931e-01</leafValues></_>
    <_>
      <internalNodes>
        0 -1 680 -4215125 540262102 -22041056 1152166016 896889125
        74295095 1902159616 -1053380468</internalNodes>
      <leafValues>
        -1.8608491122722626e-01 7.5034946203231812e-02</leafValues></_>
    <_>
      <internalNodes>
        0 -1 60 -216094973 1601108943 -301992210 -68225366 1966557103
        1147430774 662136799 -942180602</internalNodes>
      <leafValues>
        -1.1393321305513382e-01 1.2351458519697189e-01</leafValues></_>
    <_>
      <internalNodes>
        0 -1 156 -621886881 1517955711 -365762338 2054839282 1148603468
        -111520129 -396431798 -92383658</internalNodes>
      <leafValues>
        -1.2193971127271652e-01 1.1344897001981735e-01</leafValues></_>
    <_>
      <internalNodes>
        0 -1 18 -1039907280 547743487 -1037109648 -420479265 2002076489
        -539376915 -77091007 1153781508</internalNodes>
      <leafValues>
        -2.0306792855262756e-01 6.5540134906768799e-02</leafValues></_>
    <_>
      <internalNodes>
        0 -1 1038 -1078986463 193133856 2045312372 -570958672 469761533
        -1884291143 401323516 -1896287176</internalNodes>
      <leafValues>
        -1.1979517340660095e-01 1.0976982861757278e-01</leafValues></_>
    <_>
      <internalNodes>
        0 -1 200 -1616914640 -2136040280 1707055093 -721907500 378446835
        -1997892146 894660955 -842025475</internalNodes>
      <leafValues>
        -1.1852259188890457e-01 1.1069178581237793e-01</leafValues></_>
    <_>
      <internalNodes>
        0 -1 95 -18940006 -190906610 1313864221 -830472433 2014367228
        1882867119 -67125509 1263489803</internalNodes>
      <leafValues>
        -1.1150699108839035e-01 1.1736956983804703e-01</leafValues></_>
    <_>
      <internalNodes>
        0 -1 1022 -553660924 402959376 -1240137864 1076026319 -68317932
        206701568 -1091912708 -1073545377</internalNodes>
      <leafValues>
        -1.7072589695453644e-01 7.7120631933212280e-02</leafValues></_>
    <_>
      <internalNodes>
        0 -1 978 -587494354 -578828003 -873025 1569718191 -1160530640
        -1941300220 -67589138 -83624421</internalNodes>
      <leafValues>
        -7.5674362480640411e-02 1.7766131460666656e-01</leafValues></_>
    <_>
      <internalNodes>
        0 -1 857 1617216754 1886711543 -1026916592 553189119 1965418465
        1970454513 -1344336248 36360</internalNodes>
      <leafValues>
        -2.4036243557929993e-01 5.7456243783235550e-02</leafValues></_>
    <_>
      <internalNodes>
        0 -1 20 856896305 284227488 -1749082347 -33621287 926564019
        -4464718 936842615 -1109715731</internalNodes>
      <leafValues>
        -1.8127390742301941e-01 7.2028711438179016e-02</leafValues></_>
    <_>
      <internalNodes>
        0 -1 499 -31924748 -544335585 266151743 1073622591 -1217231651
        1353843189 265273209 1064774451</internalNodes>
      <leafValues>
        -1.2687782943248749e-01 1.0745400935411453e-01</leafValues></_>
    <_>
      <internalNodes>
        0 -1 14 -496057177 -171643659 -284236000 -322634616 1085777287
        -989858057 -206051581 -1058799104</internalNodes>
      <leafValues>
        -1.5331520140171051e-01 8.6671911180019379e-02</leafValues></_>
    <_>
      <internalNodes>
        0 -1 925 -1034746625 1349730520 707972828 1212932063 -210290940
        -262991292 -353259768 -233447586</internalNodes>
      <leafValues>
        -1.4429786801338196e-01 8.7762475013732910e-02</leafValues></_>
    <_>
      <internalNodes>
        0 -1 374 715269922 -2004350024 535916407 -33988056 -1170061383
        -1430116813 1465087132 -909118978</internalNodes>
      <leafValues>
        -1.0282243043184280e-01 1.2437861412763596e-01</leafValues></_>
    <_>
      <internalNodes>
        0 -1 160 132096 -2071196536 488575281 -1612903940 51549241
        -1982202117 356323605 -536881253</internalNodes>
      <leafValues>
        -2.3044346272945404e-01 5.6540198624134064e-02</leafValues></_>
    <_>
      <internalNodes>
        0 -1 642 -288560364 -1118520156 -1898038222 -1153520065
        -286798491 966053169 -285217209 136798727</internalNodes>
      <leafValues>
        -1.6716155409812927e-01 7.4827805161476135e-02</leafValues></_>
    <_>
      <internalNodes>
        0 -1 905 -554777164 -14672864 -541552677 -38756289 535807476
        -1165986544 1871341551 3106359</internalNodes>
      <leafValues>
        -1.4620350301265717e-01 8.8113918900489807e-02</leafValues></_>
    <_>
      <internalNodes>
        0 -1 558 745940848 -1104134284 1610300255 678567927 -80790220
        -1085719579 -1157877763 -1448530144</internalNodes>
      <leafValues>
        -1.6237407922744751e-01 7.3482275009155273e-02</leafValues></_>
    <_>
      <internalNodes>
        0 -1 581 -813963858 1088090613 -1108374481 -574968577 1651696245
        2551285 -608989813 292660395</internalNodes>
      <leafValues>
        -1.2951068580150604e-01 9.3836329877376556e-02</leafValues></_>
    <_>
      <internalNodes>
        0 -1 171 -270015762 300151807 -1570049452 -294879250 1064506847
        -72891457 -76064932 -287034554</internalNodes>
      <leafValues>
        -1.1577916890382767e-01 1.0596115887165070e-01</leafValues></_>
    <_>
      <internalNodes>
        0 -1 804 -1427471516 -654803107 989822719 1037836095 -1078353419
        -1073840307 805275647 -1078261589</internalNodes>
      <leafValues>
        -8.6184673011302948e-02 1.4329047501087189e-01</leafValues></_>
    <_>
      <internalNodes>
        0 -1 571 -68943922 436155614 644481872 -1678770689 1651865591
        -1577206868 -68296739 -1471545538</internalNodes>
      <leafValues>
        -1.0003035515546799e-01 1.1978121846914291e-01</leafValues></_>
    <_>
      <internalNodes>
        0 -1 1028 -8918511 309976385 -1611859970 -633283073 -1074821352
        -1424917227 -1359544648 -1711211365</internalNodes>
      <leafValues>
        -1.1444033682346344e-01 1.0606435686349869e-01</leafValues></_>
    <_>
      <internalNodes>
        0 -1 545 137494546 -1083558318 -1346895875 536751871 -1351600400
        -356768925 -1420288587 -1433927680</internalNodes>
      <leafValues>
        -1.9167250394821167e-01 6.2451954931020737e-02</leafValues></_>
    <_>
      <internalNodes>
        0 -1 100 -827347285 -289757254 -1612038668 -33886968 4654887
        -2144706554 1439921476 -706743980</internalNodes>
      <leafValues>
        -1.4554080367088318e-01 8.2499228417873383e-02</leafValues></_>
    <_>
      <internalNodes>
        0 -1 158 -361305518 2129833855 318717267 645016115 1853296615
        1297436535 -5830381 1191257859</internalNodes>
      <leafValues>
        -1.5330210328102112e-01 7.7371604740619659e-02</leafValues></_>
    <_>
      <internalNodes>
        0 -1 1005 37355775 -19446049 -1431621633 13840383 -533319936
        -228910305 -1155874865 -100520033</internalNodes>
      <leafValues>
        -1.6309179365634918e-01 7.2003573179244995e-02</leafValues></_>
    <_>
      <internalNodes>
        0 -1 803 -311529 -118462761 -1342240987 -1599461649 -278318217
        -60528778 -285692316 -290784258</internalNodes>
      <leafValues>
        -8.4688454866409302e-02 1.3926464319229126e-01</leafValues></_>
    <_>
      <internalNodes>
        0 -1 997 263180721 -1934841056 -629443083 -545521996 985380344
        -1342187651 534724607 -1086636487</internalNodes>
      <leafValues>
        -9.7589515149593353e-02 1.1911313980817795e-01</leafValues></_>
    <_>
      <internalNodes>
        0 -1 830 -1103313680 -201835011 1802441693 -1075957507
        -1074905175 -1075003424 2147433471 -1086651205</internalNodes>
      <leafValues>
        -9.5403693616390228e-02 1.1990047991275787e-01</leafValues></_>
    <_>
      <internalNodes>
        0 -1 960 1110051008 -761835780 179964634 3212543 -1156107776
        -76063410 -1162760786 -81006929</internalNodes>
      <leafValues>
        -1.5889596939086914e-01 7.1310751140117645e-02</leafValues></_>
    <_>
      <internalNodes>
        0 -1 307 1616355392 1276946575 644689426 -405819665 1733338385
        1414799367 -2646216 978133539</internalNodes>
      <leafValues>
        -1.7356158792972565e-01 6.3137285411357880e-02</leafValues></_>
    <_>
      <internalNodes>
        0 -1 113 -397783842 2126122546 -38864900 -314114 -2010115856
        -291872656 191931848 1214403908</internalNodes>
      <leafValues>
        -1.7357820272445679e-01 6.4854986965656281e-02</leafValues></_>
    <_>
      <internalNodes>
        0 -1 999 1025455409 193640112 -1917534287 -1401295372 771700149
        -1367357485 414929329 -1899096676</internalNodes>
      <leafValues>
        -1.5675695240497589e-01 7.1159906685352325e-02</leafValues></_>
    <_>
      <internalNodes>
        0 -1 248 -487676253 -17158362 -1933824451 -537778904 -842882833
        -932821723 1097192942 -849356326</internalNodes>
      <leafValues>
        -7.0145346224308014e-02 1.6028322279453278e-01</leafValues></_>
    <_>
      <internalNodes>
        0 -1 760 -67118405 16570329 -857030110 1626189054 -30337245
        -1187624649 -1573733628 -75522642</internalNodes>
      <leafValues>
        -1.1605560779571533e-01 9.8952986299991608e-02</leafValues></_>
    <_>
      <internalNodes>
        0 -1 742 46677520 -1161021555 1818179551 2078162302 -1078156039
        -1073963330 -1090671619 -1079310086</internalNodes>
      <leafValues>
        -1.1763067543506622e-01 9.8475463688373566e-02</leafValues></_>
    <_>
      <internalNodes>
        0 -1 138 1910502354 1557965615 1070412727 -1364285585 1742044020
        1954561199 -2682983 512033283</internalNodes>
      <leafValues>
        -1.2459471076726913e-01 9.1786988079547882e-02</leafValues></_>
    <_>
      <internalNodes>
        0 -1 176 147530246 1912517887 1726920276 -1896939522 2002204607
        903115404 -1085835449 784629350</internalNodes>
      <leafValues>
        -1.6899225115776062e-01 6.6914968192577362e-02</leafValues></_>
    <_>
      <internalNodes>
        0 -1 401 1876950894 144899839 1541381119 536840751 2012699940
        -454001546 797920187 -1911592438</internalNodes>
      <leafValues>
        -9.3537397682666779e-02 1.2694123387336731e-01</leafValues></_>
    <_>
      <internalNodes>
        0 -1 687 1983374886 1358221030 -47542874 1555613375 -260980827
        1886746101 -1169060293 611658420</internalNodes>
      <leafValues>
        -1.4778716862201691e-01 7.3391623795032501e-02</leafValues></_>
    <_>
      <internalNodes>
        0 -1 209 -316149554 -708324113 -608182433 -1358039314 1899034244
        1961120125 2000123147 -1342932433</internalNodes>
      <leafValues>
        -9.8354004323482513e-02 1.1086153984069824e-01</leafValues></_>
    <_>
      <internalNodes>
        0 -1 312 -1360902438 2138713470 475429399 997863383 -1905130432
        -1653571717 -32763172 -1432222352</internalNodes>
      <leafValues>
        -1.4147935807704926e-01 7.7473439276218414e-02</leafValues></_>
    <_>
      <internalNodes>
        0 -1 179 181760 70051503 79048512 -860953402 -747583616
        -178851930 -59385087 69468676</internalNodes>
      <leafValues>
        -2.8097647428512573e-01 3.7527881562709808e-02</leafValues></_>
    <_>
      <internalNodes>
        0 -1 609 -336091369 208752495 -403011011 -1358970881 -64520905
        3208541 -1573007 -1942282889</internalNodes>
      <leafValues>
        -9.2871896922588348e-02 1.1253564804792404e-01</leafValues></_>
    <_>
      <internalNodes>
        0 -1 1035 -675298016 50877792 -671155044 -655426346 922668496
        -1885620399 1073725148 -2010103774</internalNodes>
      <leafValues>
        -1.2928256392478943e-01 8.4540225565433502e-02</leafValues></_>
    <_>
      <internalNodes>
        0 -1 855 1358827047 1498901229 -458339226 -1041535027 1986491351
        812874589 -520660003 -193069185</internalNodes>
      <leafValues>
        -1.1745016276836395e-01 8.6102150380611420e-02</leafValues></_>
    <_>
      <internalNodes>
        0 -1 166 548135712 78553957 1025846304 -407044188 -1307171977
        11686829 1970746480 1441023991</internalNodes>
      <leafValues>
        -2.4201855063438416e-01 4.1949789971113205e-02</leafValues></_>
    <_>
      <internalNodes>
        0 -1 94 2046805890 1466105631 1073741823 -12584369 1362520061
        -332112386 1666580474 1330082638</internalNodes>
      <leafValues>
        -8.8495679199695587e-02 1.1832011491060257e-01</leafValues></_>
    <_>
      <internalNodes>
        0 -1 938 -2100854780 352294173 1020604351 1374465853 -1074285516
        -1932110820 -1346918232 -617362406</internalNodes>
      <leafValues>
        -9.2109359800815582e-02 1.0717421770095825e-01</leafValues></_>
    <_>
      <internalNodes>
        0 -1 1014 -993311738 569771996 15335354 28704767 887531108
        76155909 -431621652 -799932514</internalNodes>
      <leafValues>
        -1.1479452997446060e-01 8.5976243019104004e-02</leafValues></_>
    <_>
      <internalNodes>
        0 -1 959 136860721 -2035794264 -1190202382 -1895941067 529184189
        -1963147525 221853104 -1363537616</internalNodes>
      <leafValues>
        -1.6706298291683197e-01 5.9630110859870911e-02</leafValues></_>
    <_>
      <internalNodes>
        0 -1 653 -791753132 -134339010 2096578421 -604815365 -1191791387
        -1342475906 -9113857 -1087698677</internalNodes>
      <leafValues>
        -7.0327460765838623e-02 1.4182825386524200e-01</leafValues></_>
    <_>
      <internalNodes>
        0 -1 281 -134217990 717160430 -71319814 -1081167922 2146772452
        1977921508 -67162133 -1882354933</internalNodes>
      <leafValues>
        -8.7977781891822815e-02 1.1879051476716995e-01</leafValues></_>
    <_>
      <internalNodes>
        0 -1 56 562238754 -1973359950 -326797353 -237308436 627484643
        75679538 1158100245 -976894764</internalNodes>
      <leafValues>
        -1.7525090277194977e-01 5.8431729674339294e-02</leafValues></_>
    <_>
      <internalNodes>
        0 -1 229 541422192 13166318 1063739390 9240110 -1284114688
        -2058061980 1968533312 767851328</internalNodes>
      <leafValues>
        -2.1339967846870422e-01 4.5745726674795151e-02</leafValues></_>
    <_>
      <internalNodes>
        0 -1 112 -890361361 -830574710 1291071356 -549683478 179727539
        229792550 1173157205 -907291148</internalNodes>
      <leafValues>
        -1.1638404428958893e-01 8.4848038852214813e-02</leafValues></_>
    <_>
      <internalNodes>
        0 -1 580 -626005630 574006971 -349180416 1429143276 609571635
        5470056 -637740655 -245062235</internalNodes>
      <leafValues>
        -1.5966540575027466e-01 6.1737600713968277e-02</leafValues></_>
    <_>
      <internalNodes>
        0 -1 1025 -8409596 139461901 -1506616332 1347733080 -1426092780
        141235717 786615512 -800915626</internalNodes>
      <leafValues>
        -1.4561161398887634e-01 6.7233651876449585e-02</leafValues></_>
    <_>
      <internalNodes>
        0 -1 404 1223305143 -18076882 502562175 2071084842 1042822213
        -1904584940 -999951 -1991111558</internalNodes>
      <leafValues>
        -1.1032442748546600e-01 8.8749356567859650e-02</leafValues></_>
    <_>
      <internalNodes>
        0 -1 953 1582817681 -1191418392 1610610557 -677896347 800956296
        -356566028 1068840120 -1147468261</internalNodes>
      <leafValues>
        -7.9636126756668091e-02 1.2281753122806549e-01</leafValues></_>
    <_>
      <internalNodes>
        0 -1 1001 550502500 2079287551 777666431 436031339 1884302273
        976974812 -1100043265 1229315839</internalNodes>
      <leafValues>
        -1.7726664245128632e-01 5.5722806602716446e-02</leafValues></_>
    <_>
      <internalNodes>
        0 -1 554 -1472700908 2147237752 -69322339 192555845 -1087110032
        -67851793 -1212400673 -1410452452</internalNodes>
      <leafValues>
        -1.4205366373062134e-01 6.9328986108303070e-02</leafValues></_>
    <_>
      <internalNodes>
        0 -1 587 -235962070 287346446 -881681074 1290718254 1976931601
        1965424565 -584249792 604259844</internalNodes>
      <leafValues>
        -2.0762909948825836e-01 4.6876177191734314e-02</leafValues></_></weakClassifiers></stage14>
</opencv_storage>
