<?xml version="1.0"?>
<opencv_storage>
<stage8>
  <maxWeakCount>73</maxWeakCount>
  <stageThreshold>-1.8964315652847290e+00</stageThreshold>
  <weakClassifiers>
    <_>
      <internalNodes>
        0 -1 873 -1 -234881025 -1 229638143 -3 821163445 -4116 218467468</internalNodes>
      <leafValues>
        -4.5843330025672913e-01 1.1702843010425568e-01</leafValues></_>
    <_>
      <internalNodes>
        0 -1 23 -33554435 -537919489 -134217731 -1025 -587212291
        -587268609 -705307140 -939471664</internalNodes>
      <leafValues>
        -3.2266920804977417e-01 1.9878415763378143e-01</leafValues></_>
    <_>
      <internalNodes>
        0 -1 561 -268439633 -2131841553 -268488960 -855658577 -2057
        -1996554241 -217 -570425345</internalNodes>
      <leafValues>
        -1.9135452806949615e-01 3.1704083085060120e-01</leafValues></_>
    <_>
      <internalNodes>
        0 -1 1000 12259071 -53253 -1430294529 -335544321 -16777281 -257
        -1 -1</internalNodes>
      <leafValues>
        -2.1447482705116272e-01 2.5383618474006653e-01</leafValues></_>
    <_>
      <internalNodes>
        0 -1 672 140259668 -81921 1040138239 -1073856513 -147459 -131588
        1073561532 -1347679736</internalNodes>
      <leafValues>
        -2.3096551001071930e-01 2.1945624053478241e-01</leafValues></_>
    <_>
      <internalNodes>
        0 -1 1 270546225 -572656139 -33409 -33702531 -1077938241 -5
        935327743 -35652129</internalNodes>
      <leafValues>
        -3.0682674050331116e-01 1.2220470607280731e-01</leafValues></_>
    <_>
      <internalNodes>
        0 -1 766 -218110449 -603982401 -387037682 2045771759 1903523589
        1903523077 -92942579 829816764</internalNodes>
      <leafValues>
        -2.4817168712615967e-01 1.9748124480247498e-01</leafValues></_>
    <_>
      <internalNodes>
        0 -1 327 -167778578 -722145289 -8736852 -4283222 904394239
        1894842367 2146942891 2003975714</internalNodes>
      <leafValues>
        -2.0785357058048248e-01 1.9308555126190186e-01</leafValues></_>
    <_>
      <internalNodes>
        0 -1 1010 16188671 1392447487 -18203137 1895768063 1886859540
        1953978181 -71892993 -212664321</internalNodes>
      <leafValues>
        -2.1419769525527954e-01 1.8799866735935211e-01</leafValues></_>
    <_>
      <internalNodes>
        0 -1 1036 -1087644239 -1087177264 -4456455 -395276 1069547005
        -1078199043 1073708543 218059827</internalNodes>
      <leafValues>
        -2.3979698121547699e-01 1.6061541438102722e-01</leafValues></_>
    <_>
      <internalNodes>
        0 -1 421 1785886516 -16875521 -81921 -1073995777 552871732
        -335790217 -245767 -1880358904</internalNodes>
      <leafValues>
        -1.9615907967090607e-01 1.7810003459453583e-01</leafValues></_>
    <_>
      <internalNodes>
        0 -1 680 -20565 11794935 -16865536 -453213526 2138523509 7804854
        -9062656 -705169414</internalNodes>
      <leafValues>
        -2.3508821427822113e-01 1.4075179398059845e-01</leafValues></_>
    <_>
      <internalNodes>
        0 -1 873 -453589340 519103924 -1901138118 -218591682 -263868634
        -1354887424 -1895625205 -1292145917</internalNodes>
      <leafValues>
        -1.8712916970252991e-01 1.7973694205284119e-01</leafValues></_>
    <_>
      <internalNodes>
        0 -1 558 611462996 1054752639 1073692671 804924030 2146910069
        -54337 -1073795207 -1346754014</internalNodes>
      <leafValues>
        -2.4116739630699158e-01 1.4883570373058319e-01</leafValues></_>
    <_>
      <internalNodes>
        0 -1 94 -890310674 -151322705 -1073807362 -9504214 1081493487
        -261071105 -11042817 2138206786</internalNodes>
      <leafValues>
        -1.9966344535350800e-01 1.6218967735767365e-01</leafValues></_>
    <_>
      <internalNodes>
        0 -1 759 -855703691 -1627455553 -1107312643 -1342263810
        -1426211331 -1073741890 1073683513 -1430319606</internalNodes>
      <leafValues>
        -1.4871738851070404e-01 2.1689270436763763e-01</leafValues></_>
    <_>
      <internalNodes>
        0 -1 335 -1279281373 -2136016926 1978656099 -570431489
        -1828342857 -2050960428 324490611 -976235009</internalNodes>
      <leafValues>
        -1.8075680732727051e-01 1.6506585478782654e-01</leafValues></_>
    <_>
      <internalNodes>
        0 -1 830 -51053072 -212995 -67379201 -1 -1078018055 -131091
        -16385 -1077989733</internalNodes>
      <leafValues>
        -1.1626292765140533e-01 2.5797107815742493e-01</leafValues></_>
    <_>
      <internalNodes>
        0 -1 925 -218151353 -1065416965 -486560001 15720415 -227052028
        -93031836 -69795926 -83361953</internalNodes>
      <leafValues>
        -1.7522022128105164e-01 1.7355358600616455e-01</leafValues></_>
    <_>
      <internalNodes>
        0 -1 661 -356320396 -151240717 1067399679 -1073823745 -268582923
        -1358987590 -1073791299 -1414856182</internalNodes>
      <leafValues>
        -1.4750081300735474e-01 2.0071557164192200e-01</leafValues></_>
    <_>
      <internalNodes>
        0 -1 160 528432 149728928 -1644227243 -2105864 1058772275
        -2099511297 358962449 -672145665</internalNodes>
      <leafValues>
        -3.1969630718231201e-01 9.1042682528495789e-02</leafValues></_>
    <_>
      <internalNodes>
        0 -1 883 -4255 -131042188 -295039964 538969338 -233946 -64981712
        -290574814 539123714</internalNodes>
      <leafValues>
        -3.0028095841407776e-01 8.9963078498840332e-02</leafValues></_>
    <_>
      <internalNodes>
        0 -1 1000 -129744892 542562047 2043338495 345714655 286261340
        -67237121 750173951 -17409</internalNodes>
      <leafValues>
        -1.9617232680320740e-01 1.3701920211315155e-01</leafValues></_>
    <_>
      <internalNodes>
        0 -1 623 -33568776 1429531964 1869605750 -1879049161 -714093059
        -1649148443 1877987151 151997487</internalNodes>
      <leafValues>
        -1.6019913554191589e-01 1.6548255085945129e-01</leafValues></_>
    <_>
      <internalNodes>
        0 -1 437 1316359767 2063212159 -285294849 1051856766 -27374012
        -99457 -355303590 -1414906286</internalNodes>
      <leafValues>
        -1.9824638962745667e-01 1.2956497073173523e-01</leafValues></_>
    <_>
      <internalNodes>
        0 -1 44 2009064227 10937010 -4200665 -167782417 -1611159641
        7402487 -15206977 -973604873</internalNodes>
      <leafValues>
        -1.7625813186168671e-01 1.4732128381729126e-01</leafValues></_>
    <_>
      <internalNodes>
        0 -1 147 1121382994 1087958782 662646547 -806507925 1549028273
        1343521192 -1327317 1273965327</internalNodes>
      <leafValues>
        -1.9075810909271240e-01 1.3039268553256989e-01</leafValues></_>
    <_>
      <internalNodes>
        0 -1 1025 -18896841 143795983 -269033484 1076952954 -1348530668
        138110469 -1359500084 -260900002</internalNodes>
      <leafValues>
        -1.9421386718750000e-01 1.2434081733226776e-01</leafValues></_>
    <_>
      <internalNodes>
        0 -1 507 -855851555 1073625055 -34128387 -1073857545 -357032463
        -29477379 1876260733 791359291</internalNodes>
      <leafValues>
        -1.6218478977680206e-01 1.4962464570999146e-01</leafValues></_>
    <_>
      <internalNodes>
        0 -1 14 -974658169 -195757835 -332996832 -322634424 1087883183
        -2131361793 -138936555 -2047507711</internalNodes>
      <leafValues>
        -1.6928939521312714e-01 1.4147782325744629e-01</leafValues></_>
    <_>
      <internalNodes>
        0 -1 425 142216822 2103061114 -2099203 995770236 533736772
        -606437889 2079094780 -1413870544</internalNodes>
      <leafValues>
        -2.1752014756202698e-01 1.1283097416162491e-01</leafValues></_>
    <_>
      <internalNodes>
        0 -1 581 -403184370 1106395627 -38171217 -574968401 879982397
        1366349109 -545288241 292858543</internalNodes>
      <leafValues>
        -1.7187693715095520e-01 1.4115191996097565e-01</leafValues></_>
    <_>
      <internalNodes>
        0 -1 840 -16825713 -86293505 -534910802 -360976387 -159943676
        -230669001 -277549176 -76283905</internalNodes>
      <leafValues>
        -1.4699564874172211e-01 1.6362909972667694e-01</leafValues></_>
    <_>
      <internalNodes>
        0 -1 999 -1657324271 -1918708080 -1610875019 -1381532876
        738148277 -1368662053 800002229 -1896934352</internalNodes>
      <leafValues>
        -1.9250184297561646e-01 1.1940822005271912e-01</leafValues></_>
    <_>
      <internalNodes>
        0 -1 660 -1141063684 -1073965089 -49217 -1141129217 -1615252807
        -475489 -315394 -1359270061</internalNodes>
      <leafValues>
        -1.6217134892940521e-01 1.4112551510334015e-01</leafValues></_>
    <_>
      <internalNodes>
        0 -1 965 -2136864521 -218165313 -1963446531 538668543 -227147516
        -28348843 -1208434948 -80609314</internalNodes>
      <leafValues>
        -1.7525748908519745e-01 1.2566764652729034e-01</leafValues></_>
    <_>
      <internalNodes>
        0 -1 60 -147855581 1462695779 -268700784 -542116382 659973043
        1081368550 928446207 -975735322</internalNodes>
      <leafValues>
        -1.4175695180892944e-01 1.5621010959148407e-01</leafValues></_>
    <_>
      <internalNodes>
        0 -1 440 -1120159966 12625638 1979524864 -571570964 524202785
        109114034 2138563873 -772426346</internalNodes>
      <leafValues>
        -2.1038037538528442e-01 1.0356175154447556e-01</leafValues></_>
    <_>
      <internalNodes>
        0 -1 955 203832624 -1364443147 -805519361 -2613384 784332732
        -524299 1067352061 -1363540968</internalNodes>
      <leafValues>
        -2.0334646105766296e-01 1.0784677416086197e-01</leafValues></_>
    <_>
      <internalNodes>
        0 -1 16 -1427922430 301187007 1852112725 770502655 928199675
        1036271576 -8422563 751140672</internalNodes>
      <leafValues>
        -1.9489212334156036e-01 1.0813676565885544e-01</leafValues></_>
    <_>
      <internalNodes>
        0 -1 152 -353448241 -17137729 -357142786 1525317370 1482384448
        -25467052 -454631714 -25956746</internalNodes>
      <leafValues>
        -1.2108779698610306e-01 1.7800079286098480e-01</leafValues></_>
    <_>
      <internalNodes>
        0 -1 1031 -8409807 305285908 -222429283 -126313192 -1094732520
        -1360044203 -65864 -1742671302</internalNodes>
      <leafValues>
        -1.5242739021778107e-01 1.3519634306430817e-01</leafValues></_>
    <_>
      <internalNodes>
        0 -1 822 39851220 -1074118659 2113896415 -1109625739 -1812086843
        -67174438 738016249 -1145370568</internalNodes>
      <leafValues>
        -1.6651611030101776e-01 1.2542052567005157e-01</leafValues></_>
    <_>
      <internalNodes>
        0 -1 122 -52429858 -791610385 -832807151 -1930432721 -665474172
        -554397713 -537416941 1338993411</internalNodes>
      <leafValues>
        -1.5092605352401733e-01 1.4080317318439484e-01</leafValues></_>
    <_>
      <internalNodes>
        0 -1 760 -1023414609 -2135236874 -1897879872 -2065503028
        1845699668 775376983 1641261824 -109583889</internalNodes>
      <leafValues>
        -1.9226698577404022e-01 1.0650224238634109e-01</leafValues></_>
    <_>
      <internalNodes>
        0 -1 675 1826291028 1012711421 1070546943 935214975 -16797200
        -7553545 536815997 -1414722040</internalNodes>
      <leafValues>
        -1.4975611865520477e-01 1.3654793798923492e-01</leafValues></_>
    <_>
      <internalNodes>
        0 -1 0 875656497 -683690640 -33720971 -33579528 -83888641
        -2113542 -659009 -20545</internalNodes>
      <leafValues>
        -1.2991838157176971e-01 1.6045369207859039e-01</leafValues></_>
    <_>
      <internalNodes>
        0 -1 1022 -654635518 1490104069 -2064056361 1348501311
        -1461745788 209192212 -1090737416 -803012774</internalNodes>
      <leafValues>
        -1.7467640340328217e-01 1.2195373326539993e-01</leafValues></_>
    <_>
      <internalNodes>
        0 -1 785 1886904870 1895263701 1308544038 1241460014 -176963787
        837924277 -1621127416 155266106</internalNodes>
      <leafValues>
        -2.0336137712001801e-01 1.0703397542238235e-01</leafValues></_>
    <_>
      <internalNodes>
        0 -1 112 -823399509 -353753158 -549818924 -461064 1216701751
        144717655 1600305109 -650784716</internalNodes>
      <leafValues>
        -1.6907107830047607e-01 1.2604694068431854e-01</leafValues></_>
    <_>
      <internalNodes>
        0 -1 23 -563817102 -51335948 -20481 -839455056 1248110334
        -1915368196 1642132721 939474207</internalNodes>
      <leafValues>
        -1.2812338769435883e-01 1.6259628534317017e-01</leafValues></_>
    <_>
      <internalNodes>
        0 -1 958 137247792 -1900480778 -1074931307 -1096368647 490716924
        -1895956615 1056914685 -1364579312</internalNodes>
      <leafValues>
        -2.1855694055557251e-01 9.4477914273738861e-02</leafValues></_>
    <_>
      <internalNodes>
        0 -1 39 -396046588 -1006309721 170326320 -326308114 -2141911296
        -1058670857 -105513216 273152</internalNodes>
      <leafValues>
        -3.6799558997154236e-01 5.3071685135364532e-02</leafValues></_>
    <_>
      <internalNodes>
        0 -1 891 -596365484 -1135586251 527925215 -1623443873
        -1088503907 -1701144642 791621245 -1450234761</internalNodes>
      <leafValues>
        -1.6271190345287323e-01 1.1966691166162491e-01</leafValues></_>
    <_>
      <internalNodes>
        0 -1 1014 16649286 7735247 -1057327105 10639165 813072452
        104995845 -554370328 -266289578</internalNodes>
      <leafValues>
        -2.7029594779014587e-01 7.0854619145393372e-02</leafValues></_>
    <_>
      <internalNodes>
        0 -1 845 -85005142 -67195185 -1427862802 -1678004225 1985430518
        -113280081 1924655867 -101720065</internalNodes>
      <leafValues>
        -1.1077685654163361e-01 1.8218412995338440e-01</leafValues></_>
    <_>
      <internalNodes>
        0 -1 100 -353390673 -292900962 -309858351 -88282 1082591123
        -2071844142 1173221589 -730086956</internalNodes>
      <leafValues>
        -1.4560189843177795e-01 1.3303303718566895e-01</leafValues></_>
    <_>
      <internalNodes>
        0 -1 240 -419498042 -213210609 1073543135 2142223983 1178038191
        -521084713 1868515279 1341084542</internalNodes>
      <leafValues>
        -1.0967995971441269e-01 1.8245756626129150e-01</leafValues></_>
    <_>
      <internalNodes>
        0 -1 586 -228071026 1370320431 -1089546432 -643076370 1953829277
        -235438339 -77114424 -1383203079</internalNodes>
      <leafValues>
        -1.3731460273265839e-01 1.4567117393016815e-01</leafValues></_>
    <_>
      <internalNodes>
        0 -1 435 -1911910800 2061172607 -13160449 800983731 1607816624
        -102473 -420139216 -1414919134</internalNodes>
      <leafValues>
        -1.6953246295452118e-01 1.1250771582126617e-01</leafValues></_>
    <_>
      <internalNodes>
        0 -1 232 800763826 -928897106 -1610661892 -43350220 225427383
        203435384 1599600533 -839920165</internalNodes>
      <leafValues>
        -1.3349847495555878e-01 1.4242745935916901e-01</leafValues></_>
    <_>
      <internalNodes>
        0 -1 635 707671568 -1124196356 536590325 1069428027 -1459079747
        -1343717929 1072541437 -1078253350</internalNodes>
      <leafValues>
        -1.2794500589370728e-01 1.4305759966373444e-01</leafValues></_>
    <_>
      <internalNodes>
        0 -1 672 -22360400 9981812 -539033732 1288212028 679751476
        796294653 -432238733 403899575</internalNodes>
      <leafValues>
        -1.7105613648891449e-01 1.0615235567092896e-01</leafValues></_>
    <_>
      <internalNodes>
        0 -1 536 1451015036 -1367408905 2143237751 246755131 -548104911
        -295433 -539686119 -1359007953</internalNodes>
      <leafValues>
        -1.5906849503517151e-01 1.2307675182819366e-01</leafValues></_>
    <_>
      <internalNodes>
        0 -1 545 -98820560 -42594437 -1075990657 1071135733 -1416352108
        -21086339 -1352649223 -1367208920</internalNodes>
      <leafValues>
        -1.6780717670917511e-01 1.0947574675083160e-01</leafValues></_>
    <_>
      <internalNodes>
        0 -1 11 -6481 300789527 -1454639600 -5446220 -550180929
        -1242533893 -1116228097 -171608201</internalNodes>
      <leafValues>
        -1.0453468561172485e-01 1.7657774686813354e-01</leafValues></_>
    <_>
      <internalNodes>
        0 -1 475 -1431656026 1089656775 -1955623026 -310498226
        -1317805131 351426037 -1468559616 1148201578</internalNodes>
      <leafValues>
        -2.3039504885673523e-01 8.0540589988231659e-02</leafValues></_>
    <_>
      <internalNodes>
        0 -1 257 2128084974 82112204 1342021118 804190063 2003976000
        -1252729627 1207394060 206926402</internalNodes>
      <leafValues>
        -2.0041656494140625e-01 8.7707772850990295e-02</leafValues></_>
    <_>
      <internalNodes>
        0 -1 1018 218040320 7450380 517881757 14744447 -925499116
        1449216 -537726980 -230491282</internalNodes>
      <leafValues>
        -2.1805883944034576e-01 8.3359912037849426e-02</leafValues></_>
    <_>
      <internalNodes>
        0 -1 974 -428888452 -558674548 -218144929 421739999 -10244784
        -1671992044 -1445987160 -83630262</internalNodes>
      <leafValues>
        -1.0684013366699219e-01 1.6574992239475250e-01</leafValues></_>
    <_>
      <internalNodes>
        0 -1 274 -54604547 1585237166 -786753 468676328 -1342648836
        -264721 -1418527324 -1150066860</internalNodes>
      <leafValues>
        -1.3306368887424469e-01 1.3148315250873566e-01</leafValues></_>
    <_>
      <internalNodes>
        0 -1 960 678299894 1388252733 708316922 2109419 -234617088
        -117735577 -1073967442 -135352321</internalNodes>
      <leafValues>
        -1.9978132843971252e-01 8.7184861302375793e-02</leafValues></_>
    <_>
      <internalNodes>
        0 -1 156 -390173953 2054819518 -319883138 2062433342 2086486622
        2084717693 -285281202 -93129638</internalNodes>
      <leafValues>
        -1.3856047391891479e-01 1.2800675630569458e-01</leafValues></_></weakClassifiers></stage8>
</opencv_storage>
