<?xml version="1.0"?>
<opencv_storage>
<stage7>
  <maxWeakCount>61</maxWeakCount>
  <stageThreshold>-1.9140706062316895e+00</stageThreshold>
  <weakClassifiers>
    <_>
      <internalNodes>
        0 -1 1013 -1 -13566096 -1 -47120392 -66 -13108112 -2 -63900624</internalNodes>
      <leafValues>
        -4.8157700896263123e-01 9.3923017382621765e-02</leafValues></_>
    <_>
      <internalNodes>
        0 -1 21 -583797455 -33688067 -33554571 -33685507 -2113 -513
        -2051 -572662307</internalNodes>
      <leafValues>
        -2.5199371576309204e-01 3.0551663041114807e-01</leafValues></_>
    <_>
      <internalNodes>
        0 -1 681 -268456154 -1929451521 -285298944 -856772689 -76318923
        -1929904649 -9195771 -537415745</internalNodes>
      <leafValues>
        -2.9631385207176208e-01 2.3922689259052277e-01</leafValues></_>
    <_>
      <internalNodes>
        0 -1 1000 48103679 -67432705 787644415 -134251009 -72728577 -1
        -262145 -1</internalNodes>
      <leafValues>
        -2.3720826208591461e-01 2.3671221733093262e-01</leafValues></_>
    <_>
      <internalNodes>
        0 -1 552 583140336 -86017 2143240191 1073627103 -16388 -147457
        -49153 -1347549142</internalNodes>
      <leafValues>
        -2.2231867909431458e-01 2.5636702775955200e-01</leafValues></_>
    <_>
      <internalNodes>
        0 -1 775 -83890257 -67121153 -889192694 -68157441 2004317959
        1886877559 -210239671 -209715345</internalNodes>
      <leafValues>
        -2.7625268697738647e-01 1.7877587676048279e-01</leafValues></_>
    <_>
      <internalNodes>
        0 -1 105 -358687012 -889262882 -2000713154 -1967141736
        -2131720976 -1997484836 3178496 3359767</internalNodes>
      <leafValues>
        -3.5550585389137268e-01 1.4134335517883301e-01</leafValues></_>
    <_>
      <internalNodes>
        0 -1 180 271562545 -2066836508 -537430667 -35651587 893366579
        -1880105485 355931447 -570452513</internalNodes>
      <leafValues>
        -2.5649437308311462e-01 1.7385934293270111e-01</leafValues></_>
    <_>
      <internalNodes>
        0 -1 752 -855720844 -319017476 1073594367 -217377 -1073758219
        -131075 -1073790979 -1358427640</internalNodes>
      <leafValues>
        -2.1204349398612976e-01 2.0836313068866730e-01</leafValues></_>
    <_>
      <internalNodes>
        0 -1 970 -352353025 -218166273 -289406977 1358167551 -97258476
        -92315820 -76349445 -82575521</internalNodes>
      <leafValues>
        -1.7991176247596741e-01 2.4180102348327637e-01</leafValues></_>
    <_>
      <internalNodes>
        0 -1 1014 50267359 1350551359 -1090912257 272105471 -261696052
        -62963963 -52102145 -230490273</internalNodes>
      <leafValues>
        -1.6704639792442322e-01 2.3713488876819611e-01</leafValues></_>
    <_>
      <internalNodes>
        0 -1 5 -239611647 6485687 -717753035 -705167369 -2113 335542271
        -33557057 -134742017</internalNodes>
      <leafValues>
        -2.0069178938865662e-01 1.8935444951057434e-01</leafValues></_>
    <_>
      <internalNodes>
        0 -1 632 2139094308 355849525 -1610612740 1073741695 -134218315
        -1779057243 -805319768 142604408</internalNodes>
      <leafValues>
        -2.2077815234661102e-01 1.6657982766628265e-01</leafValues></_>
    <_>
      <internalNodes>
        0 -1 959 -1975536367 -1900102096 -3 -1073758219 1050654717
        -1342177283 535772669 -1342500808</internalNodes>
      <leafValues>
        -1.8328824639320374e-01 1.9893287122249603e-01</leafValues></_>
    <_>
      <internalNodes>
        0 -1 753 775879796 1043902077 -1342193665 -1342263553 775893809
        -1073758733 738148223 -1342233045</internalNodes>
      <leafValues>
        -2.3747177422046661e-01 1.4264349639415741e-01</leafValues></_>
    <_>
      <internalNodes>
        0 -1 920 -84152593 -788855041 -1439500546 14938111 -210558956
        -263109292 -10223681 -212860929</internalNodes>
      <leafValues>
        -1.5625432133674622e-01 2.1974612772464752e-01</leafValues></_>
    <_>
      <internalNodes>
        0 -1 659 12585524 -114690 -270606337 -1073931265 -1077657716
        -381505 -1343160387 -1347813320</internalNodes>
      <leafValues>
        -2.2447802126407623e-01 1.5112952888011932e-01</leafValues></_>
    <_>
      <internalNodes>
        0 -1 362 -1347442909 -1532320014 -4210831 -536939102 791066615
        -1977456798 1970763125 -839944717</internalNodes>
      <leafValues>
        -1.9836154580116272e-01 1.7159609496593475e-01</leafValues></_>
    <_>
      <internalNodes>
        0 -1 0 4112 268566800 498939157 -33858499 1044067761 -1073758220
        1027020081 -58339</internalNodes>
      <leafValues>
        -3.5959252715110779e-01 9.5162890851497650e-02</leafValues></_>
    <_>
      <internalNodes>
        0 -1 80 -8392734 281472943 1979645934 -538252662 1970423806
        1349539831 2004186111 1467445879</internalNodes>
      <leafValues>
        -2.3739129304885864e-01 1.2870813906192780e-01</leafValues></_>
    <_>
      <internalNodes>
        0 -1 551 -1942877072 -4317452 -134316041 1073618428 -1074000452
        -19333287 -4449032 -1426453288</internalNodes>
      <leafValues>
        -2.4276812374591827e-01 1.2790776789188385e-01</leafValues></_>
    <_>
      <internalNodes>
        0 -1 231 -1048597 -467227985 -286277769 -319885569 -168443008
        -701121537 -67764415 -993666489</internalNodes>
      <leafValues>
        -1.5942078828811646e-01 1.9489514827728271e-01</leafValues></_>
    <_>
      <internalNodes>
        0 -1 431 -898494896 2079853686 -4443175 1001926199 -1277688748
        -107655 -246628 -1430648784</internalNodes>
      <leafValues>
        -2.2716487944126129e-01 1.3721467554569244e-01</leafValues></_>
    <_>
      <internalNodes>
        0 -1 1013 -562890768 2088239031 -327689 385285399 -277336495
        -131049545 -982381007 199712719</internalNodes>
      <leafValues>
        -1.6476321220397949e-01 1.8899545073509216e-01</leafValues></_>
    <_>
      <internalNodes>
        0 -1 3 1543830900 287313368 -525315 -5923216 1291189757
        -855730689 1576394237 -930821900</internalNodes>
      <leafValues>
        -2.9961186647415161e-01 9.9115520715713501e-02</leafValues></_>
    <_>
      <internalNodes>
        0 -1 470 -1104171741 -2000093450 2133700402 -303520536
        -1089751625 -1935491114 196601203 -909126433</internalNodes>
      <leafValues>
        -1.7455826699733734e-01 1.6932867467403412e-01</leafValues></_>
    <_>
      <internalNodes>
        0 -1 736 572270452 -17022978 2144731135 2147295102 -1133133828
        -1073922050 804861951 -1145372486</internalNodes>
      <leafValues>
        -1.5816514194011688e-01 1.9811329245567322e-01</leafValues></_>
    <_>
      <internalNodes>
        0 -1 570 -17825873 -37761539 -287904222 -306184193 1735747575
        -251700225 -134874113 -318898945</internalNodes>
      <leafValues>
        -1.2777425348758698e-01 2.2123450040817261e-01</leafValues></_>
    <_>
      <internalNodes>
        0 -1 156 -357939617 1517953655 -2035659138 947027711 1144980564
        -18917761 -856405282 -17662337</internalNodes>
      <leafValues>
        -1.8094398081302643e-01 1.4896050095558167e-01</leafValues></_>
    <_>
      <internalNodes>
        0 -1 547 1311389296 -17027074 1610563421 -1343439233 1650799989
        -17793153 -270583911 -1347485686</internalNodes>
      <leafValues>
        -1.8018464744091034e-01 1.4734710752964020e-01</leafValues></_>
    <_>
      <internalNodes>
        0 -1 960 -894302040 1354441471 -1565382177 8130543 -7468284
        -231385233 -67441665 -76546113</internalNodes>
      <leafValues>
        -2.0010340213775635e-01 1.3430124521255493e-01</leafValues></_>
    <_>
      <internalNodes>
        0 -1 85 -723193132 -723194706 1314839514 -1896874258 1966171984
        -168788731 -8970486 717709891</internalNodes>
      <leafValues>
        -2.2249607741832733e-01 1.2012916058301926e-01</leafValues></_>
    <_>
      <internalNodes>
        0 -1 918 -1640229835 -1095221284 -539361283 -1074905127
        -1409338947 -16643 -1073801731 -1363211086</internalNodes>
      <leafValues>
        -1.7655198276042938e-01 1.4964123070240021e-01</leafValues></_>
    <_>
      <internalNodes>
        0 -1 10 -8497 334749623 -1054112 -4722721 -1084758085
        -1225730314 -1049649 -1835050</internalNodes>
      <leafValues>
        -1.0903564095497131e-01 2.4919293820858002e-01</leafValues></_>
    <_>
      <internalNodes>
        0 -1 1039 -1346382064 153346818 -543721136 -577768096 258997689
        -1930428491 209171632 -1931479564</internalNodes>
      <leafValues>
        -1.7668904364109039e-01 1.4791315793991089e-01</leafValues></_>
    <_>
      <internalNodes>
        0 -1 860 -285234131 -495493157 -1562391057 -923052049
        -1099565196 -294160513 -737602 -80486802</internalNodes>
      <leafValues>
        -1.4146950840950012e-01 1.8491487205028534e-01</leafValues></_>
    <_>
      <internalNodes>
        0 -1 1015 -386741028 276310004 -1342767233 488177656 -629755988
        -1103488651 -143409409 -117260449</internalNodes>
      <leafValues>
        -1.6984051465988159e-01 1.5343467891216278e-01</leafValues></_>
    <_>
      <internalNodes>
        0 -1 88 -1372674270 -290803946 -165904 -82124 1179543348 4220164
        1431623156 -976759312</internalNodes>
      <leafValues>
        -2.3135298490524292e-01 1.1165241152048111e-01</leafValues></_>
    <_>
      <internalNodes>
        0 -1 748 1114552532 16005079 989736959 -1079071014 -536921611
        -1158283347 -1342360856 -1442242550</internalNodes>
      <leafValues>
        -1.7098951339721680e-01 1.4887291193008423e-01</leafValues></_>
    <_>
      <internalNodes>
        0 -1 569 -844648702 -933179433 -1359074032 -318860034 -855507083
        206890781 -15221200 204738096</internalNodes>
      <leafValues>
        -2.9114958643913269e-01 8.6095325648784637e-02</leafValues></_>
    <_>
      <internalNodes>
        0 -1 213 -1604066814 284059390 200243038 198178510 1731294592
        -34096754 2136964930 804223566</internalNodes>
      <leafValues>
        -2.0336826145648956e-01 1.2192100286483765e-01</leafValues></_>
    <_>
      <internalNodes>
        0 -1 756 -292487308 -246785 -16843275 -1611809025 -182275
        -1302539 -67162145 -1343279318</internalNodes>
      <leafValues>
        -1.2464474886655807e-01 1.9356806576251984e-01</leafValues></_>
    <_>
      <internalNodes>
        0 -1 21 854343670 -1760379594 1564335615 -4743306 355843505
        -838961195 89414935 -270047385</internalNodes>
      <leafValues>
        -1.5778870880603790e-01 1.5392620861530304e-01</leafValues></_>
    <_>
      <internalNodes>
        0 -1 885 -566184076 -1078969475 -33581569 -72138881 -1150304579
        -1095096321 1069234943 -1895880581</internalNodes>
      <leafValues>
        -1.3269984722137451e-01 1.7646408081054688e-01</leafValues></_>
    <_>
      <internalNodes>
        0 -1 1005 41616639 318440719 -1427170049 284372983 -92652512
        -145543347 -365783090 -80560485</internalNodes>
      <leafValues>
        -1.9300563633441925e-01 1.2571252882480621e-01</leafValues></_>
    <_>
      <internalNodes>
        0 -1 186 1098375456 -1058091026 -47536380 -909628498 1039591227
        1156634367 2104733516 1413759754</internalNodes>
      <leafValues>
        -2.4774327874183655e-01 9.4611443579196930e-02</leafValues></_>
    <_>
      <internalNodes>
        0 -1 557 136449616 -1158017097 -277061641 523394302 -1628099051
        -1090625539 -605257857 -1432745904</internalNodes>
      <leafValues>
        -2.5339385867118835e-01 9.0225994586944580e-02</leafValues></_>
    <_>
      <internalNodes>
        0 -1 283 1431218728 1078240772 1281814277 -837964569 1413808656
        273691444 -25893118 74789479</internalNodes>
      <leafValues>
        -2.9122769832611084e-01 7.8173883259296417e-02</leafValues></_>
    <_>
      <internalNodes>
        0 -1 320 -1206996047 -2135979296 536810768 -537003015
        -1760582735 -2004304937 1432167733 -570452017</internalNodes>
      <leafValues>
        -1.5972718596458435e-01 1.4414934813976288e-01</leafValues></_>
    <_>
      <internalNodes>
        0 -1 678 -334324108 -25542665 -1342343169 -1364320705 -35833931
        -18018343 1073683773 -1431622142</internalNodes>
      <leafValues>
        -1.4906167984008789e-01 1.5157687664031982e-01</leafValues></_>
    <_>
      <internalNodes>
        0 -1 565 -266258 821787643 -429429214 1940907770 1624916223
        553215919 1996486508 -201539586</internalNodes>
      <leafValues>
        -1.4563924074172974e-01 1.5385122597217560e-01</leafValues></_>
    <_>
      <internalNodes>
        0 -1 124 -487938389 -322278678 -272892547 -1687810 254809011
        -1428011010 1104503248 -917277584</internalNodes>
      <leafValues>
        -1.6574679315090179e-01 1.3666012883186340e-01</leafValues></_>
    <_>
      <internalNodes>
        0 -1 636 -629361420 -19251587 -1075896463 -1179054606
        -1661169411 -268747657 -318980107 -1440538614</internalNodes>
      <leafValues>
        -1.6231034696102142e-01 1.4351600408554077e-01</leafValues></_>
    <_>
      <internalNodes>
        0 -1 915 -856693451 143441184 -1971847780 1047048040 805303733
        250470077 217005469 -1396756678</internalNodes>
      <leafValues>
        -1.5243212878704071e-01 1.4633180201053619e-01</leafValues></_>
    <_>
      <internalNodes>
        0 -1 761 -83955969 -1466279211 -353128921 -520845077 -76318927
        -214280321 -8995013 -13525316</internalNodes>
      <leafValues>
        -1.1889652162790298e-01 1.7845852673053741e-01</leafValues></_>
    <_>
      <internalNodes>
        0 -1 72 707404083 -555571246 1874722804 -67211272 100872115
        6568546 1171642356 -976752252</internalNodes>
      <leafValues>
        -1.8498256802558899e-01 1.1520095914602280e-01</leafValues></_>
    <_>
      <internalNodes>
        0 -1 216 -1423202525 -881957990 -12698795 -143987126 -1639275537
        -830326944 -16254977 -842010209</internalNodes>
      <leafValues>
        -1.0349420458078384e-01 2.2802415490150452e-01</leafValues></_>
    <_>
      <internalNodes>
        0 -1 900 -34144267 -30370560 -554116225 -776986840 -22088044
        -1196419839 258633571 19096351</internalNodes>
      <leafValues>
        -1.6232824325561523e-01 1.3147625327110291e-01</leafValues></_>
    <_>
      <internalNodes>
        0 -1 6 544682272 15524581 -403265776 1975794424 1970534307
        1156756415 527774525 -169575087</internalNodes>
      <leafValues>
        -2.6827663183212280e-01 7.8444764018058777e-02</leafValues></_>
    <_>
      <internalNodes>
        0 -1 77 -679543290 1362503487 -293610538 -4256246 1288722420
        15728864 -277381668 1292059706</internalNodes>
      <leafValues>
        -1.7586836218833923e-01 1.1849804222583771e-01</leafValues></_>
    <_>
      <internalNodes>
        0 -1 316 -1435890477 -1158268237 -857052553 441064061 612305992
        -1107344177 -329494724 -1434320272</internalNodes>
      <leafValues>
        -2.0464125275611877e-01 1.0030801594257355e-01</leafValues></_></weakClassifiers></stage7>
</opencv_storage>
