<?xml version="1.0"?>
<opencv_storage>
<stage2>
  <maxWeakCount>22</maxWeakCount>
  <stageThreshold>-2.0397858619689941e+00</stageThreshold>
  <weakClassifiers>
    <_>
      <internalNodes>
        0 -1 765 -83890257 -1 -285216785 -1 1886876503 1904181119
        -218103809 -134217729</internalNodes>
      <leafValues>
        -5.3024291992187500e-01 3.4576281905174255e-01</leafValues></_>
    <_>
      <internalNodes>
        0 -1 1013 -1 -13566092 -65537 -63898128 -4 -13304492 -6
        -400493520</internalNodes>
      <leafValues>
        -4.4444572925567627e-01 3.7208333611488342e-01</leafValues></_>
    <_>
      <internalNodes>
        0 -1 6 1345581345 15792119 -134744267 -168429569 -134744137
        1173747711 2012739575 -168298497</internalNodes>
      <leafValues>
        -4.0269947052001953e-01 3.6181795597076416e-01</leafValues></_>
    <_>
      <internalNodes>
        0 -1 0 857739569 -1614823632 2143272789 -131 -1086341697
        -1073741893 -1073760325 -16449</internalNodes>
      <leafValues>
        -3.3084779977798462e-01 3.5570091009140015e-01</leafValues></_>
    <_>
      <internalNodes>
        0 -1 552 174066548 -81921 1073692671 1073491902 -180227 -16385
        -118785 -1347810646</internalNodes>
      <leafValues>
        -2.8696155548095703e-01 3.6354595422744751e-01</leafValues></_>
    <_>
      <internalNodes>
        0 -1 11 -470816894 14727095 -475668224 -169476097 1475852175
        98588607 -134785057 2012575727</internalNodes>
      <leafValues>
        -4.2287135124206543e-01 2.1873827278614044e-01</leafValues></_>
    <_>
      <internalNodes>
        0 -1 1005 16647391 1927221215 788410367 586813439 1951548478
        -25526402 -1090605057 -85278785</internalNodes>
      <leafValues>
        -3.2918381690979004e-01 2.7446621656417847e-01</leafValues></_>
    <_>
      <internalNodes>
        0 -1 79 -17104897 -17110098 -1430602440 -1950642680 -2135892744
        -2133816144 3145728 7553026</internalNodes>
      <leafValues>
        -4.0140596032142639e-01 2.1222026646137238e-01</leafValues></_>
    <_>
      <internalNodes>
        0 -1 437 141561463 989470335 -1145405441 989478783 1047923798
        -32897 -16875522 -1426444554</internalNodes>
      <leafValues>
        -3.4994640946388245e-01 2.1113742887973785e-01</leafValues></_>
    <_>
      <internalNodes>
        0 -1 560 -402657369 12233642 -273685504 -923867486 -134219913
        16250865 -543694 -671095809</internalNodes>
      <leafValues>
        -2.8766024112701416e-01 2.6579359173774719e-01</leafValues></_>
    <_>
      <internalNodes>
        0 -1 831 -16973836 -1073823745 -16385 -1073823745 -1090568195
        -1073758209 -1073790981 -1342230981</internalNodes>
      <leafValues>
        -2.1822406351566315e-01 3.0843964219093323e-01</leafValues></_>
    <_>
      <internalNodes>
        0 -1 864 -218109233 -251697153 -286003217 -251695169 1970758485
        1886748533 -67108865 -261619841</internalNodes>
      <leafValues>
        -2.3518346250057220e-01 2.7468547224998474e-01</leafValues></_>
    <_>
      <internalNodes>
        0 -1 1000 1048596 1936744959 719379959 41086719 309329924
        2004295293 -352780353 -202637313</internalNodes>
      <leafValues>
        -3.9868909120559692e-01 1.5951246023178101e-01</leafValues></_>
    <_>
      <internalNodes>
        0 -1 623 -59375688 1440013661 -339826118 -1648382145 -2060058695
        288488725 -311505272 3090987</internalNodes>
      <leafValues>
        -2.7694007754325867e-01 2.2539024055004120e-01</leafValues></_>
    <_>
      <internalNodes>
        0 -1 910 141821012 -1151590404 -270565379 -253956 -1076546123
        -2293763 -1359200772 -1415042024</internalNodes>
      <leafValues>
        -3.4617534279823303e-01 1.7270176112651825e-01</leafValues></_>
    <_>
      <internalNodes>
        0 -1 1013 -327878828 -721977889 -1360069122 65592895 -562804461
        1551053591 -277078475 515578831</internalNodes>
      <leafValues>
        -2.4734827876091003e-01 2.3753777146339417e-01</leafValues></_>
    <_>
      <internalNodes>
        0 -1 40 590558513 -2080209760 2013214581 -655375 835139379
        -1427703842 931083637 -706743051</internalNodes>
      <leafValues>
        -3.1694644689559937e-01 1.7707264423370361e-01</leafValues></_>
    <_>
      <internalNodes>
        0 -1 574 -262674645 -181076185 -997397498 -928059650 -265167371
        -193659529 -2064331008 -534729182</internalNodes>
      <leafValues>
        -2.5693047046661377e-01 2.2939202189445496e-01</leafValues></_>
    <_>
      <internalNodes>
        0 -1 156 -822197153 1851408251 -293687585 1518874334 1417102420
        -25462913 -59310466 -93684109</internalNodes>
      <leafValues>
        -2.4364742636680603e-01 2.2503419220447540e-01</leafValues></_>
    <_>
      <internalNodes>
        0 -1 547 -797904016 -8863745 -16387 -1082245121 -770059
        -34537481 -268484647 -1348532190</internalNodes>
      <leafValues>
        -1.8133960664272308e-01 2.8825867176055908e-01</leafValues></_>
    <_>
      <internalNodes>
        0 -1 160 -1928362751 -1903386968 -4197035 -35790884 566071985
        -1947074567 893367601 -739248129</internalNodes>
      <leafValues>
        -2.4150244891643524e-01 2.0799516141414642e-01</leafValues></_>
    <_>
      <internalNodes>
        0 -1 49 1348986626 300967875 1960996462 -5308490 1968461798
        1962198479 -212372534 1961116426</internalNodes>
      <leafValues>
        -2.9480502009391785e-01 1.6905589401721954e-01</leafValues></_></weakClassifiers></stage2>
</opencv_storage>
