<?xml version="1.0"?>
<opencv_storage>
<stage9>
  <maxWeakCount>66</maxWeakCount>
  <stageThreshold>-1.9018177986145020e+00</stageThreshold>
  <weakClassifiers>
    <_>
      <internalNodes>
        0 -1 667 -619925028 -246020 1063198719 -188449 -1078150148
        -216852 -1074020353 -1081144822</internalNodes>
      <leafValues>
        -3.7583750486373901e-01 2.6204052567481995e-01</leafValues></_>
    <_>
      <internalNodes>
        0 -1 754 -800006920 -254723 1601740799 -57857 -5193736 -222468
        -1073889285 1073679099</internalNodes>
      <leafValues>
        -2.3831222951412201e-01 3.7855687737464905e-01</leafValues></_>
    <_>
      <internalNodes>
        0 -1 686 -82 -2643 -821375732 -5242961 1936981765 1937109765
        -15466737 -214433873</internalNodes>
      <leafValues>
        -2.6801052689552307e-01 2.8393065929412842e-01</leafValues></_>
    <_>
      <internalNodes>
        0 -1 756 -254739216 -226820 -1025 -49153 -3358724 -213000
        -1141129217 1069484731</internalNodes>
      <leafValues>
        -2.2731518745422363e-01 3.5606580972671509e-01</leafValues></_>
    <_>
      <internalNodes>
        0 -1 746 -264177680 -2354434 -204341249 -49153 -1140982792
        -2294804 -1073741829 -1145372486</internalNodes>
      <leafValues>
        -1.3983605802059174e-01 3.7646305561065674e-01</leafValues></_>
    <_>
      <internalNodes>
        0 -1 560 -6230 2785960 -43531774 -1058029332 -1078722625 3388402
        -134745161 -704645121</internalNodes>
      <leafValues>
        -2.6225820183753967e-01 2.2458313405513763e-01</leafValues></_>
    <_>
      <internalNodes>
        0 -1 758 -51053068 -383234 -67911681 -1073791233 -1074085956
        -5456968 -1074053121 -1073795397</internalNodes>
      <leafValues>
        -1.3890407979488373e-01 3.7550914287567139e-01</leafValues></_>
    <_>
      <internalNodes>
        0 -1 0 822087696 -140570188 364639509 -41131 -1145324357
        -1078199567 929021887 -49153</internalNodes>
      <leafValues>
        -2.4618567526340485e-01 2.1058075129985809e-01</leafValues></_>
    <_>
      <internalNodes>
        0 -1 1000 200 1744773883 37399295 585043199 -1473641814 -128277
        -1409614849 -4210945</internalNodes>
      <leafValues>
        -3.4363746643066406e-01 1.1969450116157532e-01</leafValues></_>
    <_>
      <internalNodes>
        0 -1 665 -189221936 -245761 2147431359 -57377 -1073758211
        -1073938949 -1073758209 -1342240581</internalNodes>
      <leafValues>
        -1.5790635347366333e-01 2.7664238214492798e-01</leafValues></_>
    <_>
      <internalNodes>
        0 -1 461 -6226 -989925393 -4214866 -21521 -1223492763 1089652159
        -8396849 -704692289</internalNodes>
      <leafValues>
        -1.5853382647037506e-01 2.5039604306221008e-01</leafValues></_>
    <_>
      <internalNodes>
        0 -1 9 -2621451 -66785554 -8556 -273879552 -722078731 -992673867
        -772419183 -1057652576</internalNodes>
      <leafValues>
        -2.5722643733024597e-01 1.4537523686885834e-01</leafValues></_>
    <_>
      <internalNodes>
        0 -1 548 711996788 251576319 1073692639 805257183 -1343676624
        -1090552867 -1073799375 -1342230721</internalNodes>
      <leafValues>
        -2.8319039940834045e-01 1.3341091573238373e-01</leafValues></_>
    <_>
      <internalNodes>
        0 -1 535 9453424 -17268865 469711863 1073692287 938557428
        -17271816 -1073790981 -1883699157</internalNodes>
      <leafValues>
        -1.6434556245803833e-01 2.1223919093608856e-01</leafValues></_>
    <_>
      <internalNodes>
        0 -1 40 322122033 283152624 -1208899723 -33712937 -1212155977
        98107348 925366135 -704645635</internalNodes>
      <leafValues>
        -2.2314701974391937e-01 1.4235128462314606e-01</leafValues></_>
    <_>
      <internalNodes>
        0 -1 840 -218373906 -889239825 -392524662 -487854337 1920209152
        1882211185 -202130170 -210239537</internalNodes>
      <leafValues>
        -2.0992377400398254e-01 1.5962713956832886e-01</leafValues></_>
    <_>
      <internalNodes>
        0 -1 221 -504434970 -722030609 -1477243348 -6418774 1982918655
        821035519 1064515387 1329729035</internalNodes>
      <leafValues>
        -2.1203187108039856e-01 1.4521385729312897e-01</leafValues></_>
    <_>
      <internalNodes>
        0 -1 667 620120689 144961375 -537591809 1069212221 1878485683
        -1119920405 2069127097 1266463229</internalNodes>
      <leafValues>
        -1.7585597932338715e-01 1.7041394114494324e-01</leafValues></_>
    <_>
      <internalNodes>
        0 -1 849 -133103816 1882256759 -1027678686 1344336883 -572141792
        -193659279 -1249760 -536829390</internalNodes>
      <leafValues>
        -2.7176666259765625e-01 1.0654060542583466e-01</leafValues></_>
    <_>
      <internalNodes>
        0 -1 350 -140839517 -823205400 -33559776 -69395 -1498695757
        -2013071424 927462743 -842013185</internalNodes>
      <leafValues>
        -1.3991729915142059e-01 2.0187841355800629e-01</leafValues></_>
    <_>
      <internalNodes>
        0 -1 1001 1618100311 -211858209 -360972321 872383487 -160421300
        993492503 -24200193 -11796481</internalNodes>
      <leafValues>
        -1.7707182466983795e-01 1.5331079065799713e-01</leafValues></_>
    <_>
      <internalNodes>
        0 -1 804 707266324 -570942595 1073556478 2111646207 -1078611408
        -1392829145 1006316472 -1078261510</internalNodes>
      <leafValues>
        -1.5368451178073883e-01 1.8159745633602142e-01</leafValues></_>
    <_>
      <internalNodes>
        0 -1 837 239006832 -1094938062 -1379942403 -1075922370 251641341
        -1342194755 268383485 -1897266152</internalNodes>
      <leafValues>
        -1.7049390077590942e-01 1.5641279518604279e-01</leafValues></_>
    <_>
      <internalNodes>
        0 -1 165 -68164734 601876402 -1249906656 -681057822 -1145065029
        39908333 -144719093 -139200521</internalNodes>
      <leafValues>
        -1.9408871233463287e-01 1.3342559337615967e-01</leafValues></_>
    <_>
      <internalNodes>
        0 -1 934 -453606396 1482630238 -1427461426 279912191 -146427632
        676942848 -134824214 -1154221798</internalNodes>
      <leafValues>
        -1.6705971956253052e-01 1.5285262465476990e-01</leafValues></_>
    <_>
      <internalNodes>
        0 -1 252 -591462412 -729912129 1862179644 -1925497585 -856359172
        -122286871 -344912783 184746251</internalNodes>
      <leafValues>
        -1.8120560050010681e-01 1.4111092686653137e-01</leafValues></_>
    <_>
      <internalNodes>
        0 -1 918 707803440 -1078165703 -1115840523 -1073778691
        1056488881 -2097475 1052720381 -1342240711</internalNodes>
      <leafValues>
        -2.0543922483921051e-01 1.1506609618663788e-01</leafValues></_>
    <_>
      <internalNodes>
        0 -1 744 1321400916 -2031082252 2103427069 -1610866721
        -1346949643 -1073759461 -1347076161 -1422194629</internalNodes>
      <leafValues>
        -1.3007299602031708e-01 1.8566334247589111e-01</leafValues></_>
    <_>
      <internalNodes>
        0 -1 846 1625441826 -251696897 43967118 33025791 1899329280
        1903540533 -124473444 823508973</internalNodes>
      <leafValues>
        -2.9803088307380676e-01 8.1024318933486938e-02</leafValues></_>
    <_>
      <internalNodes>
        0 -1 749 784219252 -1355239683 1860680701 -1342534017
        -1420329163 -1346832523 -1091620993 -1359007137</internalNodes>
      <leafValues>
        -1.9504193961620331e-01 1.1898230016231537e-01</leafValues></_>
    <_>
      <internalNodes>
        0 -1 153 -1033711934 2071874431 -18711708 995244786 1244204556
        1482378027 -88207762 -1423757552</internalNodes>
      <leafValues>
        -1.7509834468364716e-01 1.3098999857902527e-01</leafValues></_>
    <_>
      <internalNodes>
        0 -1 216 924301088 -961879680 1453848947 -36176132 -1352424782
        1170876298 927421335 -976236147</internalNodes>
      <leafValues>
        -1.6423062980175018e-01 1.4118431508541107e-01</leafValues></_>
    <_>
      <internalNodes>
        0 -1 887 -293870048 808500772 1038794750 8388511 -1213219436
        2306309 -1950373208 516143</internalNodes>
      <leafValues>
        -2.4323926866054535e-01 9.5283225178718567e-02</leafValues></_>
    <_>
      <internalNodes>
        0 -1 589 -236474624 1074045479 -117445076 -1527862034 -706414607
        1366628147 -422187964 537141792</internalNodes>
      <leafValues>
        -3.3669316768646240e-01 6.4535990357398987e-02</leafValues></_>
    <_>
      <internalNodes>
        0 -1 816 -1800898608 -253738116 1070989311 2145135359
        -1410289004 -754427 -1084901379 -1074069382</internalNodes>
      <leafValues>
        -1.2823545932769775e-01 1.7001321911811829e-01</leafValues></_>
    <_>
      <internalNodes>
        0 -1 565 -203428178 54079457 -925580154 550285287 1616003603
        287850606 1366742784 1935980161</internalNodes>
      <leafValues>
        -2.8359982371330261e-01 7.7310100197792053e-02</leafValues></_>
    <_>
      <internalNodes>
        0 -1 525 -52625420 -31779 535313917 -1073795485 -268644356
        -36963 -1113801793 -1372643541</internalNodes>
      <leafValues>
        -1.3478086888790131e-01 1.6589835286140442e-01</leafValues></_>
    <_>
      <internalNodes>
        0 -1 20 268653617 -1839164780 -1615874219 -35687939 867415207
        -1215589397 903180599 -167837441</internalNodes>
      <leafValues>
        -1.9219399988651276e-01 1.1315090954303741e-01</leafValues></_>
    <_>
      <internalNodes>
        0 -1 622 -75763476 299414958 1844408319 466610175 -168314907
        -1265109259 -1088447525 -1980765313</internalNodes>
      <leafValues>
        -1.0315286368131638e-01 2.0681920647621155e-01</leafValues></_>
    <_>
      <internalNodes>
        0 -1 13 -687346554 -254481707 1782050594 -290525490 72738735
        -705302849 -8388826 -922893756</internalNodes>
      <leafValues>
        -1.6364894807338715e-01 1.3242845237255096e-01</leafValues></_>
    <_>
      <internalNodes>
        0 -1 730 -1442301932 -122944202 912225143 1073548029 -1156530924
        -286081832 -1113637960 -1078256581</internalNodes>
      <leafValues>
        -1.2516042590141296e-01 1.6518050432205200e-01</leafValues></_>
    <_>
      <internalNodes>
        0 -1 175 -288370937 -4734977 1286466327 -16973825 1071087615
        -1595197822 -524289 5559093</internalNodes>
      <leafValues>
        -1.4097373187541962e-01 1.5328720211982727e-01</leafValues></_>
    <_>
      <internalNodes>
        0 -1 997 -2144161776 -1482401760 -1409398828 -1246604 188661244
        -1342253072 383661564 -1363667664</internalNodes>
      <leafValues>
        -1.9373045861721039e-01 1.0568422079086304e-01</leafValues></_>
    <_>
      <internalNodes>
        0 -1 925 -92552022 -1023457451 1254321802 1080775679 -94701238
        -146189308 -629294198 -209977890</internalNodes>
      <leafValues>
        -1.1905977129936218e-01 1.6962365806102753e-01</leafValues></_>
    <_>
      <internalNodes>
        0 -1 160 -1333145471 -1885434200 376090928 -604042772
        -1916868929 -270598213 389010826 -537151777</internalNodes>
      <leafValues>
        -1.1919740587472916e-01 1.6965724527835846e-01</leafValues></_>
    <_>
      <internalNodes>
        0 -1 438 -352399787 2130577151 -71664517 733490939 -604274697
        -84013058 -272688517 -1079300318</internalNodes>
      <leafValues>
        -1.1573094129562378e-01 1.7069469392299652e-01</leafValues></_>
    <_>
      <internalNodes>
        0 -1 1039 -1146359775 260240688 -268581968 -844245518 799798449
        -1898009163 1064016353 -1881450000</internalNodes>
      <leafValues>
        -1.5144519507884979e-01 1.2730917334556580e-01</leafValues></_>
    <_>
      <internalNodes>
        0 -1 87 -537925110 -1576206737 -269550063 -286344465 -2085255424
        552975349 -150783 71566148</internalNodes>
      <leafValues>
        -2.8968247771263123e-01 6.7808426916599274e-02</leafValues></_>
    <_>
      <internalNodes>
        0 -1 467 1210566058 1374996075 1609523063 -823140626 1634850737
        -167776265 -276971773 -1416660478</internalNodes>
      <leafValues>
        -1.3064265251159668e-01 1.5116339921951294e-01</leafValues></_>
    <_>
      <internalNodes>
        0 -1 91 -960565342 -456252426 -85273756 -542208978 1164985510
        6293314 2001200980 1162302275</internalNodes>
      <leafValues>
        -2.4496760964393616e-01 7.6094254851341248e-02</leafValues></_>
    <_>
      <internalNodes>
        0 -1 953 -1459483628 -1763941184 939523839 -773957319 530036664
        -620769795 799849980 -1623584997</internalNodes>
      <leafValues>
        -1.4184810221195221e-01 1.3078001141548157e-01</leafValues></_>
    <_>
      <internalNodes>
        0 -1 1010 12189932 -739308289 914115581 16584701 -222776684
        1014699806 -1097547777 -262997121</internalNodes>
      <leafValues>
        -1.6819998621940613e-01 1.0948399454355240e-01</leafValues></_>
    <_>
      <internalNodes>
        0 -1 455 -1297111775 -1915821912 1475010816 -672210116 841152273
        -2065636910 1430648147 -577899009</internalNodes>
      <leafValues>
        -1.5371459722518921e-01 1.2104209512472153e-01</leafValues></_>
    <_>
      <internalNodes>
        0 -1 300 -355840806 -4578056 1509476318 1006271743 -1880601380
        -21488307 -1213924628 -1948580673</internalNodes>
      <leafValues>
        -1.0853496938943863e-01 1.6944628953933716e-01</leafValues></_>
    <_>
      <internalNodes>
        0 -1 148 -352661781 -71692641 -26018348 -612729092 1047417352
        -11245709 -23955202 -1149602473</internalNodes>
      <leafValues>
        -1.1117498576641083e-01 1.6482995450496674e-01</leafValues></_>
    <_>
      <internalNodes>
        0 -1 960 316817416 -84800772 -1566961998 572523995 -234618364
        -267301786 -369484639 -146554945</internalNodes>
      <leafValues>
        -2.1046945452690125e-01 8.5641682147979736e-02</leafValues></_>
    <_>
      <internalNodes>
        0 -1 776 1618101294 1358755566 -1972843380 -571724818 1936793381
        1702195445 -485405951 561888424</internalNodes>
      <leafValues>
        -2.3527266085147858e-01 7.5680412352085114e-02</leafValues></_>
    <_>
      <internalNodes>
        0 -1 896 672176948 437280376 -1395761156 -214425793 -1348357728
        -1344309512 1072631485 -1078327110</internalNodes>
      <leafValues>
        -1.4461362361907959e-01 1.2381404638290405e-01</leafValues></_>
    <_>
      <internalNodes>
        0 -1 1028 -209720799 305666048 -1093808738 839057374 -80761308
        -1942782700 -1343570964 -2010972854</internalNodes>
      <leafValues>
        -1.6758613288402557e-01 1.0978435724973679e-01</leafValues></_>
    <_>
      <internalNodes>
        0 -1 72 -1356236509 -601702438 -335677455 -489738 1744252855
        -832139359 1468360647 -706751011</internalNodes>
      <leafValues>
        -1.2933580577373505e-01 1.4294590055942535e-01</leafValues></_>
    <_>
      <internalNodes>
        0 -1 171 -808458354 23393199 -1977441716 -810786978 930518925
        1426514918 -9055284 -288065980</internalNodes>
      <leafValues>
        -1.6093434393405914e-01 1.1201816052198410e-01</leafValues></_>
    <_>
      <internalNodes>
        0 -1 434 -126204711 -385196 -65545 996687285 -1628829475
        -2203651 -139698177 -1147533070</internalNodes>
      <leafValues>
        -1.1508078873157501e-01 1.5134848654270172e-01</leafValues></_>
    <_>
      <internalNodes>
        0 -1 978 1290960928 -602108851 -1401798770 291053519 -1294165500
        -1942156267 -1074614308 -1157371334</internalNodes>
      <leafValues>
        -1.1844915151596069e-01 1.4493417739868164e-01</leafValues></_>
    <_>
      <internalNodes>
        0 -1 246 -690114641 1185463848 1338875159 -860881281 -680140032
        -186281099 -135405 726088454</internalNodes>
      <leafValues>
        -1.4668606221675873e-01 1.1724479496479034e-01</leafValues></_>
    <_>
      <internalNodes>
        0 -1 97 -36765980 284617414 2124414414 166706863 1665433412
        1890642105 1999051533 1844920902</internalNodes>
      <leafValues>
        -1.8323835730552673e-01 9.6733711659908295e-02</leafValues></_>
    <_>
      <internalNodes>
        0 -1 571 -93330678 293581949 -825323248 -1989214210 837105387
        -1309704709 -252842019 -1462960338</internalNodes>
      <leafValues>
        -1.4360398054122925e-01 1.2866385281085968e-01</leafValues></_></weakClassifiers></stage9>
</opencv_storage>
