<?xml version="1.0"?>
<opencv_storage>
<stage4>
  <maxWeakCount>67</maxWeakCount>
  <stageThreshold>-1.9953143596649170e+00</stageThreshold>
  <weakClassifiers>
    <_>
      <internalNodes>
        0 -1 38 -589825 -868353 -1 -16385 -15663105 -13615340 -9043969
        2138404679</internalNodes>
      <leafValues>
        -5.2882486581802368e-01 2.5950199365615845e-01</leafValues></_>
    <_>
      <internalNodes>
        0 -1 4 -1 -1 -33554433 -1 1298888703 -1 1610577397 -2571</internalNodes>
      <leafValues>
        -3.3578440546989441e-01 3.5229972004890442e-01</leafValues></_>
    <_>
      <internalNodes>
        0 -1 896 -21761 1073688575 -1 1073725439 -83902785 -16385
        -1157644353 720355327</internalNodes>
      <leafValues>
        -3.2341194152832031e-01 3.5249745845794678e-01</leafValues></_>
    <_>
      <internalNodes>
        0 -1 1120 201270575 1006579327 -276828705 -1342504961 234839279
        -513 -16779025 -1459683329</internalNodes>
      <leafValues>
        -2.9910621047019958e-01 2.2032862901687622e-01</leafValues></_>
    <_>
      <internalNodes>
        0 -1 25 -14418121 -3150035 -786433 -1 226882423 -268975113
        1170567541 -705342091</internalNodes>
      <leafValues>
        -2.5888803601264954e-01 2.3205733299255371e-01</leafValues></_>
    <_>
      <internalNodes>
        0 -1 804 747126645 -1073955332 -281601 -1078132739 -1344552961
        -1073759491 -1078231043 -1342567127</internalNodes>
      <leafValues>
        -3.0861535668373108e-01 1.5612789988517761e-01</leafValues></_>
    <_>
      <internalNodes>
        0 -1 128 -486560017 1929203311 -495318289 -1574974865 1736394607
        2000641391 -41105 -8388753</internalNodes>
      <leafValues>
        -2.5123423337936401e-01 2.1690142154693604e-01</leafValues></_>
    <_>
      <internalNodes>
        0 -1 607 1580400380 2147155455 -131075 -2555939 2103458476
        2062446575 2117254876 583034692</internalNodes>
      <leafValues>
        -3.0345258116722107e-01 1.7935533821582794e-01</leafValues></_>
    <_>
      <internalNodes>
        0 -1 1017 -117565355 -606137219 -4194305 937369567 -3145900 -17
        -84100552 -1440071877</internalNodes>
      <leafValues>
        -2.2888663411140442e-01 2.0600262284278870e-01</leafValues></_>
    <_>
      <internalNodes>
        0 -1 550 -1441728523 -33753348 -33685505 -2561 731642879
        -1328449 -1174439427 -1342221195</internalNodes>
      <leafValues>
        -1.8153962492942810e-01 2.3363941907882690e-01</leafValues></_>
    <_>
      <internalNodes>
        0 -1 855 251538252 -1078051201 -1618075649 -1617412241
        -1074131972 -1075963394 -1091953160 -1342554261</internalNodes>
      <leafValues>
        -2.5152400135993958e-01 1.6021250188350677e-01</leafValues></_>
    <_>
      <internalNodes>
        0 -1 38 -213273696 2021486515 -4817620 1991271170 1902493568
        989840879 2001079808 -1597108292</internalNodes>
      <leafValues>
        -2.1834690868854523e-01 1.8793052434921265e-01</leafValues></_>
    <_>
      <internalNodes>
        0 -1 120 -270545297 2054676559 -498405669 -1023677713 1139241791
        1665103691 -268469377 -134873089</internalNodes>
      <leafValues>
        -1.5103484690189362e-01 2.3159053921699524e-01</leafValues></_>
    <_>
      <internalNodes>
        0 -1 1036 -656751540 536610607 -1073742082 1071644671
        -1191196664 1065353019 -84214120 706935599</internalNodes>
      <leafValues>
        -2.3932567238807678e-01 1.4394609630107880e-01</leafValues></_>
    <_>
      <internalNodes>
        0 -1 170 772013943 799076594 -12590338 -1346451888 251754487
        -286523404 1098347877 -268471963</internalNodes>
      <leafValues>
        -2.2576445341110229e-01 1.5288992226123810e-01</leafValues></_>
    <_>
      <internalNodes>
        0 -1 896 217380224 -864378948 805306303 -332632315 833743304
        820935551 2040920650 -1257216241</internalNodes>
      <leafValues>
        -1.8264475464820862e-01 1.7932458221912384e-01</leafValues></_>
    <_>
      <internalNodes>
        0 -1 95 1780674222 -214782037 248122110 -71303555 1128279983
        1579560687 1733717983 -690425</internalNodes>
      <leafValues>
        -1.6470758616924286e-01 1.8663559854030609e-01</leafValues></_>
    <_>
      <internalNodes>
        0 -1 554 586333047 -1393231873 -574621713 -1349197835 670182245
        -1074083393 -1883414663 -1359060640</internalNodes>
      <leafValues>
        -2.0074783265590668e-01 1.4606218039989471e-01</leafValues></_>
    <_>
      <internalNodes>
        0 -1 1121 268378659 199173737 378608688 -1963013027 225388299
        1201626495 -1392574396 1862237563</internalNodes>
      <leafValues>
        -3.1737163662910461e-01 8.3014100790023804e-02</leafValues></_>
    <_>
      <internalNodes>
        0 -1 602 -1467309297 -3503786 -547357697 -268511747 793492139
        -1798 -1367406147 -268480251</internalNodes>
      <leafValues>
        -1.4465670287609100e-01 1.8865510821342468e-01</leafValues></_>
    <_>
      <internalNodes>
        0 -1 1110 -822129587 -612378017 -827888705 -2140487809
        -269824952 -85993506 -18978740 -358547585</internalNodes>
      <leafValues>
        -1.6751018166542053e-01 1.5488690137863159e-01</leafValues></_>
    <_>
      <internalNodes>
        0 -1 4 -270270469 -2114389 -1116750008 -809574915 -1299854027
        -808517724 -988423350 -805995698</internalNodes>
      <leafValues>
        -1.1065641790628433e-01 2.3226273059844971e-01</leafValues></_>
    <_>
      <internalNodes>
        0 -1 0 1809841151 -1 -67249153 -1081147393 636219391 -1476395137
        -1592438447 -571124363</internalNodes>
      <leafValues>
        -1.8023036420345306e-01 1.4924174547195435e-01</leafValues></_>
    <_>
      <internalNodes>
        0 -1 241 -83890194 989851375 -825089278 1003141094 1944009615
        2147449311 2147378987 1876000111</internalNodes>
      <leafValues>
        -1.8003399670124054e-01 1.3758106529712677e-01</leafValues></_>
    <_>
      <internalNodes>
        0 -1 1038 804932905 -61633 2143245311 1802642747 1876936060
        -1076122753 -34964388 -1423787205</internalNodes>
      <leafValues>
        -1.5666966140270233e-01 1.5614309906959534e-01</leafValues></_>
    <_>
      <internalNodes>
        0 -1 874 -18153475 -11080369 -1079246915 -11551265 -1330004019
        -1249 -203423811 -1433720945</internalNodes>
      <leafValues>
        -9.3747772276401520e-02 2.5605267286300659e-01</leafValues></_>
    <_>
      <internalNodes>
        0 -1 822 -2101730464 -268774884 -570515490 -1478827041
        -1345665027 -274766098 -1413783719 -1433927680</internalNodes>
      <leafValues>
        -2.2916854918003082e-01 1.0036355257034302e-01</leafValues></_>
    <_>
      <internalNodes>
        0 -1 92 -93849041 2066392650 2070916650 -1213539616 575034223
        826951392 1163351365 -403179933</internalNodes>
      <leafValues>
        -1.9975583255290985e-01 1.1358465999364853e-01</leafValues></_>
    <_>
      <internalNodes>
        0 -1 1078 -58283 2071933165 -218104099 -1147183873 -409534652
        -2136177 -90670744 -1410662401</internalNodes>
      <leafValues>
        -1.2244347482919693e-01 1.8210029602050781e-01</leafValues></_>
    <_>
      <internalNodes>
        0 -1 1119 48955392 702359359 40880826 720517083 49528836
        872150652 -126094064 -1196359681</internalNodes>
      <leafValues>
        -2.4826329946517944e-01 8.7981902062892914e-02</leafValues></_>
    <_>
      <internalNodes>
        0 -1 709 -84886804 1073494485 1073626293 -1109478449 1056190108
        -1090700289 -4441923 -1078247569</internalNodes>
      <leafValues>
        -1.2754710018634796e-01 1.7116020619869232e-01</leafValues></_>
    <_>
      <internalNodes>
        0 -1 620 -323289874 -1442101 2011114138 -1108166777 138416030
        2135912415 -268735569 -290166937</internalNodes>
      <leafValues>
        -1.2452188879251480e-01 1.7583067715167999e-01</leafValues></_>
    <_>
      <internalNodes>
        0 -1 126 1794837103 840945261 1625958962 552750702 1867939675
        1161130866 -153193424 1927802415</internalNodes>
      <leafValues>
        -2.6015174388885498e-01 8.2382120192050934e-02</leafValues></_>
    <_>
      <internalNodes>
        0 -1 369 -101515502 -184801217 -2097219 1873657706 843099013
        -34559321 1061493512 782976807</internalNodes>
      <leafValues>
        -1.3791781663894653e-01 1.4832004904747009e-01</leafValues></_>
    <_>
      <internalNodes>
        0 -1 386 -799287824 1483878078 -67142145 -1074825478 -686798080
        -7307341 -2646270 1055346435</internalNodes>
      <leafValues>
        -1.6052249073982239e-01 1.2461664527654648e-01</leafValues></_>
    <_>
      <internalNodes>
        0 -1 954 -288972276 -542233290 -1077964034 -2013614305
        -404775208 -1361223765 -301991635 -1549735127</internalNodes>
      <leafValues>
        -1.5034420788288116e-01 1.3387177884578705e-01</leafValues></_>
    <_>
      <internalNodes>
        0 -1 246 -1608370329 -1532970768 -571822164 -2139032079 68236091
        -1409387082 100606305 -1360251803</internalNodes>
      <leafValues>
        -2.2933442890644073e-01 8.4753155708312988e-02</leafValues></_>
    <_>
      <internalNodes>
        0 -1 1071 1862208769 1040000783 -604254465 37250879 -335637334
        -1346470434 -1074596759 -1413943425</internalNodes>
      <leafValues>
        -1.4576858282089233e-01 1.3077557086944580e-01</leafValues></_>
    <_>
      <internalNodes>
        0 -1 1010 762214237 -1076216705 -143383055 -1376637443 733882107
        -1075842179 1063146749 -1342235793</internalNodes>
      <leafValues>
        -1.5706118941307068e-01 1.1516169458627701e-01</leafValues></_>
    <_>
      <internalNodes>
        0 -1 915 -1428650772 -1158797272 1065162232 -1360904215
        653950025 -1073783073 -1073758980 -1078701121</internalNodes>
      <leafValues>
        -1.3880954682826996e-01 1.2711386382579803e-01</leafValues></_>
    <_>
      <internalNodes>
        0 -1 581 -1364000917 -1517478 -268496961 -1883316263 264847277
        -67404807 -33849991 -807709429</internalNodes>
      <leafValues>
        -9.1576978564262390e-02 1.9378764927387238e-01</leafValues></_>
    <_>
      <internalNodes>
        0 -1 849 746718792 -1346882440 2146052540 -1560670635
        -1350956996 -1145096705 -1669853900 -1158137387</internalNodes>
      <leafValues>
        -2.3391491174697876e-01 7.6980642974376678e-02</leafValues></_>
    <_>
      <internalNodes>
        0 -1 807 -1997623436 -1092869794 -33771799 -1356289339
        -1347162271 -1073882372 -1362154071 -1364663967</internalNodes>
      <leafValues>
        -1.5587149560451508e-01 1.1277185380458832e-01</leafValues></_>
    <_>
      <internalNodes>
        0 -1 405 719466799 -5575990 -547416993 -1362473377 256720783
        -538006886 121782629 -371895993</internalNodes>
      <leafValues>
        -1.5166017413139343e-01 1.1497887969017029e-01</leafValues></_>
    <_>
      <internalNodes>
        0 -1 765 -413208280 -4266002 -47734786 -474023689 -1490905302
        -4985283 -814771971 -268476337</internalNodes>
      <leafValues>
        -8.3141393959522247e-02 2.0221514999866486e-01</leafValues></_>
    <_>
      <internalNodes>
        0 -1 547 1760627308 276565117 -1912337382 36703815 796461932
        2119920727 -1079886036 -282378457</internalNodes>
      <leafValues>
        -2.0664261281490326e-01 8.1561796367168427e-02</leafValues></_>
    <_>
      <internalNodes>
        0 -1 439 -1974490454 -23400594 560605706 -537372673 1331157903
        -1154806453 644560885 -270967019</internalNodes>
      <leafValues>
        -1.2669266760349274e-01 1.3802345097064972e-01</leafValues></_>
    <_>
      <internalNodes>
        0 -1 33 -369361113 -157255054 -201326803 -973287714 660701183
        -2067747658 2004162508 1291703588</internalNodes>
      <leafValues>
        -1.1453652381896973e-01 1.4486482739448547e-01</leafValues></_>
    <_>
      <internalNodes>
        0 -1 80 -226755793 -1269214 -690275534 -1490356990 546133867
        -466722556 90132821 -738879707</internalNodes>
      <leafValues>
        -1.8473351001739502e-01 9.3882136046886444e-02</leafValues></_>
    <_>
      <internalNodes>
        0 -1 804 -2005777398 1856124943 -1228950796 671817074 1606966832
        -1292363531 1150813300 437123270</internalNodes>
      <leafValues>
        -1.6398768126964569e-01 9.6495434641838074e-02</leafValues></_>
    <_>
      <internalNodes>
        0 -1 837 -1563368924 -1342552732 2095945406 -541449421
        -1478510643 -1418051607 -1377047059 -471162069</internalNodes>
      <leafValues>
        -1.0286400467157364e-01 1.5636891126632690e-01</leafValues></_>
    <_>
      <internalNodes>
        0 -1 343 1084263116 1916798701 12724910 540175194 2012873002
        540487502 -144703571 -134742169</internalNodes>
      <leafValues>
        -1.5349578857421875e-01 1.0556871443986893e-01</leafValues></_>
    <_>
      <internalNodes>
        0 -1 262 721433969 -94049758 -44237057 -71502859 252917016
        -1230659847 534476285 -304327211</internalNodes>
      <leafValues>
        -1.6217343509197235e-01 9.7118392586708069e-02</leafValues></_>
    <_>
      <internalNodes>
        0 -1 829 -218464213 1582870264 -1647333537 -1108430880
        -452611111 -589283345 -1159741508 570498820</internalNodes>
      <leafValues>
        -1.4903448522090912e-01 1.0748514533042908e-01</leafValues></_>
    <_>
      <internalNodes>
        0 -1 1120 -536292656 1126949575 1017786368 2019370427
        -1502379716 118472014 -1645081768 2147089918</internalNodes>
      <leafValues>
        -9.7565665841102600e-02 1.5341688692569733e-01</leafValues></_>
    <_>
      <internalNodes>
        0 -1 77 418840688 418578147 200221566 2141300651 1986005760
        2112254925 116731180 1048018790</internalNodes>
      <leafValues>
        -2.4223022162914276e-01 6.3515074551105499e-02</leafValues></_>
    <_>
      <internalNodes>
        0 -1 75 -167775710 1458233327 -2151762 -1371623794 1838446559
        2094199294 -950055124 1816620887</internalNodes>
      <leafValues>
        -1.4215789735317230e-01 1.0558429360389709e-01</leafValues></_>
    <_>
      <internalNodes>
        0 -1 928 -1939958187 -1392635937 2071115453 -1346700935
        -268452303 -8942025 -1346077324 -1979047935</internalNodes>
      <leafValues>
        -1.5621539950370789e-01 9.9395275115966797e-02</leafValues></_>
    <_>
      <internalNodes>
        0 -1 1066 1861929069 -56465 -931135633 -806369409 790355144
        -209790864 -162071172 -1422200981</internalNodes>
      <leafValues>
        -9.5068849623203278e-02 1.5548425912857056e-01</leafValues></_>
    <_>
      <internalNodes>
        0 -1 38 1500478847 -1799356872 -1371541614 1810361085
        -1192279744 -1159880709 -812863456 -795166470</internalNodes>
      <leafValues>
        -8.9704178273677826e-02 1.6868358850479126e-01</leafValues></_>
    <_>
      <internalNodes>
        0 -1 1017 -1355553880 1086871199 1319976349 1784212247
        -259369272 1983876846 -923016012 830590168</internalNodes>
      <leafValues>
        -1.3727560639381409e-01 1.1316739767789841e-01</leafValues></_>
    <_>
      <internalNodes>
        0 -1 860 -467469107 2134897495 -323227909 -1073762633 -696860721
        -133 -6295635 -1534943217</internalNodes>
      <leafValues>
        -1.0912043601274490e-01 1.4224003255367279e-01</leafValues></_>
    <_>
      <internalNodes>
        0 -1 612 -394809628 -135482890 -67129697 -1342567841 1933983885
        -337936593 -8964787 -272672955</internalNodes>
      <leafValues>
        -1.0451090335845947e-01 1.4606843888759613e-01</leafValues></_>
    <_>
      <internalNodes>
        0 -1 114 -486610390 1786480283 -1594974002 -789518594 1131560203
        1347598658 -152571650 -134875145</internalNodes>
      <leafValues>
        -1.0652270168066025e-01 1.3825254142284393e-01</leafValues></_>
    <_>
      <internalNodes>
        0 -1 104 -492115281 2131659274 -973209410 -738530732 1716471807
        790459229 1099388884 -403417529</internalNodes>
      <leafValues>
        -1.2760460376739502e-01 1.2028677016496658e-01</leafValues></_>
    <_>
      <internalNodes>
        0 -1 1041 -2064995188 2138965743 2080106031 1002233567 977490952
        2137227185 -84018246 992341921</internalNodes>
      <leafValues>
        -1.2989665567874908e-01 1.1170885711908340e-01</leafValues></_>
    <_>
      <internalNodes>
        0 -1 1046 -268546704 -1613807761 400245172 -335778309
        -1884342980 -1610649636 -1934697160 -357503377</internalNodes>
      <leafValues>
        -1.2278208136558533e-01 1.2440191209316254e-01</leafValues></_></weakClassifiers></stage4>
</opencv_storage>
