<?xml version="1.0"?>
<opencv_storage>
<stage9>
  <maxWeakCount>100</maxWeakCount>
  <stageThreshold>-1.9013483524322510e+00</stageThreshold>
  <weakClassifiers>
    <_>
      <internalNodes>
        0 -1 191 -120389633 -3106062 -10633217 -2859659 124058623
        -70222928 2138527743 -11176089</internalNodes>
      <leafValues>
        -3.6818617582321167e-01 1.6138046979904175e-01</leafValues></_>
    <_>
      <internalNodes>
        0 -1 4 -917505 -1 -14811137 -10753 117650419 -3426565 1461155189
        -174731</internalNodes>
      <leafValues>
        -3.5426029562950134e-01 1.9392912089824677e-01</leafValues></_>
    <_>
      <internalNodes>
        0 -1 886 -16843556 -16864020 -73596931 -1077088275 -4195332
        -4198401 -85132296 -1442250801</internalNodes>
      <leafValues>
        -2.5849652290344238e-01 1.7967525124549866e-01</leafValues></_>
    <_>
      <internalNodes>
        0 -1 356 62451 -4132656 -9044481 -539176483 186744831 -5524230
        867644413 -52875</internalNodes>
      <leafValues>
        -1.4459809660911560e-01 2.7136090397834778e-01</leafValues></_>
    <_>
      <internalNodes>
        0 -1 1049 251599039 1073692671 536296943 1073725439 729753608
        1073706959 721420014 714080239</internalNodes>
      <leafValues>
        -3.3731207251548767e-01 1.0532984137535095e-01</leafValues></_>
    <_>
      <internalNodes>
        0 -1 103 1794992686 1115639038 7514862 1626537727 1114862179
        1075267678 1934848631 1937110903</internalNodes>
      <leafValues>
        -2.3352906107902527e-01 1.4585989713668823e-01</leafValues></_>
    <_>
      <internalNodes>
        0 -1 1042 1322008608 2147419941 -69468706 2138705791 182473072
        -42950 2125127165 707443519</internalNodes>
      <leafValues>
        -2.7352935075759888e-01 8.5669852793216705e-02</leafValues></_>
    <_>
      <internalNodes>
        0 -1 1016 -1092740075 -1073802913 -134832129 1069496669
        -1077952752 -71590145 -15196376 -1442312277</internalNodes>
      <leafValues>
        -1.6573734581470490e-01 1.6965118050575256e-01</leafValues></_>
    <_>
      <internalNodes>
        0 -1 49 -6111233 -134696270 1564991471 -2239794 838875071
        -1077927808 2001041271 -2787497</internalNodes>
      <leafValues>
        -1.6992190480232239e-01 1.6070702672004700e-01</leafValues></_>
    <_>
      <internalNodes>
        0 -1 439 -67437846 -2505111 455616698 -537330185 -351945845
        -74744357 1932997503 -166059</internalNodes>
      <leafValues>
        -1.3912060856819153e-01 1.9647002220153809e-01</leafValues></_>
    <_>
      <internalNodes>
        0 -1 596 -422563552 -285597120 -14831699 -1347637299 1135850477
        -339266909 1802196317 185401925</internalNodes>
      <leafValues>
        -1.6869458556175232e-01 1.4858452975749969e-01</leafValues></_>
    <_>
      <internalNodes>
        0 -1 0 428997631 -570557955 -2622977 -5578753 199262207
        -859898421 295007349 1437619541</internalNodes>
      <leafValues>
        -2.5047188997268677e-01 8.6055614054203033e-02</leafValues></_>
    <_>
      <internalNodes>
        0 -1 127 -429921553 1929316591 574302734 1114318927 1868525391
        1384080398 -411081345 1744830319</internalNodes>
      <leafValues>
        -2.1077404916286469e-01 1.0865310579538345e-01</leafValues></_>
    <_>
      <internalNodes>
        0 -1 813 -1367312032 -4392636 -237653509 -1073817379 -1346741393
        -25637 -1413513863 732561449</internalNodes>
      <leafValues>
        -2.0468662679195404e-01 1.0577840358018875e-01</leafValues></_>
    <_>
      <internalNodes>
        0 -1 514 -1432297432 -273776604 432007671 -1879420847 178299563
        -1414889334 8089973 1304232005</internalNodes>
      <leafValues>
        -2.2395193576812744e-01 9.4547934830188751e-02</leafValues></_>
    <_>
      <internalNodes>
        0 -1 635 709892349 1006504031 181535418 789188447 724176874
        -69587398 -1422247045 725289579</internalNodes>
      <leafValues>
        -1.8767291307449341e-01 1.1079348623752594e-01</leafValues></_>
    <_>
      <internalNodes>
        0 -1 873 -1364714384 -1372061688 -2574375 -1894230691
        -1342444687 -4473542 -1418036891 -1433923831</internalNodes>
      <leafValues>
        -2.1354928612709045e-01 9.0459659695625305e-02</leafValues></_>
    <_>
      <internalNodes>
        0 -1 692 -521080736 -136514843 -179570961 -1348947729 -483347549
        -138890757 2071942525 1791979847</internalNodes>
      <leafValues>
        -1.2724451720714569e-01 1.5013279020786285e-01</leafValues></_>
    <_>
      <internalNodes>
        0 -1 524 -431950066 -237489 -1256215810 -1881644969 1241825067
        -75534069 2138535799 -279095545</internalNodes>
      <leafValues>
        -1.5130446851253510e-01 1.3053476810455322e-01</leafValues></_>
    <_>
      <internalNodes>
        0 -1 471 -84231312 -388042718 -10502273 -285409583 67124993
        -125133069 492271359 -1997580969</internalNodes>
      <leafValues>
        -1.3867159187793732e-01 1.3798491656780243e-01</leafValues></_>
    <_>
      <internalNodes>
        0 -1 60 1873476387 -282075070 -16021319 -1346706196 33715059
        1313276070 1462989169 1440044373</internalNodes>
      <leafValues>
        -2.6955464482307434e-01 7.0954360067844391e-02</leafValues></_>
    <_>
      <internalNodes>
        0 -1 1029 -285303723 1333726309 -76832070 1769471 -3147192
        -67389332 -354877576 -1441071509</internalNodes>
      <leafValues>
        -1.5569271147251129e-01 1.1216104775667191e-01</leafValues></_>
    <_>
      <internalNodes>
        0 -1 478 -1350534280 -67595012 -174984706 -33664783 196112895
        -1074009128 180319741 -805349003</internalNodes>
      <leafValues>
        -1.4049780368804932e-01 1.1887431889772415e-01</leafValues></_>
    <_>
      <internalNodes>
        0 -1 356 -176145028 -2137722219 -699556390 -1407454764
        -1610435275 -1342637569 1295866231 215761150</internalNodes>
      <leafValues>
        -1.4320144057273865e-01 1.1955398321151733e-01</leafValues></_>
    <_>
      <internalNodes>
        0 -1 774 2121333416 1023196905 803093503 -901187 2142650283
        2145386479 2138505211 729953063</internalNodes>
      <leafValues>
        -1.5993331372737885e-01 1.0198775678873062e-01</leafValues></_>
    <_>
      <internalNodes>
        0 -1 317 -360136160 -278085526 1968787906 -69574455 587334443
        -1372708338 1131894129 1206206821</internalNodes>
      <leafValues>
        -2.1777066588401794e-01 7.1781449019908905e-02</leafValues></_>
    <_>
      <internalNodes>
        0 -1 730 538982928 -1359210244 -39988237 -1893181475 -1888161931
        -1143031125 803159365 168296452</internalNodes>
      <leafValues>
        -2.4421505630016327e-01 6.3635811209678650e-02</leafValues></_>
    <_>
      <internalNodes>
        0 -1 903 -268769112 -536938291 2140136170 -4533523 -1147421809
        528164863 -1074013987 -1346653265</internalNodes>
      <leafValues>
        -7.0164635777473450e-02 2.2794227302074432e-01</leafValues></_>
    <_>
      <internalNodes>
        0 -1 103 -1301247925 -1301095301 1492593178 444034806 962726494
        1917979231 -1971328116 -973635585</internalNodes>
      <leafValues>
        -1.1019828170537949e-01 1.4312486350536346e-01</leafValues></_>
    <_>
      <internalNodes>
        0 -1 1115 -287551480 222125149 -359474488 3831935 -898732468
        -898881458 -218473364 715718527</internalNodes>
      <leafValues>
        -2.1269617974758148e-01 7.1024373173713684e-02</leafValues></_>
    <_>
      <internalNodes>
        0 -1 825 -352651188 -537131999 -140526645 -1886860059 -272958743
        -2377045 -1879343191 -1978989817</internalNodes>
      <leafValues>
        -9.8687641322612762e-02 1.4746446907520294e-01</leafValues></_>
    <_>
      <internalNodes>
        0 -1 4 -508756639 -305859360 2141699944 -1014473261 -105066707
        -844744980 -379758613 1171778542</internalNodes>
      <leafValues>
        -7.2571031749248505e-02 1.9308513402938843e-01</leafValues></_>
    <_>
      <internalNodes>
        0 -1 928 -1439032816 -1373107108 -403194883 -1430750959
        -1409340607 -8742293 -1359340272 -1976958976</internalNodes>
      <leafValues>
        -2.1868845820426941e-01 6.5274834632873535e-02</leafValues></_>
    <_>
      <internalNodes>
        0 -1 1121 198901793 767523371 -564624382 -1409360417 170609674
        172742845 779702535 251387263</internalNodes>
      <leafValues>
        -2.4316914379596710e-01 5.7139210402965546e-02</leafValues></_>
    <_>
      <internalNodes>
        0 -1 137 -92210461 -555169548 2124410855 -536919841 251686965
        -336680230 1430607223 -573811371</internalNodes>
      <leafValues>
        -1.7003852128982544e-01 8.1674218177795410e-02</leafValues></_>
    <_>
      <internalNodes>
        0 -1 117 1089921232 -33781121 1176519663 -271299073 846363579
        -34897 2132115327 -269123833</internalNodes>
      <leafValues>
        -1.0072065889835358e-01 1.3597512245178223e-01</leafValues></_>
    <_>
      <internalNodes>
        0 -1 1104 -285258739 -1077981347 -20120934 737888255 -287377088
        -68444004 -29820564 -1415955585</internalNodes>
      <leafValues>
        -1.1504909396171570e-01 1.2019840627908707e-01</leafValues></_>
    <_>
      <internalNodes>
        0 -1 126 1810589806 720908 1917561482 35856462 1675779626
        1664570187 -227083148 1408760823</internalNodes>
      <leafValues>
        -2.0013783872127533e-01 6.5901756286621094e-02</leafValues></_>
    <_>
      <internalNodes>
        0 -1 578 -1433767813 -81720 -36866081 -1745068683 -1415909397
        -72383058 792721789 -1885661893</internalNodes>
      <leafValues>
        -8.3301059901714325e-02 1.6619794070720673e-01</leafValues></_>
    <_>
      <internalNodes>
        0 -1 777 -286200280 -116369 2141857706 -348961 -273945670 -53265
        -2098691 -23553</internalNodes>
      <leafValues>
        -5.2982199937105179e-02 2.5278833508491516e-01</leafValues></_>
    <_>
      <internalNodes>
        0 -1 806 -158798587 -169988541 1963870411 -136593617 -806617239
        -201613425 -611328308 650124545</internalNodes>
      <leafValues>
        -2.1645250916481018e-01 6.1494238674640656e-02</leafValues></_>
    <_>
      <internalNodes>
        0 -1 837 -1344739284 -268458900 2061312682 -2743579 -1343768696
        -1140910965 -273704451 -339083255</internalNodes>
      <leafValues>
        -1.0377863049507141e-01 1.2635388970375061e-01</leafValues></_>
    <_>
      <internalNodes>
        0 -1 697 778707056 787359231 804690749 -1360004610 1452280585
        2142514671 -85656004 650477377</internalNodes>
      <leafValues>
        -2.0643639564514160e-01 6.3567079603672028e-02</leafValues></_>
    <_>
      <internalNodes>
        0 -1 950 -285422516 -67236772 -336594257 -738210433 -353698391
        -1678774785 -37751299 -1414798417</internalNodes>
      <leafValues>
        -6.7372687160968781e-02 2.1727912127971649e-01</leafValues></_>
    <_>
      <internalNodes>
        0 -1 982 -1359816339 -59011 -35938577 -77980161 -436543524
        -152072779 -390431239 -1414853057</internalNodes>
      <leafValues>
        -7.2215020656585693e-02 1.7461065948009491e-01</leafValues></_>
    <_>
      <internalNodes>
        0 -1 1040 -285217683 -1113043 -17854802 46864381 -274740660
        449804876 -85237896 705276781</internalNodes>
      <leafValues>
        -1.3364352285861969e-01 9.3438707292079926e-02</leafValues></_>
    <_>
      <internalNodes>
        0 -1 191 1675229472 -132555089 -145428854 -1498425458 -27820178
        1310908750 -1476863995 1082814364</internalNodes>
      <leafValues>
        -1.3895784318447113e-01 9.1756954789161682e-02</leafValues></_>
    <_>
      <internalNodes>
        0 -1 360 547551541 -929025902 -585252965 -35596211 105012217
        -2003788374 1203180925 -1931980447</internalNodes>
      <leafValues>
        -1.2698607146739960e-01 1.0335165262222290e-01</leafValues></_>
    <_>
      <internalNodes>
        0 -1 343 1114689160 1382154309 4204762 463078991 2050035503
        980289367 -145003667 -10650805</internalNodes>
      <leafValues>
        -1.4219151437282562e-01 8.8443674147129059e-02</leafValues></_>
    <_>
      <internalNodes>
        0 -1 1020 -1883450255 -1185084100 -795 -1082517399 -1426391368
        -75514667 -1363477059 -1356109763</internalNodes>
      <leafValues>
        -8.8797733187675476e-02 1.4526019990444183e-01</leafValues></_>
    <_>
      <internalNodes>
        0 -1 714 -356456344 -109413522 1401961198 -13468937 195042232
        -134254868 -1108694888 2140632063</internalNodes>
      <leafValues>
        -9.1905564069747925e-02 1.3394469022750854e-01</leafValues></_>
    <_>
      <internalNodes>
        0 -1 83 1836727210 -18694177 -880833826 -539099137 2071998463
        -37787731 1870491646 -54234809</internalNodes>
      <leafValues>
        -1.1109933257102966e-01 1.1634247004985809e-01</leafValues></_>
    <_>
      <internalNodes>
        0 -1 102 -340858358 -70270418 -3744086 -355803033 795499371
        1089422159 1400108533 2011682279</internalNodes>
      <leafValues>
        -1.2186726927757263e-01 9.8506920039653778e-02</leafValues></_>
    <_>
      <internalNodes>
        0 -1 719 -319759648 -21488778 731914986 536218111 -271040536
        -382420 -68272129 -1342357657</internalNodes>
      <leafValues>
        -7.7101133763790131e-02 1.5720045566558838e-01</leafValues></_>
    <_>
      <internalNodes>
        0 -1 402 732488225 -72693720 -671877641 -539470631 -1442602165
        -364982040 95375733 -805497739</internalNodes>
      <leafValues>
        -1.4782194793224335e-01 8.2940608263015747e-02</leafValues></_>
    <_>
      <internalNodes>
        0 -1 1016 -908868768 1786672149 1375195136 -2098677617
        -1611177919 -217081098 -1525483372 798735388</internalNodes>
      <leafValues>
        -1.3667534291744232e-01 8.5299596190452576e-02</leafValues></_>
    <_>
      <internalNodes>
        0 -1 1032 214454348 800987165 -553786114 -1881536099 -1074086072
        -8701736 -1231890064 973637657</internalNodes>
      <leafValues>
        -1.9975844025611877e-01 5.9470459818840027e-02</leafValues></_>
    <_>
      <internalNodes>
        0 -1 1046 -1896086496 -1900139219 2128198864 2062951935
        177952232 -1073756978 95123960 673201983</internalNodes>
      <leafValues>
        -1.9486352801322937e-01 5.7151015847921371e-02</leafValues></_>
    <_>
      <internalNodes>
        0 -1 1006 -19343876 -1108595604 939331816 -126727 184204221
        -1075865985 -1780515459 -1078321153</internalNodes>
      <leafValues>
        -7.1712471544742584e-02 1.5572308003902435e-01</leafValues></_>
    <_>
      <internalNodes>
        0 -1 625 586688032 787427183 1061302075 -1342658244 1048193537
        2071412734 -1105240728 637828452</internalNodes>
      <leafValues>
        -3.0509519577026367e-01 3.7064354866743088e-02</leafValues></_>
    <_>
      <internalNodes>
        0 -1 581 -492774047 -1413982597 -671148113 -1879300195
        1862827895 -537216669 353588589 -1350037433</internalNodes>
      <leafValues>
        -1.0662531107664108e-01 1.0225306451320648e-01</leafValues></_>
    <_>
      <internalNodes>
        0 -1 750 -203768055 -1348805986 1567459849 -1349526935
        -1412014223 -336861637 -143058939 -1417075889</internalNodes>
      <leafValues>
        -8.4685906767845154e-02 1.4374069869518280e-01</leafValues></_>
    <_>
      <internalNodes>
        0 -1 1110 -285715451 1005520973 -675358065 41680607 -893459124
        -204598756 -1074856500 -1573879813</internalNodes>
      <leafValues>
        -1.2928266823291779e-01 9.0194053947925568e-02</leafValues></_>
    <_>
      <internalNodes>
        0 -1 1 -1155385049 -102788189 -1074013301 -615066641 68053715
        -1035996466 268521781 -591047339</internalNodes>
      <leafValues>
        -1.6430793702602386e-01 6.4809389412403107e-02</leafValues></_>
    <_>
      <internalNodes>
        0 -1 547 -353310001 2080195267 2117282526 997803751 -823317
        -10529816 -14664711 -12878993</internalNodes>
      <leafValues>
        -6.9890744984149933e-02 1.5506771206855774e-01</leafValues></_>
    <_>
      <internalNodes>
        0 -1 870 -1533249932 -495580 -1094070578 -1466414595 -1544008779
        -67453828 603897213 788136309</internalNodes>
      <leafValues>
        -1.5754482150077820e-01 6.8604819476604462e-02</leafValues></_>
    <_>
      <internalNodes>
        0 -1 368 -755319434 -1868911235 -74146027 -1382240257 1874820995
        -1409898801 2144817933 -1411561905</internalNodes>
      <leafValues>
        -7.1270763874053955e-02 1.5112873911857605e-01</leafValues></_>
    <_>
      <internalNodes>
        0 -1 357 -297256175 -51637980 -891290855 509367757 -1992755400
        -571578917 1494244660 -1935928315</internalNodes>
      <leafValues>
        -1.7591597139835358e-01 6.5360441803932190e-02</leafValues></_>
    <_>
      <internalNodes>
        0 -1 387 195197256 -1345796032 -1616511869 -1666001731 195698795
        -1666254648 26956917 1303908445</internalNodes>
      <leafValues>
        -1.7110587656497955e-01 6.0048162937164307e-02</leafValues></_>
    <_>
      <internalNodes>
        0 -1 602 -494868448 -34026900 -544501306 -837072677 705362616
        -298253142 67068989 2142896469</internalNodes>
      <leafValues>
        -1.2363600730895996e-01 8.2001574337482452e-02</leafValues></_>
    <_>
      <internalNodes>
        0 -1 220 237570606 108007110 206965468 1082059486 795291150
        2002717806 1206366023 -404404651</internalNodes>
      <leafValues>
        -1.8086811900138855e-01 5.5205691605806351e-02</leafValues></_>
    <_>
      <internalNodes>
        0 -1 337 -122240920 -241481119 -553727354 -235748117 -1419539798
        166596488 -1025264131 2146915839</internalNodes>
      <leafValues>
        -6.6507920622825623e-02 1.5977582335472107e-01</leafValues></_>
    <_>
      <internalNodes>
        0 -1 967 217977888 212609132 1872234496 213814344 194718756
        261798399 246363436 242783276</internalNodes>
      <leafValues>
        -3.3179447054862976e-01 3.0603308230638504e-02</leafValues></_>
    <_>
      <internalNodes>
        0 -1 698 -336527672 -39112338 -151342850 -1154061 -337973602
        -876665235 -117705299 -470025217</internalNodes>
      <leafValues>
        -4.9485974013805389e-02 2.1261480450630188e-01</leafValues></_>
    <_>
      <internalNodes>
        0 -1 614 1951855182 2136949223 508398574 -1349329043 1660440906
        1944049291 787427341 570450695</internalNodes>
      <leafValues>
        -1.5725496411323547e-01 6.5490521490573883e-02</leafValues></_>
    <_>
      <internalNodes>
        0 -1 822 -1349985976 -1074899708 -39351318 -1503991355
        -1952822531 -122430 664689249 -1433792145</internalNodes>
      <leafValues>
        -1.0743688046932220e-01 9.5264427363872528e-02</leafValues></_>
    <_>
      <internalNodes>
        0 -1 90 -341122290 -337129778 2143992038 -744857866 1335782186
        1728719930 367785969 -672016905</internalNodes>
      <leafValues>
        -1.0193453729152679e-01 9.7413524985313416e-02</leafValues></_>
    <_>
      <internalNodes>
        0 -1 867 2129031797 -555874196 1542315963 257941372 717994929
        -279052342 -1589592 -1970431489</internalNodes>
      <leafValues>
        -8.6662538349628448e-02 1.1183435469865799e-01</leafValues></_>
    <_>
      <internalNodes>
        0 -1 1117 -1367473144 467608381 -359741208 584765439 263351310
        1675298379 -1798112152 674299759</internalNodes>
      <leafValues>
        -1.9312781095504761e-01 5.0350397825241089e-02</leafValues></_>
    <_>
      <internalNodes>
        0 -1 886 -1998061535 435727031 1724348366 1792777918 -425419627
        -736821590 -1149763965 25668784</internalNodes>
      <leafValues>
        -1.0470683872699738e-01 9.3189336359500885e-02</leafValues></_>
    <_>
      <internalNodes>
        0 -1 522 720937512 -41280404 -576930328 163235316 -1439781010
        -101514678 131552612 1438405973</internalNodes>
      <leafValues>
        -1.7346923053264618e-01 5.7381380349397659e-02</leafValues></_>
    <_>
      <internalNodes>
        0 -1 292 27292162 -7675896 -69618740 -555560860 151003402
        -809488214 94704993 1170494785</internalNodes>
      <leafValues>
        -2.2573564946651459e-01 4.1786454617977142e-02</leafValues></_>
    <_>
      <internalNodes>
        0 -1 232 -356965848 1583284559 -1035557238 -1334174993 791345436
        828068454 -923535123 -180887553</internalNodes>
      <leafValues>
        -9.6752882003784180e-02 1.0041015595197678e-01</leafValues></_>
    <_>
      <internalNodes>
        0 -1 217 -508499414 -11657139 1536611050 -205336342 1649073130
        -1141958018 -1299 -670227</internalNodes>
      <leafValues>
        -6.0169685631990433e-02 1.5751759707927704e-01</leafValues></_>
    <_>
      <internalNodes>
        0 -1 994 -1498755544 -335672280 -405867538 -1289049794
        -760573084 -1886748737 -356845260 539656969</internalNodes>
      <leafValues>
        -1.4832495152950287e-01 6.3920326530933380e-02</leafValues></_>
    <_>
      <internalNodes>
        0 -1 128 33554986 35995656 1648493574 34237958 594756459
        319165775 1732466178 1731550819</internalNodes>
      <leafValues>
        -4.0419223904609680e-01 2.2872032597661018e-02</leafValues></_>
    <_>
      <internalNodes>
        0 -1 997 -857569152 2130357582 784594028 1038073327 687339725
        2061958127 -25559214 855764877</internalNodes>
      <leafValues>
        -1.0555981099605560e-01 9.1727435588836670e-02</leafValues></_>
    <_>
      <internalNodes>
        0 -1 911 484102368 1606353292 -1907556340 499318735 91945097
        264223695 1609530365 580959819</internalNodes>
      <leafValues>
        -1.1393978446722031e-01 8.3578430116176605e-02</leafValues></_>
    <_>
      <internalNodes>
        0 -1 1100 -1661594592 266290270 -1635783770 49345529 -878044160
        -672458582 844790068 814783933</internalNodes>
      <leafValues>
        -2.0264203846454620e-01 4.6888582408428192e-02</leafValues></_>
    <_>
      <internalNodes>
        0 -1 114 -354491862 -176447417 -265371446 -747177782 118494538
        -1148255662 -204802108 -71894017</internalNodes>
      <leafValues>
        -8.6119048297405243e-02 1.1167995631694794e-01</leafValues></_>
    <_>
      <internalNodes>
        0 -1 638 35147776 -102174020 -2294819 -855884574 -1356186695
        -1393950 -1674086923 247071841</internalNodes>
      <leafValues>
        -1.5744681656360626e-01 5.8539420366287231e-02</leafValues></_>
    <_>
      <internalNodes>
        0 -1 22 2004843186 183155818 -1073775825 1124055067 -748647552
        -110039476 -148551160 786719583</internalNodes>
      <leafValues>
        -1.2081690877676010e-01 7.4837237596511841e-02</leafValues></_>
    <_>
      <internalNodes>
        0 -1 826 2083170304 518555112 2060316653 -198259251 2064381600
        -8397332 -174760251 80217925</internalNodes>
      <leafValues>
        -1.7357510328292847e-01 5.1967907696962357e-02</leafValues></_>
    <_>
      <internalNodes>
        0 -1 944 1646445128 -1409643955 -51406886 821561006 -1879128582
        -219174166 -155681936 730581581</internalNodes>
      <leafValues>
        -9.3363367021083832e-02 9.6523046493530273e-02</leafValues></_>
    <_>
      <internalNodes>
        0 -1 64 754625030 -1163199770 1558040478 -889325898 791424739
        -1553275926 390428002 -707510075</internalNodes>
      <leafValues>
        -1.3557809591293335e-01 6.5765589475631714e-02</leafValues></_>
    <_>
      <internalNodes>
        0 -1 432 675424896 493893501 726139630 510846943 2135042630
        2077631882 1072115556 1687955269</internalNodes>
      <leafValues>
        -2.3102514445781708e-01 3.9084278047084808e-02</leafValues></_>
    <_>
      <internalNodes>
        0 -1 849 -220530456 -354708 2079996654 -887089 -268635393
        -1413513233 -558170625 -272401</internalNodes>
      <leafValues>
        -3.4513242542743683e-02 2.8483286499977112e-01</leafValues></_>
    <_>
      <internalNodes>
        0 -1 642 148044671 -1565258373 -1344291121 -1448944379 736566097
        -3439621 -94173891 -1900148477</internalNodes>
      <leafValues>
        -1.0291440039873123e-01 8.8727787137031555e-02</leafValues></_>
    <_>
      <internalNodes>
        0 -1 807 -855721859 -287432695 -381043537 677263951 -1955942651
        -18877699 -1220913352 -1909914589</internalNodes>
      <leafValues>
        -1.0101726651191711e-01 9.3344226479530334e-02</leafValues></_>
    <_>
      <internalNodes>
        0 -1 765 -805506264 -2121620 -268836872 -335824643 -1356166389
        -340018514 -5375523 -410009585</internalNodes>
      <leafValues>
        -5.3185235708951950e-02 1.7092689871788025e-01</leafValues></_></weakClassifiers></stage9>
</opencv_storage>
