<?xml version="1.0"?>
<opencv_storage>
<stage7>
  <maxWeakCount>100</maxWeakCount>
  <stageThreshold>-1.9166308641433716e+00</stageThreshold>
  <weakClassifiers>
    <_>
      <internalNodes>
        0 -1 13 -67960833 -983050 -1 -131073 16842751 -83820560
        2004318207 -8947721</internalNodes>
      <leafValues>
        -3.9286795258522034e-01 1.8043261766433716e-01</leafValues></_>
    <_>
      <internalNodes>
        0 -1 1041 -11777 2147428335 -8193 1073692671 -83954468
        2147450879 -84215042 715833263</internalNodes>
      <leafValues>
        -2.8654223680496216e-01 2.3714464902877808e-01</leafValues></_>
    <_>
      <internalNodes>
        0 -1 4 -4194305 -2049 -1 -1 21197823 -67190789 1473730421 -35979</internalNodes>
      <leafValues>
        -2.7883017063140869e-01 2.1010923385620117e-01</leafValues></_>
    <_>
      <internalNodes>
        0 -1 109 1936917226 -393217 250285695 -131105 2136936447
        -2408977 -2142241 -32945</internalNodes>
      <leafValues>
        -2.2434349358081818e-01 2.1680961549282074e-01</leafValues></_>
    <_>
      <internalNodes>
        0 -1 952 -287372179 -545321969 -67125249 454004015 -259 -6401
        -17104900 -1433735249</internalNodes>
      <leafValues>
        -1.2696249783039093e-01 2.6606544852256775e-01</leafValues></_>
    <_>
      <internalNodes>
        0 -1 1078 -59051 2139043711 -104857601 -1073823873 -281084588
        -5217 -2163204 -1347764546</internalNodes>
      <leafValues>
        -1.8242648243904114e-01 1.7346978187561035e-01</leafValues></_>
    <_>
      <internalNodes>
        0 -1 726 -1364525199 -2340396 -33718785 -197155 -1078779907
        -16385 -134529667 -1342242443</internalNodes>
      <leafValues>
        -1.3197349011898041e-01 2.1986949443817139e-01</leafValues></_>
    <_>
      <internalNodes>
        0 -1 13 -433214478 -633343047 1073737715 -528608 -28230684
        -1124729041 -850010825 14480732</internalNodes>
      <leafValues>
        -1.9179192185401917e-01 1.4644619822502136e-01</leafValues></_>
    <_>
      <internalNodes>
        0 -1 1121 -1912659665 1073730287 -973087297 -1073741953
        268092731 -1610637377 -268476929 -268436993</internalNodes>
      <leafValues>
        -1.6518360376358032e-01 1.7612279951572418e-01</leafValues></_>
    <_>
      <internalNodes>
        0 -1 60 1875640191 -272701837 -812033 -4526353 1297020791
        -825512769 1979667825 -527033</internalNodes>
      <leafValues>
        -1.7747144401073456e-01 1.6085922718048096e-01</leafValues></_>
    <_>
      <internalNodes>
        0 -1 610 -352670194 -330672 -536949250 -537732715 -1908953329
        -1150599617 -973102595 -268647147</internalNodes>
      <leafValues>
        -1.7126938700675964e-01 1.6911822557449341e-01</leafValues></_>
    <_>
      <internalNodes>
        0 -1 490 -1442644109 -468688 -4988929 -1074080303 252370363
        -1314072 -1884588611 -6335203</internalNodes>
      <leafValues>
        -1.2726593017578125e-01 2.0564450323581696e-01</leafValues></_>
    <_>
      <internalNodes>
        0 -1 237 -352451057 540606493 1254256382 3819743 1242779231
        2053073734 -84968327 1945369215</internalNodes>
      <leafValues>
        -2.5673341751098633e-01 9.2541672289371490e-02</leafValues></_>
    <_>
      <internalNodes>
        0 -1 486 -5046292 -204951770 -817954817 -458793 -553600127
        -79628540 -50008113 1744991751</internalNodes>
      <leafValues>
        -2.0667116343975067e-01 1.2172605842351913e-01</leafValues></_>
    <_>
      <internalNodes>
        0 -1 1035 -285275059 536710957 -18628865 36346879 -268439736
        -84162360 -23429528 -1442119889</internalNodes>
      <leafValues>
        -1.7821134626865387e-01 1.2298594415187836e-01</leafValues></_>
    <_>
      <internalNodes>
        0 -1 678 -358417864 -6753416 -2637825 -1342422955 -281362757
        -17104997 -1381778179 -335608823</internalNodes>
      <leafValues>
        -1.2163607776165009e-01 1.8241804838180542e-01</leafValues></_>
    <_>
      <internalNodes>
        0 -1 870 -1359282315 -1073826326 -3077 -1076167683 -1074004033
        -1140850945 -1140850689 -1347445697</internalNodes>
      <leafValues>
        -8.4375128149986267e-02 2.3988939821720123e-01</leafValues></_>
    <_>
      <internalNodes>
        0 -1 935 -1359069323 -1082229731 -606405 -1354875521 -1342554512
        -6836245 -344449676 -1442276084</internalNodes>
      <leafValues>
        -1.9829253852367401e-01 1.0484106838703156e-01</leafValues></_>
    <_>
      <internalNodes>
        0 -1 1041 1325149824 -1661037508 -1434573778 2092494123
        231149099 -2107705752 -1540510279 -1320850728</internalNodes>
      <leafValues>
        -1.3983850181102753e-01 1.4071080088615417e-01</leafValues></_>
    <_>
      <internalNodes>
        0 -1 723 -1965912321 976893823 719979066 186269181 1874534394
        -67178497 -1148567829 -1344598166</internalNodes>
      <leafValues>
        -1.3098755478858948e-01 1.4717786014080048e-01</leafValues></_>
    <_>
      <internalNodes>
        0 -1 199 -488197137 -1510880 300905403 -68226462 52015871
        -72682774 1199011811 -10937</internalNodes>
      <leafValues>
        -1.1082588136196136e-01 1.7010278999805450e-01</leafValues></_>
    <_>
      <internalNodes>
        0 -1 3 -841539009 -76052833 -570425345 -10887425 719466239
        -119907589 685715391 1089488195</internalNodes>
      <leafValues>
        -1.6549782454967499e-01 1.0971657931804657e-01</leafValues></_>
    <_>
      <internalNodes>
        0 -1 246 2109539 -2071923232 -590897630 -2071146252 69984
        -1364265034 243212320 -1897123484</internalNodes>
      <leafValues>
        -3.0272486805915833e-01 5.8803144842386246e-02</leafValues></_>
    <_>
      <internalNodes>
        0 -1 958 -269579608 -1616236662 534714608 -1095097126 788442585
        267352543 -1275129348 -1549750486</internalNodes>
      <leafValues>
        -1.4246918261051178e-01 1.2256121635437012e-01</leafValues></_>
    <_>
      <internalNodes>
        0 -1 466 -392118923 -890740520 -705126917 -1376463883
        -1972294659 -1963016261 -1346431511 -1363271645</internalNodes>
      <leafValues>
        -1.1094253510236740e-01 1.5112128853797913e-01</leafValues></_>
    <_>
      <internalNodes>
        0 -1 207 -290815453 -13638040 1586434650 -326094 725795503
        -273962513 1970487537 -36187785</internalNodes>
      <leafValues>
        -1.0589376837015152e-01 1.5429452061653137e-01</leafValues></_>
    <_>
      <internalNodes>
        0 -1 1107 -1342238644 1073684351 -1196820997 -1729962497
        -355578856 -68167847 -117662496 -358940945</internalNodes>
      <leafValues>
        -1.3927203416824341e-01 1.1477936059236526e-01</leafValues></_>
    <_>
      <internalNodes>
        0 -1 614 1658761890 -624721 2011146090 -1347747857 1735865187
        2012477323 1736388941 1800495879</internalNodes>
      <leafValues>
        -1.6216687858104706e-01 9.8261035978794098e-02</leafValues></_>
    <_>
      <internalNodes>
        0 -1 804 -1400226444 -1344888756 -1757692419 -1350034064
        -1348904659 -17068834 -1080355467 -1431697311</internalNodes>
      <leafValues>
        -1.9358643889427185e-01 8.0932952463626862e-02</leafValues></_>
    <_>
      <internalNodes>
        0 -1 238 -494957846 840641594 539697882 41602687 1207895119
        1652493827 -287343027 -479199697</internalNodes>
      <leafValues>
        -1.7633654177188873e-01 8.7530940771102905e-02</leafValues></_>
    <_>
      <internalNodes>
        0 -1 833 -1059403168 -588739064 -43009046 -1614150193 -201342979
        -17185125 -17253143 -1433730271</internalNodes>
      <leafValues>
        -1.0846247524023056e-01 1.3998667895793915e-01</leafValues></_>
    <_>
      <internalNodes>
        0 -1 725 1593826389 417300479 794504863 184221343 1002386416
        -1073758482 721380394 719174255</internalNodes>
      <leafValues>
        -1.1598686873912811e-01 1.2736640870571136e-01</leafValues></_>
    <_>
      <internalNodes>
        0 -1 1054 -1344390787 526332798 532643261 -1107416461
        -1359674117 -604154113 -1141171971 -1342178177</internalNodes>
      <leafValues>
        -1.2940451502799988e-01 1.1451756954193115e-01</leafValues></_>
    <_>
      <internalNodes>
        0 -1 651 -51445900 -830566802 -1507399 -1353582732 102808880
        -27985153 2129738504 167987007</internalNodes>
      <leafValues>
        -1.3397103548049927e-01 1.0988871753215790e-01</leafValues></_>
    <_>
      <internalNodes>
        0 -1 988 -352402355 -67195783 -155198465 -1078325447 -268501012
        -336680961 -68519459 -1414821477</internalNodes>
      <leafValues>
        -7.4895545840263367e-02 1.9540344178676605e-01</leafValues></_>
    <_>
      <internalNodes>
        0 -1 1 2139863999 -91246025 -1025 -69337097 235153287
        -1415709796 210597369 -842772139</internalNodes>
      <leafValues>
        -1.5011245012283325e-01 9.4562530517578125e-02</leafValues></_>
    <_>
      <internalNodes>
        0 -1 77 871933944 855048190 -27394081 -4097 2138049408
        2121564071 -144420996 2063040324</internalNodes>
      <leafValues>
        -1.9479590654373169e-01 7.5296521186828613e-02</leafValues></_>
    <_>
      <internalNodes>
        0 -1 783 -285700436 -25269781 -1646380046 -1476776518
        -1345450356 -1075175433 -1090901476 -1377814647</internalNodes>
      <leafValues>
        -1.1983148008584976e-01 1.2935300171375275e-01</leafValues></_>
    <_>
      <internalNodes>
        0 -1 849 771755296 -1884676484 1006516920 -1426978271
        -1413807848 -1073791057 -2100578268 -1096146155</internalNodes>
      <leafValues>
        -2.1054220199584961e-01 7.2433322668075562e-02</leafValues></_>
    <_>
      <internalNodes>
        0 -1 1117 -805329905 855587647 -156247877 954133983 -268444466
        -645038469 -386212616 -520947009</internalNodes>
      <leafValues>
        -1.0976801067590714e-01 1.2863358855247498e-01</leafValues></_>
    <_>
      <internalNodes>
        0 -1 1000 -287380146 531596047 -104879446 858431367 251119324
        1610594266 -1426074040 -359923957</internalNodes>
      <leafValues>
        -1.0600488632917404e-01 1.3314680755138397e-01</leafValues></_>
    <_>
      <internalNodes>
        0 -1 964 -1392735456 -1706416088 989533528 -1614149128 787427309
        -1345634689 -1547814692 -1342845137</internalNodes>
      <leafValues>
        -1.2323041260242462e-01 1.1214112490415573e-01</leafValues></_>
    <_>
      <internalNodes>
        0 -1 105 2053106222 1396336342 184265470 -751304966 1652254798
        1526615640 1441153986 -135825866</internalNodes>
      <leafValues>
        -1.3886046409606934e-01 9.6199728548526764e-02</leafValues></_>
    <_>
      <internalNodes>
        0 -1 319 -335879474 -624766322 2077887130 -810887937 1115403151
        -1347638564 2010075597 -268610747</internalNodes>
      <leafValues>
        -9.6384488046169281e-02 1.3853973150253296e-01</leafValues></_>
    <_>
      <internalNodes>
        0 -1 646 -198771853 -226558593 -16417 -1986469967 1878523895
        -1073766405 2147446125 -1362134418</internalNodes>
      <leafValues>
        -7.4718870222568512e-02 1.7731311917304993e-01</leafValues></_>
    <_>
      <internalNodes>
        0 -1 402 562754099 -7417800 -674007817 -537758504 168538635
        -358948372 604968309 -907210735</internalNodes>
      <leafValues>
        -1.5446119010448456e-01 8.4179222583770752e-02</leafValues></_>
    <_>
      <internalNodes>
        0 -1 286 -520159962 -824247574 -280062016 -320017344 68509194
        -1436376204 2136438093 1312060741</internalNodes>
      <leafValues>
        -1.7288446426391602e-01 8.0727912485599518e-02</leafValues></_>
    <_>
      <internalNodes>
        0 -1 765 -408754392 -4265362 -1082164033 -204451 -278403413
        -272636114 -276843267 -336625661</internalNodes>
      <leafValues>
        -7.1522966027259827e-02 1.8166197836399078e-01</leafValues></_>
    <_>
      <internalNodes>
        0 -1 915 -121098584 -1148309534 -1107425540 -1412526870
        -1343345400 -1083228209 -1178715492 -1348292742</internalNodes>
      <leafValues>
        -1.0800589621067047e-01 1.1334436386823654e-01</leafValues></_>
    <_>
      <internalNodes>
        0 -1 311 -805335121 -4655490 2138770431 -1376068737 1861672363
        -341470234 2138534015 -269130121</internalNodes>
      <leafValues>
        -8.7624587118625641e-02 1.3973781466484070e-01</leafValues></_>
    <_>
      <internalNodes>
        0 -1 126 -365173185 2072938110 -153158978 -1066209157 1247706719
        2070640474 -67633153 -201850881</internalNodes>
      <leafValues>
        -9.1904982924461365e-02 1.3278163969516754e-01</leafValues></_>
    <_>
      <internalNodes>
        0 -1 536 737817604 1023295463 -1092636918 -1426538525 854008737
        1476343723 855603716 542209895</internalNodes>
      <leafValues>
        -2.3976148664951324e-01 4.9922391772270203e-02</leafValues></_>
    <_>
      <internalNodes>
        0 -1 822 -1380254372 -1342671030 -34877474 -1386550275
        -1885412435 -272719246 -271885987 -1431629821</internalNodes>
      <leafValues>
        -9.4251498579978943e-02 1.3040505349636078e-01</leafValues></_>
    <_>
      <internalNodes>
        0 -1 555 -97354928 -75623599 -547426307 -717685808 492068372
        -71402521 -212503055 -1429441199</internalNodes>
      <leafValues>
        -1.7006403207778931e-01 7.2885520756244659e-02</leafValues></_>
    <_>
      <internalNodes>
        0 -1 634 716835068 272107768 183679134 -2003819823 -367390897
        -1097979025 -454290344 -1347785605</internalNodes>
      <leafValues>
        -1.8073323369026184e-01 6.5614402294158936e-02</leafValues></_>
    <_>
      <internalNodes>
        0 -1 718 -300760452 2138579567 1601313658 -1242014253 -352672008
        -335647321 -1360347908 -269624609</internalNodes>
      <leafValues>
        -6.4371511340141296e-02 1.9681602716445923e-01</leafValues></_>
    <_>
      <internalNodes>
        0 -1 807 -1426440325 -285331939 -395821126 -1410483365
        -1146355787 -1358955780 -273973903 -1366611358</internalNodes>
      <leafValues>
        -9.6633166074752808e-02 1.2218046933412552e-01</leafValues></_>
    <_>
      <internalNodes>
        0 -1 6 -1629605581 -16730 1878884149 1610347719 704651540
        -286343898 1631606587 -35904239</internalNodes>
      <leafValues>
        -1.5670102834701538e-01 7.6345406472682953e-02</leafValues></_>
    <_>
      <internalNodes>
        0 -1 327 -272702934 1446921231 -160562434 -4815766 242912987
        -178181 -1128282723 -302526305</internalNodes>
      <leafValues>
        -6.6098503768444061e-02 1.8725249171257019e-01</leafValues></_>
    <_>
      <internalNodes>
        0 -1 1091 -275903379 242941994 -1348473106 -1982931113
        -1343244088 -290531220 -63111592 -1440548342</internalNodes>
      <leafValues>
        -1.2327338755130768e-01 9.5443420112133026e-02</leafValues></_>
    <_>
      <internalNodes>
        0 -1 952 972480294 713984974 -335570392 -421332875 -2101373946
        -358723924 -50453437 1663641152</internalNodes>
      <leafValues>
        -1.3627341389656067e-01 8.6994983255863190e-02</leafValues></_>
    <_>
      <internalNodes>
        0 -1 972 -322004395 -1434763906 -1110533693 594706399
        -1496363196 -69749996 -1149366968 -1414578936</internalNodes>
      <leafValues>
        -1.0969129204750061e-01 1.0560190677642822e-01</leafValues></_>
    <_>
      <internalNodes>
        0 -1 914 251401264 251572071 784149814 804191466 2096904844
        2130050367 677576458 578944951</internalNodes>
      <leafValues>
        -2.2208707034587860e-01 5.2157558500766754e-02</leafValues></_>
    <_>
      <internalNodes>
        0 -1 837 -405610400 -1381310198 809088752 -539479690 -1956711553
        -1344585809 -1359046467 -269835959</internalNodes>
      <leafValues>
        -9.5362529158592224e-02 1.2619741261005402e-01</leafValues></_>
    <_>
      <internalNodes>
        0 -1 841 1856939521 -1091631601 764356202 264810405 318475149
        -273697586 -352601463 -1442714813</internalNodes>
      <leafValues>
        -1.0076683014631271e-01 1.1202730238437653e-01</leafValues></_>
    <_>
      <internalNodes>
        0 -1 602 -488702964 -5580194 -541205541 -815867655 1804138681
        -17836370 -973081099 -31533</internalNodes>
      <leafValues>
        -7.1722641587257385e-02 1.5988241136074066e-01</leafValues></_>
    <_>
      <internalNodes>
        0 -1 1060 -1459745707 2133466952 -318776321 815928187 -293803164
        -811816073 -430138352 -1475806896</internalNodes>
      <leafValues>
        -1.7661915719509125e-01 6.4584605395793915e-02</leafValues></_>
    <_>
      <internalNodes>
        0 -1 706 -356865266 -76009649 -1478213898 -2989136 -271678804
        -14719201 -80036100 -38283889</internalNodes>
      <leafValues>
        -6.1761070042848587e-02 1.8255075812339783e-01</leafValues></_>
    <_>
      <internalNodes>
        0 -1 376 -100601055 -236442035 2079784349 -25824161 234895396
        -1143587169 1814648823 -287812601</internalNodes>
      <leafValues>
        -1.1751933395862579e-01 9.7058206796646118e-02</leafValues></_>
    <_>
      <internalNodes>
        0 -1 542 -1963851716 464128592 206570686 387066946 1845889774
        -16192454 -1431652116 -37953709</internalNodes>
      <leafValues>
        -1.1912395060062408e-01 9.1151095926761627e-02</leafValues></_>
    <_>
      <internalNodes>
        0 -1 109 -1901269193 2128947015 -1946170644 -134632566
        -956304858 2143481173 1207418677 2099614134</internalNodes>
      <leafValues>
        -9.8407253623008728e-02 1.1310273408889771e-01</leafValues></_>
    <_>
      <internalNodes>
        0 -1 1109 -1466116035 751638687 -70254993 1053218301 1808533514
        -1115870429 -355471748 677510623</internalNodes>
      <leafValues>
        -1.2426788359880447e-01 8.9137881994247437e-02</leafValues></_>
    <_>
      <internalNodes>
        0 -1 0 771961663 -1644961793 -1090651137 -2033000449 107500401
        -1945259207 5260625 1154761828</internalNodes>
      <leafValues>
        -2.7244606614112854e-01 3.8717083632946014e-02</leafValues></_>
    <_>
      <internalNodes>
        0 -1 106 1986433774 2012798415 -1488321858 -812977217 2131899055
        -16837285 2124379511 -19564793</internalNodes>
      <leafValues>
        -1.1419080942869186e-01 9.5169551670551300e-02</leafValues></_>
    <_>
      <internalNodes>
        0 -1 938 -486875799 -5581712 -1074528513 -236276225 -335622296
        -609559825 -83951619 -1416914421</internalNodes>
      <leafValues>
        -6.1729103326797485e-02 1.7750546336174011e-01</leafValues></_>
    <_>
      <internalNodes>
        0 -1 665 -762129104 2127702526 1584914303 2121379643 -247441900
        -18546697 -1125130467 642021135</internalNodes>
      <leafValues>
        -1.5329506993293762e-01 7.4262350797653198e-02</leafValues></_>
    <_>
      <internalNodes>
        0 -1 114 -1435579857 1551537867 -487454470 -746944378 1079190854
        1393781371 -1267795724 -67771657</internalNodes>
      <leafValues>
        -1.0916702449321747e-01 9.9733240902423859e-02</leafValues></_>
    <_>
      <internalNodes>
        0 -1 1100 -537983924 -2139059 -58723873 -1560610561 -391356
        -325978 -965224368 -90177637</internalNodes>
      <leafValues>
        -9.4121016561985016e-02 1.1693754792213440e-01</leafValues></_>
    <_>
      <internalNodes>
        0 -1 164 -252252370 955705707 -672472178 1844244319 1735622568
        -1074384907 1667184392 1306351463</internalNodes>
      <leafValues>
        -1.0017894208431244e-01 1.0720767080783844e-01</leafValues></_>
    <_>
      <internalNodes>
        0 -1 855 168431688 -1432731778 -1978786824 -1631961796
        -1413740227 836655870 -1378148868 716881737</internalNodes>
      <leafValues>
        -2.2585618495941162e-01 4.6821538358926773e-02</leafValues></_>
    <_>
      <internalNodes>
        0 -1 558 42614294 -1569570984 -2183272 -2012713024 593638404
        785533785 2133263461 143409504</internalNodes>
      <leafValues>
        -2.5149366259574890e-01 4.0536705404520035e-02</leafValues></_>
    <_>
      <internalNodes>
        0 -1 460 1123257960 416678783 1860803082 9100903 2008510400
        2142203005 251155782 728104555</internalNodes>
      <leafValues>
        -1.6740477085113525e-01 6.1064708977937698e-02</leafValues></_>
    <_>
      <internalNodes>
        0 -1 232 715104299 458973821 174089982 275914487 1864559103
        838823807 -117513796 -34078761</internalNodes>
      <leafValues>
        -7.9406246542930603e-02 1.2975786626338959e-01</leafValues></_>
    <_>
      <internalNodes>
        0 -1 167 -311779533 -269710092 -8917070 -275063792 1275293567
        -5177380 -273714847 -838904747</internalNodes>
      <leafValues>
        -1.3514637947082520e-01 8.4268555045127869e-02</leafValues></_>
    <_>
      <internalNodes>
        0 -1 906 -286620480 1609446696 -1370612551 -1130755 -337713204
        2105490815 -118555733 870791977</internalNodes>
      <leafValues>
        -9.8850563168525696e-02 1.0238067060709000e-01</leafValues></_>
    <_>
      <internalNodes>
        0 -1 79 712650242 1945878248 -1034995459 -612701458 784628407
        -303109046 2109731788 -82782928</internalNodes>
      <leafValues>
        -1.2577064335346222e-01 8.2672275602817535e-02</leafValues></_>
    <_>
      <internalNodes>
        0 -1 422 2015365802 1447046510 -1521029378 -1686601737
        1409288614 500510436 -228323786 792735494</internalNodes>
      <leafValues>
        -1.8466873466968536e-01 5.5247578769922256e-02</leafValues></_>
    <_>
      <internalNodes>
        0 -1 909 -1342398456 1567132976 116660398 -914316 -889483010
        -1090826757 -1426066440 -353467715</internalNodes>
      <leafValues>
        -8.5900671780109406e-02 1.2107548117637634e-01</leafValues></_>
    <_>
      <internalNodes>
        0 -1 566 -1969070479 -43852048 -671105155 -308480019 800747487
        -2556772 -326754827 -863283143</internalNodes>
      <leafValues>
        -1.0429818928241730e-01 9.7309507429599762e-02</leafValues></_>
    <_>
      <internalNodes>
        0 -1 565 1197995389 796917675 -2261165 1038974811 2098230533
        -597000878 -284033262 776337746</internalNodes>
      <leafValues>
        -1.2005879729986191e-01 8.4968760609626770e-02</leafValues></_>
    <_>
      <internalNodes>
        0 -1 13 501183532 -663804101 2130505658 -1161249283 1123739408
        1084892453 1876788480 1216960778</internalNodes>
      <leafValues>
        -1.1172077059745789e-01 8.9191511273384094e-02</leafValues></_>
    <_>
      <internalNodes>
        0 -1 885 -268452023 484362282 -138561780 197246831 -1342194691
        -553730921 -268731096 -1430143167</internalNodes>
      <leafValues>
        -8.9136034250259399e-02 1.1195482313632965e-01</leafValues></_>
    <_>
      <internalNodes>
        0 -1 1095 1289617442 2080050271 -71323922 989378559 248853734
        -540053208 -1090560600 -1182603921</internalNodes>
      <leafValues>
        -1.0236296802759171e-01 9.3770638108253479e-02</leafValues></_>
    <_>
      <internalNodes>
        0 -1 1053 1287587104 749610927 209691264 -1900093961 569996046
        1609530356 1149191294 -287441301</internalNodes>
      <leafValues>
        -1.6414782404899597e-01 5.7707671076059341e-02</leafValues></_>
    <_>
      <internalNodes>
        0 -1 626 -356861380 1524108668 253241050 -422443916 -1373240440
        -1076658549 -1440045424 -639963</internalNodes>
      <leafValues>
        -9.2836014926433563e-02 1.0468837618827820e-01</leafValues></_>
    <_>
      <internalNodes>
        0 -1 72 -488704146 -171971585 -705970226 -277979201 1338407662
        -957284561 1990153581 1214641475</internalNodes>
      <leafValues>
        -1.0091822594404221e-01 9.3946307897567749e-02</leafValues></_>
    <_>
      <internalNodes>
        0 -1 1115 805243912 759106365 515631836 -1468390291 -623503138
        1288579711 -155190052 -264175756</internalNodes>
      <leafValues>
        -1.4798155426979065e-01 6.3964977860450745e-02</leafValues></_>
    <_>
      <internalNodes>
        0 -1 954 -3480212 -638584706 -5292932 -873570 -288372993
        -1898475669 -1513182227 -408180933</internalNodes>
      <leafValues>
        -5.2317213267087936e-02 1.7800918221473694e-01</leafValues></_>
    <_>
      <internalNodes>
        0 -1 11 2101094918 -114585857 -168035529 -70259617 135794188
        -1157874129 1347515668 1409302592</internalNodes>
      <leafValues>
        -2.3832169175148010e-01 4.0025539696216583e-02</leafValues></_>
    <_>
      <internalNodes>
        0 -1 858 -1499821447 -1074462728 -1082261509 -1083515179
        -269619333 -3145745 -405071635 -1358976945</internalNodes>
      <leafValues>
        -7.1480125188827515e-02 1.3256381452083588e-01</leafValues></_></weakClassifiers></stage7>
</opencv_storage>
