<?xml version="1.0"?>
<opencv_storage>
<stage2>
  <maxWeakCount>34</maxWeakCount>
  <stageThreshold>-2.0075430870056152e+00</stageThreshold>
  <weakClassifiers>
    <_>
      <internalNodes>
        0 -1 59 -1 -32769 -524289 -1 -76480513 2146451447 -655361
        2004320103</internalNodes>
      <leafValues>
        -5.8935695886611938e-01 3.9292162656784058e-01</leafValues></_>
    <_>
      <internalNodes>
        0 -1 0 -1 -1 -1 -1 -9 -1025 -34955 -657548</internalNodes>
      <leafValues>
        -4.4440639019012451e-01 4.2646068334579468e-01</leafValues></_>
    <_>
      <internalNodes>
        0 -1 914 251593791 1071595519 268386239 1073725439 1073691327
        1073692607 -1157711174 717209535</internalNodes>
      <leafValues>
        -4.5204162597656250e-01 2.8768619894981384e-01</leafValues></_>
    <_>
      <internalNodes>
        0 -1 5 -77400073 -2057 -1 -3081 1275394037 -9 1565873653 -35467</internalNodes>
      <leafValues>
        -3.1196427345275879e-01 3.3295857906341553e-01</leafValues></_>
    <_>
      <internalNodes>
        0 -1 127 -285267345 1929341823 -352376146 -1560281345 2004832079
        1937735551 -268468353 -134217873</internalNodes>
      <leafValues>
        -3.1250151991844177e-01 2.8287309408187866e-01</leafValues></_>
    <_>
      <internalNodes>
        0 -1 1024 -16884651 -41089 -134217729 -67108993 -67208108 -35841
        -84361672 -1163198529</internalNodes>
      <leafValues>
        -2.8804120421409607e-01 2.7355703711509705e-01</leafValues></_>
    <_>
      <internalNodes>
        0 -1 52 -17629185 -987217 -1179649 -200786 1073758191 -18862169
        1953855479 -51087545</internalNodes>
      <leafValues>
        -1.9784836471080780e-01 3.1668764352798462e-01</leafValues></_>
    <_>
      <internalNodes>
        0 -1 792 45629301 -1073954945 -1614938113 -1346880515
        -1077985409 -16401 -1073791107 -1359214235</internalNodes>
      <leafValues>
        -3.3130702376365662e-01 1.6821028292179108e-01</leafValues></_>
    <_>
      <internalNodes>
        0 -1 131 1660880654 872398847 -268718162 737325051 1879015278
        2147450735 2147184399 1878470511</internalNodes>
      <leafValues>
        -3.6724141240119934e-01 1.2855412065982819e-01</leafValues></_>
    <_>
      <internalNodes>
        0 -1 102 -268443089 -219156917 -52450626 -85267713 1675589495
        1718427519 -136874635 -67633545</internalNodes>
      <leafValues>
        -1.9511224329471588e-01 2.5420755147933960e-01</leafValues></_>
    <_>
      <internalNodes>
        0 -1 59 1953560624 821079991 1903836472 854863675 1351943680
        -1876573432 1079125504 148374173</internalNodes>
      <leafValues>
        -3.6237427592277527e-01 1.3475845754146576e-01</leafValues></_>
    <_>
      <internalNodes>
        0 -1 610 -1497715186 -290929345 -140580 -328483 -1345349234
        -9486338 -1342464260 -269167276</internalNodes>
      <leafValues>
        -2.2971832752227783e-01 2.0888100564479828e-01</leafValues></_>
    <_>
      <internalNodes>
        0 -1 1016 -1361115643 1056915327 -1191362817 712687071 -1065980
        -280905 -287434192 -1430607057</internalNodes>
      <leafValues>
        -2.5804707407951355e-01 1.8467472493648529e-01</leafValues></_>
    <_>
      <internalNodes>
        0 -1 0 2011167543 -536880271 -67134465 -2424833 263288125
        -843056656 13688282 1149131985</internalNodes>
      <leafValues>
        -2.2244423627853394e-01 2.0117299258708954e-01</leafValues></_>
    <_>
      <internalNodes>
        0 -1 246 539031539 -173868039 -34759683 -538118667 487685623 -1
        226448245 -268471961</internalNodes>
      <leafValues>
        -1.8663923442363739e-01 2.2893823683261871e-01</leafValues></_>
    <_>
      <internalNodes>
        0 -1 1044 -822083825 931102063 -83902818 574420847 1861702732
        528446814 -16975156 -1431634065</internalNodes>
      <leafValues>
        -2.1750293672084808e-01 1.9131757318973541e-01</leafValues></_>
    <_>
      <internalNodes>
        0 -1 109 1919083242 2071641599 40896750 -72303629 2138468351
        -7198417 -1342550017 -692985</internalNodes>
      <leafValues>
        -1.6521941125392914e-01 2.2796285152435303e-01</leafValues></_>
    <_>
      <internalNodes>
        0 -1 126 1257982511 540953710 -226588418 544361071 1669300079
        2003986231 -67207340 2012737399</internalNodes>
      <leafValues>
        -3.1231909990310669e-01 1.1848162859678268e-01</leafValues></_>
    <_>
      <internalNodes>
        0 -1 796 -1901060332 -1090764869 -2117719 -1111973895
        -1346560203 -1073758275 -268480255 -1431827424</internalNodes>
      <leafValues>
        -2.6258245110511780e-01 1.3836608827114105e-01</leafValues></_>
    <_>
      <internalNodes>
        0 -1 1104 -320911267 1593794559 -1627391269 549328767 -319099580
        -537139465 -1135822628 -1407123905</internalNodes>
      <leafValues>
        -1.9734069705009460e-01 1.6941803693771362e-01</leafValues></_>
    <_>
      <internalNodes>
        0 -1 554 -2136949889 -1360479233 -436224513 -1346596905
        796794367 -1074815490 2146637285 -1346567899</internalNodes>
      <leafValues>
        -1.7897392809391022e-01 1.7516665160655975e-01</leafValues></_>
    <_>
      <internalNodes>
        0 -1 928 -356599723 -1371661552 -869959 -1430505155 -1358979307
        -8413571 -1082581727 -1430582238</internalNodes>
      <leafValues>
        -1.9191420078277588e-01 1.5748256444931030e-01</leafValues></_>
    <_>
      <internalNodes>
        0 -1 22 1475604724 -621609305 -335642785 2126494399 1900072832
        -85967162 -294293988 201670471</internalNodes>
      <leafValues>
        -2.1423231065273285e-01 1.4787445962429047e-01</leafValues></_>
    <_>
      <internalNodes>
        0 -1 892 -855997436 -537096347 2147448831 -34622083 -537153800
        -16513 -340083796 -1433490513</internalNodes>
      <leafValues>
        -1.4933563768863678e-01 2.0465669035911560e-01</leafValues></_>
    <_>
      <internalNodes>
        0 -1 120 -488117745 2056515151 -891620738 1943727870 2035118943
        1949132636 -134743555 -71959626</internalNodes>
      <leafValues>
        -1.3236625492572784e-01 2.1719855070114136e-01</leafValues></_>
    <_>
      <internalNodes>
        0 -1 1121 773792575 229580351 -1342227017 -1879115905 762525479
        1235173375 -864037396 -318783617</internalNodes>
      <leafValues>
        -2.1433573961257935e-01 1.3384661078453064e-01</leafValues></_>
    <_>
      <internalNodes>
        0 -1 914 2108619712 -958476881 1048317559 -810655809 -327295668
        -1375875089 1743473485 -1782547089</internalNodes>
      <leafValues>
        -1.3698191940784454e-01 2.1888238191604614e-01</leafValues></_>
    <_>
      <internalNodes>
        0 -1 844 920398332 1052655103 -1075036162 -1611187233
        -1359470628 1065058238 -1359081991 -1359462607</internalNodes>
      <leafValues>
        -2.7315604686737061e-01 9.7248665988445282e-02</leafValues></_>
    <_>
      <internalNodes>
        0 -1 1113 786386445 150939727 -84939026 553320191 1455877196
        -1675866884 -1463920612 -1607401890</internalNodes>
      <leafValues>
        -2.5060409307479858e-01 9.9462829530239105e-02</leafValues></_>
    <_>
      <internalNodes>
        0 -1 669 715323249 -1344733833 -2113539 -1409488947 797670271
        -1078993185 -1612744083 -1432682173</internalNodes>
      <leafValues>
        -1.4131376147270203e-01 1.8096961081027985e-01</leafValues></_>
    <_>
      <internalNodes>
        0 -1 493 -1440597197 -34589326 2147336111 -1409780592 253377323
        -82643285 2102345009 -813166591</internalNodes>
      <leafValues>
        -1.9858418405056000e-01 1.3110654056072235e-01</leafValues></_>
    <_>
      <internalNodes>
        0 -1 1024 -1042701940 1544862459 2130628146 1029446650
        1593676717 1902055694 -172426267 1627459144</internalNodes>
      <leafValues>
        -1.6921426355838776e-01 1.5041531622409821e-01</leafValues></_>
    <_>
      <internalNodes>
        0 -1 5 -323149024 -521137144 -134531723 -312389384 -1211429062
        -72567556 -1009780962 -708460158</internalNodes>
      <leafValues>
        -1.4405147731304169e-01 1.7727889120578766e-01</leafValues></_>
    <_>
      <internalNodes>
        0 -1 60 1873805119 -68159814 -1075578369 -1480671313 58884023
        -272210521 1467970933 -136055433</internalNodes>
      <leafValues>
        -1.2965461611747742e-01 1.7871589958667755e-01</leafValues></_></weakClassifiers></stage2>
</opencv_storage>
