<?xml version="1.0"?>
<opencv_storage>
<stage11>
  <maxWeakCount>100</maxWeakCount>
  <stageThreshold>-1.8923002481460571e+00</stageThreshold>
  <weakClassifiers>
    <_>
      <internalNodes>
        0 -1 1037 2147481599 2147434495 -2105345 2147434479 -83886401
        -16777217 -1158153473 1005567919</internalNodes>
      <leafValues>
        -3.9452433586120605e-01 1.1385703831911087e-01</leafValues></_>
    <_>
      <internalNodes>
        0 -1 0 -1 -1 -2097153 -65553 2004842423 -71828994 -102804112
        -657580</internalNodes>
      <leafValues>
        -3.1517741084098816e-01 1.4520581066608429e-01</leafValues></_>
    <_>
      <internalNodes>
        0 -1 166 -537198594 -2720769 -21119683 -180353 -83837990
        -80724175 -78249985 2004188991</internalNodes>
      <leafValues>
        -2.6036867499351501e-01 1.8048058450222015e-01</leafValues></_>
    <_>
      <internalNodes>
        0 -1 255 -87900622 -51315214 -8193 -35258540 48063 -1161757776
        2068266943 1342141919</internalNodes>
      <leafValues>
        -1.2132833153009415e-01 2.6298421621322632e-01</leafValues></_>
    <_>
      <internalNodes>
        0 -1 901 -134222001 1599016719 -17413 198180847 -67113012
        -4202594 -83952392 -1433534529</internalNodes>
      <leafValues>
        -1.3480614125728607e-01 2.2837193310260773e-01</leafValues></_>
    <_>
      <internalNodes>
        0 -1 960 -1342201686 -28913 234823920 -72421393 268171247
        268414975 -486604804 -491979857</internalNodes>
      <leafValues>
        -1.7813754081726074e-01 1.2768314778804779e-01</leafValues></_>
    <_>
      <internalNodes>
        0 -1 7 2147479423 -536877313 -10487809 -528641 719858410
        -67111170 1073743454 1364541527</internalNodes>
      <leafValues>
        -1.8171049654483795e-01 1.3768978416919708e-01</leafValues></_>
    <_>
      <internalNodes>
        0 -1 610 -352408050 -282135285 -4218882 -537338369 -1350849777
        -8429697 -838875659 -805976763</internalNodes>
      <leafValues>
        -1.5493598580360413e-01 1.4037954807281494e-01</leafValues></_>
    <_>
      <internalNodes>
        0 -1 1082 -1090579115 -58753 -33554945 -1074085889 -360624
        -87750 -459404 -1162149894</internalNodes>
      <leafValues>
        -1.4970149099826813e-01 1.3909377157688141e-01</leafValues></_>
    <_>
      <internalNodes>
        0 -1 240 1656989679 863464943 -829808086 864243555 2003783663
        2138798447 -272933045 1870397231</internalNodes>
      <leafValues>
        -1.8031200766563416e-01 1.0177309811115265e-01</leafValues></_>
    <_>
      <internalNodes>
        0 -1 352 790786935 -537074691 -513 -2556041 796081663 -2098177
        1854895613 -268470923</internalNodes>
      <leafValues>
        -1.4790919423103333e-01 1.3083709776401520e-01</leafValues></_>
    <_>
      <internalNodes>
        0 -1 1044 -285217171 1341074223 -16797970 577695599 1325352524
        1323264906 -352364440 -368509077</internalNodes>
      <leafValues>
        -2.0321474969387054e-01 8.6592547595500946e-02</leafValues></_>
    <_>
      <internalNodes>
        0 -1 593 -286326801 -2572510 -21009 -1342382595 1801699243
        -353698885 1841255869 -270576313</internalNodes>
      <leafValues>
        -9.3072339892387390e-02 1.9829054176807404e-01</leafValues></_>
    <_>
      <internalNodes>
        0 -1 1121 218038827 1073725039 -419837389 -1409614097 243232027
        -341844993 -319045393 -287309953</internalNodes>
      <leafValues>
        -1.8415446579456329e-01 9.5063708722591400e-02</leafValues></_>
    <_>
      <internalNodes>
        0 -1 706 -285299186 -38109841 2037825438 -1345180677 -285271076
        -277139649 -5325076 -169347201</internalNodes>
      <leafValues>
        -9.7066454589366913e-02 1.6512772440910339e-01</leafValues></_>
    <_>
      <internalNodes>
        0 -1 42 1262223143 1277620606 -746911897 -1512390658 55008099
        -936727337 1105937701 1173738821</internalNodes>
      <leafValues>
        -2.4522072076797485e-01 6.9178663194179535e-02</leafValues></_>
    <_>
      <internalNodes>
        0 -1 95 1935846078 -4867521 38209279 -16449 1935306671 -1557336
        1809272782 -35817659</internalNodes>
      <leafValues>
        -1.2572260200977325e-01 1.2052847445011139e-01</leafValues></_>
    <_>
      <internalNodes>
        0 -1 237 -352866689 552822911 -1039512865 16435839 1196902943
        1314344303 -3182995 1945628543</internalNodes>
      <leafValues>
        -1.6058246791362762e-01 9.5989294350147247e-02</leafValues></_>
    <_>
      <internalNodes>
        0 -1 976 -1426186379 -1073857747 -536879393 -1080364545
        -1613572491 -1045 -69272199 -1346749576</internalNodes>
      <leafValues>
        -1.4319878816604614e-01 9.7138583660125732e-02</leafValues></_>
    <_>
      <internalNodes>
        0 -1 958 -2118744 -1079070930 1046416636 -261906 -1409293059
        -1342215201 -1073827460 -1079591009</internalNodes>
      <leafValues>
        -8.5502408444881439e-02 1.5618743002414703e-01</leafValues></_>
    <_>
      <internalNodes>
        0 -1 730 -1394426092 -1359036548 -171985955 -1342400583
        792182591 -268436481 -1082007 -1344574171</internalNodes>
      <leafValues>
        -1.2744882702827454e-01 1.0577464103698730e-01</leafValues></_>
    <_>
      <internalNodes>
        0 -1 269 -28131397 -11527265 2011165565 -134305 1544601527
        -1144140 -11176457 -329419433</internalNodes>
      <leafValues>
        -1.1095195263624191e-01 1.2338823825120926e-01</leafValues></_>
    <_>
      <internalNodes>
        0 -1 1048 -1342232465 1071591279 -1493203294 988733423
        -1342232854 805257071 -21013939 -353501401</internalNodes>
      <leafValues>
        -1.2748159468173981e-01 1.0279435664415359e-01</leafValues></_>
    <_>
      <internalNodes>
        0 -1 837 -268768470 -5310081 1532932794 -6375041 -1347701895
        -1141146897 -289490759 -269507825</internalNodes>
      <leafValues>
        -6.4183041453361511e-02 2.0407801866531372e-01</leafValues></_>
    <_>
      <internalNodes>
        0 -1 1100 -402717675 -270586021 -109253633 721042159 -353564656
        -1360533 -58918120 -1397162049</internalNodes>
      <leafValues>
        -1.4241088926792145e-01 9.2103153467178345e-02</leafValues></_>
    <_>
      <internalNodes>
        0 -1 855 -1398926516 -1078317188 -1094836230 -1078445701
        -1073857028 -1074897442 -1362227716 -1346748822</internalNodes>
      <leafValues>
        -1.5152764320373535e-01 8.5117630660533905e-02</leafValues></_>
    <_>
      <internalNodes>
        0 -1 307 -349506757 -605363710 -570442753 -867116 733385467
        -1467292486 1393516785 -843066908</internalNodes>
      <leafValues>
        -1.0732762515544891e-01 1.1755007505416870e-01</leafValues></_>
    <_>
      <internalNodes>
        0 -1 140 -414449681 -524222736 -101728338 -1985471786 561200063
        -1471088241 2143254381 -1361284314</internalNodes>
      <leafValues>
        -1.0744476318359375e-01 1.2194070965051651e-01</leafValues></_>
    <_>
      <internalNodes>
        0 -1 897 -469835668 -839194849 2010103514 -2172593 -273434739
        -1074791441 -1074004487 -338983413</internalNodes>
      <leafValues>
        -6.7150682210922241e-02 1.9432924687862396e-01</leafValues></_>
    <_>
      <internalNodes>
        0 -1 607 2124332716 2142906543 -8388675 -69337185 1497430404
        2078994350 1903613900 1988568839</internalNodes>
      <leafValues>
        -1.3410398364067078e-01 9.6291244029998779e-02</leafValues></_>
    <_>
      <internalNodes>
        0 -1 972 -1361068427 -1350625729 -2714885 725527551 -337657999
        -4213859 -1435877792 -1374966238</internalNodes>
      <leafValues>
        -1.1998996883630753e-01 1.0449603199958801e-01</leafValues></_>
    <_>
      <internalNodes>
        0 -1 1037 -2145089384 -1896943955 1037933439 -1110114660
        228780490 1048342506 1673575819 -1005490950</internalNodes>
      <leafValues>
        -9.3452759087085724e-02 1.2588836252689362e-01</leafValues></_>
    <_>
      <internalNodes>
        0 -1 1111 -318977011 524269565 -925521289 534673823 -554382328
        -439383269 -17240868 -1476329475</internalNodes>
      <leafValues>
        -1.4403073489665985e-01 8.7624907493591309e-02</leafValues></_>
    <_>
      <internalNodes>
        0 -1 581 716846891 -1409763009 -604000643 -1346454327 186203951
        -71386261 -841253523 -857771985</internalNodes>
      <leafValues>
        -9.4613358378410339e-02 1.2731932103633881e-01</leafValues></_>
    <_>
      <internalNodes>
        0 -1 166 -747277791 1996208554 2113023050 2079846302 -144650747
        2144333806 1400249632 143262401</internalNodes>
      <leafValues>
        -1.4383620023727417e-01 8.0636814236640930e-02</leafValues></_>
    <_>
      <internalNodes>
        0 -1 203 -1300316370 2146611135 -1124160914 -406258817
        1244356495 -1019929 -16818355 -296525961</internalNodes>
      <leafValues>
        -1.0024914145469666e-01 1.1676377803087234e-01</leafValues></_>
    <_>
      <internalNodes>
        0 -1 152 235538226 1593967730 -1175112910 -1397596160 222233393
        -268781646 1144485204 -840665996</internalNodes>
      <leafValues>
        -2.7219980955123901e-01 4.2034063488245010e-02</leafValues></_>
    <_>
      <internalNodes>
        0 -1 120 -354440657 1612350538 -899005698 1657979646 1197884014
        1627653927 -109056836 -201982977</internalNodes>
      <leafValues>
        -1.0645128041505814e-01 1.0696314275264740e-01</leafValues></_>
    <_>
      <internalNodes>
        0 -1 822 -1433775352 -1347751156 -779940258 -1483021619
        -1885672920 -336600792 -1346405079 -1433796607</internalNodes>
      <leafValues>
        -1.5066497027873993e-01 7.5547717511653900e-02</leafValues></_>
    <_>
      <internalNodes>
        0 -1 905 -570447318 -5304533 -1095779150 -607502357 1944960397
        -268438785 -76547620 -342884497</internalNodes>
      <leafValues>
        -6.5797954797744751e-02 1.7029018700122833e-01</leafValues></_>
    <_>
      <internalNodes>
        0 -1 705 1289385200 -17387553 1073119037 -1095565339 2092309420
        2129297335 -75777096 845512559</internalNodes>
      <leafValues>
        -1.2810097634792328e-01 8.8460542261600494e-02</leafValues></_>
    <_>
      <internalNodes>
        0 -1 131 -740819994 855637375 -1141780818 602858703 1995386831
        2146433279 -1144817842 1811922731</internalNodes>
      <leafValues>
        -1.2822300195693970e-01 8.9824676513671875e-02</leafValues></_>
    <_>
      <internalNodes>
        0 -1 375 782434083 -1394559968 -145490649 -930579183 251887547
        -1146553644 1802925365 -1999871899</internalNodes>
      <leafValues>
        -1.7625750601291656e-01 6.3361436128616333e-02</leafValues></_>
    <_>
      <internalNodes>
        0 -1 718 140126764 746194030 376967166 159005520 -1900269672
        1878932607 -1430648136 -1346814130</internalNodes>
      <leafValues>
        -1.7333318293094635e-01 6.1709653586149216e-02</leafValues></_>
    <_>
      <internalNodes>
        0 -1 327 1646510627 -1145421252 2117009624 -874792 705138331
        1056851903 1709135317 -436743709</internalNodes>
      <leafValues>
        -9.2250764369964600e-02 1.2201657891273499e-01</leafValues></_>
    <_>
      <internalNodes>
        0 -1 90 1861200683 -80958362 262661887 -1344645418 117917559
        1229121081 1348433253 1642460515</internalNodes>
      <leafValues>
        -1.6263033449649811e-01 6.2517873942852020e-02</leafValues></_>
    <_>
      <internalNodes>
        0 -1 0 1406133047 1559551861 1071536750 -1318914 -1914664888
        -2009727743 307535263 1078613409</internalNodes>
      <leafValues>
        -1.0340062528848648e-01 1.0160071402788162e-01</leafValues></_>
    <_>
      <internalNodes>
        0 -1 924 -1400750476 -135364646 -12058755 -1611468321 -843057291
        -8411140 -22069767 -1364482454</internalNodes>
      <leafValues>
        -9.3060031533241272e-02 1.1633752286434174e-01</leafValues></_>
    <_>
      <internalNodes>
        0 -1 370 -603990956 -1205978402 -272680003 989708139 -747593984
        -550498733 1947597056 32599</internalNodes>
      <leafValues>
        -1.8927927315235138e-01 5.4357409477233887e-02</leafValues></_>
    <_>
      <internalNodes>
        0 -1 1088 -2138531 2139036757 -872811009 -1794454089 -268697892
        -86377382 -69468696 -83116261</internalNodes>
      <leafValues>
        -5.6059535592794418e-02 1.8815937638282776e-01</leafValues></_>
    <_>
      <internalNodes>
        0 -1 1097 -1932132308 1040133039 1514988222 -1074644105
        800851044 -893421445 582665276 -1465712645</internalNodes>
      <leafValues>
        -1.4245149493217468e-01 7.2883650660514832e-02</leafValues></_>
    <_>
      <internalNodes>
        0 -1 1117 -806419456 174012221 -498153224 719236007 129192964
        2026845979 -455414712 -1461649553</internalNodes>
      <leafValues>
        -1.7122705280780792e-01 6.1435200273990631e-02</leafValues></_>
    <_>
      <internalNodes>
        0 -1 909 -270621148 -541448138 771687610 -536999306 -805333505
        -1610908289 -33842951 -424696915</internalNodes>
      <leafValues>
        -6.4147807657718658e-02 1.5814314782619476e-01</leafValues></_>
    <_>
      <internalNodes>
        0 -1 348 1115392623 310011503 469018 571125627 -630780341
        2067481214 -1141154225 -75759793</internalNodes>
      <leafValues>
        -1.2912206351757050e-01 7.7257052063941956e-02</leafValues></_>
    <_>
      <internalNodes>
        0 -1 503 537962752 -541217329 -906043937 -4143117 189833663
        -1096894465 215006685 226755589</internalNodes>
      <leafValues>
        -1.9574598968029022e-01 5.1704198122024536e-02</leafValues></_>
    <_>
      <internalNodes>
        0 -1 849 148376576 -1380315538 466497436 -271434141 245366808
        -1145085969 -1395779532 -1074254939</internalNodes>
      <leafValues>
        -1.8234547972679138e-01 5.2860662341117859e-02</leafValues></_>
    <_>
      <internalNodes>
        0 -1 780 2050686156 1056849903 800594038 -739681 989333176
        1073463183 -151094289 667107087</internalNodes>
      <leafValues>
        -1.1238393187522888e-01 9.1779552400112152e-02</leafValues></_>
    <_>
      <internalNodes>
        0 -1 63 1806089007 -542709170 -536923346 -152503712 117885743
        -2004162352 1616336725 -841616282</internalNodes>
      <leafValues>
        -1.4660532772541046e-01 6.7330449819564819e-02</leafValues></_>
    <_>
      <internalNodes>
        0 -1 217 -347100662 2145361982 1210014319 -7157582 1263459214
        -1193357329 -312487204 -101329457</internalNodes>
      <leafValues>
        -6.0589715838432312e-02 1.6782753169536591e-01</leafValues></_>
    <_>
      <internalNodes>
        0 -1 427 -889527761 -237445079 1413051646 -839597836 -1896888369
        -1632963409 1199293661 -839002931</internalNodes>
      <leafValues>
        -6.9167025387287140e-02 1.4532668888568878e-01</leafValues></_>
    <_>
      <internalNodes>
        0 -1 915 209718308 -1417008024 805241068 -1343047958 791553120
        -1419952401 -1327547300 -1414516805</internalNodes>
      <leafValues>
        -1.7710201442241669e-01 5.6640017777681351e-02</leafValues></_>
    <_>
      <internalNodes>
        0 -1 126 1786716703 1482580031 1648029434 -535635718 1130262110
        1631154711 -678954384 -223871265</internalNodes>
      <leafValues>
        -1.4886917173862457e-01 6.7718483507633209e-02</leafValues></_>
    <_>
      <internalNodes>
        0 -1 783 -286086488 -551624204 1016869338 -72212554 -277955412
        -1075096073 -1074023684 -33592481</internalNodes>
      <leafValues>
        -5.9072747826576233e-02 1.6381064057350159e-01</leafValues></_>
    <_>
      <internalNodes>
        0 -1 741 -285540495 -123009 -12709973 -1344602739 804188155
        -1092624721 -281192471 -1347687421</internalNodes>
      <leafValues>
        -6.3114859163761139e-02 1.5041857957839966e-01</leafValues></_>
    <_>
      <internalNodes>
        0 -1 554 -2102217868 -1464589416 -134368787 -1382220592 59119713
        -1121406805 1842102593 -1896087519</internalNodes>
      <leafValues>
        -1.7596805095672607e-01 5.5273290723562241e-02</leafValues></_>
    <_>
      <internalNodes>
        0 -1 495 2132946438 2098212271 1507778558 -134758674 2068351264
        1605054406 1497689346 1929389831</internalNodes>
      <leafValues>
        -1.5846249461174011e-01 6.0454733669757843e-02</leafValues></_>
    <_>
      <internalNodes>
        0 -1 626 -298147218 -74286219 1003359930 -376272681 -1372418418
        -1153737025 -1458918984 -71565691</internalNodes>
      <leafValues>
        -6.4503915607929230e-02 1.5712586045265198e-01</leafValues></_>
    <_>
      <internalNodes>
        0 -1 882 -287379857 -1084330675 -10246177 -1349583029 -807403539
        -803025 -268505127 -1416900849</internalNodes>
      <leafValues>
        -6.0565873980522156e-02 1.5601161122322083e-01</leafValues></_>
    <_>
      <internalNodes>
        0 -1 1029 -335565043 780012559 -362044914 35307279 -134480576
        1526414712 -487524312 -1442775264</internalNodes>
      <leafValues>
        -1.6141614317893982e-01 6.0670744627714157e-02</leafValues></_>
    <_>
      <internalNodes>
        0 -1 44 765535862 -67124611 -1073750529 -67707138 182724523
        -1409295689 1491057615 -103680013</internalNodes>
      <leafValues>
        -7.1381725370883942e-02 1.3014672696590424e-01</leafValues></_>
    <_>
      <internalNodes>
        0 -1 676 -133795628 -593597282 -329589347 -1524392 2134457
        -75216905 1048305369 776031821</internalNodes>
      <leafValues>
        -1.0981482267379761e-01 8.2608021795749664e-02</leafValues></_>
    <_>
      <internalNodes>
        0 -1 922 -285303443 -1627517973 1298997304 -1368744723 804985787
        2147483133 249521272 -1342440850</internalNodes>
      <leafValues>
        -8.7753184139728546e-02 1.0341233760118484e-01</leafValues></_>
    <_>
      <internalNodes>
        0 -1 74 356255976 952074239 1862237244 1067151323 2120483328
        1062223760 -166704060 420769317</internalNodes>
      <leafValues>
        -2.4422565102577209e-01 3.9714165031909943e-02</leafValues></_>
    <_>
      <internalNodes>
        0 -1 1042 -288429202 -68180369 -17105156 -2474197 719452139
        -1881180102 -1097339424 -89411793</internalNodes>
      <leafValues>
        -5.8336585760116577e-02 1.5287716686725616e-01</leafValues></_>
    <_>
      <internalNodes>
        0 -1 921 -1902503896 -1665520598 -337758534 -1433396162
        -1363272904 -1124401366 -1880419480 -1350549666</internalNodes>
      <leafValues>
        -1.3876274228096008e-01 6.1518073081970215e-02</leafValues></_>
    <_>
      <internalNodes>
        0 -1 342 -453341601 1056245367 775841535 867724891 1323813630
        -4231297 -385955349 -304742409</internalNodes>
      <leafValues>
        -5.8407474309206009e-02 1.4587274193763733e-01</leafValues></_>
    <_>
      <internalNodes>
        0 -1 490 747298683 -337716214 -539033603 -335749648 185207995
        -275851572 -845974475 -810593003</internalNodes>
      <leafValues>
        -1.0875063389539719e-01 7.8722737729549408e-02</leafValues></_>
    <_>
      <internalNodes>
        0 -1 148 -83902934 -755831354 2104376138 -1541351716 643775277
        614510301 1073421645 212464220</internalNodes>
      <leafValues>
        -1.1602659523487091e-01 8.0207556486129761e-02</leafValues></_>
    <_>
      <internalNodes>
        0 -1 5 -125242586 -75968464 2013113633 -95555424 201357104
        -20120104 1363505412 -725330684</internalNodes>
      <leafValues>
        -2.3007224500179291e-01 4.0045045316219330e-02</leafValues></_>
    <_>
      <internalNodes>
        0 -1 651 -17928588 1591084114 -36110571 251759444 373583283
        -28563460 1001798416 237044992</internalNodes>
      <leafValues>
        -1.3361379504203796e-01 6.6314019262790680e-02</leafValues></_>
    <_>
      <internalNodes>
        0 -1 114 645572138 293313017 -893761301 -765014062 1196638786
        1452374618 -188288540 -151651341</internalNodes>
      <leafValues>
        -1.1516522616147995e-01 7.4684746563434601e-02</leafValues></_>
    <_>
      <internalNodes>
        0 -1 530 -352655606 1603942704 -1080385538 -1688146034
        -1970828370 -1684324369 732866812 -369835771</internalNodes>
      <leafValues>
        -8.1930324435234070e-02 1.0893034189939499e-01</leafValues></_>
    <_>
      <internalNodes>
        0 -1 852 143665152 -1482029011 982656528 -1293405386 -1429259396
        -1074839698 -1543628168 -1548258437</internalNodes>
      <leafValues>
        -1.7260433733463287e-01 5.1631450653076172e-02</leafValues></_>
    <_>
      <internalNodes>
        0 -1 962 -285213732 -637621126 938618360 -2490170 -1947878199
        -1616027665 -1344359189 -72499291</internalNodes>
      <leafValues>
        -4.6538718044757843e-02 1.8966263532638550e-01</leafValues></_>
    <_>
      <internalNodes>
        0 -1 1006 733751076 -1075303508 1027482776 -1343090708 264978299
        738046717 -1661027219 -1365054529</internalNodes>
      <leafValues>
        -1.4742571115493774e-01 6.7206390202045441e-02</leafValues></_>
    <_>
      <internalNodes>
        0 -1 755 1526366960 -18174108 1071938799 -1659280 -536834236
        -117637775 -1179664615 817954727</internalNodes>
      <leafValues>
        -1.2233495712280273e-01 7.0223912596702576e-02</leafValues></_>
    <_>
      <internalNodes>
        0 -1 1104 -285275043 2000641967 -16936302 -1439802417 -285283764
        1861168662 -48567852 -1413480865</internalNodes>
      <leafValues>
        -7.8760929405689240e-02 1.0770712047815323e-01</leafValues></_>
    <_>
      <internalNodes>
        0 -1 417 1672131371 -26558424 1066120191 -1785540483 -1467506117
        -1164336457 892572001 -208537</internalNodes>
      <leafValues>
        -8.8838905096054077e-02 9.2691071331501007e-02</leafValues></_>
    <_>
      <internalNodes>
        0 -1 771 -320934226 -273497 536024826 -1478312006 -345273393
        -1101953 -78475315 -2101873</internalNodes>
      <leafValues>
        -4.1555326431989670e-02 2.0079280436038971e-01</leafValues></_>
    <_>
      <internalNodes>
        0 -1 546 175243884 143134491 773471452 571628670 241584714
        -93356234 -1364505348 1788029530</internalNodes>
      <leafValues>
        -2.0777934789657593e-01 4.0409006178379059e-02</leafValues></_>
    <_>
      <internalNodes>
        0 -1 1058 1214307357 2088721997 -56623513 -547414553 2064305750
        -537944401 -1631589099 740821841</internalNodes>
      <leafValues>
        -1.5869405865669250e-01 5.2335862070322037e-02</leafValues></_>
    <_>
      <internalNodes>
        0 -1 918 -486755892 -70276390 -1154342728 -1344369305
        -1421887557 -1108611905 -1158698498 -272639513</internalNodes>
      <leafValues>
        -4.7843866050243378e-02 1.6871730983257294e-01</leafValues></_>
    <_>
      <internalNodes>
        0 -1 1055 249542181 784279081 -1356920778 -1917132689 265224557
        251625407 -1067822067 -1895830033</internalNodes>
      <leafValues>
        -1.4300550520420074e-01 5.5536340922117233e-02</leafValues></_>
    <_>
      <internalNodes>
        0 -1 789 -904003352 -1302454758 -202730774 -1430638695
        -1353049240 -300547 -1090840324 -306692328</internalNodes>
      <leafValues>
        -1.0152460634708405e-01 8.0887123942375183e-02</leafValues></_>
    <_>
      <internalNodes>
        0 -1 1120 -1008752862 1543499469 1731983701 -1818560513 83482844
        -1022361747 -721425940 -251658273</internalNodes>
      <leafValues>
        -5.7671744376420975e-02 1.3689461350440979e-01</leafValues></_>
    <_>
      <internalNodes>
        0 -1 539 1517722306 2077898823 137628272 -1619855369 -77255752
        -1455731940 -72929549 -1278461</internalNodes>
      <leafValues>
        -7.8311696648597717e-02 1.0009433329105377e-01</leafValues></_>
    <_>
      <internalNodes>
        0 -1 277 715274611 -1951866608 1469579263 59954513 229519675
        -287397478 1170037877 1304776821</internalNodes>
      <leafValues>
        -1.8042162060737610e-01 4.4378727674484253e-02</leafValues></_>
    <_>
      <internalNodes>
        0 -1 75 -660622236 -16777229 -23916628 -823988658 399782830
        -36249348 1956478472 1282921042</internalNodes>
      <leafValues>
        -9.6945270895957947e-02 7.9910412430763245e-02</leafValues></_>
    <_>
      <internalNodes>
        0 -1 901 -419516684 -2030243897 1455357482 2130239093 1124064307
        1322671934 -390071549 1497549124</internalNodes>
      <leafValues>
        -1.0930338501930237e-01 7.5536243617534637e-02</leafValues></_>
    <_>
      <internalNodes>
        0 -1 602 -353312246 -36901122 -537701901 -307603366 1653320635
        -554721102 268351909 -2211835</internalNodes>
      <leafValues>
        -9.3535207211971283e-02 8.4332987666130066e-02</leafValues></_></weakClassifiers></stage11>
</opencv_storage>
