<?xml version="1.0"?>
<opencv_storage>
<stage12>
  <maxWeakCount>100</maxWeakCount>
  <stageThreshold>-1.8699506521224976e+00</stageThreshold>
  <weakClassifiers>
    <_>
      <internalNodes>
        0 -1 4 -12582913 -3585 -2097153 -1 52524023 -1410335745
        1465873781 -34955</internalNodes>
      <leafValues>
        -4.5216181874275208e-01 -6.8225008435547352e-03</leafValues></_>
    <_>
      <internalNodes>
        0 -1 84 -2097233 -855553 -36729953 -205953 2138570543 -1024670
        2139062143 -559241</internalNodes>
      <leafValues>
        -2.1488000452518463e-01 2.2080494463443756e-01</leafValues></_>
    <_>
      <internalNodes>
        0 -1 1041 -2563 1608451823 -1075838977 1073692671 -3892
        2079293375 -83951874 982188015</internalNodes>
      <leafValues>
        -2.0848877727985382e-01 1.8256518244743347e-01</leafValues></_>
    <_>
      <internalNodes>
        0 -1 550 29177 -4661516 -671089153 -205347 800668415 -70537217
        1039890941 -1073786507</internalNodes>
      <leafValues>
        -1.5970769524574280e-01 1.9221329689025879e-01</leafValues></_>
    <_>
      <internalNodes>
        0 -1 894 -268452067 1604259597 -4472903 185587567 -4194307
        -20997384 -21069896 -1439909073</internalNodes>
      <leafValues>
        -1.3515456020832062e-01 1.9365547597408295e-01</leafValues></_>
    <_>
      <internalNodes>
        0 -1 61 -270029009 -11546897 -67109121 -136315153 117651315
        1794108107 1171748151 -1040714377</internalNodes>
      <leafValues>
        -1.5223638713359833e-01 1.7396236956119537e-01</leafValues></_>
    <_>
      <internalNodes>
        0 -1 569 -1427046401 -4653128 -1084769377 -270779011 732134399
        -278529 1879012863 -1883286401</internalNodes>
      <leafValues>
        -1.0424777120351791e-01 2.1461041271686554e-01</leafValues></_>
    <_>
      <internalNodes>
        0 -1 1055 218042401 805255039 -1361115093 201063391 704592315
        788525051 251596015 -268437009</internalNodes>
      <leafValues>
        -2.2778832912445068e-01 9.0163804590702057e-02</leafValues></_>
    <_>
      <internalNodes>
        0 -1 905 -822154520 -570519665 -35128578 -540090417 -1476665367
        -1879331905 -77363 -341049489</internalNodes>
      <leafValues>
        -9.6843890845775604e-02 2.1751320362091064e-01</leafValues></_>
    <_>
      <internalNodes>
        0 -1 1101 -41891 1474255967 -603981317 1071348703 -405505276
        -150999217 -85131724 -1095615489</internalNodes>
      <leafValues>
        -1.4401437342166901e-01 1.4168566465377808e-01</leafValues></_>
    <_>
      <internalNodes>
        0 -1 295 -350028821 -34828256 -674254614 -1357975339 234937003
        -276258680 1900246389 -808628153</internalNodes>
      <leafValues>
        -1.6389277577400208e-01 1.0396680235862732e-01</leafValues></_>
    <_>
      <internalNodes>
        0 -1 126 1660903983 5177903 -501503250 584835327 1802195579
        41120819 -134480257 1937244159</internalNodes>
      <leafValues>
        -1.9735489785671234e-01 9.9051125347614288e-02</leafValues></_>
    <_>
      <internalNodes>
        0 -1 1038 -285291411 -64947 -4202753 -268498465 1872681976
        -12614 -71664387 -1423790161</internalNodes>
      <leafValues>
        -1.1685390025377274e-01 1.5322697162628174e-01</leafValues></_>
    <_>
      <internalNodes>
        0 -1 0 1566310399 -1190657 -672277505 -5570561 616497151
        -40239878 334591477 -722141835</internalNodes>
      <leafValues>
        -1.6988427937030792e-01 9.8078295588493347e-02</leafValues></_>
    <_>
      <internalNodes>
        0 -1 429 -462494070 -14616312 -1828879702 -1883580841 -294011253
        -284456277 662116165 -272337595</internalNodes>
      <leafValues>
        -1.6973912715911865e-01 9.6225269138813019e-02</leafValues></_>
    <_>
      <internalNodes>
        0 -1 604 -826087484 -274147603 -541218098 -1366631995 1192424323
        -269833301 -330837555 -1362405561</internalNodes>
      <leafValues>
        -1.0407155007123947e-01 1.5510547161102295e-01</leafValues></_>
    <_>
      <internalNodes>
        0 -1 107 1107487467 -770382081 247090943 -537403657 1869574031
        1920941846 2136961007 -2262249</internalNodes>
      <leafValues>
        -1.2716113030910492e-01 1.2319122999906540e-01</leafValues></_>
    <_>
      <internalNodes>
        0 -1 968 -1429726128 1073622237 -35782657 -1074110467
        -1879056523 -283797 -1073783427 -1346762243</internalNodes>
      <leafValues>
        -1.6325384378433228e-01 9.5715440809726715e-02</leafValues></_>
    <_>
      <internalNodes>
        0 -1 759 -286330259 -273759497 -20833 -1346437137 -1410614549
        -68439093 -268476435 -1953554161</internalNodes>
      <leafValues>
        -7.6531700789928436e-02 1.9593735039234161e-01</leafValues></_>
    <_>
      <internalNodes>
        0 -1 941 -1359307699 -1359050740 -105342229 -1911026355
        -1347420328 -1342178340 -340902032 -1442279607</internalNodes>
      <leafValues>
        -1.8183524906635284e-01 7.7408239245414734e-02</leafValues></_>
    <_>
      <internalNodes>
        0 -1 747 -1430716547 -466180 -34769441 -268765827 -272891969
        -71635045 -4490067 -1347743687</internalNodes>
      <leafValues>
        -9.9319942295551300e-02 1.3929295539855957e-01</leafValues></_>
    <_>
      <internalNodes>
        0 -1 238 -494933265 1516047583 -1439094066 48229999 2138001231
        1734805259 -337949363 -134221969</internalNodes>
      <leafValues>
        -1.4651283621788025e-01 9.3922525644302368e-02</leafValues></_>
    <_>
      <internalNodes>
        0 -1 436 16675312 1023344638 -337089 -1769475 1853106094
        2146922431 -1091699064 1073049431</internalNodes>
      <leafValues>
        -1.6786755621433258e-01 8.4149904549121857e-02</leafValues></_>
    <_>
      <internalNodes>
        0 -1 1016 -822142379 1065290559 -588399125 725266335 -1049532
        -78925105 -1349252828 -1366651605</internalNodes>
      <leafValues>
        -1.3777087628841400e-01 9.5045149326324463e-02</leafValues></_>
    <_>
      <internalNodes>
        0 -1 659 -91691000 -4542711 -352887861 -1310769 -117377020
        -42205889 -16714600 578972419</internalNodes>
      <leafValues>
        -1.6988490521907806e-01 7.6201662421226501e-02</leafValues></_>
    <_>
      <internalNodes>
        0 -1 155 -1492977821 -1530857342 2010849250 -808396944 251672951
        -838799216 2001170805 -271748251</internalNodes>
      <leafValues>
        -1.9061669707298279e-01 6.5733283758163452e-02</leafValues></_>
    <_>
      <internalNodes>
        0 -1 459 1618660095 974654973 -282580790 33569347 1876062186
        2070880075 -1352460439 1863540335</internalNodes>
      <leafValues>
        -1.3880723714828491e-01 9.3170873820781708e-02</leafValues></_>
    <_>
      <internalNodes>
        0 -1 8 -148373529 -199050638 -25746 -580586441 654524347
        -1971278692 1461663723 -856140890</internalNodes>
      <leafValues>
        -8.6469344794750214e-02 1.4628519117832184e-01</leafValues></_>
    <_>
      <internalNodes>
        0 -1 807 -352387467 -1092702899 -12861841 -1078215831
        -1410875595 -11329 -1347715795 -1347747569</internalNodes>
      <leafValues>
        -7.4877232313156128e-02 1.6784843802452087e-01</leafValues></_>
    <_>
      <internalNodes>
        0 -1 1004 -856195038 2147430159 350191776 571404143 268162447
        268152779 -1359290887 -1431437361</internalNodes>
      <leafValues>
        -1.2051448971033096e-01 1.0417339205741882e-01</leafValues></_>
    <_>
      <internalNodes>
        0 -1 792 -1909949875 -3353235 -182453505 -1342654115 -1346936977
        -4212390 -1351659147 -1413591727</internalNodes>
      <leafValues>
        -1.4115370810031891e-01 8.3886653184890747e-02</leafValues></_>
    <_>
      <internalNodes>
        0 -1 678 -274007264 -3476180 -83903746 -268510883 -1414550102
        -1327190 -1111532099 -337914597</internalNodes>
      <leafValues>
        -6.5340526401996613e-02 1.7508442699909210e-01</leafValues></_>
    <_>
      <internalNodes>
        0 -1 182 -273941719 -269571512 -135275009 -279251324 193671035
        -309820760 296702321 -976891787</internalNodes>
      <leafValues>
        -1.6126026213169098e-01 7.4004441499710083e-02</leafValues></_>
    <_>
      <internalNodes>
        0 -1 144 -219219473 -1564417468 -570442869 -1457230740 668384249
        -2107470349 1739536173 1339839790</internalNodes>
      <leafValues>
        -9.4926863908767700e-02 1.2549415230751038e-01</leafValues></_>
    <_>
      <internalNodes>
        0 -1 85 271590074 -202096833 1702356734 -6422529 1058028474
        -62907116 2102492934 -45848762</internalNodes>
      <leafValues>
        -1.4952732622623444e-01 7.7084608376026154e-02</leafValues></_>
    <_>
      <internalNodes>
        0 -1 958 -305202560 -36718932 1608487104 -87057 234286477
        129989086 1006515517 -273612881</internalNodes>
      <leafValues>
        -7.9923249781131744e-02 1.4317215979099274e-01</leafValues></_>
    <_>
      <internalNodes>
        0 -1 1120 148766720 738149981 -326383616 685440503 145965329
        2141682647 -1124348568 -1392771073</internalNodes>
      <leafValues>
        -2.2064340114593506e-01 5.4055236279964447e-02</leafValues></_>
    <_>
      <internalNodes>
        0 -1 1041 1785514626 1017967887 -1561701588 1244188056 976097083
        -297093341 -1180062927 -513425510</internalNodes>
      <leafValues>
        -9.0120881795883179e-02 1.2955416738986969e-01</leafValues></_>
    <_>
      <internalNodes>
        0 -1 1091 -268542867 1073698857 -73419026 468868951 -285572788
        -84943800 -151324452 -1163203797</internalNodes>
      <leafValues>
        -1.0768198966979980e-01 1.1004991084337234e-01</leafValues></_>
    <_>
      <internalNodes>
        0 -1 964 -286720152 -542238644 2145204696 -917284 535440380
        -1344329745 -1090569351 -1342308481</internalNodes>
      <leafValues>
        -6.9225825369358063e-02 1.5706039965152740e-01</leafValues></_>
    <_>
      <internalNodes>
        0 -1 709 989380270 1069104551 740165818 -35671074 787877562
        -1073761537 -1342231569 -1081553</internalNodes>
      <leafValues>
        -1.0895521193742752e-01 9.7448222339153290e-02</leafValues></_>
    <_>
      <internalNodes>
        0 -1 891 -295781019 -536919026 -268914439 -1148562063 -337911831
        -317320 -1079086211 -343147005</internalNodes>
      <leafValues>
        -6.5954916179180145e-02 1.6035845875740051e-01</leafValues></_>
    <_>
      <internalNodes>
        0 -1 578 -274662053 -468776 -542114657 -1082459275 -341050453
        -7674449 -807667203 -813018855</internalNodes>
      <leafValues>
        -8.6987771093845367e-02 1.2488109618425369e-01</leafValues></_>
    <_>
      <internalNodes>
        0 -1 1119 129892352 1039076725 -226575696 49738706 1120337920
        1610543718 -589115280 -1326383105</internalNodes>
      <leafValues>
        -1.8818569183349609e-01 5.4716162383556366e-02</leafValues></_>
    <_>
      <internalNodes>
        0 -1 102 1878780463 -617619377 -398013782 -220020506 661355391
        930022527 1940644084 -235405833</internalNodes>
      <leafValues>
        -1.0273697972297668e-01 9.9923096597194672e-02</leafValues></_>
    <_>
      <internalNodes>
        0 -1 618 -293934422 -12950257 -1297565474 -2572673 -337715314
        -1419806657 -174081812 -302581889</internalNodes>
      <leafValues>
        -6.2818728387355804e-02 1.6179898381233215e-01</leafValues></_>
    <_>
      <internalNodes>
        0 -1 700 -352390230 -5354902 1811908334 -1416987313 -1440240757
        -270541426 2138832333 -271768761</internalNodes>
      <leafValues>
        -7.0901498198509216e-02 1.4003644883632660e-01</leafValues></_>
    <_>
      <internalNodes>
        0 -1 694 1727680588 -674496180 -2247732 -1343291581 49476585
        -136449025 -112500920 172581647</internalNodes>
      <leafValues>
        -1.0148007422685623e-01 9.9424369633197784e-02</leafValues></_>
    <_>
      <internalNodes>
        0 -1 1010 -1929634788 -1365755844 930364570 -1342554888
        1069493227 -537923848 -1076093955 -1074046851</internalNodes>
      <leafValues>
        -1.3834607601165771e-01 7.1809314191341400e-02</leafValues></_>
    <_>
      <internalNodes>
        0 -1 485 -155141260 -50689282 -16912404 -16973987 905981745
        -32223792 1532310423 9450759</internalNodes>
      <leafValues>
        -1.6594885289669037e-01 5.7777579873800278e-02</leafValues></_>
    <_>
      <internalNodes>
        0 -1 232 1861994031 1918764653 -364607874 1349672703 1669004158
        1935900466 -522191363 -134746369</internalNodes>
      <leafValues>
        -8.0860771238803864e-02 1.2170744687318802e-01</leafValues></_>
    <_>
      <internalNodes>
        0 -1 329 867871406 2110949640 876085930 1203429093 254524303
        525213960 662123365 1742558533</internalNodes>
      <leafValues>
        -1.3985547423362732e-01 7.1896061301231384e-02</leafValues></_>
    <_>
      <internalNodes>
        0 -1 1012 -1428800911 -1126287498 -6431813 -1497432579
        -286889152 -143664282 -1084305031 -1432737475</internalNodes>
      <leafValues>
        -1.3710923492908478e-01 7.0259250700473785e-02</leafValues></_>
    <_>
      <internalNodes>
        0 -1 562 -555288719 -556261953 -570483951 -1347896005 661209079
        -1403185 1601127789 -1882635003</internalNodes>
      <leafValues>
        -7.0239685475826263e-02 1.4068491756916046e-01</leafValues></_>
    <_>
      <internalNodes>
        0 -1 481 -525192405 -1997639830 -1220563166 -2071431440
        723548973 -1193738422 1902989573 210252133</internalNodes>
      <leafValues>
        -1.8547467887401581e-01 5.2012763917446136e-02</leafValues></_>
    <_>
      <internalNodes>
        0 -1 1030 -1028946732 1222247655 -991166690 1581678589 -4206912
        -662725030 -353633360 704769985</internalNodes>
      <leafValues>
        -1.1952774226665497e-01 8.2011833786964417e-02</leafValues></_>
    <_>
      <internalNodes>
        0 -1 943 1141016704 1588901549 2103436138 -17388436 -288949119
        2044460898 -91750598 612876035</internalNodes>
      <leafValues>
        -1.3091658055782318e-01 7.4525587260723114e-02</leafValues></_>
    <_>
      <internalNodes>
        0 -1 94 1324542510 -67437846 46280314 -297742124 878976847
        -595797940 1697605229 -817539769</internalNodes>
      <leafValues>
        -1.2197954952716827e-01 7.6373025774955750e-02</leafValues></_>
    <_>
      <internalNodes>
        0 -1 84 573188188 -419483890 -1344323734 -280777756 -727962150
        -1624247909 -963128123 1699269997</internalNodes>
      <leafValues>
        -9.6750907599925995e-02 9.9043384194374084e-02</leafValues></_>
    <_>
      <internalNodes>
        0 -1 620 -554500438 -46564357 2068818090 -1360468161 -282714198
        -9487441 -9719809 -1214713</internalNodes>
      <leafValues>
        -6.9689311087131500e-02 1.3879042863845825e-01</leafValues></_>
    <_>
      <internalNodes>
        0 -1 80 539157034 -203281694 -543219270 -1497960374 17105711
        -905158336 1896306017 -410716860</internalNodes>
      <leafValues>
        -1.8846918642520905e-01 4.9309905618429184e-02</leafValues></_>
    <_>
      <internalNodes>
        0 -1 280 -1408043153 -1078174986 -603996161 -1930135459
        1309359951 -1886769448 2131449151 -805571249</internalNodes>
      <leafValues>
        -6.8594701588153839e-02 1.5103898942470551e-01</leafValues></_>
    <_>
      <internalNodes>
        0 -1 1017 -556084995 1324240911 -541410373 112978943 -20120768
        2009065715 -1372784912 -1433694640</internalNodes>
      <leafValues>
        -9.6569404006004333e-02 9.3265235424041748e-02</leafValues></_>
    <_>
      <internalNodes>
        0 -1 25 1864382239 2077156376 -34358357 -608174146 109079395
        -22376281 272913781 -708553387</internalNodes>
      <leafValues>
        -1.7134673893451691e-01 5.2792456001043320e-02</leafValues></_>
    <_>
      <internalNodes>
        0 -1 550 -1088814538 -1979716555 -184684139 790363611 424353121
        -1160861380 -78095567 1285598927</internalNodes>
      <leafValues>
        -1.0988453030586243e-01 8.2579985260963440e-02</leafValues></_>
    <_>
      <internalNodes>
        0 -1 514 547397672 1871347822 -906374409 -818261508 159101610
        -1414627192 29045117 -809561851</internalNodes>
      <leafValues>
        -1.1579619348049164e-01 7.7375687658786774e-02</leafValues></_>
    <_>
      <internalNodes>
        0 -1 849 -1395638804 -1413597668 -1074906178 -1933955467
        -1342305476 2076146367 -1898259019 -1158004803</internalNodes>
      <leafValues>
        -1.2232742458581924e-01 7.2816222906112671e-02</leafValues></_>
    <_>
      <internalNodes>
        0 -1 840 1047568928 1050586403 685641406 -1091650713 1063525800
        1073479679 2125740970 612381443</internalNodes>
      <leafValues>
        -1.9627122581005096e-01 4.5231904834508896e-02</leafValues></_>
    <_>
      <internalNodes>
        0 -1 753 -320959926 -271661554 -280384591 -1349994997 1796726653
        -5335208 -134792919 168376075</internalNodes>
      <leafValues>
        -1.0046014189720154e-01 8.8696211576461792e-02</leafValues></_>
    <_>
      <internalNodes>
        0 -1 23 1928531744 989340607 2063018815 989733786 1561333504
        995105583 641805072 809501184</internalNodes>
      <leafValues>
        -3.4490346908569336e-01 2.6151234284043312e-02</leafValues></_>
    <_>
      <internalNodes>
        0 -1 1117 -1881255932 201274291 -758134582 584245751 263636056
        2044623990 -388827912 -1599012875</internalNodes>
      <leafValues>
        -1.6149285435676575e-01 5.4289270192384720e-02</leafValues></_>
    <_>
      <internalNodes>
        0 -1 783 -122618644 -545374865 -6442072 -71682061 -349519892
        -1091603082 -17125640 -1111131137</internalNodes>
      <leafValues>
        -5.2954338490962982e-02 1.6758963465690613e-01</leafValues></_>
    <_>
      <internalNodes>
        0 -1 126 -1972469670 1915681390 1786569530 1919337930 384978194
        1735091730 2121678992 -991985801</internalNodes>
      <leafValues>
        -1.2422447651624680e-01 7.0595428347587585e-02</leafValues></_>
    <_>
      <internalNodes>
        0 -1 61 640180786 1820301416 2046800950 -880751242 174387115
        -1678693856 2028979180 2047955585</internalNodes>
      <leafValues>
        -1.2075564265251160e-01 7.3821358382701874e-02</leafValues></_>
    <_>
      <internalNodes>
        0 -1 524 -136447064 -100779825 -1092897110 -606452779 -14811217
        -69265317 -8392193 -271878321</internalNodes>
      <leafValues>
        -5.1492851227521896e-02 1.6968137025833130e-01</leafValues></_>
    <_>
      <internalNodes>
        0 -1 142 -12046553 -655182065 -1737097377 -140904577 -318196478
        -16996433 2013616471 -401066921</internalNodes>
      <leafValues>
        -1.1219765990972519e-01 7.8291453421115875e-02</leafValues></_>
    <_>
      <internalNodes>
        0 -1 1121 -1881190357 536825155 -679815654 -1493215029 6956089
        173799868 -1082158985 83877115</internalNodes>
      <leafValues>
        -1.2546636164188385e-01 6.5613552927970886e-02</leafValues></_>
    <_>
      <internalNodes>
        0 -1 856 -285278211 -553777426 -1208341990 -1410708753
        -1409606675 -1149257492 -335667361 -1414920145</internalNodes>
      <leafValues>
        -5.4986365139484406e-02 1.5377217531204224e-01</leafValues></_>
    <_>
      <internalNodes>
        0 -1 786 9437216 708460071 466363066 800197234 715653176
        737044267 731647080 1071397745</internalNodes>
      <leafValues>
        -3.0719563364982605e-01 2.8439629822969437e-02</leafValues></_>
    <_>
      <internalNodes>
        0 -1 92 -1494488405 -68647224 1668916906 -1078273442 1116098543
        2068332652 1192711653 -269618329</internalNodes>
      <leafValues>
        -9.2653617262840271e-02 8.9303821325302124e-02</leafValues></_>
    <_>
      <internalNodes>
        0 -1 39 -218629330 -258576385 -945193688 -1928527907 1668485096
        -152793418 938305320 1323134799</internalNodes>
      <leafValues>
        -8.0820173025131226e-02 1.0524534434080124e-01</leafValues></_>
    <_>
      <internalNodes>
        0 -1 103 653795878 544624222 182890230 1756515854 962031462
        1513113166 1977284692 1943300982</internalNodes>
      <leafValues>
        -1.8465693295001984e-01 4.5397952198982239e-02</leafValues></_>
    <_>
      <internalNodes>
        0 -1 793 -1094689691 -112570771 -689966085 -2664325 -1422189123
        -76154017 -1146101799 -1433776059</internalNodes>
      <leafValues>
        -1.3343198597431183e-01 6.3907317817211151e-02</leafValues></_>
    <_>
      <internalNodes>
        0 -1 227 -84227542 1929308235 1382597332 -235744008 1806084814
        2054114138 -603986451 -235537679</internalNodes>
      <leafValues>
        -6.2141928821802139e-02 1.3431352376937866e-01</leafValues></_>
    <_>
      <internalNodes>
        0 -1 457 147982348 170264094 -1061543234 3152411 -1360327074
        2117738110 -358737844 704872283</internalNodes>
      <leafValues>
        -2.2931973636150360e-01 3.6665722727775574e-02</leafValues></_>
    <_>
      <internalNodes>
        0 -1 45 -335809173 -538320194 669239274 -134557090 1160590319
        -1890916158 2000909669 -540032153</internalNodes>
      <leafValues>
        -1.0169958323240280e-01 8.5264585912227631e-02</leafValues></_>
    <_>
      <internalNodes>
        0 -1 1100 -19367 -539015986 -293669893 -1275926529 -34611636
        -671088962 -567017528 -67387905</internalNodes>
      <leafValues>
        -4.9020819365978241e-02 1.6363906860351563e-01</leafValues></_>
    <_>
      <internalNodes>
        0 -1 914 753796112 249497275 247270712 1073655182 977022984
        1023209391 -1200824706 719376261</internalNodes>
      <leafValues>
        -2.1825775504112244e-01 3.6216344684362411e-02</leafValues></_>
    <_>
      <internalNodes>
        0 -1 1009 -318778304 -4259985 -1395187678 -1502413721 143362218
        -1879180290 1224199594 -286917777</internalNodes>
      <leafValues>
        -6.6078394651412964e-02 1.2368489801883698e-01</leafValues></_>
    <_>
      <internalNodes>
        0 -1 1002 -1114264 -9487034 2146277596 -87010 -2014505604
        -1073791237 -558367495 -6047955</internalNodes>
      <leafValues>
        -5.0664018839597702e-02 1.5975105762481689e-01</leafValues></_>
    <_>
      <internalNodes>
        0 -1 1071 -402750208 763176205 -152314660 243154799 -824205116
        -1902166453 -1561668516 -1439629544</internalNodes>
      <leafValues>
        -1.3899709284305573e-01 6.2832273542881012e-02</leafValues></_>
    <_>
      <internalNodes>
        0 -1 1095 218040352 2102344717 -104947026 531821815 798429402
        -546341827 -27273141 -80589185</internalNodes>
      <leafValues>
        -9.6089422702789307e-02 9.5333054661750793e-02</leafValues></_>
    <_>
      <internalNodes>
        0 -1 1115 583936516 162897261 -487485746 14350191 -816870324
        1216302943 -423895084 -528417409</internalNodes>
      <leafValues>
        -1.5056675672531128e-01 5.4262861609458923e-02</leafValues></_>
    <_>
      <internalNodes>
        0 -1 462 674255633 -70590136 -279971141 -1348149323 782990841
        -1075865361 -1388684231 -1617293835</internalNodes>
      <leafValues>
        -1.1652912944555283e-01 6.7415162920951843e-02</leafValues></_>
    <_>
      <internalNodes>
        0 -1 76 -755289210 1014619111 502558629 -654515350 -735734908
        2087041540 -1485333240 2016901889</internalNodes>
      <leafValues>
        -1.2874217331409454e-01 5.8427900075912476e-02</leafValues></_>
    <_>
      <internalNodes>
        0 -1 843 -134545428 -138495768 1052752634 -327729 -5588017
        -1074823761 -1049652755 -1414793905</internalNodes>
      <leafValues>
        -4.1109997779130936e-02 1.8717923760414124e-01</leafValues></_>
    <_>
      <internalNodes>
        0 -1 539 204876970 2035970944 144837580 -1409616923 -1154336504
        1849653820 -1163184265 2144025863</internalNodes>
      <leafValues>
        -1.4320550858974457e-01 5.5841308087110519e-02</leafValues></_>
    <_>
      <internalNodes>
        0 -1 593 570750817 -335663813 -1073796662 -2085037760 56916771
        -70322022 -1749658523 -1432587001</internalNodes>
      <leafValues>
        -1.1034208536148071e-01 7.0051476359367371e-02</leafValues></_>
    <_>
      <internalNodes>
        0 -1 835 1694426691 -538016178 -576734706 187235936 803710601
        -92060694 -1157792500 -347751625</internalNodes>
      <leafValues>
        -7.2912737727165222e-02 1.0618472099304199e-01</leafValues></_>
    <_>
      <internalNodes>
        0 -1 342 -243480502 1559889535 1243628190 -1007128760 1803742974
        2126162797 -107030017 -140116229</internalNodes>
      <leafValues>
        -4.9917049705982208e-02 1.4808517694473267e-01</leafValues></_></weakClassifiers></stage12>
</opencv_storage>
