<?xml version="1.0"?>
<opencv_storage>
<stage8>
  <maxWeakCount>100</maxWeakCount>
  <stageThreshold>-1.9411988258361816e+00</stageThreshold>
  <weakClassifiers>
    <_>
      <internalNodes>
        0 -1 55 -851969 -999425 -2097153 -688225 -162480129 -9422156
        -8912897 2138404615</internalNodes>
      <leafValues>
        -4.2713695764541626e-01 8.6523622274398804e-02</leafValues></_>
    <_>
      <internalNodes>
        0 -1 0 -1 -1 -1 -1 2147483639 -2049 -297099 -133259</internalNodes>
      <leafValues>
        -2.9217359423637390e-01 2.1219862997531891e-01</leafValues></_>
    <_>
      <internalNodes>
        0 -1 1112 -1 1073741823 -1275068673 1073741823 -1359573297 -257
        -1124144385 -1107296257</internalNodes>
      <leafValues>
        -1.4881753921508789e-01 3.2517626881599426e-01</leafValues></_>
    <_>
      <internalNodes>
        0 -1 554 10501631 -1934032962 -2097153 -1111695907 179387391
        -1347748865 1073550845 268240245</internalNodes>
      <leafValues>
        -2.5532746315002441e-01 1.5869723260402679e-01</leafValues></_>
    <_>
      <internalNodes>
        0 -1 998 -269553888 -806473921 -1048584 -54465 -268765699
        -1879048193 -66051 -1414860881</internalNodes>
      <leafValues>
        -1.2567372620105743e-01 2.6132506132125854e-01</leafValues></_>
    <_>
      <internalNodes>
        0 -1 27 1663302515 -299837454 -71320597 -37946378 1329936375
        -808519193 2011133301 -268437657</internalNodes>
      <leafValues>
        -2.2655044496059418e-01 1.2987074255943298e-01</leafValues></_>
    <_>
      <internalNodes>
        0 -1 1017 -16901036 1610549471 -4521989 467605471 -16860400
        -1064981 -88555976 -1440076229</internalNodes>
      <leafValues>
        -2.0975314080715179e-01 1.5237413346767426e-01</leafValues></_>
    <_>
      <internalNodes>
        0 -1 126 1795124783 1660937307 -359995666 547081983 1651461695
        1434154839 -203426689 2012741375</internalNodes>
      <leafValues>
        -2.4402150511741638e-01 1.1778444051742554e-01</leafValues></_>
    <_>
      <internalNodes>
        0 -1 130 1660405486 1945619927 -1350627537 -1075581265
        1407651791 2075867887 -71606421 1874816623</internalNodes>
      <leafValues>
        -1.8938519060611725e-01 1.4065930247306824e-01</leafValues></_>
    <_>
      <internalNodes>
        0 -1 992 -117535736 1610493327 -26214401 2147225485 -788541240
        -278658 -118949128 713600911</internalNodes>
      <leafValues>
        -2.4268616735935211e-01 9.3945212662220001e-02</leafValues></_>
    <_>
      <internalNodes>
        0 -1 1026 784211285 1065245981 -2097673 -1089315333 1876843604
        -269446 -1410700 -1422238927</internalNodes>
      <leafValues>
        -1.9998770952224731e-01 1.2174852192401886e-01</leafValues></_>
    <_>
      <internalNodes>
        0 -1 420 -84366678 -1000561 -1282 -536875321 -95899729 -67190789
        2128445439 -2136313</internalNodes>
      <leafValues>
        -1.1420795321464539e-01 1.9766254723072052e-01</leafValues></_>
    <_>
      <internalNodes>
        0 -1 55 -88098438 -125868750 -2134200 -33905298 1231243040
        814015335 1979008832 -992338052</internalNodes>
      <leafValues>
        -1.8885813653469086e-01 1.3872160017490387e-01</leafValues></_>
    <_>
      <internalNodes>
        0 -1 78 -273679569 -68157649 -4213825 -4459538 1327985463
        -275776373 -167807627 -403180041</internalNodes>
      <leafValues>
        -1.4900496602058411e-01 1.5768267214298248e-01</leafValues></_>
    <_>
      <internalNodes>
        0 -1 352 29553 -593572 -603981313 -76035 196624315 -272834817
        249255417 -822256267</internalNodes>
      <leafValues>
        -1.8951743841171265e-01 1.0435548424720764e-01</leafValues></_>
    <_>
      <internalNodes>
        0 -1 852 144179268 805182364 2075662014 -1346752198 719071356
        -123474 -1074907784 -1342293121</internalNodes>
      <leafValues>
        -2.7425190806388855e-01 6.8806581199169159e-02</leafValues></_>
    <_>
      <internalNodes>
        0 -1 891 -1442924187 -127729 -2116609 -1951494801 -1409548420
        -20993 -4293267 -1433866449</internalNodes>
      <leafValues>
        -1.3665369153022766e-01 1.3666249811649323e-01</leafValues></_>
    <_>
      <internalNodes>
        0 -1 738 -1426391171 -83204 -102760961 -1073742371 -1346683905
        -1074089989 -1080337027 -1342502785</internalNodes>
      <leafValues>
        -8.9803308248519897e-02 2.0297487080097198e-01</leafValues></_>
    <_>
      <internalNodes>
        0 -1 185 -408749073 -5727742 -5189 -1412245436 118152191
        -272064276 391074293 -808593561</internalNodes>
      <leafValues>
        -1.3507466018199921e-01 1.3748233020305634e-01</leafValues></_>
    <_>
      <internalNodes>
        0 -1 121 -218109266 1473424094 48890058 1620765435 1937196559
        1937596269 -137397393 -134218881</internalNodes>
      <leafValues>
        -1.5894193947315216e-01 1.1463284492492676e-01</leafValues></_>
    <_>
      <internalNodes>
        0 -1 792 -1564977803 -537608580 -6422785 -272859275 -283247779
        -18021 -286435971 -1359320979</internalNodes>
      <leafValues>
        -1.5938372910022736e-01 1.0827934741973877e-01</leafValues></_>
    <_>
      <internalNodes>
        0 -1 1077 767504433 503276652 -1529502032 -1434837505 251596991
        -1082138762 -1373678468 771741183</internalNodes>
      <leafValues>
        -2.2640052437782288e-01 7.6179310679435730e-02</leafValues></_>
    <_>
      <internalNodes>
        0 -1 620 -17111382 -71499795 -2118914 -458761 1332166606
        -1082545 -279019541 -285966585</internalNodes>
      <leafValues>
        -1.1134390532970428e-01 1.5442958474159241e-01</leafValues></_>
    <_>
      <internalNodes>
        0 -1 1112 -1426290643 -427995457 -155202561 -855736321
        1609662270 -1151435009 -872703698 1794759039</internalNodes>
      <leafValues>
        -1.0869555175304413e-01 1.5512911975383759e-01</leafValues></_>
    <_>
      <internalNodes>
        0 -1 1095 -285277912 1071580975 -284054 720512375 -826867644
        -2408913 -18129880 -1197801617</internalNodes>
      <leafValues>
        -1.6439361870288849e-01 1.0615302622318268e-01</leafValues></_>
    <_>
      <internalNodes>
        0 -1 0 -45614281 -134358209 267165422 -860178 -2041495240
        -839093484 569417114 1160928640</internalNodes>
      <leafValues>
        -1.3848863542079926e-01 1.1506159603595734e-01</leafValues></_>
    <_>
      <internalNodes>
        0 -1 554 -1569529312 1524901617 2111683978 -824063984 830395252
        1021393515 -404588953 -52530002</internalNodes>
      <leafValues>
        -1.2612818181514740e-01 1.2380502372980118e-01</leafValues></_>
    <_>
      <internalNodes>
        0 -1 499 -385960410 -319633822 -4223188 -1379860729 259239851
        -822563642 1879013165 138762087</internalNodes>
      <leafValues>
        -1.5598966181278229e-01 1.0121713578701019e-01</leafValues></_>
    <_>
      <internalNodes>
        0 -1 23 -524299 2130280447 2111827839 -1090539585 -11403520
        2136091413 -10121728 2058497856</internalNodes>
      <leafValues>
        -1.8140093982219696e-01 8.5819028317928314e-02</leafValues></_>
    <_>
      <internalNodes>
        0 -1 590 715838217 -2207720 -1207969793 -1342647587 185314731
        -328790 197006781 -6303395</internalNodes>
      <leafValues>
        -1.0606225579977036e-01 1.4276696741580963e-01</leafValues></_>
    <_>
      <internalNodes>
        0 -1 866 -285229259 777928543 -8930308 -1415004325 -1426063563
        -27713 -365404640 -1431711765</internalNodes>
      <leafValues>
        -1.2810841202735901e-01 1.0990614444017410e-01</leafValues></_>
    <_>
      <internalNodes>
        0 -1 1108 -855749620 762060271 -269615129 502273863 -822292324
        -4457601 -352780372 -1442775041</internalNodes>
      <leafValues>
        -1.6200073063373566e-01 8.7762787938117981e-02</leafValues></_>
    <_>
      <internalNodes>
        0 -1 120 1781516298 2069348426 -1033461122 -1063589298
        1128745811 1141182988 -134292364 -134874153</internalNodes>
      <leafValues>
        -1.5261337161064148e-01 9.4239570200443268e-02</leafValues></_>
    <_>
      <internalNodes>
        0 -1 897 -1560352724 -906050257 -706769186 -805387553 -440419633
        -537924673 -68435971 -1414823409</internalNodes>
      <leafValues>
        -8.1698589026927948e-02 1.7661632597446442e-01</leafValues></_>
    <_>
      <internalNodes>
        0 -1 695 1249553576 2146742255 -1638138881 -18038969 108048521
        2139155883 1961688973 545797891</internalNodes>
      <leafValues>
        -1.7564757168292999e-01 8.1942364573478699e-02</leafValues></_>
    <_>
      <internalNodes>
        0 -1 991 -285476787 -857781235 -67138820 722321263 -1411650088
        -604266872 -268739720 -1425412343</internalNodes>
      <leafValues>
        -9.3979649245738983e-02 1.4341112971305847e-01</leafValues></_>
    <_>
      <internalNodes>
        0 -1 954 -303052758 -536925138 -36166 -8746417 -4221793
        -1612720465 -3265 -1069265</internalNodes>
      <leafValues>
        -5.5743154138326645e-02 2.3321640491485596e-01</leafValues></_>
    <_>
      <internalNodes>
        0 -1 831 -407223296 -67239635 -671752449 -1615139475 -360722904
        -67166197 -570467999 -357957631</internalNodes>
      <leafValues>
        -1.3862037658691406e-01 1.0628411918878555e-01</leafValues></_>
    <_>
      <internalNodes>
        0 -1 612 -524635358 -6491458 -134366466 -274836737 1662395053
        -71418129 1735861101 -268601521</internalNodes>
      <leafValues>
        -9.8403848707675934e-02 1.3444221019744873e-01</leafValues></_>
    <_>
      <internalNodes>
        0 -1 128 1649640047 1390805548 1794869418 1224923662 1664830831
        2133284207 -686197969 2004189039</internalNodes>
      <leafValues>
        -1.9273842871189117e-01 6.6941209137439728e-02</leafValues></_>
    <_>
      <internalNodes>
        0 -1 1069 788415564 2113867121 -536889345 788138750 -336180072
        -1193596200 -88418072 -1473581271</internalNodes>
      <leafValues>
        -1.5429936349391937e-01 8.3790354430675507e-02</leafValues></_>
    <_>
      <internalNodes>
        0 -1 1120 48168960 469701463 -1413848048 -1436883457 209405984
        193196907 -597718552 -1459879953</internalNodes>
      <leafValues>
        -1.8916830420494080e-01 6.7280307412147522e-02</leafValues></_>
    <_>
      <internalNodes>
        0 -1 843 680701870 -1153819032 1044200154 -1078296877
        -1280928850 460266765 -1444176643 -1566030491</internalNodes>
      <leafValues>
        -1.3273131847381592e-01 9.7607783973217010e-02</leafValues></_>
    <_>
      <internalNodes>
        0 -1 280 -1585251541 -1365215006 -547012634 -2069860112
        201328491 -553080112 223958385 -849849279</internalNodes>
      <leafValues>
        -1.8832220137119293e-01 6.6949456930160522e-02</leafValues></_>
    <_>
      <internalNodes>
        0 -1 8 -72114177 -796214622 -671114455 -850989969 21198779
        -1972981768 1969174397 -268642322</internalNodes>
      <leafValues>
        -7.5096718966960907e-02 1.6878980398178101e-01</leafValues></_>
    <_>
      <internalNodes>
        0 -1 783 -84742812 -42009219 -1099254786 -5096461 -1374807156
        -1083490433 -1216631848 -1077937153</internalNodes>
      <leafValues>
        -6.3990645110607147e-02 1.9273875653743744e-01</leafValues></_>
    <_>
      <internalNodes>
        0 -1 182 1795881763 -408282600 -35661381 -809968634 145351787
        -286600818 219092081 -840580763</internalNodes>
      <leafValues>
        -1.5684360265731812e-01 7.7277548611164093e-02</leafValues></_>
    <_>
      <internalNodes>
        0 -1 481 -356893825 -621121410 -671113241 -302238219 724261887
        -539443210 -1073784961 -1883299457</internalNodes>
      <leafValues>
        -7.0326559245586395e-02 1.8034087121486664e-01</leafValues></_>
    <_>
      <internalNodes>
        0 -1 842 213811240 -1092866066 651638975 -1075658775 2090790536
        -5265873 989854602 578943887</internalNodes>
      <leafValues>
        -1.4745844900608063e-01 8.1504248082637787e-02</leafValues></_>
    <_>
      <internalNodes>
        0 -1 796 -288424587 -19498117 -16405 -1925654665 -1342193807
        -75501969 -304023 -1364590555</internalNodes>
      <leafValues>
        -1.0645242780447006e-01 1.1357249319553375e-01</leafValues></_>
    <_>
      <internalNodes>
        0 -1 1100 -35747 -136378785 -8390466 -1562713857 -223656188
        -536891765 -159606708 -1095041025</internalNodes>
      <leafValues>
        -1.0437757521867752e-01 1.1289890855550766e-01</leafValues></_>
    <_>
      <internalNodes>
        0 -1 227 -490542034 285075195 -755471114 -235217678 195465103
        2088394588 -83900435 -235540737</internalNodes>
      <leafValues>
        -7.0475034415721893e-02 1.6869701445102692e-01</leafValues></_>
    <_>
      <internalNodes>
        0 -1 307 587395633 -5717502 1543224313 -269310848 764384155
        -1431784154 386879729 -842018367</internalNodes>
      <leafValues>
        -1.1273276805877686e-01 1.0663282871246338e-01</leafValues></_>
    <_>
      <internalNodes>
        0 -1 874 -22872256 -758250330 -41714241 -563189108 -1700151355
        -1066209 -1746032719 -1597307517</internalNodes>
      <leafValues>
        -1.0301023721694946e-01 1.1794672906398773e-01</leafValues></_>
    <_>
      <internalNodes>
        0 -1 2 1664202547 2100799003 -4321 -5009409 990405787
        -1364285845 690910207 1296384263</internalNodes>
      <leafValues>
        -1.0175714641809464e-01 1.1319288611412048e-01</leafValues></_>
    <_>
      <internalNodes>
        0 -1 1017 563208585 -657656284 531454888 -838015143 -337674612
        -832680734 -1431526016 998367176</internalNodes>
      <leafValues>
        -1.0280472040176392e-01 1.0781082510948181e-01</leafValues></_>
    <_>
      <internalNodes>
        0 -1 262 679624048 1539107700 -132747 -377992336 239287065
        -54346820 -1897966219 1308382709</internalNodes>
      <leafValues>
        -2.1569959819316864e-01 5.1990728825330734e-02</leafValues></_>
    <_>
      <internalNodes>
        0 -1 113 586809890 553320447 668897064 -1090782209 1850612236
        1056784239 2146913128 946109281</internalNodes>
      <leafValues>
        -2.8134861588478088e-01 3.8703806698322296e-02</leafValues></_>
    <_>
      <internalNodes>
        0 -1 918 -285278724 -5623175 -1094861894 -2480017 -1409316865
        -1611979082 -1443907348 -1359036697</internalNodes>
      <leafValues>
        -5.9567727148532867e-02 2.1028548479080200e-01</leafValues></_>
    <_>
      <internalNodes>
        0 -1 968 -1394983851 2013163067 -16785409 -1074104339 -269656203
        -282773 -269230731 -1365075431</internalNodes>
      <leafValues>
        -1.2842310965061188e-01 8.6455456912517548e-02</leafValues></_>
    <_>
      <internalNodes>
        0 -1 493 1615527211 -34854566 -16534 -371297137 184990219
        -363464 873410917 -1911811769</internalNodes>
      <leafValues>
        -1.2269458919763565e-01 9.1537848114967346e-02</leafValues></_>
    <_>
      <internalNodes>
        0 -1 437 -420288242 495062379 2142813951 -1079353124 240887979
        791437263 1424977093 -34798139</internalNodes>
      <leafValues>
        -9.9454380571842194e-02 1.0943154245615005e-01</leafValues></_>
    <_>
      <internalNodes>
        0 -1 330 170560174 573573240 141430526 178416830 773261837
        528353774 738176526 -141071865</internalNodes>
      <leafValues>
        -1.4574681222438812e-01 7.5326085090637207e-02</leafValues></_>
    <_>
      <internalNodes>
        0 -1 966 779625276 521930220 498932384 -1342694260 184360889
        1073579717 -1073858072 732700411</internalNodes>
      <leafValues>
        -2.2382946312427521e-01 4.8470810055732727e-02</leafValues></_>
    <_>
      <internalNodes>
        0 -1 618 -335877190 -6757025 -1816593954 -610615585 -341852968
        -377783441 -337707540 -268446209</internalNodes>
      <leafValues>
        -5.1516536623239517e-02 2.2039423882961273e-01</leafValues></_>
    <_>
      <internalNodes>
        0 -1 94 1323753070 2096824092 -154227478 -278333700 1818705710
        -548220921 929461573 -314280633</internalNodes>
      <leafValues>
        -1.6850253939628601e-01 6.3921757042407990e-02</leafValues></_>
    <_>
      <internalNodes>
        0 -1 756 -1433731288 -1153857 -407634961 -1073813155 -1947476033
        -67191698 -138447379 -1347714805</internalNodes>
      <leafValues>
        -7.1123465895652771e-02 1.6926701366901398e-01</leafValues></_>
    <_>
      <internalNodes>
        0 -1 1038 -285416371 -269611993 -553807282 -377617383 -272973272
        -622856206 -21074724 -1423820501</internalNodes>
      <leafValues>
        -1.0113101452589035e-01 1.0515315830707550e-01</leafValues></_>
    <_>
      <internalNodes>
        0 -1 998 181141706 1045270287 -1368682848 -1438729586 251348514
        931094374 -332827600 1889607984</internalNodes>
      <leafValues>
        -1.6784007847309113e-01 6.7583054304122925e-02</leafValues></_>
    <_>
      <internalNodes>
        0 -1 126 -1992654082 956445679 1679469115 -228156246 333675858
        1798532886 1050574532 -395610533</internalNodes>
      <leafValues>
        -1.1527068912982941e-01 9.0810760855674744e-02</leafValues></_>
    <_>
      <internalNodes>
        0 -1 395 -162485600 1803730927 -604512258 2147205055 1526762116
        -10707057 -163513082 705441349</internalNodes>
      <leafValues>
        -1.6029573976993561e-01 6.5597631037235260e-02</leafValues></_>
    <_>
      <internalNodes>
        0 -1 42 690695727 267313470 -405573854 -420337674 565139303
        -860970667 20976724 1156867140</internalNodes>
      <leafValues>
        -2.8127667307853699e-01 3.7170946598052979e-02</leafValues></_>
    <_>
      <internalNodes>
        0 -1 419 -428672210 -139137445 268172382 -1602032546 1208791979
        -604077910 897537375 -288537329</internalNodes>
      <leafValues>
        -8.2001738250255585e-02 1.2291161715984344e-01</leafValues></_>
    <_>
      <internalNodes>
        0 -1 793 -357539979 -9565332 -704661765 1573805555 -1228375163
        -336134149 -5726755 -1362491379</internalNodes>
      <leafValues>
        -1.3902388513088226e-01 7.1869783103466034e-02</leafValues></_>
    <_>
      <internalNodes>
        0 -1 1051 -824270802 528433037 -1172336250 866970539 251569356
        727152234 -1828719364 -1296760916</internalNodes>
      <leafValues>
        -1.0669876635074615e-01 9.3726061284542084e-02</leafValues></_>
    <_>
      <internalNodes>
        0 -1 1055 -855662299 788489869 -1453914055 -1402012453 249497673
        268361251 215893058 -805315217</internalNodes>
      <leafValues>
        -1.3037873804569244e-01 7.5836658477783203e-02</leafValues></_>
    <_>
      <internalNodes>
        0 -1 81 1803264551 -742396167 989851382 -67961610 1051404971
        -350691650 1868392174 -170044989</internalNodes>
      <leafValues>
        -8.4088526666164398e-02 1.1877406388521194e-01</leafValues></_>
    <_>
      <internalNodes>
        0 -1 522 -486873594 1997033576 1373560250 -575487788 45133726
        -1744752945 1337332069 1307493701</internalNodes>
      <leafValues>
        -1.2637807428836823e-01 7.7258594334125519e-02</leafValues></_>
    <_>
      <internalNodes>
        0 -1 879 -1359282899 -1342261909 -282093701 -1076997269
        1860893661 -1079185665 -67396243 -1349826469</internalNodes>
      <leafValues>
        -6.9555498659610748e-02 1.4064858853816986e-01</leafValues></_>
    <_>
      <internalNodes>
        0 -1 370 -625781520 -1403045169 -41976403 -1895846358 822139140
        -14676073 2000001804 574971396</internalNodes>
      <leafValues>
        -1.5442663431167603e-01 6.1866145581007004e-02</leafValues></_>
    <_>
      <internalNodes>
        0 -1 1071 788401444 1767845405 -757474566 582891051 1270792228
        -1349632190 -1074594692 -349635014</internalNodes>
      <leafValues>
        -1.3025292754173279e-01 7.5436569750308990e-02</leafValues></_>
    <_>
      <internalNodes>
        0 -1 258 -150998026 -1057030785 -538444018 -1384067257 115806133
        -1377325569 2147382093 -1948391921</internalNodes>
      <leafValues>
        -7.2556018829345703e-02 1.3578243553638458e-01</leafValues></_>
    <_>
      <internalNodes>
        0 -1 543 1216507498 951717439 52562096 596774905 724700696
        2071155790 -1281671604 -272991389</internalNodes>
      <leafValues>
        -1.4398421347141266e-01 6.4247816801071167e-02</leafValues></_>
    <_>
      <internalNodes>
        0 -1 698 -335872372 -543243930 1954420582 -272971009 -1505841426
        -1623230741 -993024804 -335568465</internalNodes>
      <leafValues>
        -4.9909342080354691e-02 1.8388329446315765e-01</leafValues></_>
    <_>
      <internalNodes>
        0 -1 994 -487964340 -571799552 -152371201 -281927131 -437328932
        -537432260 -353699604 -357915096</internalNodes>
      <leafValues>
        -1.0440419614315033e-01 8.8783510029315948e-02</leafValues></_>
    <_>
      <internalNodes>
        0 -1 696 1862250565 778439462 -303056599 256442250 447984013
        1541348564 -1192240532 710278951</internalNodes>
      <leafValues>
        -1.1285874992609024e-01 8.7494321167469025e-02</leafValues></_>
    <_>
      <internalNodes>
        0 -1 888 -490058644 -33895602 -79053225 -1347762133 -426867075
        -1140880474 -1169286663 713949185</internalNodes>
      <leafValues>
        -1.2641046941280365e-01 7.1943566203117371e-02</leafValues></_>
    <_>
      <internalNodes>
        0 -1 572 1720891186 -17293546 -1153761367 -1347900597 265781091
        -1109068813 922170701 248067875</internalNodes>
      <leafValues>
        -1.0469273477792740e-01 8.7415158748626709e-02</leafValues></_>
    <_>
      <internalNodes>
        0 -1 1119 551026688 570306361 -764498254 49339204 65012292
        -1694835137 -869037936 -1465843715</internalNodes>
      <leafValues>
        -2.0221698284149170e-01 4.4825047254562378e-02</leafValues></_>
    <_>
      <internalNodes>
        0 -1 250 -87061065 -1073690526 2135407567 -1915421371 118718069
        -1342638302 2141672789 181956983</internalNodes>
      <leafValues>
        -1.3083834946155548e-01 6.9476470351219177e-02</leafValues></_>
    <_>
      <internalNodes>
        0 -1 102 1857007146 -739268081 -87127874 -94311826 627605327
        1046545487 2112083432 -239609881</internalNodes>
      <leafValues>
        -8.8036447763442993e-02 1.0136800259351730e-01</leafValues></_>
    <_>
      <internalNodes>
        0 -1 207 -273748949 -22020438 1292889042 -135364874 -1413372209
        -827617332 -988036868 -975176505</internalNodes>
      <leafValues>
        -5.9092499315738678e-02 1.5365938842296600e-01</leafValues></_>
    <_>
      <internalNodes>
        0 -1 28 -667929030 1910252132 2069930764 -1845733659 142880821
        -823612856 1372934183 -539724528</internalNodes>
      <leafValues>
        -1.7313106358051300e-01 5.4041460156440735e-02</leafValues></_>
    <_>
      <internalNodes>
        0 -1 237 112722442 3408997 -489238274 549079639 1222068762
        1618181702 -1268494332 1928691319</internalNodes>
      <leafValues>
        -2.7808743715286255e-01 3.2281275838613510e-02</leafValues></_>
    <_>
      <internalNodes>
        0 -1 953 -557543220 2105421199 788249532 2111581608 1995550497
        1054797298 -223346782 981712781</internalNodes>
      <leafValues>
        -1.0075544565916061e-01 9.2251449823379517e-02</leafValues></_>
    <_>
      <internalNodes>
        0 -1 1047 -302063812 -1074906817 -1143652489 -33783809 180104925
        -9437702 -132099 -1080984081</internalNodes>
      <leafValues>
        -6.8327046930789948e-02 1.3474808633327484e-01</leafValues></_>
    <_>
      <internalNodes>
        0 -1 1076 -2032992224 728769198 -1050435895 -1477954309
        142221612 -350257348 -1110018759 -1565196417</internalNodes>
      <leafValues>
        -1.5165692567825317e-01 6.0247480869293213e-02</leafValues></_>
    <_>
      <internalNodes>
        0 -1 967 -555868555 -1091687048 -58948414 -1346719778 769211069
        -1409846786 212669743 -1342318993</internalNodes>
      <leafValues>
        -8.6614049971103668e-02 1.0776600986719131e-01</leafValues></_>
    <_>
      <internalNodes>
        0 -1 786 -822542484 -82170326 -1174018 -1511907974 -336851284
        -1086445715 -287719940 -21414039</internalNodes>
      <leafValues>
        -6.4649038016796112e-02 1.3526028394699097e-01</leafValues></_>
    <_>
      <internalNodes>
        0 -1 99 318375074 852459447 718172106 -572768513 1877035700
        2118549311 -1938399420 1545879366</internalNodes>
      <leafValues>
        -1.8972486257553101e-01 4.9173098057508469e-02</leafValues></_></weakClassifiers></stage8>
</opencv_storage>
