<?xml version="1.0"?>
<opencv_storage>
<stage14>
  <maxWeakCount>100</maxWeakCount>
  <stageThreshold>-1.8588949441909790e+00</stageThreshold>
  <weakClassifiers>
    <_>
      <internalNodes>
        0 -1 145 -983041 -34537488 -1153 -131075 65535 -78577744
        2138570751 -526337</internalNodes>
      <leafValues>
        -3.0822697281837463e-01 1.5984368324279785e-01</leafValues></_>
    <_>
      <internalNodes>
        0 -1 1112 -131649 1038089727 -1294733057 1073741823 -1359835249
        -3147009 -1394890561 973078527</internalNodes>
      <leafValues>
        -1.7489755153656006e-01 2.0442040264606476e-01</leafValues></_>
    <_>
      <internalNodes>
        0 -1 1 -524289 -2099265 -33817601 -3393 134500725 -22375441
        1161909617 -571124363</internalNodes>
      <leafValues>
        -2.8681746125221252e-01 1.2486597150564194e-01</leafValues></_>
    <_>
      <internalNodes>
        0 -1 956 -1072982 -545324273 -3164418 1462681071 -536872978
        -536926278 -66051 -359989265</internalNodes>
      <leafValues>
        -1.4504685997962952e-01 1.9891837239265442e-01</leafValues></_>
    <_>
      <internalNodes>
        0 -1 522 -1426136402 -67452417 1476386302 -541403681 183217071
        -1077156113 134190525 -536882737</internalNodes>
      <leafValues>
        -6.5377518534660339e-02 2.9200527071952820e-01</leafValues></_>
    <_>
      <internalNodes>
        0 -1 101 872362323 1945893887 -10616837 -589921 2146903947
        2146729919 -172100 2071232343</internalNodes>
      <leafValues>
        -2.4240496754646301e-01 8.0015845596790314e-02</leafValues></_>
    <_>
      <internalNodes>
        0 -1 145 539953408 -253362705 2138430065 -576393390 -16765306
        -1532969601 -480966721 1281195287</internalNodes>
      <leafValues>
        -1.4455005526542664e-01 1.4484834671020508e-01</leafValues></_>
    <_>
      <internalNodes>
        0 -1 1035 -268460979 -536879345 -1069313 327286783 -948
        -67110710 -83992984 -91488273</internalNodes>
      <leafValues>
        -1.2227962166070938e-01 1.6487242281436920e-01</leafValues></_>
    <_>
      <internalNodes>
        0 -1 590 714138409 -539180536 -537929729 -1344613284 168470955
        -268793174 -1088725571 -539012067</internalNodes>
      <leafValues>
        -1.1234670877456665e-01 1.5683895349502563e-01</leafValues></_>
    <_>
      <internalNodes>
        0 -1 121 -218109330 1922263247 -1964356882 1087941359 1735345007
        1971278667 -144703633 -134218897</internalNodes>
      <leafValues>
        -1.7904841899871826e-01 1.0047164559364319e-01</leafValues></_>
    <_>
      <internalNodes>
        0 -1 1048 -536892250 1610592175 -151025934 839831535 130021326
        1258229503 -16777988 -87031825</internalNodes>
      <leafValues>
        -1.1875163018703461e-01 1.4266830682754517e-01</leafValues></_>
    <_>
      <internalNodes>
        0 -1 638 -1432683521 -537069672 -69215745 -2294275 800848895 -37
        -1074037251 -1342237451</internalNodes>
      <leafValues>
        -1.1657268553972244e-01 1.4448212087154388e-01</leafValues></_>
    <_>
      <internalNodes>
        0 -1 45 -352062621 -349248670 2146422699 -1348805530 1191263219
        -813630776 1462990693 -270534809</internalNodes>
      <leafValues>
        -1.6019514203071594e-01 8.8890269398689270e-02</leafValues></_>
    <_>
      <internalNodes>
        0 -1 1078 -268485259 2139044799 -67243011 -1074053121 -270533808
        -4214929 -35996548 -1347768609</internalNodes>
      <leafValues>
        -1.0875020921230316e-01 1.3186675310134888e-01</leafValues></_>
    <_>
      <internalNodes>
        0 -1 614 -402721809 -2198865 2128591594 -268771345 1677703087
        1941906063 1878995308 1875738383</internalNodes>
      <leafValues>
        -1.0477765649557114e-01 1.2909761071205139e-01</leafValues></_>
    <_>
      <internalNodes>
        0 -1 487 -287588570 -1359861921 -541065371 793557772 1744255791
        733473770 1743717645 243889965</internalNodes>
      <leafValues>
        -1.4624653756618500e-01 9.0023770928382874e-02</leafValues></_>
    <_>
      <internalNodes>
        0 -1 988 1878682717 2080244748 -541065221 -1346744483 2147418072
        -1069337 -72978051 -1425364165</internalNodes>
      <leafValues>
        -1.1381414532661438e-01 1.1332089453935623e-01</leafValues></_>
    <_>
      <internalNodes>
        0 -1 242 220730161 -51709953 -789029 -272957442 163851775
        -125060913 837768565 -570666636</internalNodes>
      <leafValues>
        -2.1860913932323456e-01 5.5854722857475281e-02</leafValues></_>
    <_>
      <internalNodes>
        0 -1 131 1627120482 855635451 -1554306294 67082223 1941923823
        2080111359 1873491782 1811921770</internalNodes>
      <leafValues>
        -1.7790779471397400e-01 6.9408968091011047e-02</leafValues></_>
    <_>
      <internalNodes>
        0 -1 309 -51842577 -2055950 298783438 -1357720896 52802479
        -74661752 1885687925 -305310393</internalNodes>
      <leafValues>
        -1.2572462856769562e-01 9.8469540476799011e-02</leafValues></_>
    <_>
      <internalNodes>
        0 -1 756 -335872149 -536952578 -807668737 -1074077985
        -1948005461 -5327169 -4252163 -271645685</internalNodes>
      <leafValues>
        -6.0753915458917618e-02 1.9982387125492096e-01</leafValues></_>
    <_>
      <internalNodes>
        0 -1 950 -270602484 -538988769 -1 -541085905 -69206021 -4208721
        -8126979 -341073109</internalNodes>
      <leafValues>
        -5.4428562521934509e-02 2.1919921040534973e-01</leafValues></_>
    <_>
      <internalNodes>
        0 -1 980 -84223755 -553778946 -70647841 1540919261 -1227097123
        -299206 -84362499 -1442795571</internalNodes>
      <leafValues>
        -1.3660702109336853e-01 9.5034718513488770e-02</leafValues></_>
    <_>
      <internalNodes>
        0 -1 837 -285541856 -1342507393 930099898 -67438721 -479740341
        -1422188625 -1343244039 -487923711</internalNodes>
      <leafValues>
        -1.0811522603034973e-01 1.1544713377952576e-01</leafValues></_>
    <_>
      <internalNodes>
        0 -1 714 -352650242 -46614675 1066942458 -4572353 -873546564
        -50705 -85284168 -591937</internalNodes>
      <leafValues>
        -5.3453981876373291e-02 2.2418443858623505e-01</leafValues></_>
    <_>
      <internalNodes>
        0 -1 222 576850602 -68546929 183439055 -268435457 2070876079
        -1343739251 -268481585 -694457</internalNodes>
      <leafValues>
        -1.4580878615379333e-01 8.5166998207569122e-02</leafValues></_>
    <_>
      <internalNodes>
        0 -1 26 1873879607 -109058238 -571220185 -579347201 178269871
        -621875273 1282109439 -1042156169</internalNodes>
      <leafValues>
        -8.8905550539493561e-02 1.3024215400218964e-01</leafValues></_>
    <_>
      <internalNodes>
        0 -1 813 -1363476631 -74769 -638077511 -1082199607 -1346675731
        -68159669 -872448531 -1366622199</internalNodes>
      <leafValues>
        -9.8585054278373718e-02 1.1376871913671494e-01</leafValues></_>
    <_>
      <internalNodes>
        0 -1 956 251418437 2142023086 249455587 -1432171193 1878773725
        2138025802 -654371734 858124066</internalNodes>
      <leafValues>
        -1.1334020644426346e-01 1.0047565400600433e-01</leafValues></_>
    <_>
      <internalNodes>
        0 -1 1046 -1346392320 -53969 -539250728 -119169 247280917
        -1073775234 -9789988 -1432301721</internalNodes>
      <leafValues>
        -1.2203606218099594e-01 9.6866182982921600e-02</leafValues></_>
    <_>
      <internalNodes>
        0 -1 519 1282582732 2146757803 -621618737 -20058129 1510485504
        2140073767 -209191098 1724147463</internalNodes>
      <leafValues>
        -1.6631110012531281e-01 6.8599976599216461e-02</leafValues></_>
    <_>
      <internalNodes>
        0 -1 237 587072015 7471207 1121616602 10636031 1182158446
        106325518 -825291232 1920068135</internalNodes>
      <leafValues>
        -2.8074303269386292e-01 3.7391733378171921e-02</leafValues></_>
    <_>
      <internalNodes>
        0 -1 635 -353186049 985275007 179309306 704801255 -353759298
        -2396609 -1694819446 -270833142</internalNodes>
      <leafValues>
        -8.0840483307838440e-02 1.3458371162414551e-01</leafValues></_>
    <_>
      <internalNodes>
        0 -1 935 -889274539 -6406833 -2244615 -1346586795 -335544464
        -2367785 -273457372 -1358197465</internalNodes>
      <leafValues>
        -8.4842167794704437e-02 1.2657211720943451e-01</leafValues></_>
    <_>
      <internalNodes>
        0 -1 1107 -268480179 2147442271 -84283669 -1191520005 -69351864
        -268738599 -352788760 -352653633</internalNodes>
      <leafValues>
        -9.9537618458271027e-02 1.1158095300197601e-01</leafValues></_>
    <_>
      <internalNodes>
        0 -1 1112 138316304 -421712163 -205552906 -855761153 2113370430
        1006581949 -606871698 -428787409</internalNodes>
      <leafValues>
        -8.8431693613529205e-02 1.2291699647903442e-01</leafValues></_>
    <_>
      <internalNodes>
        0 -1 1011 217978145 788478847 -302578526 -1363219377 149226761
        251617135 265254044 -1879058193</internalNodes>
      <leafValues>
        -2.0644111931324005e-01 5.2461549639701843e-02</leafValues></_>
    <_>
      <internalNodes>
        0 -1 665 -125641516 -1907225346 -1620705931 -1362612420
        -251619840 -128960667 -1101276392 641744643</internalNodes>
      <leafValues>
        -2.0678320527076721e-01 5.0387520343065262e-02</leafValues></_>
    <_>
      <internalNodes>
        0 -1 0 -812123265 -34686017 -164881 -67436561 116537343
        -1925252136 28857412 -1065073340</internalNodes>
      <leafValues>
        -1.7698644101619720e-01 5.8262579143047333e-02</leafValues></_>
    <_>
      <internalNodes>
        0 -1 642 538982704 -1373332300 -552230948 -1355804976 133660529
        -1355047829 2070902133 246043764</internalNodes>
      <leafValues>
        -2.1588870882987976e-01 4.8961695283651352e-02</leafValues></_>
    <_>
      <internalNodes>
        0 -1 313 -270552282 -915161 -545416340 -806576417 6510347
        1863357345 1864889709 1850824007</internalNodes>
      <leafValues>
        -1.3599029183387756e-01 7.8086927533149719e-02</leafValues></_>
    <_>
      <internalNodes>
        0 -1 493 -1031733905 -320932353 -22612 -1376979873 185228047
        -356600654 1833784645 -862186163</internalNodes>
      <leafValues>
        -1.2223091721534729e-01 8.1718817353248596e-02</leafValues></_>
    <_>
      <internalNodes>
        0 -1 120 -270545330 1886645350 -968695556 1343414510 1741090670
        1897218377 -218955779 -201982985</internalNodes>
      <leafValues>
        -8.2644969224929810e-02 1.2434303760528564e-01</leafValues></_>
    <_>
      <internalNodes>
        0 -1 158 568573743 -789551438 -75516436 -686772396 1734770159
        -276520240 2002483197 -845155481</internalNodes>
      <leafValues>
        -8.0744199454784393e-02 1.2351833283901215e-01</leafValues></_>
    <_>
      <internalNodes>
        0 -1 611 -1074217128 1033384749 985270970 939408395 -1074123106
        -4554753 753905404 770928469</internalNodes>
      <leafValues>
        -1.3250346481800079e-01 7.2782151401042938e-02</leafValues></_>
    <_>
      <internalNodes>
        0 -1 902 -834240432 1590472655 801062901 1070915575 -16777827
        -1201162 -218105125 927334349</internalNodes>
      <leafValues>
        -9.7751252353191376e-02 1.0035283863544464e-01</leafValues></_>
    <_>
      <internalNodes>
        0 -1 104 1622863402 1897574058 1693328042 -611651974 52905807
        2079155982 1177972805 1710618471</internalNodes>
      <leafValues>
        -1.9814805686473846e-01 4.7811441123485565e-02</leafValues></_>
    <_>
      <internalNodes>
        0 -1 944 721091660 -335902129 -358631458 -875123 -1140921891
        -218111765 -71615619 -341073141</internalNodes>
      <leafValues>
        -6.7033112049102783e-02 1.4068506658077240e-01</leafValues></_>
    <_>
      <internalNodes>
        0 -1 879 -270860419 -1079328920 -536887429 -1349899541
        -288031747 -72356182 -1082401435 -1416975862</internalNodes>
      <leafValues>
        -8.3790965378284454e-02 1.1713598668575287e-01</leafValues></_>
    <_>
      <internalNodes>
        0 -1 299 -267212114 -182700745 1257076189 -213153 -67060190
        -1146042684 -32112844 -66300923</internalNodes>
      <leafValues>
        -1.2733133137226105e-01 7.2027534246444702e-02</leafValues></_>
    <_>
      <internalNodes>
        0 -1 91 1878388287 -203434369 -25639170 -604505350 66580479
        -356884866 -487325698 -235800585</internalNodes>
      <leafValues>
        -4.9690347164869308e-02 1.8769006431102753e-01</leafValues></_>
    <_>
      <internalNodes>
        0 -1 972 -18940323 -1107420619 -1109419819 -1549128929
        -1413480875 -181 -1094968180 -1414812504</internalNodes>
      <leafValues>
        -7.6372988522052765e-02 1.1851153522729874e-01</leafValues></_>
    <_>
      <internalNodes>
        0 -1 1104 1742143489 1064255471 -623318278 715576519 -268793280
        -135295933 -67323680 -1411190850</internalNodes>
      <leafValues>
        -1.1739708483219147e-01 7.9557560384273529e-02</leafValues></_>
    <_>
      <internalNodes>
        0 -1 912 247893008 1010314748 771689496 -1082155537 250494442
        964239263 2127068088 1001075503</internalNodes>
      <leafValues>
        -1.6624182462692261e-01 5.5336460471153259e-02</leafValues></_>
    <_>
      <internalNodes>
        0 -1 1002 -29152 -12711154 -100721456 -5099938 -1073949452
        -1348518065 -536896003 -106256593</internalNodes>
      <leafValues>
        -6.8784885108470917e-02 1.3316169381141663e-01</leafValues></_>
    <_>
      <internalNodes>
        0 -1 1075 -1934745600 703342399 -1109803530 -1344602692
        783222768 -1091835138 -1728177991 -106365009</internalNodes>
      <leafValues>
        -1.2249465286731720e-01 7.6168343424797058e-02</leafValues></_>
    <_>
      <internalNodes>
        0 -1 15 -122180 -8537105 -1880248715 -536871169 -112194556
        502801896 1964065812 1342467670</internalNodes>
      <leafValues>
        -1.9457940757274628e-01 4.4521361589431763e-02</leafValues></_>
    <_>
      <internalNodes>
        0 -1 452 -394729874 830217823 -1226266914 1742215675 -1904701441
        -1151395089 -1464693508 -1343619861</internalNodes>
      <leafValues>
        -6.0391150414943695e-02 1.6013164818286896e-01</leafValues></_>
    <_>
      <internalNodes>
        0 -1 777 -285560914 -591559 493368058 -268786985 -1428517236
        -1610649606 -858281496 -436305593</internalNodes>
      <leafValues>
        -6.2781572341918945e-02 1.4162494242191315e-01</leafValues></_>
    <_>
      <internalNodes>
        0 -1 909 -1344360698 -1089589700 259458250 -6157258 -268452865
        -1074006597 -1124093799 -1363435089</internalNodes>
      <leafValues>
        -6.9226242601871490e-02 1.2656995654106140e-01</leafValues></_>
    <_>
      <internalNodes>
        0 -1 843 -25547732 -273741782 2095004666 -1346752737 -1284888118
        -1687486179 -1409410775 -1342701311</internalNodes>
      <leafValues>
        -1.1511363834142685e-01 8.2595288753509521e-02</leafValues></_>
    <_>
      <internalNodes>
        0 -1 796 -1909539244 -1360117966 -545805023 -1087857575
        805023600 -1082149206 -135310048 -1366672860</internalNodes>
      <leafValues>
        -1.3487559556961060e-01 6.4676843583583832e-02</leafValues></_>
    <_>
      <internalNodes>
        0 -1 238 573770286 36250690 207370 4648809 1199507535 1115638275
        -832876988 1668243211</internalNodes>
      <leafValues>
        -3.0466365814208984e-01 2.8211027383804321e-02</leafValues></_>
    <_>
      <internalNodes>
        0 -1 60 1854058287 -271653808 -943219018 -1624601628 1231204199
        -299154753 -680176287 -706296649</internalNodes>
      <leafValues>
        -1.1318796128034592e-01 7.5955979526042938e-02</leafValues></_>
    <_>
      <internalNodes>
        0 -1 769 -220286356 -875690993 -33641760 -1886601492 1907859736
        -688942453 -251953364 713424737</internalNodes>
      <leafValues>
        -1.1676734685897827e-01 7.1098171174526215e-02</leafValues></_>
    <_>
      <internalNodes>
        0 -1 1115 -270545107 528440191 -553654178 1058734079 -202379570
        -655443073 -83886884 -85196801</internalNodes>
      <leafValues>
        -5.7692170143127441e-02 1.4684812724590302e-01</leafValues></_>
    <_>
      <internalNodes>
        0 -1 1 2066226995 2073923184 -713945 -67830801 -404635762
        1065530224 -1667844902 1850523796</internalNodes>
      <leafValues>
        -1.1555004119873047e-01 7.2916574776172638e-02</leafValues></_>
    <_>
      <internalNodes>
        0 -1 550 1184112 -1715671044 -671219745 -306907145 976436145
        -271913026 -1176864387 -302032777</internalNodes>
      <leafValues>
        -9.2644423246383667e-02 9.8585084080696106e-02</leafValues></_>
    <_>
      <internalNodes>
        0 -1 145 -100877816 -1967508305 2002602846 -1599180961
        -1275624407 1048526388 -724665547 71832608</internalNodes>
      <leafValues>
        -1.5151636302471161e-01 5.7975880801677704e-02</leafValues></_>
    <_>
      <internalNodes>
        0 -1 1027 -286593551 -20420099 1610612479 -639009 536017659
        -290193989 -322175265 -1431589893</internalNodes>
      <leafValues>
        -6.1431150883436203e-02 1.4002832770347595e-01</leafValues></_>
    <_>
      <internalNodes>
        0 -1 689 779311120 -1359806469 -1075347463 -1124991624
        2080648725 -47022229 -1695039694 1055096583</internalNodes>
      <leafValues>
        -1.4766837656497955e-01 6.1738088726997375e-02</leafValues></_>
    <_>
      <internalNodes>
        0 -1 630 -220662146 -119963 464915166 -516357 -1343316242
        -352330 -1964328196 -1311873</internalNodes>
      <leafValues>
        -4.2294796556234360e-02 2.0748041570186615e-01</leafValues></_>
    <_>
      <internalNodes>
        0 -1 427 1792712736 -1144385504 1442818040 -541421088 61833259
        -1615149945 133890405 -977452735</internalNodes>
      <leafValues>
        -1.3372583687305450e-01 6.3115626573562622e-02</leafValues></_>
    <_>
      <internalNodes>
        0 -1 1008 -1896349088 -1103486852 501032700 -1351475854
        772878377 -1079280964 266277992 -1392968843</internalNodes>
      <leafValues>
        -1.4845050871372223e-01 5.6477196514606476e-02</leafValues></_>
    <_>
      <internalNodes>
        0 -1 941 -352666528 -7369949 -604005720 -1972662993 -1366041348
        -3409956 -71303192 -368317361</internalNodes>
      <leafValues>
        -7.7665083110332489e-02 1.0917070508003235e-01</leafValues></_>
    <_>
      <internalNodes>
        0 -1 602 -471405009 -7819866 -536889345 -813969251 -1421149249
        -26254146 -1879312131 -273694513</internalNodes>
      <leafValues>
        -4.2865622788667679e-02 1.9356748461723328e-01</leafValues></_>
    <_>
      <internalNodes>
        0 -1 1121 207560993 264200491 -1004863454 -1432427186 184224776
        196082164 1325340682 217026047</internalNodes>
      <leafValues>
        -2.1219609677791595e-01 4.0293425321578979e-02</leafValues></_>
    <_>
      <internalNodes>
        0 -1 69 -352667730 -864209 -70874070 -944181441 958676990
        -93135069 1735882093 -839821465</internalNodes>
      <leafValues>
        -9.0401872992515564e-02 8.9222796261310577e-02</leafValues></_>
    <_>
      <internalNodes>
        0 -1 136 -752634957 -1996816414 -8045566 -1724852624 88175399
        -1443905585 500651377 -1981982860</internalNodes>
      <leafValues>
        -1.5513376891613007e-01 5.1346227526664734e-02</leafValues></_>
    <_>
      <internalNodes>
        0 -1 1119 181338120 1073614463 -159388430 -1963790369 182847492
        804712887 -923603936 -1465852673</internalNodes>
      <leafValues>
        -1.7263881862163544e-01 4.5782446861267090e-02</leafValues></_>
    <_>
      <internalNodes>
        0 -1 511 -489250812 -453106132 -1634752852 -1366788786
        1706405545 -153862234 1677412140 708925219</internalNodes>
      <leafValues>
        -1.3228598237037659e-01 6.0163263231515884e-02</leafValues></_>
    <_>
      <internalNodes>
        0 -1 437 -1493655008 964695352 -943949138 -5084161 234589163
        518555610 633053636 -1583147</internalNodes>
      <leafValues>
        -8.1431284546852112e-02 9.7254902124404907e-02</leafValues></_>
    <_>
      <internalNodes>
        0 -1 852 -1931858424 -1363670176 452738588 -1360516834
        -1416750996 1777212773 -1218499464 -1342555266</internalNodes>
      <leafValues>
        -1.4337392151355743e-01 5.4845433682203293e-02</leafValues></_>
    <_>
      <internalNodes>
        0 -1 962 -286483448 -1087493576 934950388 -355248 -1359496199
        -1698726145 383631016 -4874591</internalNodes>
      <leafValues>
        -6.1743400990962982e-02 1.2523198127746582e-01</leafValues></_>
    <_>
      <internalNodes>
        0 -1 71 972098112 2142182719 971884158 2078211743 1460675940
        -83353619 -181377228 2097178116</internalNodes>
      <leafValues>
        -2.0082086324691772e-01 3.9252527058124542e-02</leafValues></_>
    <_>
      <internalNodes>
        0 -1 678 -453875680 -1344405216 -11667010 -348728203 722086586
        -17057862 -1381328711 -393555964</internalNodes>
      <leafValues>
        -1.0729663074016571e-01 7.0673383772373199e-02</leafValues></_>
    <_>
      <internalNodes>
        0 -1 994 2147380322 -604034037 -135596034 -75847297 -138431030
        -6501 -84215569 -72619349</internalNodes>
      <leafValues>
        -4.3039686977863312e-02 1.8044437468051910e-01</leafValues></_>
    <_>
      <internalNodes>
        0 -1 1023 -1360480188 241108005 -1025991656 46687551 -283132096
        -90005 -478614944 -360091868</internalNodes>
      <leafValues>
        -1.4026924967765808e-01 5.4057095199823380e-02</leafValues></_>
    <_>
      <internalNodes>
        0 -1 16 -218126996 -1063092564 -1350586582 -2038374802 590490427
        2285533 1728452397 210544470</internalNodes>
      <leafValues>
        -1.1810680478811264e-01 6.3816189765930176e-02</leafValues></_>
    <_>
      <internalNodes>
        0 -1 490 799735595 -4269056 -6692937 -1481575071 187359215
        -1164193060 766203189 -4321003</internalNodes>
      <leafValues>
        -1.1475782096385956e-01 7.4107512831687927e-02</leafValues></_>
    <_>
      <internalNodes>
        0 -1 738 -285540559 -1073830344 -336069401 -1343179283
        -1413781505 -350213 -487424519 -1342239637</internalNodes>
      <leafValues>
        -5.7317506521940231e-02 1.3387237489223480e-01</leafValues></_>
    <_>
      <internalNodes>
        0 -1 644 -117382784 -85293169 -553656497 -68223031 -48190959
        -1156227 -1090480955 536875269</internalNodes>
      <leafValues>
        -2.0675569772720337e-01 3.9455570280551910e-02</leafValues></_>
    <_>
      <internalNodes>
        0 -1 126 1782212142 1618903071 -96845158 1658473187 575826447
        1662215728 -163842989 2007494399</internalNodes>
      <leafValues>
        -1.5356731414794922e-01 5.0582271069288254e-02</leafValues></_>
    <_>
      <internalNodes>
        0 -1 167 -299109829 -1057524 -8405185 -570700398 688858991
        -59310152 -407932448 -302001667</internalNodes>
      <leafValues>
        -7.7889032661914825e-02 9.8438143730163574e-02</leafValues></_>
    <_>
      <internalNodes>
        0 -1 337 -520977368 -107330955 -2106189633 -391814 258125806
        -1175490616 -455874099 -168306709</internalNodes>
      <leafValues>
        -5.3652167320251465e-02 1.4587067067623138e-01</leafValues></_>
    <_>
      <internalNodes>
        0 -1 6 -602266825 -9847105 -8712393 1543308495 -1375718878
        -286613026 1426412843 -581667529</internalNodes>
      <leafValues>
        -9.8085410892963409e-02 7.9846188426017761e-02</leafValues></_>
    <_>
      <internalNodes>
        0 -1 546 1704012 678430014 240649464 183520510 461245018
        707489755 -1364260776 2125679224</internalNodes>
      <leafValues>
        -2.3648227751255035e-01 3.0686985701322556e-02</leafValues></_>
    <_>
      <internalNodes>
        0 -1 538 -77936858 -1175967204 374651102 -1353049954 2080042735
        -1107539457 -1659979272 -39726099</internalNodes>
      <leafValues>
        -5.7278104126453400e-02 1.3861815631389618e-01</leafValues></_>
    <_>
      <internalNodes>
        0 -1 785 484389920 1042156672 549060841 250920695 642650528
        2080342154 921796136 616595223</internalNodes>
      <leafValues>
        -1.7272232472896576e-01 4.3670721352100372e-02</leafValues></_>
    <_>
      <internalNodes>
        0 -1 918 -287396532 -1075957094 981448404 -1346720659
        -1409409222 -2377985 -1092638472 -1090536501</internalNodes>
      <leafValues>
        -6.7823976278305054e-02 1.2156414985656738e-01</leafValues></_></weakClassifiers></stage14>
</opencv_storage>
