<?xml version="1.0"?>
<opencv_storage>
<stage0>
  <maxWeakCount>12</maxWeakCount>
  <stageThreshold>-2.1654591560363770e+00</stageThreshold>
  <weakClassifiers>
    <_>
      <internalNodes>
        0 -1 4 -1 -1 -1 -1 1333229559 -1 2013230965 -2188</internalNodes>
      <leafValues>
        -6.2362116575241089e-01 5.5365580320358276e-01</leafValues></_>
    <_>
      <internalNodes>
        0 -1 77 -1 2147434495 -1 -49153 2146910207 1073692671 -49153
        1073168255</internalNodes>
      <leafValues>
        -5.1852387189865112e-01 5.9305280447006226e-01</leafValues></_>
    <_>
      <internalNodes>
        0 -1 1055 218039591 801062719 -1342193857 -1363148801 805257087
        1073741823 -268468737 -1342177297</internalNodes>
      <leafValues>
        -4.7292619943618774e-01 4.0614989399909973e-01</leafValues></_>
    <_>
      <internalNodes>
        0 -1 9 -1900553 -983049 -1 -131083 151060471 -5177353 1565882357
        -34310796</internalNodes>
      <leafValues>
        -3.8174998760223389e-01 4.0243026614189148e-01</leafValues></_>
    <_>
      <internalNodes>
        0 -1 127 -1560334801 587165695 -1359009106 -1560285185 931090303
        2013233023 -32905 -129</internalNodes>
      <leafValues>
        -4.1830441355705261e-01 3.1706228852272034e-01</leafValues></_>
    <_>
      <internalNodes>
        0 -1 0 758857599 -1 -1 -327681 268269431 -1 267744629 -319531660</internalNodes>
      <leafValues>
        -4.1515907645225525e-01 2.8274855017662048e-01</leafValues></_>
    <_>
      <internalNodes>
        0 -1 982 -1342425739 -16515 -524289 -336385 -537002380 -65569
        -33751683 -1400337108</internalNodes>
      <leafValues>
        -3.5373914241790771e-01 2.7333968877792358e-01</leafValues></_>
    <_>
      <internalNodes>
        0 -1 795 -16973827 -134217729 -4194305 -16859137 -1122443
        -4194305 -590339 1056587637</internalNodes>
      <leafValues>
        -3.3116310834884644e-01 2.4431182444095612e-01</leafValues></_>
    <_>
      <internalNodes>
        0 -1 466 2142071 -1493631297 -180229 -1342382603 268255095
        -1073823747 939464565 -1342671504</internalNodes>
      <leafValues>
        -3.5117706656455994e-01 2.0369841158390045e-01</leafValues></_>
    <_>
      <internalNodes>
        0 -1 1117 -1342226625 788478775 -83907841 787412983 788496198
        -65537 -50365316 -1460076562</internalNodes>
      <leafValues>
        -3.0410659313201904e-01 2.2426980733871460e-01</leafValues></_>
    <_>
      <internalNodes>
        0 -1 126 -269537665 1929340671 -318787842 -496340993 1736406871
        2004844407 -54558863 -528769</internalNodes>
      <leafValues>
        -2.4360002577304840e-01 2.5718230009078979e-01</leafValues></_>
    <_>
      <internalNodes>
        0 -1 1016 -1361371339 -37921 -33604705 -1610957313 -213420
        -270337 -268551164 -1431388261</internalNodes>
      <leafValues>
        -2.1890753507614136e-01 2.7205428481101990e-01</leafValues></_></weakClassifiers></stage0>
</opencv_storage>
