<?xml version="1.0"?>
<opencv_storage>
<stage5>
  <maxWeakCount>83</maxWeakCount>
  <stageThreshold>-1.9157525300979614e+00</stageThreshold>
  <weakClassifiers>
    <_>
      <internalNodes>
        0 -1 59 -1 -786433 -1 -1 -11272193 2071035895 -524289 2004320127</internalNodes>
      <leafValues>
        -5.1506036520004272e-01 1.9621871411800385e-01</leafValues></_>
    <_>
      <internalNodes>
        0 -1 1 -524289 -1 -2049 -1 69596149 -67109953 1296389493
        -571125387</internalNodes>
      <leafValues>
        -4.0883898735046387e-01 2.4859654903411865e-01</leafValues></_>
    <_>
      <internalNodes>
        0 -1 713 218047615 1073692671 805248831 -1073741825 1055866815
        2147434495 989801151 721387519</internalNodes>
      <leafValues>
        -4.0661078691482544e-01 2.0860235393047333e-01</leafValues></_>
    <_>
      <internalNodes>
        0 -1 136 656670707 -1074594061 -7340037 -2170881 117781439
        -1611678721 1476351477 -35467</internalNodes>
      <leafValues>
        -2.3662224411964417e-01 2.4849802255630493e-01</leafValues></_>
    <_>
      <internalNodes>
        0 -1 34 -261947409 -219104345 -1025 -33759323 1073806847
        -88015100 2002220543 -587893497</internalNodes>
      <leafValues>
        -2.0232264697551727e-01 2.5289475917816162e-01</leafValues></_>
    <_>
      <internalNodes>
        0 -1 347 1759448703 16712319 43125498 582658687 1861945963
        2136960831 -353407875 -336593297</internalNodes>
      <leafValues>
        -2.9570913314819336e-01 1.5791574120521545e-01</leafValues></_>
    <_>
      <internalNodes>
        0 -1 998 -269506784 -537972945 -13648390 -20689 -268700171
        -1879099777 -66051 -341250257</internalNodes>
      <leafValues>
        -1.6602160036563873e-01 2.6631245017051697e-01</leafValues></_>
    <_>
      <internalNodes>
        0 -1 991 -1358973115 -2097905 -9454657 856489807 -1212 -67387736
        -67207176 -1433862353</internalNodes>
      <leafValues>
        -1.9072663784027100e-01 2.0205774903297424e-01</leafValues></_>
    <_>
      <internalNodes>
        0 -1 1115 -268439985 704499295 -562827521 175833087 -554705844
        1258269947 -353481572 -1426391041</internalNodes>
      <leafValues>
        -1.9824147224426270e-01 1.7971070110797882e-01</leafValues></_>
    <_>
      <internalNodes>
        0 -1 618 -352408914 -1627747313 -1316972322 -21839885
        -1429240390 -1409319297 -6375256 -269162747</internalNodes>
      <leafValues>
        -1.7543075978755951e-01 2.0564869046211243e-01</leafValues></_>
    <_>
      <internalNodes>
        0 -1 356 2127735 -2000623792 -547898373 -1378036811 33751927
        -1343243522 197071461 -1359077068</internalNodes>
      <leafValues>
        -2.7672627568244934e-01 1.2875747680664063e-01</leafValues></_>
    <_>
      <internalNodes>
        0 -1 1099 184494907 1073703295 -1105227589 -1476724997 266539373
        -1076890885 -1208017860 -1073754241</internalNodes>
      <leafValues>
        -2.3718568682670593e-01 1.2905000150203705e-01</leafValues></_>
    <_>
      <internalNodes>
        0 -1 90 -273701329 -345051570 -163100594 -1582379834 1729062771
        1073998895 1900499301 -975841437</internalNodes>
      <leafValues>
        -2.2906877100467682e-01 1.3139100372791290e-01</leafValues></_>
    <_>
      <internalNodes>
        0 -1 642 -2132361419 -1934321162 -16417 -1347903619 803618813
        -1075848257 1877948349 -1359207067</internalNodes>
      <leafValues>
        -2.0125858485698700e-01 1.5442417562007904e-01</leafValues></_>
    <_>
      <internalNodes>
        0 -1 1048 -1895856595 1073687915 989839018 864980399 264238279
        536821551 -16780052 -487587857</internalNodes>
      <leafValues>
        -1.5996272861957550e-01 1.8275426328182220e-01</leafValues></_>
    <_>
      <internalNodes>
        0 -1 514 -1567972817 -543375256 536868863 -1644505602
        -1947491413 -1148542822 -1870686787 -303184635</internalNodes>
      <leafValues>
        -1.5564084053039551e-01 1.8011692166328430e-01</leafValues></_>
    <_>
      <internalNodes>
        0 -1 1104 -285265835 2147438575 -86148129 -1151347585 -285309116
        -51397026 -201700 -1363215489</internalNodes>
      <leafValues>
        -1.4336436986923218e-01 1.7849650979042053e-01</leafValues></_>
    <_>
      <internalNodes>
        0 -1 129 -486560017 1946136175 -337498577 724821867 1735872255
        2139031368 -37041 1870364207</internalNodes>
      <leafValues>
        -1.7120875418186188e-01 1.5158343315124512e-01</leafValues></_>
    <_>
      <internalNodes>
        0 -1 386 -61418256 -1628296470 -101753025 786407215 -267324544
        -99598813 2136428288 787971943</internalNodes>
      <leafValues>
        -2.0878571271896362e-01 1.2528620660305023e-01</leafValues></_>
    <_>
      <internalNodes>
        0 -1 958 -304174168 -1075071282 710353016 -1073829938 115312045
        1072654815 -1140906708 -1348293713</internalNodes>
      <leafValues>
        -1.3566231727600098e-01 1.7783589661121368e-01</leafValues></_>
    <_>
      <internalNodes>
        0 -1 126 -360977809 1249774205 -365188358 1613941834 1674794855
        1898407731 -35655830 -201326913</internalNodes>
      <leafValues>
        -1.4610762894153595e-01 1.6014362871646881e-01</leafValues></_>
    <_>
      <internalNodes>
        0 -1 59 2004317055 846098943 -134779073 2079682495 1636063168
        -155810946 1952014109 -1197619322</internalNodes>
      <leafValues>
        -1.0521639138460159e-01 2.1436019241809845e-01</leafValues></_>
    <_>
      <internalNodes>
        0 -1 949 -826237800 -18436169 -12583010 -606538 1764087704
        -65729 -84738133 1070579469</internalNodes>
      <leafValues>
        -1.4121916890144348e-01 1.6103947162628174e-01</leafValues></_>
    <_>
      <internalNodes>
        0 -1 197 1739322147 2133781002 1594875183 -2032984 59761441
        -3409445 359088453 -840575999</internalNodes>
      <leafValues>
        -2.0138707756996155e-01 1.0843610018491745e-01</leafValues></_>
    <_>
      <internalNodes>
        0 -1 1120 11468800 174844429 1790895384 -1394939665 229982247
        182451531 -1258300216 -385941585</internalNodes>
      <leafValues>
        -2.4296467006206512e-01 8.6980253458023071e-02</leafValues></_>
    <_>
      <internalNodes>
        0 -1 1016 -874530987 -545309313 -704823345 -1287996001 -1573068
        -16641 -270649040 -1430528213</internalNodes>
      <leafValues>
        -1.2888795137405396e-01 1.7259097099304199e-01</leafValues></_>
    <_>
      <internalNodes>
        0 -1 111 1073898146 314064831 551708274 -541663814 1999990701
        1056733495 -278581380 2136244055</internalNodes>
      <leafValues>
        -2.2680994868278503e-01 9.4511836767196655e-02</leafValues></_>
    <_>
      <internalNodes>
        0 -1 796 -1929462443 -1224851457 -144719873 -1082613787
        -1988886603 -21054465 -1342238419 -1365595867</internalNodes>
      <leafValues>
        -1.4158028364181519e-01 1.4906510710716248e-01</leafValues></_>
    <_>
      <internalNodes>
        0 -1 0 1755294523 2113919991 -67118081 -275062785 258934783
        -1402997890 1624733008 1153712212</internalNodes>
      <leafValues>
        -2.5675314664840698e-01 8.0708026885986328e-02</leafValues></_>
    <_>
      <internalNodes>
        0 -1 1 1866997553 -33708175 2147201815 -208153 -622715605
        -895697116 -1766148678 1712252038</internalNodes>
      <leafValues>
        -1.2319963425397873e-01 1.6564653813838959e-01</leafValues></_>
    <_>
      <internalNodes>
        0 -1 590 -1442676219 -6814706 -406087681 -1879387109 -838605397
        -268795862 -1054908427 -270581755</internalNodes>
      <leafValues>
        -1.3861243426799774e-01 1.4266912639141083e-01</leafValues></_>
    <_>
      <internalNodes>
        0 -1 941 -1427231675 805235470 -8545351 -1962242301 -269484508
        -16778659 -91801351 -1442205943</internalNodes>
      <leafValues>
        -1.4851236343383789e-01 1.2698651850223541e-01</leafValues></_>
    <_>
      <internalNodes>
        0 -1 713 -210838640 -318771393 2147483387 1844756399 -763379636
        -1141579816 -8388786 -150536433</internalNodes>
      <leafValues>
        -7.7528454363346100e-02 2.3033095896244049e-01</leafValues></_>
    <_>
      <internalNodes>
        0 -1 615 517515936 2146877356 -1214046242 -33899033 2146778031
        1073430446 -67887698 912418565</internalNodes>
      <leafValues>
        -2.0259106159210205e-01 9.7866602241992950e-02</leafValues></_>
    <_>
      <internalNodes>
        0 -1 93 2120524335 1943593727 268077823 1946019547 1719545583
        2046648575 1138717679 -134912441</internalNodes>
      <leafValues>
        -1.1916807293891907e-01 1.4963336288928986e-01</leafValues></_>
    <_>
      <internalNodes>
        0 -1 698 -469834998 -34157521 -1210115490 -273619977 -269514481
        -81844609 -10503027 -335554801</internalNodes>
      <leafValues>
        -8.3139404654502869e-02 2.2389638423919678e-01</leafValues></_>
    <_>
      <internalNodes>
        0 -1 831 -1527061472 -537099778 -141730305 -1883311665
        -897847523 -1946582533 -1142170887 -1415700472</internalNodes>
      <leafValues>
        -1.3490785658359528e-01 1.2891153991222382e-01</leafValues></_>
    <_>
      <internalNodes>
        0 -1 211 1089905190 1974907966 1601634862 -273122366 775357995
        -4162999 1702844231 -302680217</internalNodes>
      <leafValues>
        -1.9269667565822601e-01 9.0719431638717651e-02</leafValues></_>
    <_>
      <internalNodes>
        0 -1 604 -488704218 -824643033 2147461806 -1461142307 591868843
        -1317453 -295815729 -285247997</internalNodes>
      <leafValues>
        -1.0847298055887222e-01 1.5506301820278168e-01</leafValues></_>
    <_>
      <internalNodes>
        0 -1 825 -989941972 -68377425 1872739501 -1349720243 -272650391
        -2387793 -1493205716 -1366815953</internalNodes>
      <leafValues>
        -1.3225579261779785e-01 1.2684971094131470e-01</leafValues></_>
    <_>
      <internalNodes>
        0 -1 652 -131924748 -1403908449 -21692417 748993911 1906358657
        -53189966 -210397424 586486607</internalNodes>
      <leafValues>
        -1.7585371434688568e-01 9.7642809152603149e-02</leafValues></_>
    <_>
      <internalNodes>
        0 -1 45 -1357922521 -1498750168 771226402 -1365575514 67179331
        -1366891904 1969443941 -859025056</internalNodes>
      <leafValues>
        -2.4421761929988861e-01 6.8341098725795746e-02</leafValues></_>
    <_>
      <internalNodes>
        0 -1 725 140443662 174010222 586817536 718977889 805249280
        805208063 687808520 719288367</internalNodes>
      <leafValues>
        -3.6367475986480713e-01 4.4843718409538269e-02</leafValues></_>
    <_>
      <internalNodes>
        0 -1 396 -420480222 -1093488778 -111301858 -1347092664
        2003138411 -294341653 2147447085 1318680391</internalNodes>
      <leafValues>
        -1.3792398571968079e-01 1.1465367674827576e-01</leafValues></_>
    <_>
      <internalNodes>
        0 -1 232 -494941649 1350025855 33995519 854755510 1245440895
        2065923891 -369623564 -528521</internalNodes>
      <leafValues>
        -1.0429948568344116e-01 1.4970122277736664e-01</leafValues></_>
    <_>
      <internalNodes>
        0 -1 852 139727392 -1090780570 1004484574 -1480969942
        -1375196836 535772526 -1074390808 -1476904176</internalNodes>
      <leafValues>
        -2.2459478676319122e-01 6.8776927888393402e-02</leafValues></_>
    <_>
      <internalNodes>
        0 -1 352 -2013251792 813881725 -641804867 495638900 168828161
        -273221379 -1880485763 216272980</internalNodes>
      <leafValues>
        -2.8473234176635742e-01 5.3268183022737503e-02</leafValues></_>
    <_>
      <internalNodes>
        0 -1 903 -285301204 -1750417794 362789626 -1614893557 2138548713
        729772391 -19319 -273702133</internalNodes>
      <leafValues>
        -8.3252124488353729e-02 1.8071056902408600e-01</leafValues></_>
    <_>
      <internalNodes>
        0 -1 1042 -827421910 -356644081 -69558598 -1699045457 665928698
        1073721406 -1903527428 706916105</internalNodes>
      <leafValues>
        -1.6335405409336090e-01 9.3713715672492981e-02</leafValues></_>
    <_>
      <internalNodes>
        0 -1 295 -1024839385 -79500690 2144329739 -514797372 101403119
        -1079473174 1363899749 -271822587</internalNodes>
      <leafValues>
        -1.5028566122055054e-01 9.6789270639419556e-02</leafValues></_>
    <_>
      <internalNodes>
        0 -1 634 -889315105 873988415 174243070 -1875375286 -291893266
        -107418690 -288473912 -273727906</internalNodes>
      <leafValues>
        -1.1400078982114792e-01 1.2899282574653625e-01</leafValues></_>
    <_>
      <internalNodes>
        0 -1 378 -1067272409 -1460635846 -1923481674 -2064073874
        1649852399 -18858305 1859067677 -1931643569</internalNodes>
      <leafValues>
        -1.0861051082611084e-01 1.3219635188579559e-01</leafValues></_>
    <_>
      <internalNodes>
        0 -1 34 1073682230 -3191816 133857068 -828639265 -1090243840
        -1372582449 -51052780 1665815992</internalNodes>
      <leafValues>
        -1.3880950212478638e-01 1.0819035023450851e-01</leafValues></_>
    <_>
      <internalNodes>
        0 -1 884 1442876416 2096148142 746143615 -17121984 1312861604
        2138824022 -218712192 551823108</internalNodes>
      <leafValues>
        -2.3246712982654572e-01 6.0058329254388809e-02</leafValues></_>
    <_>
      <internalNodes>
        0 -1 3 1843470903 -612374722 -19941665 -2818089 1086598863
        -1057973 551513083 1079076627</internalNodes>
      <leafValues>
        -1.3520081341266632e-01 1.0321354120969772e-01</leafValues></_>
    <_>
      <internalNodes>
        0 -1 217 -338712058 2077472287 1778867358 -209006350 -827340834
        -1713402961 -436735304 -235416087</internalNodes>
      <leafValues>
        -7.9816259443759918e-02 1.9280286133289337e-01</leafValues></_>
    <_>
      <internalNodes>
        0 -1 390 612507437 -1780690374 -537150746 -1923295795 221995531
        -394072370 1830163509 -388120319</internalNodes>
      <leafValues>
        -1.6120319068431854e-01 9.0618371963500977e-02</leafValues></_>
    <_>
      <internalNodes>
        0 -1 1006 -1465995004 -1107415068 1017057752 -1074125584
        260913653 1070546813 -1499856839 -1393373205</internalNodes>
      <leafValues>
        -1.3161526620388031e-01 1.0582066327333450e-01</leafValues></_>
    <_>
      <internalNodes>
        0 -1 1012 546707057 1040068182 -48374785 749630591 -1091079611
        -17061298 -1420207824 -1449129944</internalNodes>
      <leafValues>
        -2.1099150180816650e-01 6.3954003155231476e-02</leafValues></_>
    <_>
      <internalNodes>
        0 -1 777 -69550294 -134247233 1596859954 -268780301 -336350278
        -1140906069 -1073762900 -67129585</internalNodes>
      <leafValues>
        -5.9225756675004959e-02 2.3576828837394714e-01</leafValues></_>
    <_>
      <internalNodes>
        0 -1 127 1937500782 841666151 183214826 1894476295 1667190571
        1400070955 1874471423 2000121699</internalNodes>
      <leafValues>
        -1.5198783576488495e-01 8.6100518703460693e-02</leafValues></_>
    <_>
      <internalNodes>
        0 -1 843 681184804 733092527 2121867962 -1364574786 -1549393746
        468128682 -1469170395 -1566039296</internalNodes>
      <leafValues>
        -2.1753689646720886e-01 6.0009118169546127e-02</leafValues></_>
    <_>
      <internalNodes>
        0 -1 706 -547158 -638614769 -1078838378 -1615160391 -123924852
        1063925726 -86532376 -273218933</internalNodes>
      <leafValues>
        -7.2208099067211151e-02 1.8044176697731018e-01</leafValues></_>
    <_>
      <internalNodes>
        0 -1 150 -42305568 -52249346 -541085907 -88245318 -46092896
        -1106188895 -545962480 644118114</internalNodes>
      <leafValues>
        -1.9523714482784271e-01 6.8147450685501099e-02</leafValues></_>
    <_>
      <internalNodes>
        0 -1 856 754892765 1056851327 -1343541614 -1409668233 -67142660
        -1076893459 -1140971748 -1343805436</internalNodes>
      <leafValues>
        -1.0840500146150589e-01 1.1965464055538177e-01</leafValues></_>
    <_>
      <internalNodes>
        0 -1 991 1877872302 1482759789 -310466002 -896800925 -86349587
        2062458120 -521037741 2030274896</internalNodes>
      <leafValues>
        -1.1373515427112579e-01 1.0943029075860977e-01</leafValues></_>
    <_>
      <internalNodes>
        0 -1 1040 -1358977457 -1073804273 1802493678 195346413
        -553915684 2051964638 -74320920 -366351537</internalNodes>
      <leafValues>
        -9.2798762023448944e-02 1.3664907217025757e-01</leafValues></_>
    <_>
      <internalNodes>
        0 -1 638 -2132911819 -79909224 2113923573 -6374179 -1481933347
        -85419525 -4227911 -1409344341</internalNodes>
      <leafValues>
        -7.9547695815563202e-02 1.5525034070014954e-01</leafValues></_>
    <_>
      <internalNodes>
        0 -1 27 -473732313 -37819870 -536888542 -1515656330 1143868195
        1307107758 1196904757 -439532224</internalNodes>
      <leafValues>
        -2.0329512655735016e-01 6.8222150206565857e-02</leafValues></_>
    <_>
      <internalNodes>
        0 -1 1023 -1392591273 584979491 -610361240 -1565354769
        -1344034476 1845393778 -1140921548 -1441518064</internalNodes>
      <leafValues>
        -1.7400994896888733e-01 6.8266451358795166e-02</leafValues></_>
    <_>
      <internalNodes>
        0 -1 741 -287659148 -1125077002 -134333655 -1953227313
        1723477763 -1090831683 -939753687 -1347425753</internalNodes>
      <leafValues>
        -9.8809197545051575e-02 1.2484693527221680e-01</leafValues></_>
    <_>
      <internalNodes>
        0 -1 810 -824721603 -559996337 266189755 -1947947505 66464765
        -278940180 1597733800 -1373083804</internalNodes>
      <leafValues>
        -9.5762416720390320e-02 1.2490214407444000e-01</leafValues></_>
    <_>
      <internalNodes>
        0 -1 114 -362878453 -236740005 1626218718 -780789025 1263208167
        1112753499 -228133484 -201986313</internalNodes>
      <leafValues>
        -9.0685725212097168e-02 1.3304570317268372e-01</leafValues></_>
    <_>
      <internalNodes>
        0 -1 1121 150970372 117433579 -1428577864 200721646 258146342
        135982012 -1929690738 212834431</internalNodes>
      <leafValues>
        -1.7984017729759216e-01 6.7453436553478241e-02</leafValues></_>
    <_>
      <internalNodes>
        0 -1 909 -268786674 -1187136132 -1610673986 -2871433 -1946969665
        -1103553197 -1392801047 -1360026963</internalNodes>
      <leafValues>
        -7.6122105121612549e-02 1.5957544744014740e-01</leafValues></_>
    <_>
      <internalNodes>
        0 -1 223 251604270 -76285449 -2063725010 -268518529 1624715179
        -10286117 -922797779 1846634247</internalNodes>
      <leafValues>
        -1.2168467044830322e-01 1.0155970603227615e-01</leafValues></_>
    <_>
      <internalNodes>
        0 -1 998 1592683774 805234462 -1408890256 -1564968218 1207048968
        893344319 -1107399640 -1341672272</internalNodes>
      <leafValues>
        -1.2080563604831696e-01 9.7395732998847961e-02</leafValues></_>
    <_>
      <internalNodes>
        0 -1 1117 -471879925 2071931583 -490764086 -1143307593
        1870644463 1266038074 -589562632 -1594826945</internalNodes>
      <leafValues>
        -9.8701864480972290e-02 1.2884092330932617e-01</leafValues></_>
    <_>
      <internalNodes>
        0 -1 1097 537526784 496967599 388854420 1051763127 262419536
        -1381010822 -1296057324 -1161232598</internalNodes>
      <leafValues>
        -1.7718981206417084e-01 6.7857950925827026e-02</leafValues></_>
    <_>
      <internalNodes>
        0 -1 43 552647463 1563669304 -1948279555 2088913147 786441731
        2033731879 1674051247 -574229115</internalNodes>
      <leafValues>
        -1.1089985072612762e-01 1.0552730411291122e-01</leafValues></_>
    <_>
      <internalNodes>
        0 -1 1107 -6049 -42218913 -84430901 -38101761 -87175476
        -34683303 -84488309 -67387745</internalNodes>
      <leafValues>
        -4.0776129812002182e-02 2.8431171178817749e-01</leafValues></_>
    <_>
      <internalNodes>
        0 -1 609 1616532576 116016463 989800507 -1409995443 154146340
        1999780635 1966291754 575698693</internalNodes>
      <leafValues>
        -2.0732192695140839e-01 5.7041332125663757e-02</leafValues></_>
    <_>
      <internalNodes>
        0 -1 959 -57884964 1055144740 1073493220 -1208344514 804559852
        -419987529 -285263684 -1511966857</internalNodes>
      <leafValues>
        -1.0067434608936310e-01 1.2078667432069778e-01</leafValues></_></weakClassifiers></stage5>
</opencv_storage>
