<?xml version="1.0"?>
<opencv_storage>
<stage5>
  <maxWeakCount>93</maxWeakCount>
  <stageThreshold>-1.9240436553955078e+00</stageThreshold>
  <weakClassifiers>
    <_>
      <internalNodes>
        0 -1 77 1073741823 1040187391 -2097153 -1 1073741823 1040171007
        -1 771751935</internalNodes>
      <leafValues>
        -5.2852624654769897e-01 1.6073752939701080e-01</leafValues></_>
    <_>
      <internalNodes>
        0 -1 1100 -1 444063615 -1 -1171062786 -1 -17041442 -2097153
        -1460076546</internalNodes>
      <leafValues>
        -3.5591953992843628e-01 2.4237133562564850e-01</leafValues></_>
    <_>
      <internalNodes>
        0 -1 81 -5505025 -5574750 -36865 -7072 992952319 2147479543
        2147450879 2147448645</internalNodes>
      <leafValues>
        -2.7097892761230469e-01 2.8189715743064880e-01</leafValues></_>
    <_>
      <internalNodes>
        0 -1 665 -570427907 -708541048 -34078721 -572653569 -1073893891
        -1392769620 -20497 15071141</internalNodes>
      <leafValues>
        -2.8231954574584961e-01 2.1698999404907227e-01</leafValues></_>
    <_>
      <internalNodes>
        0 -1 127 728968743 725299071 -335574741 -1556874385 2147434367
        2147450751 -2131077 -268435601</internalNodes>
      <leafValues>
        -2.9454037547111511e-01 1.7642664909362793e-01</leafValues></_>
    <_>
      <internalNodes>
        0 -1 1023 1423924319 274684255 -2097169 273874911 -120465328
        -111739012 -119800068 -1426128913</internalNodes>
      <leafValues>
        -2.4302820861339569e-01 2.0677681267261505e-01</leafValues></_>
    <_>
      <internalNodes>
        0 -1 9 -1365069840 -286347522 -335611907 -268656416 788772785
        -4101 1333213085 -268630699</internalNodes>
      <leafValues>
        -2.7580019831657410e-01 1.5594361722469330e-01</leafValues></_>
    <_>
      <internalNodes>
        0 -1 1121 -1544571101 163576619 1063219985 -1342177317 66269619
        268429243 -135278285 -268437509</internalNodes>
      <leafValues>
        -2.3774698376655579e-01 1.6441786289215088e-01</leafValues></_>
    <_>
      <internalNodes>
        0 -1 495 -574583680 -537358635 -134742017 -35607860 -217171
        -524289 -20483 -53297</internalNodes>
      <leafValues>
        -1.3117966055870056e-01 2.6835459470748901e-01</leafValues></_>
    <_>
      <internalNodes>
        0 -1 1002 -6368 -4480194 -212921872 -1074087390 -6595147
        -1610652705 -67150339 -391319747</internalNodes>
      <leafValues>
        -1.7437140643596649e-01 1.9054095447063446e-01</leafValues></_>
    <_>
      <internalNodes>
        0 -1 968 225793397 526324571 -134743073 802356095 -84083784
        -3145813 -35914371 -1430586501</internalNodes>
      <leafValues>
        -1.7015908658504486e-01 1.8636685609817505e-01</leafValues></_>
    <_>
      <internalNodes>
        0 -1 741 -270589691 1040150655 -215569 -1074069569 -71484812
        -49925 -1307299 -1430505211</internalNodes>
      <leafValues>
        -2.1109351515769958e-01 1.3162836432456970e-01</leafValues></_>
    <_>
      <internalNodes>
        0 -1 1117 -352345301 53449535 800818195 9888639 1811915651
        386270067 -206573351 -521931793</internalNodes>
      <leafValues>
        -1.7786537110805511e-01 1.6008517146110535e-01</leafValues></_>
    <_>
      <internalNodes>
        0 -1 0 -1343225921 1791948646 -943718413 -269816068 -1140867073
        -1279272974 1607463935 -33556875</internalNodes>
      <leafValues>
        -1.3020657002925873e-01 2.1536418795585632e-01</leafValues></_>
    <_>
      <internalNodes>
        0 -1 922 490714401 1069530399 1006177552 -1348494865 1061106101
        737932221 464984329 -1879074513</internalNodes>
      <leafValues>
        -1.9242516160011292e-01 1.4399614930152893e-01</leafValues></_>
    <_>
      <internalNodes>
        0 -1 687 -33559060 1566567901 -805326930 197066735 -37750363
        -33689227 -51417304 -1463420057</internalNodes>
      <leafValues>
        -1.4325673878192902e-01 1.8094648420810699e-01</leafValues></_>
    <_>
      <internalNodes>
        0 -1 77 -919653386 -924537458 1610612735 233637647 -35686411
        -823363637 2145353727 -756070417</internalNodes>
      <leafValues>
        -1.1402814090251923e-01 2.4397699534893036e-01</leafValues></_>
    <_>
      <internalNodes>
        0 -1 219 -69226705 2066677102 -289427798 -6623774 795815855
        1065318394 1476347653 -39097</internalNodes>
      <leafValues>
        -1.5259006619453430e-01 1.6638597846031189e-01</leafValues></_>
    <_>
      <internalNodes>
        0 -1 1100 721395421 -309841758 -813783108 1171832171 -813957153
        -910374920 -572526627 1443286077</internalNodes>
      <leafValues>
        -1.8595147132873535e-01 1.3258765637874603e-01</leafValues></_>
    <_>
      <internalNodes>
        0 -1 120 705896962 454248 -889306910 -616892826 990335587
        2003498151 -241730191 -657563</internalNodes>
      <leafValues>
        -2.4232682585716248e-01 9.4578787684440613e-02</leafValues></_>
    <_>
      <internalNodes>
        0 -1 281 -80545887 -13960333 -1073751553 -135606189 -1088443479
        -2900229 -3166225 -136380153</internalNodes>
      <leafValues>
        -1.0450712591409683e-01 2.1533854305744171e-01</leafValues></_>
    <_>
      <internalNodes>
        0 -1 801 -856300075 341054941 -8916993 404275087 -304232972
        -2251268 -339083265 -1429606569</internalNodes>
      <leafValues>
        -1.4010038971900940e-01 1.5534971654415131e-01</leafValues></_>
    <_>
      <internalNodes>
        0 -1 569 -293720459 -285331681 -268648515 -1426454977 -270516299
        -2147329 -336840083 -268697587</internalNodes>
      <leafValues>
        -1.6772584617137909e-01 1.2995924055576324e-01</leafValues></_>
    <_>
      <internalNodes>
        0 -1 610 -355799548 -72679627 -88370478 -100992180 -1883263203
        -1350570705 -1342200017 -335608563</internalNodes>
      <leafValues>
        -1.2267074733972549e-01 1.7156422138214111e-01</leafValues></_>
    <_>
      <internalNodes>
        0 -1 852 611328804 -1348724460 167452412 -1881522564 -1078256764
        -1413865760 -1347478916 -1342227604</internalNodes>
      <leafValues>
        -2.3182614147663116e-01 8.6537465453147888e-02</leafValues></_>
    <_>
      <internalNodes>
        0 -1 779 -547484 401575597 -56642 -1075929361 2147471341
        1073704649 -2237187 -1527944667</internalNodes>
      <leafValues>
        -1.3908411562442780e-01 1.4832057058811188e-01</leafValues></_>
    <_>
      <internalNodes>
        0 -1 1110 1087883343 41130015 -2636801 1208911 1733201472
        -625826736 -490745496 1611726175</internalNodes>
      <leafValues>
        -2.4535086750984192e-01 8.2631766796112061e-02</leafValues></_>
    <_>
      <internalNodes>
        0 -1 1055 -402676958 133146159 -239652576 -1348551381 43713939
        124463055 -2019617535 -403722453</internalNodes>
      <leafValues>
        -2.0137496292591095e-01 9.5695860683917999e-02</leafValues></_>
    <_>
      <internalNodes>
        0 -1 1091 -889225147 1527713819 -880856078 324719327 -366354304
        -386586623 -222103032 -366807218</internalNodes>
      <leafValues>
        -1.2880945205688477e-01 1.5280839800834656e-01</leafValues></_>
    <_>
      <internalNodes>
        0 -1 813 -1350666939 -1342276241 -77911809 -1357226145
        -321945860 -37754180 -269860935 -1417018879</internalNodes>
      <leafValues>
        -1.6143727302551270e-01 1.1612643301486969e-01</leafValues></_>
    <_>
      <internalNodes>
        0 -1 4 -345571457 -288950406 -134758561 -1356289340 725331967
        -1656577 1739552255 -806410714</internalNodes>
      <leafValues>
        -1.1010800302028656e-01 1.6495013236999512e-01</leafValues></_>
    <_>
      <internalNodes>
        0 -1 81 1802898688 777335385 -12583134 -738576481 66971444
        -2120319367 625713989 -1051458402</internalNodes>
      <leafValues>
        -1.5222446620464325e-01 1.1761554330587387e-01</leafValues></_>
    <_>
      <internalNodes>
        0 -1 78 -341072917 -879829206 -294129937 -68485536 1341650603
        -546373904 -9218719 -168304171</internalNodes>
      <leafValues>
        -1.1593288183212280e-01 1.5412297844886780e-01</leafValues></_>
    <_>
      <internalNodes>
        0 -1 956 -235953374 2138932059 -1317033048 867630079 -34213939
        -72618533 -341345975 -1427243153</internalNodes>
      <leafValues>
        -1.0813527554273605e-01 1.6858859360218048e-01</leafValues></_>
    <_>
      <internalNodes>
        0 -1 375 -1369030793 -285321349 -538583345 -1130449809
        -1884672051 -33562625 -807069091 -808581809</internalNodes>
      <leafValues>
        -1.1681214720010757e-01 1.5084023773670197e-01</leafValues></_>
    <_>
      <internalNodes>
        0 -1 722 996029268 1073687414 -1078064674 -1110951317
        -1143531844 2127395561 -1082509972 -1145226488</internalNodes>
      <leafValues>
        -1.8775625526905060e-01 9.3675673007965088e-02</leafValues></_>
    <_>
      <internalNodes>
        0 -1 1121 1126162618 73923806 1830716642 -790954334 188465467
        85960481 19359108 352320279</internalNodes>
      <leafValues>
        -1.6587065160274506e-01 1.0494478791952133e-01</leafValues></_>
    <_>
      <internalNodes>
        0 -1 209 703046179 543878698 -67173214 -1410403728 259991055
        860838458 1207900005 -438447036</internalNodes>
      <leafValues>
        -2.1453663706779480e-01 7.7128008008003235e-02</leafValues></_>
    <_>
      <internalNodes>
        0 -1 765 -495049984 -75694738 938981246 -167839889 -517741027
        -356802081 -366069703 -372637685</internalNodes>
      <leafValues>
        -1.1516457796096802e-01 1.4890047907829285e-01</leafValues></_>
    <_>
      <internalNodes>
        0 -1 665 -285955162 146663677 -687966404 788451020 1288167330
        1537457107 96072149 -1356984996</internalNodes>
      <leafValues>
        -1.3493295013904572e-01 1.2461657822132111e-01</leafValues></_>
    <_>
      <internalNodes>
        0 -1 646 -998247051 1903504207 -539115521 -1342521361 -243944143
        -4490056 -1394573923 -360947868</internalNodes>
      <leafValues>
        -1.1287850141525269e-01 1.5024232864379883e-01</leafValues></_>
    <_>
      <internalNodes>
        0 -1 240 1868560375 1073622767 535111208 736275274 1865383859
        -1073790993 1876850545 1876908907</internalNodes>
      <leafValues>
        -1.1793280392885208e-01 1.3464611768722534e-01</leafValues></_>
    <_>
      <internalNodes>
        0 -1 705 410984480 494726029 731854128 217900805 469537261
        213953965 -2625601 216924141</internalNodes>
      <leafValues>
        -2.1381965279579163e-01 7.7999122440814972e-02</leafValues></_>
    <_>
      <internalNodes>
        0 -1 903 -268516316 -537975714 -1948516646 -675372613 -83972627
        -2082483473 -168059779 -338956529</internalNodes>
      <leafValues>
        -7.6098009943962097e-02 2.2653914988040924e-01</leafValues></_>
    <_>
      <internalNodes>
        0 -1 269 -319096108 -33659441 -3212545 1604251378 -1352667228
        -269486169 -2273512 -1399886065</internalNodes>
      <leafValues>
        -1.0245031118392944e-01 1.5109035372734070e-01</leafValues></_>
    <_>
      <internalNodes>
        0 -1 1044 1811938082 327656071 324245322 42139471 -1321233784
        1872746692 -346031751 -392364279</internalNodes>
      <leafValues>
        -1.5397149324417114e-01 9.8404280841350555e-02</leafValues></_>
    <_>
      <internalNodes>
        0 -1 866 -252184321 369050495 2146807807 436136815 -455625551
        -576889611 -9330739 -1436680347</internalNodes>
      <leafValues>
        -8.7068222463130951e-02 1.7821465432643890e-01</leafValues></_>
    <_>
      <internalNodes>
        0 -1 962 -304176032 -1086449552 758982136 -354127 -1949866011
        -1073987653 -550723 -33559809</internalNodes>
      <leafValues>
        -8.0523341894149780e-02 1.8745079636573792e-01</leafValues></_>
    <_>
      <internalNodes>
        0 -1 574 -657267428 1413793988 -135313479 -929782786 2146415748
        -117779027 -1070171 617440581</internalNodes>
      <leafValues>
        -1.8241403996944427e-01 7.9906500875949860e-02</leafValues></_>
    <_>
      <internalNodes>
        0 -1 816 -272907963 224333087 -302071873 215678447 -4201767
        -25811 -1081446803 -283383733</internalNodes>
      <leafValues>
        -9.1569185256958008e-02 1.6435877978801727e-01</leafValues></_>
    <_>
      <internalNodes>
        0 -1 114 -1609881054 571131948 -993394602 -791507772 1331113955
        576404450 -151097039 -170565163</internalNodes>
      <leafValues>
        -1.8626300990581512e-01 8.1640765070915222e-02</leafValues></_>
    <_>
      <internalNodes>
        0 -1 111 582230528 165817864 1855677978 -1347755804 2063019557
        1039532013 1862216476 217868103</internalNodes>
      <leafValues>
        -2.9455170035362244e-01 4.8867419362068176e-02</leafValues></_>
    <_>
      <internalNodes>
        0 -1 783 -613371608 -68511139 1073490922 -2741380 -1077400704
        -1626398741 -1176650488 -38764755</internalNodes>
      <leafValues>
        -1.0235074907541275e-01 1.5080785751342773e-01</leafValues></_>
    <_>
      <internalNodes>
        0 -1 63 -1343248597 -68227478 -906383574 -275844432 1800117119
        -3492010 1847268413 -842145723</internalNodes>
      <leafValues>
        -1.1858658492565155e-01 1.2166558951139450e-01</leafValues></_>
    <_>
      <internalNodes>
        0 -1 1120 55410720 7844670 423063856 -1328350742 1171767715
        12523513 1366503776 -251789413</internalNodes>
      <leafValues>
        -1.6614346206188202e-01 8.2473941147327423e-02</leafValues></_>
    <_>
      <internalNodes>
        0 -1 985 1826570325 142577167 -1090866197 45285359 -1428066044
        -1138474644 -59111596 -1442776000</internalNodes>
      <leafValues>
        -2.0228756964206696e-01 6.6078513860702515e-02</leafValues></_>
    <_>
      <internalNodes>
        0 -1 407 -109015504 2109253268 1845464830 -1579538 1859497877
        1052770111 -319901781 2060332687</internalNodes>
      <leafValues>
        -1.1740203946828842e-01 1.1604209989309311e-01</leafValues></_>
    <_>
      <internalNodes>
        0 -1 470 -1025004460 1828355919 -1140936977 -1414594833
        -480806924 -4227857 -573747843 -900773113</internalNodes>
      <leafValues>
        -1.0749427974224091e-01 1.2304764240980148e-01</leafValues></_>
    <_>
      <internalNodes>
        0 -1 888 -404839315 -48262 -404750593 -1145122481 -1059
        -1073766515 -67144707 -343170421</internalNodes>
      <leafValues>
        -6.1270684003829956e-02 2.1740026772022247e-01</leafValues></_>
    <_>
      <internalNodes>
        0 -1 964 222475552 158629968 928849372 -1409663436 220274852
        788266073 106509048 -1481278693</internalNodes>
      <leafValues>
        -1.6800345480442047e-01 8.0062456429004669e-02</leafValues></_>
    <_>
      <internalNodes>
        0 -1 170 -335568081 -1362175030 -604000198 -67438344 172717419
        -806639364 1163875653 -856910842</internalNodes>
      <leafValues>
        -1.3784886896610260e-01 9.6124060451984406e-02</leafValues></_>
    <_>
      <internalNodes>
        0 -1 831 -453319904 -4200153 -1330167877 -743828785 -1142686979
        -614914677 -1085588664 -1413504477</internalNodes>
      <leafValues>
        -7.8901290893554688e-02 1.6852860152721405e-01</leafValues></_>
    <_>
      <internalNodes>
        0 -1 899 217295876 433015567 2143239759 -1970339857 -539637300
        -1109397284 -810713283 -1970733468</internalNodes>
      <leafValues>
        -1.5235592424869537e-01 9.1379739344120026e-02</leafValues></_>
    <_>
      <internalNodes>
        0 -1 408 -809572507 2080286311 -489779414 -1342824342 1794009901
        -80895031 -1078915251 -1361247993</internalNodes>
      <leafValues>
        -1.0420315712690353e-01 1.2376927584409714e-01</leafValues></_>
    <_>
      <internalNodes>
        0 -1 461 -2154 1071639279 -542269394 801108526 2147448831
        -1343259649 2013222255 768603983</internalNodes>
      <leafValues>
        -9.5587953925132751e-02 1.3115522265434265e-01</leafValues></_>
    <_>
      <internalNodes>
        0 -1 103 1735647851 1611786087 -805478234 -152381502 1970389831
        1860158750 1941929963 2079680099</internalNodes>
      <leafValues>
        -9.2090882360935211e-02 1.3159067928791046e-01</leafValues></_>
    <_>
      <internalNodes>
        0 -1 873 -1527545788 159170621 -1261047890 1113204 -506190752
        -292704188 -1604273296 -1442825471</internalNodes>
      <leafValues>
        -2.0268161594867706e-01 6.0217715799808502e-02</leafValues></_>
    <_>
      <internalNodes>
        0 -1 918 -831127280 -1149337076 452265116 -1076752348
        -1481404895 -1409334872 -1430570760 -268813337</internalNodes>
      <leafValues>
        -1.0423870384693146e-01 1.1965976655483246e-01</leafValues></_>
    <_>
      <internalNodes>
        0 -1 1093 -354964989 1663519311 -747652166 -743768210 1536277439
        -1149298655 -212341304 -67507249</internalNodes>
      <leafValues>
        -6.9466508924961090e-02 1.8106654286384583e-01</leafValues></_>
    <_>
      <internalNodes>
        0 -1 128 1794288163 141716942 -430561758 -1685965789 726601571
        1061116987 1878204241 2103400039</internalNodes>
      <leafValues>
        -2.0806664228439331e-01 5.9146337211132050e-02</leafValues></_>
    <_>
      <internalNodes>
        0 -1 626 681182052 706489916 904798166 -1489881674 -1952769124
        1473215483 -1694887511 -1514861263</internalNodes>
      <leafValues>
        -1.8649767339229584e-01 6.4780347049236298e-02</leafValues></_>
    <_>
      <internalNodes>
        0 -1 538 -415617472 2138114875 723398296 -1464722658 -1363984711
        -8423570 -1900337871 -101448195</internalNodes>
      <leafValues>
        -1.3284783065319061e-01 9.6510522067546844e-02</leafValues></_>
    <_>
      <internalNodes>
        0 -1 1016 -729904059 289474572 -1612764530 553320125 -42076448
        -78143396 -140864023 -1426162876</internalNodes>
      <leafValues>
        -1.4515560865402222e-01 8.4403999149799347e-02</leafValues></_>
    <_>
      <internalNodes>
        0 -1 1023 -1445027548 1845242084 -186794452 -335691806
        1516134892 47831126 -430383273 2015493660</internalNodes>
      <leafValues>
        -1.2016177177429199e-01 1.0831418633460999e-01</leafValues></_>
    <_>
      <internalNodes>
        0 -1 1024 -1460565863 269785429 -103487745 302053855 -302210104
        -117506947 -256705562 -1163858209</internalNodes>
      <leafValues>
        -1.3784469664096832e-01 9.1117382049560547e-02</leafValues></_>
    <_>
      <internalNodes>
        0 -1 1009 1973924640 801079735 962533648 -673522902 -603217247
        -1935694852 690314568 -855656725</internalNodes>
      <leafValues>
        -1.1490133404731750e-01 1.0938652604818344e-01</leafValues></_>
    <_>
      <internalNodes>
        0 -1 843 -354637908 -609570353 468529374 -9260037 -1342995832
        -1347738737 -1275479607 -486878961</internalNodes>
      <leafValues>
        -7.2341687977313995e-02 1.7129944264888763e-01</leafValues></_>
    <_>
      <internalNodes>
        0 -1 365 -487136026 1410596948 -151326722 969385695 -25845596
        -36359944 -54784921 -1161100221</internalNodes>
      <leafValues>
        -9.8535619676113129e-02 1.2167911231517792e-01</leafValues></_>
    <_>
      <internalNodes>
        0 -1 42 -1343308885 1735306274 -1420050842 -573899232 1518542251
        36436528 -682134157 -405416895</internalNodes>
      <leafValues>
        -1.1854229867458344e-01 1.0166808217763901e-01</leafValues></_>
    <_>
      <internalNodes>
        0 -1 620 -1166660480 1576477418 533933346 2147104485 794695849
        -488686897 -9495313 -823328764</internalNodes>
      <leafValues>
        -1.0566399991512299e-01 1.1084051430225372e-01</leafValues></_>
    <_>
      <internalNodes>
        0 -1 56 941550325 202157455 -1367464981 753199070 1031756869
        97111493 -111596026 82669284</internalNodes>
      <leafValues>
        -1.8970718979835510e-01 6.1604626476764679e-02</leafValues></_>
    <_>
      <internalNodes>
        0 -1 522 -276894164 490209125 -5294370 -543499554 -1347506277
        -1476939929 -37770051 -268790633</internalNodes>
      <leafValues>
        -7.5849346816539764e-02 1.5997681021690369e-01</leafValues></_>
    <_>
      <internalNodes>
        0 -1 136 -1932870851 -454389766 -844891158 -1428375448 803683313
        -352602134 2004498277 -274983927</internalNodes>
      <leafValues>
        -1.3861827552318573e-01 8.2137838006019592e-02</leafValues></_>
    <_>
      <internalNodes>
        0 -1 698 -336594422 -207626373 -1078216038 -67372209 -279203954
        1062940591 -1109411415 -469783921</internalNodes>
      <leafValues>
        -5.1249757409095764e-02 2.2482728958129883e-01</leafValues></_>
    <_>
      <internalNodes>
        0 -1 307 596122403 -240452272 661501438 -304678032 121317819
        779008608 657947489 -37862331</internalNodes>
      <leafValues>
        -1.3198146224021912e-01 8.4834285080432892e-02</leafValues></_>
    <_>
      <internalNodes>
        0 -1 756 -471925432 -744294021 1860042014 -67715237 -269639783
        -539012179 -283429588 -70262197</internalNodes>
      <leafValues>
        -6.0352317988872528e-02 1.8148383498191833e-01</leafValues></_>
    <_>
      <internalNodes>
        0 -1 822 46408765 -272684717 2132122872 -1362476948 -1414779604
        -1140863391 -304422615 -1433894903</internalNodes>
      <leafValues>
        -1.5488834679126740e-01 7.1868799626827240e-02</leafValues></_>
    <_>
      <internalNodes>
        0 -1 0 2097069923 -2018716602 280748862 -24580124 1938550775
        -939538469 -1310647487 -1715202</internalNodes>
      <leafValues>
        -8.7589927017688751e-02 1.2611547112464905e-01</leafValues></_>
    <_>
      <internalNodes>
        0 -1 1104 1138436188 746544157 784201470 41600867 -875251000
        -1230354306 -809969384 -534710404</internalNodes>
      <leafValues>
        -1.8718250095844269e-01 5.8877918869256973e-02</leafValues></_>
    <_>
      <internalNodes>
        0 -1 1011 555165984 658486787 77301248 -1411489016 624904448
        262648235 1686058035 133164879</internalNodes>
      <leafValues>
        -2.5370773673057556e-01 4.3789390474557877e-02</leafValues></_>
    <_>
      <internalNodes>
        0 -1 1119 -526654176 1442820714 44544816 -239162704 1634923426
        43892160 -210398983 -185470273</internalNodes>
      <leafValues>
        -7.7164672315120697e-02 1.4608973264694214e-01</leafValues></_>
    <_>
      <internalNodes>
        0 -1 608 -310762202 297585061 -536908852 -2115307537 -1141640723
        820011301 -68297435 1758066047</internalNodes>
      <leafValues>
        -1.2074810266494751e-01 8.9952349662780762e-02</leafValues></_>
    <_>
      <internalNodes>
        0 -1 732 -2071932476 -857702243 -538992641 1285328242
        -1443891771 787452379 -1477578283 545267969</internalNodes>
      <leafValues>
        -2.2221012413501740e-01 4.8865940421819687e-02</leafValues></_></weakClassifiers></stage5>
</opencv_storage>
