<?xml version="1.0"?>
<opencv_storage>
<stage10>
  <maxWeakCount>100</maxWeakCount>
  <stageThreshold>-1.8982880115509033e+00</stageThreshold>
  <weakClassifiers>
    <_>
      <internalNodes>
        0 -1 200 -67371009 -2070 -1 -14352 1006616559 2147483647
        1073692671 2147439941</internalNodes>
      <leafValues>
        -4.0794372558593750e-01 4.5851882547140121e-02</leafValues></_>
    <_>
      <internalNodes>
        0 -1 972 1492604253 274552159 -532513 41877503 -86124327 -8611
        -75759617 -1426392065</internalNodes>
      <leafValues>
        -2.9634249210357666e-01 1.8524190783500671e-01</leafValues></_>
    <_>
      <internalNodes>
        0 -1 835 -403706515 1306479949 -275776513 167771135 -132615
        -323098391 -289538563 -1460797441</internalNodes>
      <leafValues>
        -1.9926862418651581e-01 2.0316265523433685e-01</leafValues></_>
    <_>
      <internalNodes>
        0 -1 1100 -8705 821760109 -1025 34763519 -2098177 -5008674 -1025
        685309951</internalNodes>
      <leafValues>
        -2.2514456510543823e-01 1.8564096093177795e-01</leafValues></_>
    <_>
      <internalNodes>
        0 -1 5 -1364525071 -286351878 2147352575 -268645136 -1088160781
        -67109889 792723455 -60043</internalNodes>
      <leafValues>
        -2.1867117285728455e-01 1.6626231372356415e-01</leafValues></_>
    <_>
      <internalNodes>
        0 -1 405 -272973979 -65569 -19969 -1076175363 -1347769431
        -262774 522083295 -543226555</internalNodes>
      <leafValues>
        -1.2171059101819992e-01 2.2712643444538116e-01</leafValues></_>
    <_>
      <internalNodes>
        0 -1 1118 801088290 633336635 1067405616 586872295 1472066467
        1107251490 1438381489 -1529348097</internalNodes>
      <leafValues>
        -2.5305444002151489e-01 8.4400460124015808e-02</leafValues></_>
    <_>
      <internalNodes>
        0 -1 862 1081365845 494687605 -213926145 996040063 -261031088
        -35728 -401571971 -1428545760</internalNodes>
      <leafValues>
        -1.8718551099300385e-01 1.4228045940399170e-01</leafValues></_>
    <_>
      <internalNodes>
        0 -1 103 -268472465 1831855713 -33559573 -268967322 2079815679
        -7084225 2147450879 -557057</internalNodes>
      <leafValues>
        -1.2958580255508423e-01 1.7872831225395203e-01</leafValues></_>
    <_>
      <internalNodes>
        0 -1 1035 -35661475 1365055837 -77604129 5954527 -73811448
        -1739016192 -87459656 -1441137809</internalNodes>
      <leafValues>
        -1.8488450348377228e-01 1.1342922598123550e-01</leafValues></_>
    <_>
      <internalNodes>
        0 -1 8 -286349581 -287379841 -562119681 -289476866 795553703
        -2097409 1608454527 -541129713</internalNodes>
      <leafValues>
        -1.1540257930755615e-01 1.7995774745941162e-01</leafValues></_>
    <_>
      <internalNodes>
        0 -1 610 -365367808 2066415229 -541065510 -460547 -1358254323
        2139061615 -1485062337 -174835</internalNodes>
      <leafValues>
        -1.4189989864826202e-01 1.4990811049938202e-01</leafValues></_>
    <_>
      <internalNodes>
        0 -1 569 -1359082412 -268540961 -570454545 -1413853313
        -1343604448 -50178 -875820787 -1351088123</internalNodes>
      <leafValues>
        -2.0464299619197845e-01 8.8550016283988953e-02</leafValues></_>
    <_>
      <internalNodes>
        0 -1 0 -1346699393 -353437108 -2362400 -537067784 -1141900293
        -1275086870 1071380215 -9867</internalNodes>
      <leafValues>
        -1.0969477146863937e-01 1.5957091748714447e-01</leafValues></_>
    <_>
      <internalNodes>
        0 -1 914 1442836793 536848271 521092883 794820399 -1077955159
        -1077953749 -13313 -1427243121</internalNodes>
      <leafValues>
        -1.2684345245361328e-01 1.3687153160572052e-01</leafValues></_>
    <_>
      <internalNodes>
        0 -1 837 -268443544 -536932245 963057914 -380033 -335809155
        -1141159425 -1426335235 -335549585</internalNodes>
      <leafValues>
        -7.3169462382793427e-02 2.4313281476497650e-01</leafValues></_>
    <_>
      <internalNodes>
        0 -1 741 -304136331 526348415 -1197061 192675807 -1142179144
        -282929 -5759171 -1415902897</internalNodes>
      <leafValues>
        -8.8379517197608948e-02 1.9642566144466400e-01</leafValues></_>
    <_>
      <internalNodes>
        0 -1 941 -302525363 491740237 -82067714 169541471 -119941040
        -83107752 -569870219 -1979647673</internalNodes>
      <leafValues>
        -1.7644438147544861e-01 9.9570997059345245e-02</leafValues></_>
    <_>
      <internalNodes>
        0 -1 67 -274547728 788720363 -655361 -285302017 991112864
        -76304557 2145927109 -540186809</internalNodes>
      <leafValues>
        -1.3836628198623657e-01 1.1720387637615204e-01</leafValues></_>
    <_>
      <internalNodes>
        0 -1 1121 -1476397309 165671067 -149167086 -402656269 59466530
        29063138 371922193 1207957995</internalNodes>
      <leafValues>
        -1.7213982343673706e-01 8.9762389659881592e-02</leafValues></_>
    <_>
      <internalNodes>
        0 -1 905 -336615124 -538981625 -1081660438 47169359 -1342575895
        -1960056214 -1141973635 -1429209235</internalNodes>
      <leafValues>
        -1.2444342672824860e-01 1.2554655969142914e-01</leafValues></_>
    <_>
      <internalNodes>
        0 -1 897 -570632084 -572535732 -67282434 -537208465 -71586824
        -67111777 -13894867 -341080057</internalNodes>
      <leafValues>
        -7.5415752828121185e-02 2.0901636779308319e-01</leafValues></_>
    <_>
      <internalNodes>
        0 -1 593 -270999707 -2205889 -290899 -1078010643 -72156279
        -2116373 -1078042867 -1416691697</internalNodes>
      <leafValues>
        -7.5367689132690430e-02 1.9925354421138763e-01</leafValues></_>
    <_>
      <internalNodes>
        0 -1 280 -1358020763 -269551282 -79839573 -1477533586 -821138903
        -1074856982 1728845413 -1886649019</internalNodes>
      <leafValues>
        -1.7245477437973022e-01 8.9717917144298553e-02</leafValues></_>
    <_>
      <internalNodes>
        0 -1 458 705703795 1071263067 186714778 993673029 795557746
        1073697663 -269542019 -272925845</internalNodes>
      <leafValues>
        -1.9626505672931671e-01 7.5881414115428925e-02</leafValues></_>
    <_>
      <internalNodes>
        0 -1 813 -1342679964 -268542871 -604325122 -1375070865
        -544564372 -6299555 -74941255 730464553</internalNodes>
      <leafValues>
        -1.7315389215946198e-01 8.2640945911407471e-02</leafValues></_>
    <_>
      <internalNodes>
        0 -1 902 727550116 366815141 1595269904 47579023 -1073762819
        -1645435515 -8003585 -1601896539</internalNodes>
      <leafValues>
        -1.7634291946887970e-01 8.2548230886459351e-02</leafValues></_>
    <_>
      <internalNodes>
        0 -1 1107 -268445601 58152799 -690095201 544407263 783599880
        -621570557 -358875592 1781726207</internalNodes>
      <leafValues>
        -1.6320590674877167e-01 8.8524349033832550e-02</leafValues></_>
    <_>
      <internalNodes>
        0 -1 368 -406395930 73278821 -295661650 600493551 -1524371148
        1964322829 1166364941 2068650516</internalNodes>
      <leafValues>
        -1.4753672480583191e-01 1.0387720167636871e-01</leafValues></_>
    <_>
      <internalNodes>
        0 -1 1115 -874528768 568149001 1526985410 9624031 -340336000
        592091203 -1428431640 1612971003</internalNodes>
      <leafValues>
        -1.6195359826087952e-01 8.0284073948860168e-02</leafValues></_>
    <_>
      <internalNodes>
        0 -1 792 -1497869228 -270835843 -560332803 -1531281409
        -339951624 -268725538 -1365477507 -1431693727</internalNodes>
      <leafValues>
        -1.5788121521472931e-01 8.3050280809402466e-02</leafValues></_>
    <_>
      <internalNodes>
        0 -1 856 2143286645 495842556 1025317688 -1922100113 1001337761
        -1342465046 522919253 -1879092212</internalNodes>
      <leafValues>
        -1.0374218970537186e-01 1.2335228174924850e-01</leafValues></_>
    <_>
      <internalNodes>
        0 -1 768 1607385184 492668928 2144336787 1062723015 2136968137
        1072680652 -355628563 550307845</internalNodes>
      <leafValues>
        -1.7585137486457825e-01 7.3179952800273895e-02</leafValues></_>
    <_>
      <internalNodes>
        0 -1 835 2113288850 -1794799721 532135720 -2035614741 -529692862
        -1693869214 -1111598306 117608225</internalNodes>
      <leafValues>
        -1.2669025361537933e-01 1.0245701670646667e-01</leafValues></_>
    <_>
      <internalNodes>
        0 -1 888 -337756084 -8432775 -201327617 -1089842177 -72679495
        -67127587 -354758659 -1416918449</internalNodes>
      <leafValues>
        -7.2078756988048553e-02 1.7212983965873718e-01</leafValues></_>
    <_>
      <internalNodes>
        0 -1 307 -1346699989 -336925080 -8419734 -1345686080 725232587
        -340116798 782464383 -805355379</internalNodes>
      <leafValues>
        -9.9650122225284576e-02 1.2377984076738358e-01</leafValues></_>
    <_>
      <internalNodes>
        0 -1 1038 1794670628 -79888341 -1025 322073599 -340088408
        -73781608 -81077768 -1440679157</internalNodes>
      <leafValues>
        -1.2462320923805237e-01 9.7000300884246826e-02</leafValues></_>
    <_>
      <internalNodes>
        0 -1 78 -1414878430 -282399166 -341502 -339024144 799229459
        1730862200 252920161 1844925813</internalNodes>
      <leafValues>
        -1.8073105812072754e-01 6.6252700984477997e-02</leafValues></_>
    <_>
      <internalNodes>
        0 -1 357 -17105067 -50432907 -2359297 -16864679 -1212489968
        -591435781 -608239784 -1903296509</internalNodes>
      <leafValues>
        -1.0297875851392746e-01 1.1910904198884964e-01</leafValues></_>
    <_>
      <internalNodes>
        0 -1 1078 678451229 997725212 -581216529 926569887 -336290727
        -1077414462 -1604190851 -1439662211</internalNodes>
      <leafValues>
        -1.6003471612930298e-01 7.4120640754699707e-02</leafValues></_>
    <_>
      <internalNodes>
        0 -1 1011 -643828959 -1884293365 88020258 -1886389809 729788835
        -1354761302 666876209 -1880101521</internalNodes>
      <leafValues>
        -1.0920628160238266e-01 1.1152686178684235e-01</leafValues></_>
    <_>
      <internalNodes>
        0 -1 126 731578922 36388906 -2104877566 577389156 240871979
        1764705037 1676371313 2146660199</internalNodes>
      <leafValues>
        -2.5966155529022217e-01 4.4782493263483047e-02</leafValues></_>
    <_>
      <internalNodes>
        0 -1 714 -276796888 1069293150 985275070 2138714874 -1346758008
        -1115725962 -1146438472 2142510793</internalNodes>
      <leafValues>
        -1.2487304210662842e-01 9.4762921333312988e-02</leafValues></_>
    <_>
      <internalNodes>
        0 -1 743 -456334907 -1001858803 -170535178 -653474353
        -1343502163 -571561513 -1073747987 617547013</internalNodes>
      <leafValues>
        -1.5081427991390228e-01 7.8287973999977112e-02</leafValues></_>
    <_>
      <internalNodes>
        0 -1 63 -290668765 -269549846 2079042478 -1377897888 -1421661329
        -71593534 974521855 -270692025</internalNodes>
      <leafValues>
        -1.0032556951045990e-01 1.1680667847394943e-01</leafValues></_>
    <_>
      <internalNodes>
        0 -1 200 1058449184 862610997 -1380749950 -626503153 -271880271
        -1150352122 2146684709 -2059132278</internalNodes>
      <leafValues>
        -1.1331937462091446e-01 1.0097464174032211e-01</leafValues></_>
    <_>
      <internalNodes>
        0 -1 1073 -336598780 -551608027 2054151338 859976479 722665864
        1032672581 468652217 -1163739201</internalNodes>
      <leafValues>
        -9.0571314096450806e-02 1.2687048316001892e-01</leafValues></_>
    <_>
      <internalNodes>
        0 -1 516 1848786788 -8458006 -809661750 -1963795212 -284456024
        -71409521 -1635973875 101515333</internalNodes>
      <leafValues>
        -1.5828529000282288e-01 7.1227267384529114e-02</leafValues></_>
    <_>
      <internalNodes>
        0 -1 962 -33890208 -1079242644 1067266288 -884728 796723644
        1073459181 750591145 970956267</internalNodes>
      <leafValues>
        -9.2510350048542023e-02 1.1957187205553055e-01</leafValues></_>
    <_>
      <internalNodes>
        0 -1 372 783301745 -285315312 -539889177 -1359418128 126515081
        1204548857 59969845 251416660</internalNodes>
      <leafValues>
        -2.3295034468173981e-01 4.7589108347892761e-02</leafValues></_>
    <_>
      <internalNodes>
        0 -1 436 586358816 215453192 691315724 216298156 1895184373
        217821101 -1073878619 216281029</internalNodes>
      <leafValues>
        -2.8373894095420837e-01 3.8891240954399109e-02</leafValues></_>
    <_>
      <internalNodes>
        0 -1 405 954890906 -1366304952 -520167254 -286291866 1846106726
        -268816967 -146406112 1876688922</internalNodes>
      <leafValues>
        -1.2402831017971039e-01 8.6536213755607605e-02</leafValues></_>
    <_>
      <internalNodes>
        0 -1 227 -1559230464 782960168 -694433128 -406623147 804077359
        -1379939489 1005549429 -1078636043</internalNodes>
      <leafValues>
        -1.7018583416938782e-01 6.1775214970111847e-02</leafValues></_>
    <_>
      <internalNodes>
        0 -1 1002 -6100 -326788 -148006680 -83204 -882144119 268395043
        -591529479 -1179009219</internalNodes>
      <leafValues>
        -7.0081219077110291e-02 1.5117818117141724e-01</leafValues></_>
    <_>
      <internalNodes>
        0 -1 42 -1349584277 -269570464 -111166142 -2424864 721149899
        -1008765522 387937779 -10889</internalNodes>
      <leafValues>
        -7.8933164477348328e-02 1.3085165619850159e-01</leafValues></_>
    <_>
      <internalNodes>
        0 -1 938 -841592763 1027558413 -218112083 -2030411971 -812986536
        -94659 -1075060803 -1417013207</internalNodes>
      <leafValues>
        -1.1065802723169327e-01 9.1439597308635712e-02</leafValues></_>
    <_>
      <internalNodes>
        0 -1 972 -1554206489 1301417013 2125761258 1001466447 -370002846
        -58966535 -200242084 974733130</internalNodes>
      <leafValues>
        -9.1142505407333374e-02 1.1190105229616165e-01</leafValues></_>
    <_>
      <internalNodes>
        0 -1 1017 -321001023 5004353 -536879121 4771293 -273030227
        -273947448 -79301637 -1434391556</internalNodes>
      <leafValues>
        -1.6670186817646027e-01 6.3843086361885071e-02</leafValues></_>
    <_>
      <internalNodes>
        0 -1 569 1329656609 1056710660 183940224 921507565 -1346370799
        -1880116228 -1966196462 1250101258</internalNodes>
      <leafValues>
        -1.0437355935573578e-01 1.0028707236051559e-01</leafValues></_>
    <_>
      <internalNodes>
        0 -1 414 -470024466 96450286 -11031634 190504910 -139744599
        -1397903112 799891244 206419239</internalNodes>
      <leafValues>
        -1.0906882584095001e-01 9.1343164443969727e-02</leafValues></_>
    <_>
      <internalNodes>
        0 -1 822 -1348839168 -33666759 1461687482 -1350017699
        -1880731892 -77016 -540378779 -1568145407</internalNodes>
      <leafValues>
        -1.6991063952445984e-01 5.6357603520154953e-02</leafValues></_>
    <_>
      <internalNodes>
        0 -1 393 -287393439 1308528997 -908220021 259700687 -812500384
        -70999462 -49542071 190644481</internalNodes>
      <leafValues>
        -1.0849710553884506e-01 8.6909919977188110e-02</leafValues></_>
    <_>
      <internalNodes>
        0 -1 214 680140912 204885504 225380061 268345594 1005467941
        1037930025 -1286843 14492743</internalNodes>
      <leafValues>
        -2.4700896441936493e-01 3.8741640746593475e-02</leafValues></_>
    <_>
      <internalNodes>
        0 -1 127 -897929617 170657895 -895278549 528035447 1810779887
        2067755818 2138267509 -277138581</internalNodes>
      <leafValues>
        -1.1208683252334595e-01 8.4386065602302551e-02</leafValues></_>
    <_>
      <internalNodes>
        0 -1 954 -33556180 -543218400 1072946168 -13437625 -73665589
        -1143998613 -1359480513 -4458641</internalNodes>
      <leafValues>
        -4.1387826204299927e-02 2.2485792636871338e-01</leafValues></_>
    <_>
      <internalNodes>
        0 -1 317 -352682196 724124008 2013254640 -296031008 798700351
        745218226 669676913 -824425115</internalNodes>
      <leafValues>
        -1.5415769815444946e-01 6.1172112822532654e-02</leafValues></_>
    <_>
      <internalNodes>
        0 -1 606 -469831104 1373946221 -681735254 -1481705489
        -1412564248 -202511387 -10807443 720175207</internalNodes>
      <leafValues>
        -9.7708195447921753e-02 9.4940222799777985e-02</leafValues></_>
    <_>
      <internalNodes>
        0 -1 796 70266980 81662724 1138884286 711760111 -1153956828
        -847498944 -1104134092 -1437591548</internalNodes>
      <leafValues>
        -2.2324578464031219e-01 4.1721701622009277e-02</leafValues></_>
    <_>
      <internalNodes>
        0 -1 935 -304140947 219103261 -1242136849 8320351 -1561741160
        -269790644 -433528727 -1978714333</internalNodes>
      <leafValues>
        -1.0333091020584106e-01 9.3711979687213898e-02</leafValues></_>
    <_>
      <internalNodes>
        0 -1 855 -1357350812 -1077988996 -1780739371 -1078389416
        -1346498056 -1074123812 798628328 -1345650331</internalNodes>
      <leafValues>
        -1.2225229293107986e-01 7.8399017453193665e-02</leafValues></_>
    <_>
      <internalNodes>
        0 -1 331 -225957344 1936767080 589048570 -6375721 1779150731
        -143772753 2136375109 -304265465</internalNodes>
      <leafValues>
        -9.6815988421440125e-02 9.3840584158897400e-02</leafValues></_>
    <_>
      <internalNodes>
        0 -1 466 -496332192 -1366646021 -740389907 -1364525969
        -1411679308 -537039142 -420841003 -1902509056</internalNodes>
      <leafValues>
        -1.3238875567913055e-01 6.9076836109161377e-02</leafValues></_>
    <_>
      <internalNodes>
        0 -1 49 -223677744 -1508694 -577992706 -587401482 2122296737
        -11534622 1072623500 -573810929</internalNodes>
      <leafValues>
        -8.9388906955718994e-02 1.0424420237541199e-01</leafValues></_>
    <_>
      <internalNodes>
        0 -1 79 100674082 1902864000 -1024234958 -945625564 803613555
        -319067542 1063875233 1375032661</internalNodes>
      <leafValues>
        -1.8650706112384796e-01 5.3198959678411484e-02</leafValues></_>
    <_>
      <internalNodes>
        0 -1 1120 -336607671 1339020168 -574885024 -545 14616985
        162485384 557785569 -50331681</internalNodes>
      <leafValues>
        -7.2080262005329132e-02 1.3152159750461578e-01</leafValues></_>
    <_>
      <internalNodes>
        0 -1 698 -335876440 -140589074 -1073762662 -470553987 -883311688
        1360756651 -1344292423 -469778033</internalNodes>
      <leafValues>
        -5.2096657454967499e-02 1.7488937079906464e-01</leafValues></_>
    <_>
      <internalNodes>
        0 -1 994 -287389440 1608409157 -548406358 2053258613 -340660856
        -541091838 2049637728 -1567974979</internalNodes>
      <leafValues>
        -1.1008056253194809e-01 8.3426341414451599e-02</leafValues></_>
    <_>
      <internalNodes>
        0 -1 1110 39125056 175851871 -103355649 41049343 -903429240
        -1153701567 -98632599 548469711</internalNodes>
      <leafValues>
        -1.9735442101955414e-01 4.5571867376565933e-02</leafValues></_>
    <_>
      <internalNodes>
        0 -1 1050 -876984544 2147433711 991495152 -73713478 42148281
        1609128895 437107129 -1145577537</internalNodes>
      <leafValues>
        -7.2166837751865387e-02 1.3318848609924316e-01</leafValues></_>
    <_>
      <internalNodes>
        0 -1 635 737426805 1073612798 794725432 -1447029703 1067071525
        -270593174 -1076950943 -1397016223</internalNodes>
      <leafValues>
        -1.4721691608428955e-01 6.1248309910297394e-02</leafValues></_>
    <_>
      <internalNodes>
        0 -1 462 700086897 -316487124 -82719757 -292364931 -287343638
        -538198246 -69577347 -1617211299</internalNodes>
      <leafValues>
        -1.0033176094293594e-01 8.8867127895355225e-02</leafValues></_>
    <_>
      <internalNodes>
        0 -1 652 1155172524 214732996 -1364297878 147636174 224364988
        247270796 368679660 79963472</internalNodes>
      <leafValues>
        -2.8152877092361450e-01 3.2060466706752777e-02</leafValues></_>
    <_>
      <internalNodes>
        0 -1 918 -271000416 -1610832612 -1720076660 -392744 -1342694296
        -1879062033 -1581573000 805126127</internalNodes>
      <leafValues>
        -8.2048222422599792e-02 1.1800687760114670e-01</leafValues></_>
    <_>
      <internalNodes>
        0 -1 5 2037884174 -73380691 1844332513 -756114921 1667201037
        702799279 -574593707 -855579510</internalNodes>
      <leafValues>
        -8.1361643970012665e-02 1.0794433206319809e-01</leafValues></_>
    <_>
      <internalNodes>
        0 -1 242 -1427181201 -840237192 -618670358 -350561836 268318459
        -1414816834 -142615311 -1615177427</internalNodes>
      <leafValues>
        -9.5598012208938599e-02 8.9473009109497070e-02</leafValues></_>
    <_>
      <internalNodes>
        0 -1 1093 -341850039 -4241339 334880538 1937505663 -1074214934
        -608179732 -1146357591 -75759617</internalNodes>
      <leafValues>
        -3.7291914224624634e-02 2.3082628846168518e-01</leafValues></_>
    <_>
      <internalNodes>
        0 -1 1099 188096546 228296964 1542205472 -1392967824 253968672
        124975663 560402864 632813523</internalNodes>
      <leafValues>
        -2.4138723313808441e-01 3.6258790642023087e-02</leafValues></_>
    <_>
      <internalNodes>
        0 -1 1041 228402212 189630344 1606644272 906190 -1151914783
        957213960 2138807040 536928204</internalNodes>
      <leafValues>
        -2.0897933840751648e-01 4.0724448859691620e-02</leafValues></_>
    <_>
      <internalNodes>
        0 -1 750 1861900616 224219485 2043972746 146602191 -291955864
        -68188151 -764912807 -1974927101</internalNodes>
      <leafValues>
        -1.1065810173749924e-01 7.7325448393821716e-02</leafValues></_>
    <_>
      <internalNodes>
        0 -1 522 1853517348 943224590 -7638838 -12957987 733916969
        936803674 778986869 2145277189</internalNodes>
      <leafValues>
        -1.4128054678440094e-01 6.1499688774347305e-02</leafValues></_>
    <_>
      <internalNodes>
        0 -1 845 -43387804 494245532 893359778 -637535897 1072009967
        -1948787829 -88114755 -1997975697</internalNodes>
      <leafValues>
        -7.5880415737628937e-02 1.1385099589824677e-01</leafValues></_>
    <_>
      <internalNodes>
        0 -1 968 16270704 198466657 -151524866 -2068682377 -1367584496
        -4543720 204493861 707795265</internalNodes>
      <leafValues>
        -2.5526729226112366e-01 3.3352334052324295e-02</leafValues></_>
    <_>
      <internalNodes>
        0 -1 95 581568512 44059362 466487931 787358436 1006452512
        2095787474 1333541836 618411269</internalNodes>
      <leafValues>
        -2.4955792725086212e-01 3.4356288611888885e-02</leafValues></_>
    <_>
      <internalNodes>
        0 -1 1100 802910997 -1017100287 -805360001 817902946 925668337
        1882352465 -8392339 -1843211728</internalNodes>
      <leafValues>
        -1.3296154141426086e-01 6.2249422073364258e-02</leafValues></_>
    <_>
      <internalNodes>
        0 -1 708 -680526940 -575954651 -838622 939135608 1856441769
        2080062575 -12879943 -1427290809</internalNodes>
      <leafValues>
        -7.6104439795017242e-02 1.0935931652784348e-01</leafValues></_>
    <_>
      <internalNodes>
        0 -1 348 -363148033 768882298 -1992383258 185809847 -1346434127
        -281053394 -2465999 -281387963</internalNodes>
      <leafValues>
        -7.4206866323947906e-02 1.0977848619222641e-01</leafValues></_>
    <_>
      <internalNodes>
        0 -1 426 284722146 -2048852500 -591266 -807862742 1063378263
        484568517 -10518786 215875478</internalNodes>
      <leafValues>
        -1.3544876873493195e-01 6.3508726656436920e-02</leafValues></_>
    <_>
      <internalNodes>
        0 -1 1010 1058566176 255331361 1929204208 -1410188240 118168881
        -1075951699 446632244 -1144058787</internalNodes>
      <leafValues>
        -1.6398142278194427e-01 4.8232220113277435e-02</leafValues></_>
    <_>
      <internalNodes>
        0 -1 891 -928019900 229622861 -1311395222 179498971 2061286184
        -88575 -433825943 -1975390363</internalNodes>
      <leafValues>
        -1.1913269013166428e-01 6.6427841782569885e-02</leafValues></_>
    <_>
      <internalNodes>
        0 -1 783 -19749440 -370103 1064577980 -134599810 -1350784120
        -1644212231 -1074022295 -1447092355</internalNodes>
      <leafValues>
        -6.3275173306465149e-02 1.2814980745315552e-01</leafValues></_></weakClassifiers></stage10>
</opencv_storage>
