<?xml version="1.0"?>
<opencv_storage>
<stage3>
  <maxWeakCount>53</maxWeakCount>
  <stageThreshold>-1.9903484582901001e+00</stageThreshold>
  <weakClassifiers>
    <_>
      <internalNodes>
        0 -1 416 1073725439 1040170943 -1 -1073741825 1073725439
        1073721343 -1073741825 805289983</internalNodes>
      <leafValues>
        -5.8397442102432251e-01 2.5027999281883240e-01</leafValues></_>
    <_>
      <internalNodes>
        0 -1 1101 -587211297 1549557085 -1 139493247 -1 -1 -1
        -1474232321</internalNodes>
      <leafValues>
        -4.4249323010444641e-01 2.9866081476211548e-01</leafValues></_>
    <_>
      <internalNodes>
        0 -1 67 -6225931 -1900558 -1 -204048 1068874687 -1 2147303423
        2147292485</internalNodes>
      <leafValues>
        -3.1975355744361877e-01 3.3634686470031738e-01</leafValues></_>
    <_>
      <internalNodes>
        0 -1 972 352277853 290545535 -33 976945151 -50341635 -40961
        -67108865 -1426522242</internalNodes>
      <leafValues>
        -3.0651503801345825e-01 2.9614314436912537e-01</leafValues></_>
    <_>
      <internalNodes>
        0 -1 458 707932023 1073430399 1069232063 1073422207 805257087
        -32769 -268484737 -268730517</internalNodes>
      <leafValues>
        -2.8731575608253479e-01 2.9700976610183716e-01</leafValues></_>
    <_>
      <internalNodes>
        0 -1 804 787747189 -114689 -71303169 -1073840129 -2523140
        -262149 -4423683 -1346880916</internalNodes>
      <leafValues>
        -3.4781968593597412e-01 1.5579178929328918e-01</leafValues></_>
    <_>
      <internalNodes>
        0 -1 5 -1431650319 -286589462 -37748737 -286490384 1060618239
        -268435457 -1342212097 -64139</internalNodes>
      <leafValues>
        -2.1484613418579102e-01 2.5774362683296204e-01</leafValues></_>
    <_>
      <internalNodes>
        0 -1 1055 805286691 130006959 -1811992301 -1342177297 1677555635
        100653039 1744794919 -1342177297</internalNodes>
      <leafValues>
        -2.7966773509979248e-01 2.0999458432197571e-01</leafValues></_>
    <_>
      <internalNodes>
        0 -1 586 -992150300 -588200756 -1 -303239172 -305598995
        -52900436 -135171 753668045</internalNodes>
      <leafValues>
        -3.0885329842567444e-01 1.7557741701602936e-01</leafValues></_>
    <_>
      <internalNodes>
        0 -1 1035 -50366115 1407152989 -1350574881 13826911 -53098408
        -18875574 -83919688 -352388097</internalNodes>
      <leafValues>
        -2.1594481170177460e-01 2.1130788326263428e-01</leafValues></_>
    <_>
      <internalNodes>
        0 -1 105 725233459 706881312 -1342197917 -264224 1064779775
        666599295 2147450751 -39131</internalNodes>
      <leafValues>
        -2.5362601876258850e-01 1.6331681609153748e-01</leafValues></_>
    <_>
      <internalNodes>
        0 -1 1120 -268439757 98434623 2109436209 -2030370817 1408759731
        83884029 2013000115 -318767121</internalNodes>
      <leafValues>
        -1.8445162475109100e-01 2.0781786739826202e-01</leafValues></_>
    <_>
      <internalNodes>
        0 -1 481 -1363267787 -285311105 -335626241 -1342242835
        -1879502859 -16385 -1344795267 -1342308095</internalNodes>
      <leafValues>
        -1.9882763922214508e-01 1.7994765937328339e-01</leafValues></_>
    <_>
      <internalNodes>
        0 -1 416 -1054588768 -1029420820 770546591 1167959853 -370838031
        -924289628 2145075135 -793819225</internalNodes>
      <leafValues>
        -1.3632078468799591e-01 2.4957649409770966e-01</leafValues></_>
    <_>
      <internalNodes>
        0 -1 377 -10556003 -33624097 -2097153 -1134857 -269763155
        -264257 -33579043 -1110257</internalNodes>
      <leafValues>
        -1.1446538567543030e-01 3.0800133943557739e-01</leafValues></_>
    <_>
      <internalNodes>
        0 -1 858 -337505963 -41473 -1073750017 -1342554113 -10732551
        -306216961 -34643985 -1363526865</internalNodes>
      <leafValues>
        -1.5204413235187531e-01 2.1113188564777374e-01</leafValues></_>
    <_>
      <internalNodes>
        0 -1 856 524236593 1035937197 1027544632 -1347507201 792667441
        268171199 531567901 -1879050194</internalNodes>
      <leafValues>
        -2.1297582983970642e-01 1.4610393345355988e-01</leafValues></_>
    <_>
      <internalNodes>
        0 -1 1101 1878046333 -1548508526 -285351937 -141588796
        1303707645 -285554306 -386007059 1356492360</internalNodes>
      <leafValues>
        -1.9622153043746948e-01 1.5548697113990784e-01</leafValues></_>
    <_>
      <internalNodes>
        0 -1 905 -844157180 120524620 -5886022 16691163 -269243735
        -1414792518 -1057491 -1467158679</internalNodes>
      <leafValues>
        -2.3081885278224945e-01 1.2798176705837250e-01</leafValues></_>
    <_>
      <internalNodes>
        0 -1 0 -1364525189 1714093576 -1545617925 -1379205122 1006369791
        -1614809093 -539015305 -41475</internalNodes>
      <leafValues>
        -1.5467439591884613e-01 1.9181735813617706e-01</leafValues></_>
    <_>
      <internalNodes>
        0 -1 265 -299222415 -431300042 -168454677 -1364398880
        -1892995483 -1382229 -1818623449 -1361181660</internalNodes>
      <leafValues>
        -2.1797111630439758e-01 1.2992310523986816e-01</leafValues></_>
    <_>
      <internalNodes>
        0 -1 126 -343986325 1848593460 -1533584152 -336932889 2071930475
        1941897067 -147885719 -565393</internalNodes>
      <leafValues>
        -1.6633187234401703e-01 1.6086904704570770e-01</leafValues></_>
    <_>
      <internalNodes>
        0 -1 1100 -842539681 357373965 -539231249 574783357 1328537567
        -349485246 -2102465 671145787</internalNodes>
      <leafValues>
        -2.1437734365463257e-01 1.2248492985963821e-01</leafValues></_>
    <_>
      <internalNodes>
        0 -1 902 -203970392 360037141 -10504269 358087583 -1345483859
        -1079145083 -154157143 680388485</internalNodes>
      <leafValues>
        -1.6837169229984283e-01 1.4865931868553162e-01</leafValues></_>
    <_>
      <internalNodes>
        0 -1 67 -461397206 -98721235 786708464 -153922105 -379687195
        1366849521 2099443493 -2057935202</internalNodes>
      <leafValues>
        -1.4919082820415497e-01 1.6590164601802826e-01</leafValues></_>
    <_>
      <internalNodes>
        0 -1 862 -529526443 553538071 -201770017 -1959130073 -243992495
        -17355651 -556774531 -1426385663</internalNodes>
      <leafValues>
        -1.6602654755115509e-01 1.5336084365844727e-01</leafValues></_>
    <_>
      <internalNodes>
        0 -1 822 -1546644204 -134321283 -172515842 -1886494337
        -335757959 -67387073 -136349383 -1417150452</internalNodes>
      <leafValues>
        -2.0648889243602753e-01 1.1803739517927170e-01</leafValues></_>
    <_>
      <internalNodes>
        0 -1 370 -117902852 1419310208 -1342197767 214740590 -44200720
        -1667643248 805171701 147681029</internalNodes>
      <leafValues>
        -2.3346929252147675e-01 1.0212278366088867e-01</leafValues></_>
    <_>
      <internalNodes>
        0 -1 738 -405128335 804928828 -34103303 -1342213249 -1208336507
        -67234053 -275050215 -272957429</internalNodes>
      <leafValues>
        -1.1626392602920532e-01 2.0038476586341858e-01</leafValues></_>
    <_>
      <internalNodes>
        0 -1 92 641642243 -359990494 -336616062 -1346719136 1131296623
        577208062 358577509 -402926236</internalNodes>
      <leafValues>
        -2.2553054988384247e-01 9.6200719475746155e-02</leafValues></_>
    <_>
      <internalNodes>
        0 -1 610 -356848124 -487936643 -5137834 -33882145 -1410351202
        -1753318593 -1115690001 -60067</internalNodes>
      <leafValues>
        -1.0728477686643600e-01 1.9939275085926056e-01</leafValues></_>
    <_>
      <internalNodes>
        0 -1 771 -337769696 1539191611 125770426 -1343570967 -9259532
        994013503 -88466967 -339804114</internalNodes>
      <leafValues>
        -1.2031348794698715e-01 1.7639219760894775e-01</leafValues></_>
    <_>
      <internalNodes>
        0 -1 941 -989868963 135220815 -92295169 137019263 -185542448
        -74980327 -329657255 -1442256313</internalNodes>
      <leafValues>
        -1.7272154986858368e-01 1.2092985957860947e-01</leafValues></_>
    <_>
      <internalNodes>
        0 -1 1121 134153505 24100603 2044571920 -1537591744 26956611
        109048801 339698960 636337135</internalNodes>
      <leafValues>
        -3.0135267972946167e-01 6.9721005856990814e-02</leafValues></_>
    <_>
      <internalNodes>
        0 -1 458 -540042360 -300126794 1248625248 -416152958 -278909983
        534754175 523656628 1002422069</internalNodes>
      <leafValues>
        -1.3834960758686066e-01 1.4931109547615051e-01</leafValues></_>
    <_>
      <internalNodes>
        0 -1 324 1755363056 1012989368 503295997 1844299506 2104343991
        1072545709 -68190931 788365167</internalNodes>
      <leafValues>
        -1.6559490561485291e-01 1.3150918483734131e-01</leafValues></_>
    <_>
      <internalNodes>
        0 -1 402 790805881 -71771550 -538968201 -1107632644 591113983
        -273350938 -1452622881 -1885383635</internalNodes>
      <leafValues>
        -1.1689358949661255e-01 1.7510873079299927e-01</leafValues></_>
    <_>
      <internalNodes>
        0 -1 1010 -1759840975 1069258016 1970398713 -1346756876
        1061158325 -1075888261 -1732290819 -1343251109</internalNodes>
      <leafValues>
        -1.2370786815881729e-01 1.5472349524497986e-01</leafValues></_>
    <_>
      <internalNodes>
        0 -1 149 -420223532 341074717 -302092644 187215498 -1107979343
        -587858004 -50508732 717294343</internalNodes>
      <leafValues>
        -1.7125682532787323e-01 1.1030782014131546e-01</leafValues></_>
    <_>
      <internalNodes>
        0 -1 816 1823867936 802956329 -2113938 -1369539073 -1077988240
        -806044692 -1710459267 -1970796475</internalNodes>
      <leafValues>
        -2.1306632459163666e-01 8.8415421545505524e-02</leafValues></_>
    <_>
      <internalNodes>
        0 -1 78 -274013269 -273764766 -285258445 -2561054 661077947
        -138772997 -11309771 -4721163</internalNodes>
      <leafValues>
        -1.1484809964895248e-01 1.5526896715164185e-01</leafValues></_>
    <_>
      <internalNodes>
        0 -1 55 679145712 340166086 -1342275626 -1617252562 -1208930784
        -1661616660 800013644 216883970</internalNodes>
      <leafValues>
        -1.7103374004364014e-01 1.0421491414308548e-01</leafValues></_>
    <_>
      <internalNodes>
        0 -1 4 -940654633 -353438738 1869479933 -1360222226 174700731
        -336986897 926835007 -268499669</internalNodes>
      <leafValues>
        -1.0659541189670563e-01 1.6741101443767548e-01</leafValues></_>
    <_>
      <internalNodes>
        0 -1 1114 805150984 964505871 800300194 702691403 1840964256
        1006589622 -165689464 539001787</internalNodes>
      <leafValues>
        -2.0850586891174316e-01 8.3713412284851074e-02</leafValues></_>
    <_>
      <internalNodes>
        0 -1 127 171649539 573971238 -286709088 -1422774925 1865379687
        175010675 1668748069 -268714201</internalNodes>
      <leafValues>
        -2.5489661097526550e-01 6.8896248936653137e-02</leafValues></_>
    <_>
      <internalNodes>
        0 -1 994 -489799356 1599802487 -546376261 1517948287 -4350504
        -1176565125 -1089746196 -1431656149</internalNodes>
      <leafValues>
        -1.2597700953483582e-01 1.4217196404933929e-01</leafValues></_>
    <_>
      <internalNodes>
        0 -1 5 2099539502 430329380 1874712417 -168068978 -1286899402
        335514807 1568115989 92606730</internalNodes>
      <leafValues>
        -1.3861623406410217e-01 1.2082819640636444e-01</leafValues></_>
    <_>
      <internalNodes>
        0 -1 972 -512644889 1855634687 2146742238 -2122858801
        -1285277870 2130220380 -1132953763 2097295297</internalNodes>
      <leafValues>
        -1.2266070395708084e-01 1.3514925539493561e-01</leafValues></_>
    <_>
      <internalNodes>
        0 -1 915 -100785360 503187088 527251696 -2020729904 -537183431
        -1614987297 -1199695688 -1444660091</internalNodes>
      <leafValues>
        -1.4906428754329681e-01 1.1122445762157440e-01</leafValues></_>
    <_>
      <internalNodes>
        0 -1 1029 -807433917 234850895 -1478 4378575 1929112200
        -574638064 -353773687 -1428041909</internalNodes>
      <leafValues>
        -1.4663258194923401e-01 1.1320565640926361e-01</leafValues></_>
    <_>
      <internalNodes>
        0 -1 384 -487133244 899493167 -6951762 603647978 1744291748
        -1111673591 2146901836 672423681</internalNodes>
      <leafValues>
        -1.4177475869655609e-01 1.1451566964387894e-01</leafValues></_>
    <_>
      <internalNodes>
        0 -1 570 -290785963 -83937305 -16781729 -187208963 -40117851
        -1056833 -572552755 -1161101049</internalNodes>
      <leafValues>
        -8.8908702135086060e-02 1.8607030808925629e-01</leafValues></_>
    <_>
      <internalNodes>
        0 -1 538 712124928 740298099 -1342297710 712122228 124992820
        125467246 507196533 -1913383723</internalNodes>
      <leafValues>
        -2.9510512948036194e-01 5.4213214665651321e-02</leafValues></_></weakClassifiers></stage3>
</opencv_storage>
