<?xml version="1.0"?>
<opencv_storage>
<stage6>
  <maxWeakCount>100</maxWeakCount>
  <stageThreshold>-1.8816955089569092e+00</stageThreshold>
  <weakClassifiers>
    <_>
      <internalNodes>
        0 -1 291 -513 -570556961 -8193 -33554433 1040186879 754812109
        -50462721 100663295</internalNodes>
      <leafValues>
        -4.7609782218933105e-01 1.3284239172935486e-01</leafValues></_>
    <_>
      <internalNodes>
        0 -1 1078 -8193 981415775 -1 976945151 -1 -1025 -3 -1430585345</internalNodes>
      <leafValues>
        -2.9472294449806213e-01 2.9665210843086243e-01</leafValues></_>
    <_>
      <internalNodes>
        0 -1 93 -4097 2141447970 -8425601 -6384 1073692671 2147483639
        2147450879 -35001</internalNodes>
      <leafValues>
        -1.9641676545143127e-01 3.4121909737586975e-01</leafValues></_>
    <_>
      <internalNodes>
        0 -1 1115 -352335861 167725343 -1824522529 45807487 -335549814
        -79967929 -83895046 -520880257</internalNodes>
      <leafValues>
        -2.2639770805835724e-01 2.2650742530822754e-01</leafValues></_>
    <_>
      <internalNodes>
        0 -1 651 -34102012 1427440901 -65 287178519 -50989964 -590064556
        -286982404 671219575</internalNodes>
      <leafValues>
        -2.2151945531368256e-01 2.1305823326110840e-01</leafValues></_>
    <_>
      <internalNodes>
        0 -1 27 -269570049 -286590982 -2104073 -16843152 737132543
        -268435457 -335591937 -268438169</internalNodes>
      <leafValues>
        -2.0000667870044708e-01 2.2117660939693451e-01</leafValues></_>
    <_>
      <internalNodes>
        0 -1 182 -1347747977 -1349845216 -545276929 -3475600 255589375
        -5242924 -310939151 -268446604</internalNodes>
      <leafValues>
        -1.5843771398067474e-01 2.1852619946002960e-01</leafValues></_>
    <_>
      <internalNodes>
        0 -1 988 1778335829 1535049759 -138412033 -1078312577 -341250888
        -4462470 -341149315 -1433735297</internalNodes>
      <leafValues>
        -1.7926850914955139e-01 1.8505607545375824e-01</leafValues></_>
    <_>
      <internalNodes>
        0 -1 546 788147061 1073427807 -1080410113 -1078314113 803094397
        -33857 -268485511 -268730505</internalNodes>
      <leafValues>
        -2.6692935824394226e-01 1.2019027024507523e-01</leafValues></_>
    <_>
      <internalNodes>
        0 -1 530 -285561298 708452215 -1103479362 -13435116 -1344303169
        -1073774657 -1342194755 -302660331</internalNodes>
      <leafValues>
        -1.5798093378543854e-01 1.9541169703006744e-01</leafValues></_>
    <_>
      <internalNodes>
        0 -1 1105 1761071325 1481707869 -8388609 318824415 -90134021
        -83915193 -102760449 -1474233377</internalNodes>
      <leafValues>
        -2.0977146923542023e-01 1.3823680579662323e-01</leafValues></_>
    <_>
      <internalNodes>
        0 -1 725 -167774969 364904335 -1074289400 -1073742129 635400615
        268434606 1823163789 1342176751</internalNodes>
      <leafValues>
        -1.7164582014083862e-01 1.7229641973972321e-01</leafValues></_>
    <_>
      <internalNodes>
        0 -1 730 -269023915 1073708927 -2097153 737869823 -272793739
        -33281 -276004867 -1434747009</internalNodes>
      <leafValues>
        -1.4107948541641235e-01 1.9533781707286835e-01</leafValues></_>
    <_>
      <internalNodes>
        0 -1 550 -1368510603 -286347681 -16897 -1359286786 788479993
        -17475 -33543 -4699088</internalNodes>
      <leafValues>
        -2.2325459122657776e-01 1.1121198534965515e-01</leafValues></_>
    <_>
      <internalNodes>
        0 -1 94 -306184273 -139789469 2013252351 -5575070 789528495
        2135949183 1735358303 -270665913</internalNodes>
      <leafValues>
        -1.2980777025222778e-01 2.0192742347717285e-01</leafValues></_>
    <_>
      <internalNodes>
        0 -1 1049 1172276098 402634559 2032121650 1073740735 84672688
        532133819 1988097520 -1527775569</internalNodes>
      <leafValues>
        -1.6588452458381653e-01 1.5065814554691315e-01</leafValues></_>
    <_>
      <internalNodes>
        0 -1 1066 1223901269 1365184539 -690291265 43130495 -88426360
        -92540791 -99451656 -1472660869</internalNodes>
      <leafValues>
        -2.0214347541332245e-01 1.1502733826637268e-01</leafValues></_>
    <_>
      <internalNodes>
        0 -1 126 -1438964181 169041923 -464696194 -1354577305 257910307
        -9996481 -269519491 -819353</internalNodes>
      <leafValues>
        -2.0366613566875458e-01 1.0722962766885757e-01</leafValues></_>
    <_>
      <internalNodes>
        0 -1 1012 16142677 1069358973 -136912929 722632191 -17768748
        -2376209 -4916259 -1430585479</internalNodes>
      <leafValues>
        -1.8338260054588318e-01 1.1451873928308487e-01</leafValues></_>
    <_>
      <internalNodes>
        0 -1 706 -21714 -2478279 2064793266 -1141228546 -1347477876
        1065319967 -1141948424 -33608579</internalNodes>
      <leafValues>
        -1.1709721386432648e-01 1.8278817832469940e-01</leafValues></_>
    <_>
      <internalNodes>
        0 -1 1121 -1346376925 84934523 1997501713 -1342246234 308506627
        157251347 1719095345 1711275955</internalNodes>
      <leafValues>
        -2.1757076680660248e-01 9.4260811805725098e-02</leafValues></_>
    <_>
      <internalNodes>
        0 -1 22 -218178822 -791886628 -25444378 1286376078 -8416127
        -1929898527 -2149646 231695175</internalNodes>
      <leafValues>
        -1.7518648505210876e-01 1.1764690279960632e-01</leafValues></_>
    <_>
      <internalNodes>
        0 -1 61 -282972365 2100882336 -268437645 -1511648 1292198399
        -553667081 968064509 -34245131</internalNodes>
      <leafValues>
        -1.5855725109577179e-01 1.3619904220104218e-01</leafValues></_>
    <_>
      <internalNodes>
        0 -1 514 782954277 1991966522 -573046785 -1076167215 -1342456897
        -1350589965 -1443187715 -570440687</internalNodes>
      <leafValues>
        -1.3095556199550629e-01 1.5355588495731354e-01</leafValues></_>
    <_>
      <internalNodes>
        0 -1 1042 -335550688 1937703719 -1120176132 270151543
        -1991158031 -622232498 -6038115 1780678447</internalNodes>
      <leafValues>
        -1.5387460589408875e-01 1.2836538255214691e-01</leafValues></_>
    <_>
      <internalNodes>
        0 -1 289 -402659740 90828647 -269554706 736821102 -270567647
        1816769904 -277790900 1817706311</internalNodes>
      <leafValues>
        -1.7772434651851654e-01 1.0502579063177109e-01</leafValues></_>
    <_>
      <internalNodes>
        0 -1 1078 -335545249 -809970535 -278413569 -439394946 -593155
        -21497874 -67154818 -43648388</internalNodes>
      <leafValues>
        -8.3373308181762695e-02 2.2197818756103516e-01</leafValues></_>
    <_>
      <internalNodes>
        0 -1 554 -289529995 -318894465 -538988561 -1564837201
        -1342751500 -61969 -273130387 -1413805789</internalNodes>
      <leafValues>
        -1.2278547137975693e-01 1.4520853757858276e-01</leafValues></_>
    <_>
      <internalNodes>
        0 -1 93 571086336 -2072376623 383751858 -8972057 2134634275
        -1175552396 -1090582715 1979567289</internalNodes>
      <leafValues>
        -1.6661068797111511e-01 1.0685996711254120e-01</leafValues></_>
    <_>
      <internalNodes>
        0 -1 0 -1347223685 -292884696 -264267 -1382387794 1006091263
        -71903391 -1209572363 -4238064</internalNodes>
      <leafValues>
        -1.3250838220119476e-01 1.3295112550258636e-01</leafValues></_>
    <_>
      <internalNodes>
        0 -1 895 -788553312 274039172 2046818106 9822709 -1982494211
        -1982037632 -12717063 -2000300545</internalNodes>
      <leafValues>
        -1.6722679138183594e-01 1.0626102983951569e-01</leafValues></_>
    <_>
      <internalNodes>
        0 -1 954 -269490388 -675337351 2124413950 -6635545 -342369843
        -1950450181 -1090519747 -341180561</internalNodes>
      <leafValues>
        -8.4518864750862122e-02 2.1212267875671387e-01</leafValues></_>
    <_>
      <internalNodes>
        0 -1 291 549159678 1413931764 251125227 46542526 -832749659
        -671713516 804203439 2047083781</internalNodes>
      <leafValues>
        -1.7943523824214935e-01 9.5840759575366974e-02</leafValues></_>
    <_>
      <internalNodes>
        0 -1 1100 -1107296995 358880533 -536870913 672324731 2134892539
        -656218118 -8389633 537983869</internalNodes>
      <leafValues>
        -2.1053163707256317e-01 8.2479387521743774e-02</leafValues></_>
    <_>
      <internalNodes>
        0 -1 109 712123184 325067236 805252724 1071473296 1071595173
        1019051501 -44072967 1961846647</internalNodes>
      <leafValues>
        -2.2795546054840088e-01 7.2422176599502563e-02</leafValues></_>
    <_>
      <internalNodes>
        0 -1 876 -452991489 356478831 -268961810 599711487 -1263155980
        -638530196 -54723480 -1434984641</internalNodes>
      <leafValues>
        -1.0063014924526215e-01 1.6438403725624084e-01</leafValues></_>
    <_>
      <internalNodes>
        0 -1 1026 1306477661 1059014683 -71311361 -1170547361 -268899112
        -75568178 -417270695 -1425879201</internalNodes>
      <leafValues>
        -1.2157093733549118e-01 1.2968192994594574e-01</leafValues></_>
    <_>
      <internalNodes>
        0 -1 825 -102761147 1576765253 -336614513 -1178939795 -327426955
        -67248123 -1348436611 -1431577567</internalNodes>
      <leafValues>
        -1.0339233279228210e-01 1.6173116862773895e-01</leafValues></_>
    <_>
      <internalNodes>
        0 -1 1120 -872420606 226991411 -1785875696 -1078723662 299853219
        234872305 -167796296 -37748738</internalNodes>
      <leafValues>
        -1.0332499444484711e-01 1.4963601529598236e-01</leafValues></_>
    <_>
      <internalNodes>
        0 -1 651 49142523 -2067468588 1840131706 147763188 -176567859
        -1510363939 635819415 -1814926196</internalNodes>
      <leafValues>
        -1.2273076176643372e-01 1.2065261602401733e-01</leafValues></_>
    <_>
      <internalNodes>
        0 -1 855 -1458693264 -1078057168 -577203203 -1078415080
        -1346691664 -1077187588 -1344594436 -1345379327</internalNodes>
      <leafValues>
        -1.5535682439804077e-01 9.6914030611515045e-02</leafValues></_>
    <_>
      <internalNodes>
        0 -1 390 -340908241 -286625798 -411138 -1078001838 -273711832
        -72434018 -280284035 -811875261</internalNodes>
      <leafValues>
        -1.0800915211439133e-01 1.3952581584453583e-01</leafValues></_>
    <_>
      <internalNodes>
        0 -1 1046 -403757804 -4251346 2147292152 -71680208 -1888812896
        -4491922 -1487465992 -391516369</internalNodes>
      <leafValues>
        -9.6413210034370422e-02 1.5380197763442993e-01</leafValues></_>
    <_>
      <internalNodes>
        0 -1 192 1958391984 1345646402 1567612926 -842208538 334956848
        -1459750923 -34312832 13391447</internalNodes>
      <leafValues>
        -1.9298154115676880e-01 7.3928236961364746e-02</leafValues></_>
    <_>
      <internalNodes>
        0 -1 840 -35681072 520040372 -1686692686 -1180503 1281207725
        -1096852021 -268435507 147844813</internalNodes>
      <leafValues>
        -1.2122883647680283e-01 1.1880885064601898e-01</leafValues></_>
    <_>
      <internalNodes>
        0 -1 1040 -469791995 24977771 934259250 7928175 -1141528448
        -930097011 -18482616 -394134717</internalNodes>
      <leafValues>
        -1.6030701994895935e-01 9.0091407299041748e-02</leafValues></_>
    <_>
      <internalNodes>
        0 -1 342 -1375326681 187835956 -2140176386 -340590989 259925519
        -96479281 -1453623507 -271196635</internalNodes>
      <leafValues>
        -1.6382049024105072e-01 8.5369847714900970e-02</leafValues></_>
    <_>
      <internalNodes>
        0 -1 136 -354500813 -285294625 -185355365 -1361399968
        -1146147877 -805307138 -8703505 -541364101</internalNodes>
      <leafValues>
        -9.1886006295681000e-02 1.5001013875007629e-01</leafValues></_>
    <_>
      <internalNodes>
        0 -1 27 746323490 -1614876891 251638012 -1443868820 -821658905
        1067808720 347471717 -721156920</internalNodes>
      <leafValues>
        -1.4903187751770020e-01 1.0031484812498093e-01</leafValues></_>
    <_>
      <internalNodes>
        0 -1 658 -287386171 -648127027 -100663333 1610540735 -540775
        -1073750785 -269685795 -1433714685</internalNodes>
      <leafValues>
        -8.7976813316345215e-02 1.5782232582569122e-01</leafValues></_>
    <_>
      <internalNodes>
        0 -1 1077 755708192 -1346661632 864022576 -1348822688 235213616
        252697820 107020289 -1375906029</internalNodes>
      <leafValues>
        -2.2445762157440186e-01 6.1273880302906036e-02</leafValues></_>
    <_>
      <internalNodes>
        0 -1 1008 -484444816 -4246253 1034262996 -609960 217098661
        -1610614790 -1380239951 -268437701</internalNodes>
      <leafValues>
        -6.7518085241317749e-02 2.0740303397178650e-01</leafValues></_>
    <_>
      <internalNodes>
        0 -1 862 -1502605291 8127543 -1548042505 1236087 -26195712
        -19372940 -624925067 -1435484336</internalNodes>
      <leafValues>
        -2.3224145174026489e-01 6.0542225837707520e-02</leafValues></_>
    <_>
      <internalNodes>
        0 -1 777 -353391704 -612749441 422719442 -71648269 -344522088
        -1412227654 -1342455875 -67197915</internalNodes>
      <leafValues>
        -8.6213029921054840e-02 1.5848779678344727e-01</leafValues></_>
    <_>
      <internalNodes>
        0 -1 614 1929372006 1912415023 2139039630 1139702767 -1377841938
        862846255 -268444563 210621767</internalNodes>
      <leafValues>
        -1.3028953969478607e-01 1.0527566075325012e-01</leafValues></_>
    <_>
      <internalNodes>
        0 -1 129 1793305346 708453930 66791968 711338754 802367075
        1072658039 578774371 804746081</internalNodes>
      <leafValues>
        -2.8262364864349365e-01 4.5449528843164444e-02</leafValues></_>
    <_>
      <internalNodes>
        0 -1 678 1652695328 2008201325 -16802339 -1073826320 -805796435
        -873267790 -1948638835 1132986368</internalNodes>
      <leafValues>
        -2.0183140039443970e-01 6.4554378390312195e-02</leafValues></_>
    <_>
      <internalNodes>
        0 -1 897 -1033969108 1164921891 -138633510 -73747685 -1143215379
        -809501650 -591489 -341070065</internalNodes>
      <leafValues>
        -6.9828599691390991e-02 1.9630166888237000e-01</leafValues></_>
    <_>
      <internalNodes>
        0 -1 446 282988544 149401126 1859841324 -1402677330 866071015
        1023275004 2061360637 214720221</internalNodes>
      <leafValues>
        -2.4533101916313171e-01 5.2859861403703690e-02</leafValues></_>
    <_>
      <internalNodes>
        0 -1 1095 1811909163 1602174777 1069519858 -1144861759
        -1484304711 -1076891219 -339845192 -253494289</internalNodes>
      <leafValues>
        -8.1513732671737671e-02 1.6075912117958069e-01</leafValues></_>
    <_>
      <internalNodes>
        0 -1 792 -1473903536 -1901193415 -1096810507 -1460471810
        -1531044431 -270559245 -587318415 -1364584411</internalNodes>
      <leafValues>
        -1.7888426780700684e-01 7.2884589433670044e-02</leafValues></_>
    <_>
      <internalNodes>
        0 -1 626 -99742148 2048540284 983702974 1738161275 -1140880500
        -539082881 -1140941124 -558083</internalNodes>
      <leafValues>
        -9.3034826219081879e-02 1.3271632790565491e-01</leafValues></_>
    <_>
      <internalNodes>
        0 -1 1104 1222591573 581766712 2126492405 543326143 -1361072984
        -1128348100 -385884832 -1470040466</internalNodes>
      <leafValues>
        -1.9125004112720490e-01 6.3656464219093323e-02</leafValues></_>
    <_>
      <internalNodes>
        0 -1 384 -268963866 536869411 -26325298 804175407 -302843995
        -185388619 757418588 1783463783</internalNodes>
      <leafValues>
        -1.0494028031826019e-01 1.2053731828927994e-01</leafValues></_>
    <_>
      <internalNodes>
        0 -1 921 -1411738832 -1089832660 -744641928 -1078289685
        -1080413256 -1342254665 -1587862492 -273213414</internalNodes>
      <leafValues>
        -1.0840962827205658e-01 1.0992644727230072e-01</leafValues></_>
    <_>
      <internalNodes>
        0 -1 631 1782230336 1037445638 1327375464 -1654248134 -74309851
        -269778984 -172739 -325222654</internalNodes>
      <leafValues>
        -1.2615641951560974e-01 1.0210739821195602e-01</leafValues></_>
    <_>
      <internalNodes>
        0 -1 697 620561544 217877920 -286393996 -1932990698 358065649
        215497989 -26375773 4248997</internalNodes>
      <leafValues>
        -2.6852703094482422e-01 4.6231247484683990e-02</leafValues></_>
    <_>
      <internalNodes>
        0 -1 1115 671065060 -232276634 1804700060 -113045342 -59517979
        741021866 -1444415339 996992975</internalNodes>
      <leafValues>
        -9.2699483036994934e-02 1.3119012117385864e-01</leafValues></_>
    <_>
      <internalNodes>
        0 -1 437 -415626750 2076131189 -134562822 -1364054818 259993559
        -29393342 -195228 -319552243</internalNodes>
      <leafValues>
        -1.4151193201541901e-01 8.4211617708206177e-02</leafValues></_>
    <_>
      <internalNodes>
        0 -1 2 -278224093 -324229102 -109134537 -269048064 2142396947
        -438585874 246896447 -573221513</internalNodes>
      <leafValues>
        -8.9761666953563690e-02 1.3011775910854340e-01</leafValues></_>
    <_>
      <internalNodes>
        0 -1 217 -1383416022 792361762 -1103318510 -407702480 726613755
        -1395662901 -570474027 -306756251</internalNodes>
      <leafValues>
        -1.2897293269634247e-01 9.1085784137248993e-02</leafValues></_>
    <_>
      <internalNodes>
        0 -1 310 1773709312 2135217975 1570469266 -3180814 801090980
        2128539411 1059044004 1557071630</internalNodes>
      <leafValues>
        -1.1983440816402435e-01 9.5301315188407898e-02</leafValues></_>
    <_>
      <internalNodes>
        0 -1 963 1431826912 2147454959 487004208 -163107843 106276337
        264884524 2143272032 -1091572753</internalNodes>
      <leafValues>
        -8.0649703741073608e-02 1.4100247621536255e-01</leafValues></_>
    <_>
      <internalNodes>
        0 -1 837 -369465308 -853836177 536820984 -17157153 -336392439
        -1145094449 -1436557572 -288432115</internalNodes>
      <leafValues>
        -9.9414795637130737e-02 1.0983031988143921e-01</leafValues></_>
    <_>
      <internalNodes>
        0 -1 952 1097837804 1327481509 1338883582 44235263 -68302680
        -72700244 -338481148 -1433867473</internalNodes>
      <leafValues>
        -1.3390393555164337e-01 8.0896839499473572e-02</leafValues></_>
    <_>
      <internalNodes>
        0 -1 1103 794672411 536483090 -2890755 1006416826 -268435553
        -24251394 -536871366 137479481</internalNodes>
      <leafValues>
        -1.3607682287693024e-01 8.5725061595439911e-02</leafValues></_>
    <_>
      <internalNodes>
        0 -1 958 -269513948 -242317438 1978629052 -71388328 -538078227
        -1644430965 -1192281675 -1549538521</internalNodes>
      <leafValues>
        -7.1510687470436096e-02 1.5243732929229736e-01</leafValues></_>
    <_>
      <internalNodes>
        0 -1 1071 1805583401 1267671333 2054274492 571651390 730567660
        -1954879223 -1226580872 -266272915</internalNodes>
      <leafValues>
        -1.3560785353183746e-01 7.8960426151752472e-02</leafValues></_>
    <_>
      <internalNodes>
        0 -1 988 -1902868216 -2004838812 -410568081 1314659773
        -1455728575 -277092380 -1158446384 1897995424</internalNodes>
      <leafValues>
        -1.3214866816997528e-01 7.7948085963726044e-02</leafValues></_>
    <_>
      <internalNodes>
        0 -1 690 -419500244 -65701 -403705857 -67452953 734495675
        -1409558532 -151273683 -337674229</internalNodes>
      <leafValues>
        -6.0237176716327667e-02 1.7781920731067657e-01</leafValues></_>
    <_>
      <internalNodes>
        0 -1 295 -340904093 -1248824 -8932678 -22347946 2135795467
        -12651318 1717531725 -544713467</internalNodes>
      <leafValues>
        -1.1620193719863892e-01 9.8037242889404297e-02</leafValues></_>
    <_>
      <internalNodes>
        0 -1 505 -1351437023 -406967955 1878965466 -1564803659
        -1884555863 -1073891654 -19327399 -287587069</internalNodes>
      <leafValues>
        -8.9134715497493744e-02 1.1740991473197937e-01</leafValues></_>
    <_>
      <internalNodes>
        0 -1 193 972692528 216041471 -1375981860 -453628942 1576872273
        217697525 -7307862 216884818</internalNodes>
      <leafValues>
        -1.9198369979858398e-01 5.4761189967393875e-02</leafValues></_>
    <_>
      <internalNodes>
        0 -1 1060 -1932262307 456676665 880671231 579395443 1740302332
        -26297634 -539330184 -1439631388</internalNodes>
      <leafValues>
        -1.7275853455066681e-01 6.0764364898204803e-02</leafValues></_>
    <_>
      <internalNodes>
        0 -1 1055 1107230754 53211687 915734530 49214571 125502499
        125806153 1162805507 1187489743</internalNodes>
      <leafValues>
        -2.4721342325210571e-01 4.1373658925294876e-02</leafValues></_>
    <_>
      <internalNodes>
        0 -1 1048 -603984096 1069934890 804202274 872052641 604366008
        432598442 2126060952 -523239506</internalNodes>
      <leafValues>
        -8.9193537831306458e-02 1.1550539731979370e-01</leafValues></_>
    <_>
      <internalNodes>
        0 -1 1010 490615088 -1480852176 878035442 -1426941136 724247653
        -1084264547 445386920 -1460843424</internalNodes>
      <leafValues>
        -1.8467561900615692e-01 5.5355157703161240e-02</leafValues></_>
    <_>
      <internalNodes>
        0 -1 0 -290476122 244226826 -1680097358 -557257296 -222332333
        2141964153 1877957499 1335211947</internalNodes>
      <leafValues>
        -9.4954580068588257e-02 1.0629761964082718e-01</leafValues></_>
    <_>
      <internalNodes>
        0 -1 462 -1432472975 -1473606099 2101473279 -1367313413
        -1342296147 -809566915 -117755631 -302512044</internalNodes>
      <leafValues>
        -1.6141842305660248e-01 6.3516162335872650e-02</leafValues></_>
    <_>
      <internalNodes>
        0 -1 787 1585239648 1610494124 849485624 -1074069580 1001714089
        -1409307808 -1349174787 -1363255697</internalNodes>
      <leafValues>
        -7.9832315444946289e-02 1.2860031425952911e-01</leafValues></_>
    <_>
      <internalNodes>
        0 -1 16 -432035101 914046831 787938815 733908686 1613706549
        -2115917 -83921059 710374919</internalNodes>
      <leafValues>
        -9.6847243607044220e-02 1.0618550330400467e-01</leafValues></_>
    <_>
      <internalNodes>
        0 -1 1083 49546333 678166597 1140622119 -1371010995 590411932
        -1346711804 1486411996 -1473737123</internalNodes>
      <leafValues>
        -2.0771263539791107e-01 4.9628119915723801e-02</leafValues></_>
    <_>
      <internalNodes>
        0 -1 102 -338482641 -7608532 -109738205 -203266182 796860075
        725088127 -54560852 -34483081</internalNodes>
      <leafValues>
        -8.2431755959987640e-02 1.2127462029457092e-01</leafValues></_>
    <_>
      <internalNodes>
        0 -1 115 -1549554654 623475302 601507376 -1047726620 1064155135
        536506355 2013230533 -38415883</internalNodes>
      <leafValues>
        -1.1627930402755737e-01 9.0068399906158447e-02</leafValues></_>
    <_>
      <internalNodes>
        0 -1 807 -857752716 224885031 -587370642 -149128097 -1410372484
        -1131058 -1359774343 -364163225</internalNodes>
      <leafValues>
        -8.4925524890422821e-02 1.1850959062576294e-01</leafValues></_>
    <_>
      <internalNodes>
        0 -1 19 539424466 469797944 -1342181569 163867494 2032080502
        -2064331528 2138516258 96823364</internalNodes>
      <leafValues>
        -2.0872788131237030e-01 5.0049908459186554e-02</leafValues></_>
    <_>
      <internalNodes>
        0 -1 618 -281100654 -105173391 -18688006 -856230 -1343518788
        -1074036737 -87053256 -369207893</internalNodes>
      <leafValues>
        -6.4894251525402069e-02 1.6122905910015106e-01</leafValues></_>
    <_>
      <internalNodes>
        0 -1 182 2063330857 -119152785 -956342731 -1416235089 -616815760
        -348658349 -1812231302 -589007653</internalNodes>
      <leafValues>
        -7.3079921305179596e-02 1.4027380943298340e-01</leafValues></_>
    <_>
      <internalNodes>
        0 -1 24 -1492472286 -1472809434 -396801454 -560401358 715616035
        -1415433166 -881380064 1302791509</internalNodes>
      <leafValues>
        -1.5793044865131378e-01 6.4601115882396698e-02</leafValues></_>
    <_>
      <internalNodes>
        0 -1 82 -475066846 -209542360 -476059414 -337464092 1717243308
        -1101046562 2000639085 1711097686</internalNodes>
      <leafValues>
        -1.2110321223735809e-01 8.2264602184295654e-02</leafValues></_></weakClassifiers></stage6>
</opencv_storage>
