<?xml version="1.0"?>
<opencv_storage>
<stage12>
  <maxWeakCount>100</maxWeakCount>
  <stageThreshold>-1.8644561767578125e+00</stageThreshold>
  <weakClassifiers>
    <_>
      <internalNodes>
        0 -1 81 -1 -1050142 -570478721 -7694 1065058303 2147483639
        2147450879 2147440069</internalNodes>
      <leafValues>
        -3.9708167314529419e-01 3.3962786197662354e-02</leafValues></_>
    <_>
      <internalNodes>
        0 -1 734 1970738517 359994711 -674758657 823853055 -101707692
        2099073093 -1189544963 712015743</internalNodes>
      <leafValues>
        -2.7582135796546936e-01 1.4633418619632721e-01</leafValues></_>
    <_>
      <internalNodes>
        0 -1 868 -268435475 -1999861556 -8914945 147455967 -1412568081
        -1427600184 -269484033 -1966080001</internalNodes>
      <leafValues>
        -1.9328664243221283e-01 1.7819315195083618e-01</leafValues></_>
    <_>
      <internalNodes>
        0 -1 66 -273764353 -269552898 -815943937 -1342245136 -282087441
        -4262430 1331656703 -2144953</internalNodes>
      <leafValues>
        -8.9086726307868958e-02 2.6102367043495178e-01</leafValues></_>
    <_>
      <internalNodes>
        0 -1 1101 -536881697 1481706581 -69207041 1072983 -1572869
        -4218881 -1 -1475280897</internalNodes>
      <leafValues>
        -2.3667559027671814e-01 1.1100563406944275e-01</leafValues></_>
    <_>
      <internalNodes>
        0 -1 1034 2147288112 2111771949 -10536102 1610563415 -272785505
        -4228726 -8388609 771571503</internalNodes>
      <leafValues>
        -2.1077840030193329e-01 1.3421295583248138e-01</leafValues></_>
    <_>
      <internalNodes>
        0 -1 870 -268667531 -1073792641 -2883585 -1074111137 -67454023
        -67141957 -296005 -1346692801</internalNodes>
      <leafValues>
        -1.3929562270641327e-01 1.7544199526309967e-01</leafValues></_>
    <_>
      <internalNodes>
        0 -1 127 724771683 2134057823 -282882133 -147120257 2147450735
        -49615 -2393217 -8388737</internalNodes>
      <leafValues>
        -1.6056548058986664e-01 1.4164449274539948e-01</leafValues></_>
    <_>
      <internalNodes>
        0 -1 136 -1366671369 -286384418 -67258369 -1348590356
        -1883553793 -17925 535508349 -4258747</internalNodes>
      <leafValues>
        -1.4924195408821106e-01 1.4117124676704407e-01</leafValues></_>
    <_>
      <internalNodes>
        0 -1 597 2111765748 1423230453 -3162115 -539165185 2111434932
        2112733589 -269616131 550332869</internalNodes>
      <leafValues>
        -2.3788069188594818e-01 6.0640934854745865e-02</leafValues></_>
    <_>
      <internalNodes>
        0 -1 1121 -335545429 230685611 -143657679 -1509954597 797423011
        52410338 1466692915 1744829439</internalNodes>
      <leafValues>
        -1.2471804022789001e-01 1.4347904920578003e-01</leafValues></_>
    <_>
      <internalNodes>
        0 -1 596 -385961628 1436483919 -805327442 193658703 -1409304032
        -1143106999 -7774387 198007567</internalNodes>
      <leafValues>
        -1.2509560585021973e-01 1.3765950500965118e-01</leafValues></_>
    <_>
      <internalNodes>
        0 -1 956 -235410848 1575815247 -1275219212 36371327 -1409746711
        -607288882 -355533319 -1429344401</internalNodes>
      <leafValues>
        -1.4502178132534027e-01 1.1544820666313171e-01</leafValues></_>
    <_>
      <internalNodes>
        0 -1 45 -1348325533 -275849490 -536888922 -1345522592 791625663
        -68178453 54482277 -268499611</internalNodes>
      <leafValues>
        -1.6696193814277649e-01 1.0033792257308960e-01</leafValues></_>
    <_>
      <internalNodes>
        0 -1 968 206590032 2111659513 -5112833 -1076199937 -117647944
        -17526 -1101496963 -1359840387</internalNodes>
      <leafValues>
        -1.6609942913055420e-01 9.7049891948699951e-02</leafValues></_>
    <_>
      <internalNodes>
        0 -1 901 -235419187 1163250021 -405953622 32235485 -268571207
        -2002974116 -375653767 144309099</internalNodes>
      <leafValues>
        -1.4546273648738861e-01 1.0578930377960205e-01</leafValues></_>
    <_>
      <internalNodes>
        0 -1 522 717024804 943218260 -272428 -4563980 -1346457681
        -1342201622 265194941 1342129493</internalNodes>
      <leafValues>
        -1.5652023255825043e-01 8.9769430458545685e-02</leafValues></_>
    <_>
      <internalNodes>
        0 -1 831 -475477952 -67115892 -673202181 -272973233 -340864632
        -76828645 -1144096407 -1568014325</internalNodes>
      <leafValues>
        -1.0893449187278748e-01 1.3165681064128876e-01</leafValues></_>
    <_>
      <internalNodes>
        0 -1 991 -14259 1570572559 -539513862 35321823 -89083704
        -82277368 -91732376 -1442186401</internalNodes>
      <leafValues>
        -1.3612636923789978e-01 1.0410445928573608e-01</leafValues></_>
    <_>
      <internalNodes>
        0 -1 725 1644164391 295696815 262912265 -1885344577 933229503
        264239567 1119839501 268423087</internalNodes>
      <leafValues>
        -1.4325691759586334e-01 9.9364005029201508e-02</leafValues></_>
    <_>
      <internalNodes>
        0 -1 642 -454533515 209481599 -83886081 735739903 -1409368716
        -69207299 -1432593027 -1156875001</internalNodes>
      <leafValues>
        -1.0746466368436813e-01 1.3094913959503174e-01</leafValues></_>
    <_>
      <internalNodes>
        0 -1 356 -1365106827 -1361174929 1574870973 -1372968588
        -1880216779 -273962001 -1880481931 -1373108192</internalNodes>
      <leafValues>
        -2.0832677185535431e-01 6.5502092242240906e-02</leafValues></_>
    <_>
      <internalNodes>
        0 -1 0 -1431633941 -1360076798 -136579165 -286473490 -1275380769
        -1677721654 1071346647 -44939</internalNodes>
      <leafValues>
        -1.2529398500919342e-01 1.0816098749637604e-01</leafValues></_>
    <_>
      <internalNodes>
        0 -1 81 1847723040 1662804029 -864161120 -893192659 -341268688
        -2128206031 2136221472 -993778914</internalNodes>
      <leafValues>
        -1.3869103789329529e-01 9.2058569192886353e-02</leafValues></_>
    <_>
      <internalNodes>
        0 -1 675 1709173100 1429730127 1042058894 19592655 -185337356
        -52823968 -311596244 140861255</internalNodes>
      <leafValues>
        -1.3412547111511230e-01 9.4532236456871033e-02</leafValues></_>
    <_>
      <internalNodes>
        0 -1 1016 -713059235 526319895 -2651153 36338655 -34090816
        -10546819 -73803815 -1169096843</internalNodes>
      <leafValues>
        -1.5741677582263947e-01 8.1744030117988586e-02</leafValues></_>
    <_>
      <internalNodes>
        0 -1 734 -1596858206 1285455369 -406868242 784706367 543402401
        -1749609604 1282491714 -1684303648</internalNodes>
      <leafValues>
        -1.0925559699535370e-01 1.3508401811122894e-01</leafValues></_>
    <_>
      <internalNodes>
        0 -1 590 -1343555787 -68500 -136314881 -1074078723 -341052504
        -67125573 -1548067331 -6336241</internalNodes>
      <leafValues>
        -7.2492673993110657e-02 1.7761608958244324e-01</leafValues></_>
    <_>
      <internalNodes>
        0 -1 514 -268763351 2080308860 -771753733 -1344602883
        -1413759045 -285302098 -1346699969 -841023459</internalNodes>
      <leafValues>
        -9.9204912781715393e-02 1.2901052832603455e-01</leafValues></_>
    <_>
      <internalNodes>
        0 -1 1053 1174380672 234877615 294717952 66041775 2032836000
        11525546 897513768 -1476396097</internalNodes>
      <leafValues>
        -1.5895698964595795e-01 7.5971066951751709e-02</leafValues></_>
    <_>
      <internalNodes>
        0 -1 911 -2097184 -536901939 -1254417992 -1610630657 -1677926513
        -1342331921 -28377619 -1427243025</internalNodes>
      <leafValues>
        -7.0375792682170868e-02 1.7305208742618561e-01</leafValues></_>
    <_>
      <internalNodes>
        0 -1 793 -1359413931 -67939635 2143809971 -43057 -274801411
        -12848913 -155582979 -1433776127</internalNodes>
      <leafValues>
        -1.4610186219215393e-01 8.2523979246616364e-02</leafValues></_>
    <_>
      <internalNodes>
        0 -1 107 707406338 266872618 57675390 1741661632 1063993141
        2147315623 2077175805 2096981573</internalNodes>
      <leafValues>
        -2.7541837096214294e-01 4.2657360434532166e-02</leafValues></_>
    <_>
      <internalNodes>
        0 -1 666 -340100763 -268536737 -168165377 -337923 -273719299
        -542130693 -85232307 -812971953</internalNodes>
      <leafValues>
        -7.7967099845409393e-02 1.5796454250812531e-01</leafValues></_>
    <_>
      <internalNodes>
        0 -1 882 -318816179 222101525 -1080449333 517111629 -1160498156
        -68534188 -1172767659 -1442838523</internalNodes>
      <leafValues>
        -1.6620777547359467e-01 6.9470219314098358e-02</leafValues></_>
    <_>
      <internalNodes>
        0 -1 903 -8156 -539095793 366944490 -541189265 -2360401
        -1948256273 -5243395 -72618129</internalNodes>
      <leafValues>
        -4.8879403620958328e-02 2.3334738612174988e-01</leafValues></_>
    <_>
      <internalNodes>
        0 -1 1117 -873480184 58709005 389013570 47382511 -1031543934
        420950802 -172232704 1626536943</internalNodes>
      <leafValues>
        -1.6155168414115906e-01 6.8567119538784027e-02</leafValues></_>
    <_>
      <internalNodes>
        0 -1 38 881513726 -731070244 1610378495 -303292290 1008546804
        -321536804 1066872166 617376327</internalNodes>
      <leafValues>
        -1.6538205742835999e-01 6.6884867846965790e-02</leafValues></_>
    <_>
      <internalNodes>
        0 -1 605 1306265600 1566494575 -541123981 -570497316 -2146388
        2147220911 -1197171 1625555205</internalNodes>
      <leafValues>
        -1.7084603011608124e-01 6.2986433506011963e-02</leafValues></_>
    <_>
      <internalNodes>
        0 -1 1082 215634013 404640095 2057755647 844771967 -354878792
        -4466099 -130354148 974843775</internalNodes>
      <leafValues>
        -1.5181614458560944e-01 7.1526691317558289e-02</leafValues></_>
    <_>
      <internalNodes>
        0 -1 868 -2100524646 1297286561 -312051721 -954805268 -832141152
        -3428361 -1949989491 765493696</internalNodes>
      <leafValues>
        -1.3056367635726929e-01 7.9904735088348389e-02</leafValues></_>
    <_>
      <internalNodes>
        0 -1 90 1873014274 1862986530 -1064589790 -1347753308 794969979
        789565031 1732212081 1442305141</internalNodes>
      <leafValues>
        -1.6212670505046844e-01 6.3233047723770142e-02</leafValues></_>
    <_>
      <internalNodes>
        0 -1 265 -271663245 -18951554 1564383983 -16880618 -282071061
        -41236242 265949759 -807467669</internalNodes>
      <leafValues>
        -6.6841006278991699e-02 1.5204130113124847e-01</leafValues></_>
    <_>
      <internalNodes>
        0 -1 853 1576990016 1071524012 405015560 -1610700439 735972789
        -1343242359 -1416032947 -1342178193</internalNodes>
      <leafValues>
        -9.3631684780120850e-02 1.0737089067697525e-01</leafValues></_>
    <_>
      <internalNodes>
        0 -1 1100 167723103 97867777 2138302383 537977958 1877858301
        1443054384 -71307395 536936317</internalNodes>
      <leafValues>
        -2.2854666411876678e-01 4.3944641947746277e-02</leafValues></_>
    <_>
      <internalNodes>
        0 -1 217 -1414910166 766233406 -7675774 -304417088 -1342199873
        -434123814 2060155829 -319434267</internalNodes>
      <leafValues>
        -1.1476332694292068e-01 8.1736415624618530e-02</leafValues></_>
    <_>
      <internalNodes>
        0 -1 844 1054608100 1060647232 1072773848 -1078036494
        -1409609332 1069939386 -1342186643 -1359184027</internalNodes>
      <leafValues>
        -1.9575986266136169e-01 4.9518052488565445e-02</leafValues></_>
    <_>
      <internalNodes>
        0 -1 771 -335877344 -18997 1537179370 -537743639 -482623576
        -268474009 -272639575 -14225</internalNodes>
      <leafValues>
        -5.4108932614326477e-02 1.9753067195415497e-01</leafValues></_>
    <_>
      <internalNodes>
        0 -1 915 -33751584 -536954920 -605212424 -67134484 -1885683731
        -1610924083 -1178608644 -1074267713</internalNodes>
      <leafValues>
        -4.5387662947177887e-02 2.2575287520885468e-01</leafValues></_>
    <_>
      <internalNodes>
        0 -1 833 -254875540 484438092 -68296790 197851987 -1967587448
        -86381880 -1165168183 -1467089595</internalNodes>
      <leafValues>
        -1.1040093004703522e-01 9.2682152986526489e-02</leafValues></_>
    <_>
      <internalNodes>
        0 -1 756 -274007232 -1066719 -201592385 -67469483 -274015604
        -281878 -286564483 -68452349</internalNodes>
      <leafValues>
        -6.2565535306930542e-02 1.5658374130725861e-01</leafValues></_>
    <_>
      <internalNodes>
        0 -1 689 14166184 212646792 2138010912 -2138550910 794669029
        209456292 1038086143 12951481</internalNodes>
      <leafValues>
        -2.5444081425666809e-01 3.8359265774488449e-02</leafValues></_>
    <_>
      <internalNodes>
        0 -1 25 799714859 1823387232 -968918189 -605093984 264466179
        -772284425 259481815 -33729163</internalNodes>
      <leafValues>
        -1.2262606620788574e-01 7.8357383608818054e-02</leafValues></_>
    <_>
      <internalNodes>
        0 -1 390 -292627115 -308397958 1539285135 -1090858537 -273768696
        -357646598 1333532717 -821558013</internalNodes>
      <leafValues>
        -9.9547825753688812e-02 9.9564626812934875e-02</leafValues></_>
    <_>
      <internalNodes>
        0 -1 723 -6621835 -1080158083 993864232 -1346412578 -1147437583
        -33628173 -1082444419 -1345374103</internalNodes>
      <leafValues>
        -6.6330887377262115e-02 1.4768619835376740e-01</leafValues></_>
    <_>
      <internalNodes>
        0 -1 1055 28254208 118206730 555680256 33733706 315163648
        70189839 5969152 132114287</internalNodes>
      <leafValues>
        -3.9375072717666626e-01 2.4698078632354736e-02</leafValues></_>
    <_>
      <internalNodes>
        0 -1 554 -1360863919 -16892849 -539246609 -1409653041
        -1410392588 -538994708 -1086382625 -1426450385</internalNodes>
      <leafValues>
        -7.9267531633377075e-02 1.2274301052093506e-01</leafValues></_>
    <_>
      <internalNodes>
        0 -1 126 -278175125 1796961885 -502346102 -805582217 -68190237
        1538212623 -5282305 -557201</internalNodes>
      <leafValues>
        -8.1477478146553040e-02 1.1401745676994324e-01</leafValues></_>
    <_>
      <internalNodes>
        0 -1 502 244996128 -536912532 -69343765 -102287 715803946
        -335877125 -1148505823 265961477</internalNodes>
      <leafValues>
        -1.4332944154739380e-01 6.4029455184936523e-02</leafValues></_>
    <_>
      <internalNodes>
        0 -1 421 -492899488 922657663 -3754070 -1343347254 705346344
        1944028143 1046380301 719066695</internalNodes>
      <leafValues>
        -1.2042406946420670e-01 7.7335417270660400e-02</leafValues></_>
    <_>
      <internalNodes>
        0 -1 420 -393695072 2112646407 2128444028 -67180585 2146152101
        2147053468 -51200059 1715732935</internalNodes>
      <leafValues>
        -1.1654250323772430e-01 8.2030951976776123e-02</leafValues></_>
    <_>
      <internalNodes>
        0 -1 1091 1274953741 2134839320 1375722746 312101631 -348849528
        -69066560 -361563128 -133104825</internalNodes>
      <leafValues>
        -1.1274903267621994e-01 8.1133171916007996e-02</leafValues></_>
    <_>
      <internalNodes>
        0 -1 627 -84215072 534590186 603074082 1072920005 730868448
        1061052286 -1426433 -1141540027</internalNodes>
      <leafValues>
        -8.2376815378665924e-02 1.0965935885906219e-01</leafValues></_>
    <_>
      <internalNodes>
        0 -1 1106 201304843 970924117 -1249936453 927171319 1878256546
        1068479420 -211043973 538048327</internalNodes>
      <leafValues>
        -1.0086279362440109e-01 8.9784778654575348e-02</leafValues></_>
    <_>
      <internalNodes>
        0 -1 1020 150753365 561844308 -38167556 707839351 -426225600
        -5318828 -123676304 707984245</internalNodes>
      <leafValues>
        -1.8674477934837341e-01 4.9761146306991577e-02</leafValues></_>
    <_>
      <internalNodes>
        0 -1 237 -1428543480 240782373 -802378592 -1697987725
        -1437463902 171642707 -337937824 1843099475</internalNodes>
      <leafValues>
        -1.6094730794429779e-01 5.3900413215160370e-02</leafValues></_>
    <_>
      <internalNodes>
        0 -1 727 -285287203 1300168409 -404758565 -1075937537 -4467203
        -67108869 -1313165573 -1382321071</internalNodes>
      <leafValues>
        -8.5612848401069641e-02 1.0140281170606613e-01</leafValues></_>
    <_>
      <internalNodes>
        0 -1 994 -188167904 1610317929 -545262126 1534770677 -342632104
        -1078225494 -282396567 -357905489</internalNodes>
      <leafValues>
        -8.2414984703063965e-02 1.0563350468873978e-01</leafValues></_>
    <_>
      <internalNodes>
        0 -1 1075 -275070944 -4254679 -1611139120 -135088157 -1733688152
        -1343277351 -1205158216 -1178730497</internalNodes>
      <leafValues>
        -5.7835079729557037e-02 1.5081700682640076e-01</leafValues></_>
    <_>
      <internalNodes>
        0 -1 921 -1617390848 -1346602988 1939467512 -1617259272
        -1075703304 -1087453779 -1189403531 -1349181444</internalNodes>
      <leafValues>
        -1.0089013725519180e-01 8.4349192678928375e-02</leafValues></_>
    <_>
      <internalNodes>
        0 -1 1071 -352507892 1777287429 1920056762 549111359 -1411718464
        -22302464 -1141179384 -232718465</internalNodes>
      <leafValues>
        -1.1536331474781036e-01 7.4657075107097626e-02</leafValues></_>
    <_>
      <internalNodes>
        0 -1 114 705568802 705258788 -1033109982 -204161952 789018491
        1675311886 1576761201 -168462347</internalNodes>
      <leafValues>
        -1.7723716795444489e-01 4.8996072262525558e-02</leafValues></_>
    <_>
      <internalNodes>
        0 -1 248 -141897517 -622161854 1249640415 -989900577 -1267478111
        1877209591 2144576155 1875837255</internalNodes>
      <leafValues>
        -7.3594518005847931e-02 1.1594600975513458e-01</leafValues></_>
    <_>
      <internalNodes>
        0 -1 879 670715905 1476220013 896862805 -1359291141 -1346749480
        -545283655 -135533215 -1414922175</internalNodes>
      <leafValues>
        -1.1745239049196243e-01 7.2045490145683289e-02</leafValues></_>
    <_>
      <internalNodes>
        0 -1 113 584032674 766160166 -270700633 -1919121970 872363709
        1040052189 2086555629 216885148</internalNodes>
      <leafValues>
        -1.8735516071319580e-01 4.4907044619321823e-02</leafValues></_>
    <_>
      <internalNodes>
        0 -1 963 1568084452 1567589638 956373008 -24146177 251174885
        222949673 -47218835 -1197671505</internalNodes>
      <leafValues>
        -8.0759972333908081e-02 1.0634426772594452e-01</leafValues></_>
    <_>
      <internalNodes>
        0 -1 4 -274285723 -1364561624 -415356238 -460931374 775448636
        -273552897 1205748029 -269744854</internalNodes>
      <leafValues>
        -1.1374155431985855e-01 7.4487984180450439e-02</leafValues></_>
    <_>
      <internalNodes>
        0 -1 66 -1276248280 -1191187797 -539739732 -190715665 1765742082
        1798204702 1951991109 1210381724</internalNodes>
      <leafValues>
        -1.1740951240062714e-01 7.4915960431098938e-02</leafValues></_>
    <_>
      <internalNodes>
        0 -1 21 -1514166294 80488524 -478500 96790442 -1149370384
        -1243793327 -45757868 945638176</internalNodes>
      <leafValues>
        -1.3755163550376892e-01 6.1863243579864502e-02</leafValues></_>
    <_>
      <internalNodes>
        0 -1 706 -2162868 -33587329 2061122282 -268796417 -269762680
        -1351647329 -1083195735 -167781889</internalNodes>
      <leafValues>
        -4.1688982397317886e-02 1.9348488748073578e-01</leafValues></_>
    <_>
      <internalNodes>
        0 -1 94 -306665946 1695432042 1767834274 -1342506896 2131640076
        795555436 1727821636 1305755717</internalNodes>
      <leafValues>
        -2.0917718112468719e-01 3.8334410637617111e-02</leafValues></_>
    <_>
      <internalNodes>
        0 -1 97 652885872 610569701 267021911 1691902162 1055538596
        750701775 -60928064 214787398</internalNodes>
      <leafValues>
        -1.6671386361122131e-01 4.6137999743223190e-02</leafValues></_>
    <_>
      <internalNodes>
        0 -1 530 -16979954 989795660 -1158095430 -1156410113 -1422189139
        -1077969418 -428171971 -1912793835</internalNodes>
      <leafValues>
        -9.1682992875576019e-02 8.3365857601165771e-02</leafValues></_>
    <_>
      <internalNodes>
        0 -1 626 -1969618940 521821309 1001535730 660242431 -1891930228
        -4505745 -1694843412 -1242079835</internalNodes>
      <leafValues>
        -1.2215602397918701e-01 6.7412406206130981e-02</leafValues></_>
    <_>
      <internalNodes>
        0 -1 1115 -268467712 155913476 307997274 11706366 -341065086
        1070793285 -1160516144 -530318529</internalNodes>
      <leafValues>
        -1.1948373913764954e-01 6.6591277718544006e-02</leafValues></_>
    <_>
      <internalNodes>
        0 -1 786 -274925280 -339757452 935244272 -13615113 -1413596488
        -1075630625 -1899259603 -4243603</internalNodes>
      <leafValues>
        -5.7774003595113754e-02 1.3580925762653351e-01</leafValues></_>
    <_>
      <internalNodes>
        0 -1 239 167905792 146565482 173222432 136452898 191565413
        2088700159 -885631167 259596046</internalNodes>
      <leafValues>
        -3.3884665369987488e-01 2.5939431041479111e-02</leafValues></_>
    <_>
      <internalNodes>
        0 -1 932 -1428551611 -1342285473 1983314353 -1466279649
        -82164936 -5521908 -343911319 713719167</internalNodes>
      <leafValues>
        -1.1518964171409607e-01 6.6055148839950562e-02</leafValues></_>
    <_>
      <internalNodes>
        0 -1 148 -963466752 649490252 -359888156 545971436 1663632128
        2102207490 1569004901 771761664</internalNodes>
      <leafValues>
        -2.3472209274768829e-01 3.3181171864271164e-02</leafValues></_>
    <_>
      <internalNodes>
        0 -1 371 -1121146182 -1936946036 800537067 -857209270 2146149887
        753438124 -1074565389 209977856</internalNodes>
      <leafValues>
        -1.9342367351055145e-01 4.1532967239618301e-02</leafValues></_>
    <_>
      <internalNodes>
        0 -1 152 716840737 1858124352 -138022190 -942008108 126506831
        1713542694 1506497633 -2049683088</internalNodes>
      <leafValues>
        -1.7578835785388947e-01 4.4428892433643341e-02</leafValues></_>
    <_>
      <internalNodes>
        0 -1 954 -172449752 -1112545685 -1685605378 -854081 -358876529
        -1946158337 -1124674516 -201619667</internalNodes>
      <leafValues>
        -5.9225071221590042e-02 1.3439780473709106e-01</leafValues></_>
    <_>
      <internalNodes>
        0 -1 78 -1353979350 -336924822 -1352732574 -84738190 29064762
        1195311090 739722029 1576924375</internalNodes>
      <leafValues>
        -9.3978010118007660e-02 8.2179978489875793e-02</leafValues></_>
    <_>
      <internalNodes>
        0 -1 628 846866784 536487950 1070930274 -1233143041 -1367361919
        984592544 -121873298 553149951</internalNodes>
      <leafValues>
        -1.2630902230739594e-01 6.0305308550596237e-02</leafValues></_>
    <_>
      <internalNodes>
        0 -1 866 -176181299 74913663 1569169391 6201343 -1327558655
        -583436179 -231166643 710269805</internalNodes>
      <leafValues>
        -1.2939143180847168e-01 5.9787370264530182e-02</leafValues></_>
    <_>
      <internalNodes>
        0 -1 849 81667076 -1893970856 905388206 -967171772 -1425402536
        -1980553297 -1962995680 -1092088323</internalNodes>
      <leafValues>
        -1.5603055059909821e-01 4.9456048756837845e-02</leafValues></_>
    <_>
      <internalNodes>
        0 -1 777 -372573396 -46485713 1933147882 -76366921 -360869992
        -75817665 -29360195 -205806331</internalNodes>
      <leafValues>
        -5.7250242680311203e-02 1.4458392560482025e-01</leafValues></_>
    <_>
      <internalNodes>
        0 -1 417 716341024 690677290 -2246670 -1909263296 797619760
        -1977435126 792334624 1285554181</internalNodes>
      <leafValues>
        -2.3171021044254303e-01 3.3106602728366852e-02</leafValues></_>
    <_>
      <internalNodes>
        0 -1 610 -17105396 2133475198 -575506774 -605889078 -805654642
        -1089685 -1258295926 -67124961</internalNodes>
      <leafValues>
        -4.7176796942949295e-02 1.6459634900093079e-01</leafValues></_>
    <_>
      <internalNodes>
        0 -1 494 -160017536 1900431693 -558762415 2044613207 -29950812
        -654330459 -2311292 -1595931643</internalNodes>
      <leafValues>
        -1.4534889161586761e-01 5.3613375872373581e-02</leafValues></_></weakClassifiers></stage12>
</opencv_storage>
