<?xml version="1.0"?>
<opencv_storage>
<stage1>
  <maxWeakCount>15</maxWeakCount>
  <stageThreshold>-2.0678484439849854e+00</stageThreshold>
  <weakClassifiers>
    <_>
      <internalNodes>
        0 -1 1016 -32769 511672191 -1 721354751 -1 -1 -1 -352518145</internalNodes>
      <leafValues>
        -5.7050991058349609e-01 4.4497838616371155e-01</leafValues></_>
    <_>
      <internalNodes>
        0 -1 113 603923263 1069498175 -1 -1073741825 1073690623
        1073709055 -1 805306367</internalNodes>
      <leafValues>
        -5.3687256574630737e-01 4.3230468034744263e-01</leafValues></_>
    <_>
      <internalNodes>
        0 -1 376 -272695307 -65537 -1 -196620 -3 -1 -3 -3386108</internalNodes>
      <leafValues>
        -3.7666192650794983e-01 4.4779053330421448e-01</leafValues></_>
    <_>
      <internalNodes>
        0 -1 232 796864319 792723327 -1 -268763137 1073708927 -1 -33419
        -139</internalNodes>
      <leafValues>
        -3.9869230985641479e-01 3.6891618371009827e-01</leafValues></_>
    <_>
      <internalNodes>
        0 -1 1104 1291804543 780107647 -1 721092607 -285217025 -70017
        -515 -386859011</internalNodes>
      <leafValues>
        -3.4105768799781799e-01 3.6162567138671875e-01</leafValues></_>
    <_>
      <internalNodes>
        0 -1 1099 801060659 792706867 -2253 -1342242825 729775927
        -1879048209 2139059569 -268435585</internalNodes>
      <leafValues>
        -3.8955801725387573e-01 2.5809106230735779e-01</leafValues></_>
    <_>
      <internalNodes>
        0 -1 792 796802389 -1342210049 -131073 -1359052801 -163843 -2049
        -245763 -1363665052</internalNodes>
      <leafValues>
        -3.8767555356025696e-01 2.6283818483352661e-01</leafValues></_>
    <_>
      <internalNodes>
        0 -1 877 -587211435 1565908309 -33558529 273743871 -855773724
        -318771235 -286397204 -2000617489</internalNodes>
      <leafValues>
        -2.9373604059219360e-01 3.1567615270614624e-01</leafValues></_>
    <_>
      <internalNodes>
        0 -1 27 -1343242369 -1364279382 -33816585 -285548572 803176447
        -272633861 -268470411 -268438155</internalNodes>
      <leafValues>
        -2.8887125849723816e-01 2.8558099269866943e-01</leafValues></_>
    <_>
      <internalNodes>
        0 -1 238 788475775 800800639 -268452869 706936675 804196187
        -268485761 -307855 -295065</internalNodes>
      <leafValues>
        -3.0769178271293640e-01 2.5454112887382507e-01</leafValues></_>
    <_>
      <internalNodes>
        0 -1 729 -302187011 -33622083 -1 -196739 -49155 -1 -268468227
        805257077</internalNodes>
      <leafValues>
        -3.1427219510078430e-01 2.4026955664157867e-01</leafValues></_>
    <_>
      <internalNodes>
        0 -1 113 2124871650 1632300654 788472098 1705389922 -948965769
        -1935696017 1744797679 -723036313</internalNodes>
      <leafValues>
        -2.2768591344356537e-01 2.8497233986854553e-01</leafValues></_>
    <_>
      <internalNodes>
        0 -1 104 -269537425 795836202 -67115230 -7668766 1063205743
        1868560383 2012968309 -690347</internalNodes>
      <leafValues>
        -3.0565732717514038e-01 2.1652886271476746e-01</leafValues></_>
    <_>
      <internalNodes>
        0 -1 1113 -268444065 1862262395 -1611661313 171638783 -270557667
        -279193473 -8708 -390135825</internalNodes>
      <leafValues>
        -2.1290883421897888e-01 2.9585582017898560e-01</leafValues></_>
    <_>
      <internalNodes>
        0 -1 1010 1062419219 801111863 -1116217861 -1344602759 522137075
        -1073742339 -1683009091 -1342186179</internalNodes>
      <leafValues>
        -2.4896855652332306e-01 2.2803723812103271e-01</leafValues></_></weakClassifiers></stage1>
</opencv_storage>
