<?xml version="1.0"?>
<opencv_storage>
<stage14>
  <maxWeakCount>100</maxWeakCount>
  <stageThreshold>-1.8301833868026733e+00</stageThreshold>
  <weakClassifiers>
    <_>
      <internalNodes>
        0 -1 62 -269258753 -406901981 -136350209 -578781 -557061
        -78645569 -32769 -557057</internalNodes>
      <leafValues>
        -3.5290458798408508e-01 5.4996464401483536e-02</leafValues></_>
    <_>
      <internalNodes>
        0 -1 762 -33686155 1567979349 -570572801 435912703 -50529040
        -121784084 -1427309187 -1999765649</internalNodes>
      <leafValues>
        -1.7656038701534271e-01 2.0127232372760773e-01</leafValues></_>
    <_>
      <internalNodes>
        0 -1 1016 1576524255 270080351 -538970113 3342335 -31522817
        -11535541 -4456449 -1430585345</internalNodes>
      <leafValues>
        -2.4020452797412872e-01 1.4240215718746185e-01</leafValues></_>
    <_>
      <internalNodes>
        0 -1 186 -72683040 -1380112 -570638857 -1253136 1002094509 -5398
        1064304637 1474119109</internalNodes>
      <leafValues>
        -2.3803326487541199e-01 1.2799580395221710e-01</leafValues></_>
    <_>
      <internalNodes>
        0 -1 524 -81264886 -8437937 -525350 -65571 -351555665 -75554017
        -15728691 -268450483</internalNodes>
      <leafValues>
        -9.2406526207923889e-02 2.3232738673686981e-01</leafValues></_>
    <_>
      <internalNodes>
        0 -1 9 -1364545808 -285298946 -1644246283 -805534492 789757840
        -2113813 2132754367 -2161387</internalNodes>
      <leafValues>
        -2.1211071312427521e-01 8.7226815521717072e-02</leafValues></_>
    <_>
      <internalNodes>
        0 -1 976 1439715413 1065164157 -47185953 1002067967 -85918280
        -336449 -80152327 991592319</internalNodes>
      <leafValues>
        -1.2329167872667313e-01 1.7175303399562836e-01</leafValues></_>
    <_>
      <internalNodes>
        0 -1 1115 1795129354 24985615 677087370 9624143 -336623606
        1397948419 -204755318 1625029503</internalNodes>
      <leafValues>
        -2.2233608365058899e-01 8.2062199711799622e-02</leafValues></_>
    <_>
      <internalNodes>
        0 -1 1042 -67117024 2139029767 1999861759 1932688255 -71642424
        -68200197 -96731651 -71565313</internalNodes>
      <leafValues>
        -7.3740631341934204e-02 2.3553565144538879e-01</leafValues></_>
    <_>
      <internalNodes>
        0 -1 101 586887415 687861758 -11075585 -304304768 2146336756
        1023410174 -268435979 82180087</internalNodes>
      <leafValues>
        -2.5181588530540466e-01 5.3970415145158768e-02</leafValues></_>
    <_>
      <internalNodes>
        0 -1 1121 699367715 230684715 996111616 -1342184617 45547811
        60542371 388960545 1711272955</internalNodes>
      <leafValues>
        -2.2433209419250488e-01 7.1708358824253082e-02</leafValues></_>
    <_>
      <internalNodes>
        0 -1 800 -167775923 1442649439 -546324529 465558495 -253366016
        -41712 -1101922375 -1140884636</internalNodes>
      <leafValues>
        -7.3732785880565643e-02 2.0339138805866241e-01</leafValues></_>
    <_>
      <internalNodes>
        0 -1 1104 1289700447 944855167 -35786241 542310271 -295703414
        -636057480 -84149795 -1475280897</internalNodes>
      <leafValues>
        -2.1743378043174744e-01 6.7356809973716736e-02</leafValues></_>
    <_>
      <internalNodes>
        0 -1 481 -285327499 -285332609 -337330177 -1342523027 -269873223
        -1069825 -1903552147 -1886516209</internalNodes>
      <leafValues>
        -1.1188542097806931e-01 1.3573816418647766e-01</leafValues></_>
    <_>
      <internalNodes>
        0 -1 1035 -67118775 433918989 -874521906 1769439 -74844024
        -615711736 -89556664 -1470234801</internalNodes>
      <leafValues>
        -1.4383794367313385e-01 1.0462195426225662e-01</leafValues></_>
    <_>
      <internalNodes>
        0 -1 329 -84759902 -110659735 -98557270 -1386505 792702895
        2067740527 1465865669 -10299</internalNodes>
      <leafValues>
        -1.2344752252101898e-01 1.1563216894865036e-01</leafValues></_>
    <_>
      <internalNodes>
        0 -1 508 -488587423 1300024175 -143880433 -1346445841
        -1414616799 -1142080725 -90300595 147653903</internalNodes>
      <leafValues>
        -1.0873182862997055e-01 1.2487001717090607e-01</leafValues></_>
    <_>
      <internalNodes>
        0 -1 0 -1346371589 -286331318 1205596850 -271919380 -1141113861
        -1677723670 2011165151 -536880643</internalNodes>
      <leafValues>
        -9.4186864793300629e-02 1.4431434869766235e-01</leafValues></_>
    <_>
      <internalNodes>
        0 -1 126 709569067 188678156 1107365058 1139497575 1865120610
        122639175 -550800065 2141716351</internalNodes>
      <leafValues>
        -2.0167525112628937e-01 6.4886264503002167e-02</leafValues></_>
    <_>
      <internalNodes>
        0 -1 587 -470046876 360709447 1605352878 166461263 -17936
        -108223432 -805545143 192507751</internalNodes>
      <leafValues>
        -1.0196650773286819e-01 1.2621711194515228e-01</leafValues></_>
    <_>
      <internalNodes>
        0 -1 201 -269828113 -270649346 -135091481 -1343301897 1798024968
        -339751198 1863218949 -270711465</internalNodes>
      <leafValues>
        -1.2310817837715149e-01 1.0427501797676086e-01</leafValues></_>
    <_>
      <internalNodes>
        0 -1 730 212098389 769554045 -40902657 653983231 -1111638223
        -4489541 -1383194835 -1442178689</internalNodes>
      <leafValues>
        -1.3156814873218536e-01 9.8332181572914124e-02</leafValues></_>
    <_>
      <internalNodes>
        0 -1 62 476872736 1031794412 -832598509 -273819905 191942519
        169832191 226222933 1979577719</internalNodes>
      <leafValues>
        -9.2813141644001007e-02 1.3631759583950043e-01</leafValues></_>
    <_>
      <internalNodes>
        0 -1 28 -7670285 -271655710 -134357505 -268642592 1057684274
        -31467290 2136962903 -572701371</internalNodes>
      <leafValues>
        -1.2901757657527924e-01 1.0667885839939117e-01</leafValues></_>
    <_>
      <internalNodes>
        0 -1 994 -33691795 -539017207 -78905857 -147141249 -71499894
        -73423462 -83166213 -74727425</internalNodes>
      <leafValues>
        -4.5781902968883514e-02 2.8185996413230896e-01</leafValues></_>
    <_>
      <internalNodes>
        0 -1 996 -101338560 1509753455 2066216447 49404927 -1427522856
        -342060920 -352790472 -1433863345</internalNodes>
      <leafValues>
        -1.2677435576915741e-01 9.2868894338607788e-02</leafValues></_>
    <_>
      <internalNodes>
        0 -1 337 -1422251480 960115537 -537009178 -334860 1067936715
        -1411797286 2063546877 -560651</internalNodes>
      <leafValues>
        -1.3665193319320679e-01 8.2693919539451599e-02</leafValues></_>
    <_>
      <internalNodes>
        0 -1 747 -268537483 2146433145 -8921345 -275055137 -268815191
        -1327170 -1548002567 -274005989</internalNodes>
      <leafValues>
        -7.4294447898864746e-02 1.5871864557266235e-01</leafValues></_>
    <_>
      <internalNodes>
        0 -1 561 -19995698 -929003380 -818064917 -1072894618 2147462539
        -285425524 -1052673 13500416</internalNodes>
      <leafValues>
        -1.8701212108135223e-01 6.1324134469032288e-02</leafValues></_>
    <_>
      <internalNodes>
        0 -1 922 1606414645 530576829 961386512 -1644201495 799617443
        1068497919 197090597 -1879062161</internalNodes>
      <leafValues>
        -1.0573731362819672e-01 1.0747109353542328e-01</leafValues></_>
    <_>
      <internalNodes>
        0 -1 804 -1359063995 -1073788578 -558921219 -1409786499
        -1347655444 2145086266 -1901306371 783943689</internalNodes>
      <leafValues>
        -1.5160360932350159e-01 7.3075294494628906e-02</leafValues></_>
    <_>
      <internalNodes>
        0 -1 186 2121318553 1510469930 -1016281944 -990678033 -9046112
        775115008 -273387610 -319376866</internalNodes>
      <leafValues>
        -7.2904951870441437e-02 1.5245497226715088e-01</leafValues></_>
    <_>
      <internalNodes>
        0 -1 1005 1570738440 536853931 353836304 525334462 17372464
        253704458 -1088685213 -1498419281</internalNodes>
      <leafValues>
        -1.2011857330799103e-01 9.2369250953197479e-02</leafValues></_>
    <_>
      <internalNodes>
        0 -1 140 -285298704 -285331681 -6384642 -1398226840 193929013
        -604248113 -7793331 194839556</internalNodes>
      <leafValues>
        -1.5206651389598846e-01 7.0217296481132507e-02</leafValues></_>
    <_>
      <internalNodes>
        0 -1 490 800749909 1878979676 -23334401 -1212489763 195768063
        -336675394 -376742551 -1610661795</internalNodes>
      <leafValues>
        -1.0858573764562607e-01 9.5966525375843048e-02</leafValues></_>
    <_>
      <internalNodes>
        0 -1 762 1153143752 -1965316690 -1057130616 -421224597
        -2082500791 -878779257 1565882343 721610853</internalNodes>
      <leafValues>
        -1.0677523910999298e-01 9.8748892545700073e-02</leafValues></_>
    <_>
      <internalNodes>
        0 -1 702 33008236 31436771 1873647340 264175615 -1410412567
        870050735 -51839635 751684719</internalNodes>
      <leafValues>
        -1.4003457129001617e-01 7.8776247799396515e-02</leafValues></_>
    <_>
      <internalNodes>
        0 -1 1100 -8431267 86333513 -34343173 572170622 -549463075
        1430476112 -4194307 805371741</internalNodes>
      <leafValues>
        -1.8645593523979187e-01 5.4577443748712540e-02</leafValues></_>
    <_>
      <internalNodes>
        0 -1 554 103947584 780025166 -564482833 -1413841841 -1409401276
        -536891480 -539484839 -1894118076</internalNodes>
      <leafValues>
        -1.6263896226882935e-01 6.4256437122821808e-02</leafValues></_>
    <_>
      <internalNodes>
        0 -1 701 1567943680 530098976 526361552 1039528924 1793994473
        2146958335 -1248022595 147718413</internalNodes>
      <leafValues>
        -1.5397113561630249e-01 6.5781511366367340e-02</leafValues></_>
    <_>
      <internalNodes>
        0 -1 1048 1172291616 86991910 301965480 13527023 293408896
        164483406 -80257592 550108015</internalNodes>
      <leafValues>
        -2.1178460121154785e-01 4.6163950115442276e-02</leafValues></_>
    <_>
      <internalNodes>
        0 -1 831 -365528 -4201434 -139747333 -4560293 -276104439
        -68470385 -277193879 -343212021</internalNodes>
      <leafValues>
        -6.5600469708442688e-02 1.5271523594856262e-01</leafValues></_>
    <_>
      <internalNodes>
        0 -1 207 802058026 -16077048 -546576894 -1616185088 252714859
        -1908229054 1274762597 -268479147</internalNodes>
      <leafValues>
        -1.3840548694133759e-01 7.2475284337997437e-02</leafValues></_>
    <_>
      <internalNodes>
        0 -1 550 -1898251143 -106916 -10485793 -289874433 -1343488001
        -340025109 -1711317507 -5563085</internalNodes>
      <leafValues>
        -7.2078920900821686e-02 1.3956712186336517e-01</leafValues></_>
    <_>
      <internalNodes>
        0 -1 1055 -167775453 232757419 -1281392382 -1483735193 144398211
        128968079 638575367 -2019561589</internalNodes>
      <leafValues>
        -1.2017432600259781e-01 7.3688097298145294e-02</leafValues></_>
    <_>
      <internalNodes>
        0 -1 427 -289689811 -91520408 -140510734 -335872816 798998315
        -1076891032 125796205 -805333755</internalNodes>
      <leafValues>
        -9.2824488878250122e-02 9.6318453550338745e-02</leafValues></_>
    <_>
      <internalNodes>
        0 -1 1006 -570436108 -46259894 1037254008 -61224 783071737
        -1681951453 -1076103047 -1077978113</internalNodes>
      <leafValues>
        -4.8811022192239761e-02 1.8852311372756958e-01</leafValues></_>
    <_>
      <internalNodes>
        0 -1 1060 1079268421 980030843 1972829695 716732367 -272046116
        -29729791 -104268359 -1440154881</internalNodes>
      <leafValues>
        -1.4909170567989349e-01 6.2677405774593353e-02</leafValues></_>
    <_>
      <internalNodes>
        0 -1 533 707800592 1064909685 199896579 1069468852 1072246196
        2146258287 -8704017 788210181</internalNodes>
      <leafValues>
        -2.4771618843078613e-01 3.5974130034446716e-02</leafValues></_>
    <_>
      <internalNodes>
        0 -1 718 -276759452 2136878457 1030272246 905644671 -1343506040
        -1411432581 -1074222152 -1514307729</internalNodes>
      <leafValues>
        -6.3832081854343414e-02 1.4348489046096802e-01</leafValues></_>
    <_>
      <internalNodes>
        0 -1 4 -268451969 -288428186 -37832621 -1534546994 251607971
        -1209291026 1737438037 -1143258</internalNodes>
      <leafValues>
        -1.0743633657693863e-01 8.2742333412170410e-02</leafValues></_>
    <_>
      <internalNodes>
        0 -1 1116 803188642 905960251 1940379634 2145349882 1165358760
        -843112071 2141054128 1895166151</internalNodes>
      <leafValues>
        -8.9658603072166443e-02 9.8058514297008514e-02</leafValues></_>
    <_>
      <internalNodes>
        0 -1 532 1515240136 2130738158 1780133434 -1158220818 253927305
        -75534833 -32516795 787432007</internalNodes>
      <leafValues>
        -9.9263392388820648e-02 8.9684955775737762e-02</leafValues></_>
    <_>
      <internalNodes>
        0 -1 238 710020673 775554087 1309810730 -1407025374 201272139
        725187115 1604473921 1864072039</internalNodes>
      <leafValues>
        -2.5629869103431702e-01 3.4283205866813660e-02</leafValues></_>
    <_>
      <internalNodes>
        0 -1 696 -503897306 2113374055 -1090646 -1979810306 -1342455879
        -1128923716 -12976771 -1462374537</internalNodes>
      <leafValues>
        -8.9885577559471130e-02 9.5825523138046265e-02</leafValues></_>
    <_>
      <internalNodes>
        0 -1 478 -303530927 2147378300 -87040005 -2435723 -1349861377
        -269568770 -273009287 -302382761</internalNodes>
      <leafValues>
        -7.6442606747150421e-02 1.1091472208499908e-01</leafValues></_>
    <_>
      <internalNodes>
        0 -1 43 -1423774677 -460397592 -72497101 -151584928 1041695555
        2026897279 1019434463 -841652911</internalNodes>
      <leafValues>
        -1.1622321605682373e-01 7.4182100594043732e-02</leafValues></_>
    <_>
      <internalNodes>
        0 -1 567 768244741 2097038445 -67183906 -2718793 -2081232099
        -20996033 -1109460545 -1180565485</internalNodes>
      <leafValues>
        -9.6483640372753143e-02 9.2431321740150452e-02</leafValues></_>
    <_>
      <internalNodes>
        0 -1 765 -335810040 -8651033 1944535038 -74627 -349721458
        -71406753 -275039939 -336658169</internalNodes>
      <leafValues>
        -5.8624185621738434e-02 1.4370164275169373e-01</leafValues></_>
    <_>
      <internalNodes>
        0 -1 911 -671437216 536814664 836833720 48150865 -1896559716
        248342478 -8720903 15597485</internalNodes>
      <leafValues>
        -1.3511608541011810e-01 6.4382441341876984e-02</leafValues></_>
    <_>
      <internalNodes>
        0 -1 936 -1060323087 1230243973 -9445377 268497367 -499013164
        -3233336 -272503823 -1971269819</internalNodes>
      <leafValues>
        -1.4435324072837830e-01 5.7632666081190109e-02</leafValues></_>
    <_>
      <internalNodes>
        0 -1 1097 -478511064 1574821720 -2068733646 -2425857 -1414209376
        536753668 -1296583240 838598639</internalNodes>
      <leafValues>
        -7.0377625524997711e-02 1.2036944180727005e-01</leafValues></_>
    <_>
      <internalNodes>
        0 -1 1078 -2142239668 760304661 -590366987 1000766943 -893454244
        -5769442 -1157804932 -1440681236</internalNodes>
      <leafValues>
        -1.4680930972099304e-01 5.4506860673427582e-02</leafValues></_>
    <_>
      <internalNodes>
        0 -1 1107 -1459631075 173871741 -1032483942 48405087 788433688
        1484438548 -1097345736 708048767</internalNodes>
      <leafValues>
        -1.1803717911243439e-01 6.9905258715152740e-02</leafValues></_>
    <_>
      <internalNodes>
        0 -1 822 -1409360660 -444655124 2099746074 797595903 -68523892
        -68229270 -375751879 -343261183</internalNodes>
      <leafValues>
        -1.0111271589994431e-01 8.2149639725685120e-02</leafValues></_>
    <_>
      <internalNodes>
        0 -1 327 -1426356174 -1187300742 -536892454 -4523806 801357739
        -268452022 2046522877 -34089509</internalNodes>
      <leafValues>
        -6.1942055821418762e-02 1.3396669924259186e-01</leafValues></_>
    <_>
      <internalNodes>
        0 -1 678 1743416616 -536987363 -1080738322 -1073825417
        -274037490 -2369405 -1144095527 -337707007</internalNodes>
      <leafValues>
        -9.2707060277462006e-02 8.7753288447856903e-02</leafValues></_>
    <_>
      <internalNodes>
        0 -1 71 686303312 73960676 -824414209 -403962118 -538149580
        -1395275811 -34701844 617377742</internalNodes>
      <leafValues>
        -1.4763727784156799e-01 5.5575620383024216e-02</leafValues></_>
    <_>
      <internalNodes>
        0 -1 121 -495727001 1768818952 -806182335 -113707407 1870655467
        1599831663 2013221749 -3225</internalNodes>
      <leafValues>
        -8.2599058747291565e-02 9.9611625075340271e-02</leafValues></_>
    <_>
      <internalNodes>
        0 -1 808 -355801659 470571084 1425012635 -1911660577 -1366365067
        -71400529 -1048839 -1442183935</internalNodes>
      <leafValues>
        -1.0951085388660431e-01 7.2963714599609375e-02</leafValues></_>
    <_>
      <internalNodes>
        0 -1 76 841921774 346881216 1876602815 -10310034 955784436
        146579156 -285373506 215254759</internalNodes>
      <leafValues>
        -1.2787866592407227e-01 6.5568409860134125e-02</leafValues></_>
    <_>
      <internalNodes>
        0 -1 634 -269847555 -1073799729 -1099068674 -1086620707
        -1346762360 -336611 -1079297668 -1344589701</internalNodes>
      <leafValues>
        -7.5220838189125061e-02 1.1181272566318512e-01</leafValues></_>
    <_>
      <internalNodes>
        0 -1 474 -319050398 385826398 -1348603249 66723503 -277273340
        1565792364 1557154056 1779259940</internalNodes>
      <leafValues>
        -1.1862506717443466e-01 6.9411203265190125e-02</leafValues></_>
    <_>
      <internalNodes>
        0 -1 262 716717936 -1976695238 1989354324 -530948236 731533098
        -2027967402 167581041 100402420</internalNodes>
      <leafValues>
        -2.2614382207393646e-01 3.3872764557600021e-02</leafValues></_>
    <_>
      <internalNodes>
        0 -1 657 -389104267 1852711244 -1213301105 -1397173041
        -1414283424 -1075896539 -1350218409 -1375139325</internalNodes>
      <leafValues>
        -8.9448556303977966e-02 8.8696017861366272e-02</leafValues></_>
    <_>
      <internalNodes>
        0 -1 915 -2163296 -1621608504 508506616 -2712674 -279667
        1005270495 -1161847112 -1415546385</internalNodes>
      <leafValues>
        -6.3371844589710236e-02 1.2408410012722015e-01</leafValues></_>
    <_>
      <internalNodes>
        0 -1 711 484384800 1066284684 520685856 528285476 1072496935
        1055729392 -889369667 650996993</internalNodes>
      <leafValues>
        -2.2200147807598114e-01 3.5835217684507370e-02</leafValues></_>
    <_>
      <internalNodes>
        0 -1 396 -285759505 1442556013 -272651954 734724079 -79822998
        -1391491832 -816509111 705779015</internalNodes>
      <leafValues>
        -8.3263769745826721e-02 9.3904726207256317e-02</leafValues></_>
    <_>
      <internalNodes>
        0 -1 402 1856699449 1810790506 -35922433 -1495622428 -272909394
        -1406612 1655583585 -811641731</internalNodes>
      <leafValues>
        -8.8893771171569824e-02 8.7104924023151398e-02</leafValues></_>
    <_>
      <internalNodes>
        0 -1 1120 1772085506 546306910 -2129022928 -956372514 303788448
        13603837 1899164081 -121634817</internalNodes>
      <leafValues>
        -1.0868153721094131e-01 7.1032337844371796e-02</leafValues></_>
    <_>
      <internalNodes>
        0 -1 1093 -414941184 2139048012 -668083874 1933242735 -205808984
        -1140909756 -80285272 -89063713</internalNodes>
      <leafValues>
        -7.1000002324581146e-02 1.0647954046726227e-01</leafValues></_>
    <_>
      <internalNodes>
        0 -1 887 773620136 147851576 -11881930 1145372508 -2014471171
        -1073892896 -672269509 180727616</internalNodes>
      <leafValues>
        -1.5449821949005127e-01 4.6933244913816452e-02</leafValues></_>
    <_>
      <internalNodes>
        0 -1 964 -874323936 -10551204 771538408 -809890616 268253609
        -1107559233 -2033252163 -4341957</internalNodes>
      <leafValues>
        -5.5955685675144196e-02 1.3492238521575928e-01</leafValues></_>
    <_>
      <internalNodes>
        0 -1 965 857154560 230656806 356261936 -1932613144 148058528
        791389353 841830696 -1929532053</internalNodes>
      <leafValues>
        -1.6966748237609863e-01 4.4910967350006104e-02</leafValues></_>
    <_>
      <internalNodes>
        0 -1 873 218058837 99604813 1668333231 177798907 -352825344
        -1074998812 -1468780267 -1442758831</internalNodes>
      <leafValues>
        -1.2654240429401398e-01 5.8846138417720795e-02</leafValues></_>
    <_>
      <internalNodes>
        0 -1 18 -1193619206 -1060847412 1877157871 -1999892850
        1530341170 -455230052 2147299158 80549494</internalNodes>
      <leafValues>
        -1.3645054399967194e-01 5.6370392441749573e-02</leafValues></_>
    <_>
      <internalNodes>
        0 -1 217 -1425397494 -271627444 -155217408 -8192960 -1344335874
        1072376584 -69515419 -34253468</internalNodes>
      <leafValues>
        -1.3022139668464661e-01 6.0751184821128845e-02</leafValues></_>
    <_>
      <internalNodes>
        0 -1 319 -274006300 2146334254 -545407478 2146877183 -272715857
        2138712162 2005702092 -270777265</internalNodes>
      <leafValues>
        -6.5572068095207214e-02 1.1911424249410629e-01</leafValues></_>
    <_>
      <internalNodes>
        0 -1 1012 -2125442960 1071602015 -234955321 996040159 -339690068
        -5521493 -599783 -1439016655</internalNodes>
      <leafValues>
        -1.1417256295681000e-01 6.7701645195484161e-02</leafValues></_>
    <_>
      <internalNodes>
        0 -1 1 -1414878429 1814887532 -1143211357 -218563096 932386819
        -483132774 526350323 -168012713</internalNodes>
      <leafValues>
        -9.2881426215171814e-02 8.0094024538993835e-02</leafValues></_>
    <_>
      <internalNodes>
        0 -1 602 -286362624 -675349300 -771752580 -285484843 -1435852115
        -1083183432 -1627679315 1739292677</internalNodes>
      <leafValues>
        -9.5792166888713837e-02 7.8081332147121429e-02</leafValues></_>
    <_>
      <internalNodes>
        0 -1 636 -153095209 -1073829313 -1615906550 -1345339681 -2115593
        -1348731397 1860923757 -805341137</internalNodes>
      <leafValues>
        -4.5953888446092606e-02 1.6621419787406921e-01</leafValues></_>
    <_>
      <internalNodes>
        0 -1 534 -360828224 1923875943 721488680 602033141 -1438138745
        870031854 -20627955 801990469</internalNodes>
      <leafValues>
        -1.0237076878547668e-01 7.3761634528636932e-02</leafValues></_>
    <_>
      <internalNodes>
        0 -1 783 -11491804 -1879441592 -1107674182 -1152897538
        -1342293880 -1149272065 -1155908100 -1510518403</internalNodes>
      <leafValues>
        -8.0502234399318695e-02 9.4416946172714233e-02</leafValues></_>
    <_>
      <internalNodes>
        0 -1 849 719201280 -1413732228 1072507672 -1361406764
        -1417016504 -1074841629 -1426451168 -1363662843</internalNodes>
      <leafValues>
        -1.8373245000839233e-01 4.5658335089683533e-02</leafValues></_>
    <_>
      <internalNodes>
        0 -1 413 674772208 92851912 799809315 612847362 1575824686
        1574296844 1728033130 549728079</internalNodes>
      <leafValues>
        -1.9729919731616974e-01 3.8633931428194046e-02</leafValues></_>
    <_>
      <internalNodes>
        0 -1 1102 780370136 223936532 1380920831 104858693 985579511
        -1934118252 2067790331 672188533</internalNodes>
      <leafValues>
        -1.9575291872024536e-01 3.8878694176673889e-02</leafValues></_>
    <_>
      <internalNodes>
        0 -1 897 -503398360 -1045443576 2077079278 -83186373 -1141408960
        -1347436659 -1092038280 -1431657727</internalNodes>
      <leafValues>
        -9.8207093775272369e-02 7.5505062937736511e-02</leafValues></_>
    <_>
      <internalNodes>
        0 -1 714 -3216900 -269271266 724188702 -646623 -1347896792
        -1086433460 -1414873688 -67892357</internalNodes>
      <leafValues>
        -5.0943594425916672e-02 1.4785787463188171e-01</leafValues></_>
    <_>
      <internalNodes>
        0 -1 985 -1932048307 206244165 1786356478 168877807 -360949148
        -1638971904 -330806184 -1442775187</internalNodes>
      <leafValues>
        -1.5492302179336548e-01 4.8231698572635651e-02</leafValues></_></weakClassifiers></stage14>
</opencv_storage>
