<?xml version="1.0"?>
<opencv_storage>
<stage0>
  <maxWeakCount>12</maxWeakCount>
  <stageThreshold>-2.0791466236114502e+00</stageThreshold>
  <weakClassifiers>
    <_>
      <internalNodes>
        0 -1 77 -1073741825 1040171007 -1 -1073741825 1073725439
        1073692671 -1073758209 771702783</internalNodes>
      <leafValues>
        -6.3756537437438965e-01 4.9701830744743347e-01</leafValues></_>
    <_>
      <internalNodes>
        0 -1 1100 -1 754909183 -1 -1426391041 -1 -1 -1 -1459814404</internalNodes>
      <leafValues>
        -5.5035096406936646e-01 5.1596808433532715e-01</leafValues></_>
    <_>
      <internalNodes>
        0 -1 127 574041895 805273471 -268455953 -1 1073692543 2147450879
        2147448695 -129</internalNodes>
      <leafValues>
        -4.7860887646675110e-01 4.0721112489700317e-01</leafValues></_>
    <_>
      <internalNodes>
        0 -1 1017 -654516771 -665559715 -1 135331839 -16973827 -1
        -83951617 -1464140036</internalNodes>
      <leafValues>
        -3.8451746106147766e-01 3.9654844999313354e-01</leafValues></_>
    <_>
      <internalNodes>
        0 -1 1055 -1480612061 801095599 -1073794253 -1342177297
        1073725431 805306367 -402688713 -268435473</internalNodes>
      <leafValues>
        -2.9934975504875183e-01 4.1077563166618347e-01</leafValues></_>
    <_>
      <internalNodes>
        0 -1 185 -1343569921 -286588946 -16385 -1342509072 -268435457
        -329993 -34827 -658108</internalNodes>
      <leafValues>
        -3.0592212080955505e-01 3.7817695736885071e-01</leafValues></_>
    <_>
      <internalNodes>
        0 -1 4 -1364316161 -1360478210 -20481 -1360199712 805257215
        -16385 -536907403 -56028</internalNodes>
      <leafValues>
        -3.2074075937271118e-01 2.9213812947273254e-01</leafValues></_>
    <_>
      <internalNodes>
        0 -1 795 -268894731 -33619971 -33554433 -327681 -16387 -1048577
        -49153 788413813</internalNodes>
      <leafValues>
        -3.6470419168472290e-01 2.2668662667274475e-01</leafValues></_>
    <_>
      <internalNodes>
        0 -1 217 -1342231745 -1494220929 -16818241 -268779536 804731775
        -278531 2147450741 -699020</internalNodes>
      <leafValues>
        -3.1246775388717651e-01 2.4222557246685028e-01</leafValues></_>
    <_>
      <internalNodes>
        0 -1 928 75301205 206904703 -8405185 784007167 -657400587
        -131333 -1094975507 -1426391170</internalNodes>
      <leafValues>
        -2.7278220653533936e-01 2.7115431427955627e-01</leafValues></_>
    <_>
      <internalNodes>
        0 -1 1100 150869085 -754639867 -553697292 1410608682 1212153397
        -387154052 -50424204 1443016243</internalNodes>
      <leafValues>
        -3.3675682544708252e-01 1.9304327666759491e-01</leafValues></_>
    <_>
      <internalNodes>
        0 -1 1121 -1481916621 188202971 1073717239 -1359020067 65517495
        268433407 -411044879 -301989889</internalNodes>
      <leafValues>
        -2.3166757822036743e-01 2.8236278891563416e-01</leafValues></_></weakClassifiers></stage0>
</opencv_storage>
