<?xml version="1.0"?>
<opencv_storage>
<stage2>
  <maxWeakCount>36</maxWeakCount>
  <stageThreshold>-2.0206248760223389e+00</stageThreshold>
  <weakClassifiers>
    <_>
      <internalNodes>
        0 -1 401 -33554433 -572654081 -1 -33554433 -1073741825
        1040166335 -1 149946367</internalNodes>
      <leafValues>
        -5.4254251718521118e-01 4.0648111701011658e-01</leafValues></_>
    <_>
      <internalNodes>
        0 -1 1100 -1 -8193 -1 -1426391041 -1 -17039361 -1 -117899265</internalNodes>
      <leafValues>
        -3.7483844161033630e-01 4.6953505277633667e-01</leafValues></_>
    <_>
      <internalNodes>
        0 -1 107 796864307 2147430379 1065299967 -54430 1073692607
        2147450879 2147434495 2147428199</internalNodes>
      <leafValues>
        -4.4877389073371887e-01 3.1313166022300720e-01</leafValues></_>
    <_>
      <internalNodes>
        0 -1 973 -590064299 273964373 -1 403767263 -16973828 -196611
        -17235969 -1442775041</internalNodes>
      <leafValues>
        -3.6517751216888428e-01 2.7087149024009705e-01</leafValues></_>
    <_>
      <internalNodes>
        0 -1 1121 -1409305805 221249339 1566536467 -1342177317 200241971
        67108851 2004841779 -268436481</internalNodes>
      <leafValues>
        -2.6223254203796387e-01 3.0925199389457703e-01</leafValues></_>
    <_>
      <internalNodes>
        0 -1 49 -274006025 -269815822 -3145729 -199952 -9961473 -1048577
        2145353727 -34987</internalNodes>
      <leafValues>
        -2.3725485801696777e-01 3.2832112908363342e-01</leafValues></_>
    <_>
      <internalNodes>
        0 -1 862 1156912469 1064777599 -1073758209 708509567 -109281964
        -36995 -17498243 -1439678597</internalNodes>
      <leafValues>
        -2.7225109934806824e-01 2.4399203062057495e-01</leafValues></_>
    <_>
      <internalNodes>
        0 -1 461 2013247279 1073741823 -1074810961 -1073741825
        2013100015 1073741807 -43025 803209071</internalNodes>
      <leafValues>
        -2.3453627526760101e-01 2.5904530286788940e-01</leafValues></_>
    <_>
      <internalNodes>
        0 -1 0 -1360085121 715837038 -65 -1362440200 -1140867073
        -1040187417 1073706871 -269495180</internalNodes>
      <leafValues>
        -2.2989572584629059e-01 2.3760561645030975e-01</leafValues></_>
    <_>
      <internalNodes>
        0 -1 1117 -335549685 78620479 532676499 43973631 -337657965
        503281599 -38030951 -521076753</internalNodes>
      <leafValues>
        -2.4157357215881348e-01 2.1929384768009186e-01</leafValues></_>
    <_>
      <internalNodes>
        0 -1 554 -286380171 -285327489 -537092097 -1346491537
        -1074053123 -12289 -4448771 -1359213056</internalNodes>
      <leafValues>
        -2.3174983263015747e-01 2.2057832777500153e-01</leafValues></_>
    <_>
      <internalNodes>
        0 -1 829 -856323964 -1916433147 -131147 -1915355163 -862347100
        -118641276 -370348628 -1463420027</internalNodes>
      <leafValues>
        -2.3716704547405243e-01 2.0209217071533203e-01</leafValues></_>
    <_>
      <internalNodes>
        0 -1 730 -1536158379 750663277 -33570817 -1363264129 -65005707
        -1073791617 -276546179 -1431684317</internalNodes>
      <leafValues>
        -2.5034108757972717e-01 1.7231898009777069e-01</leafValues></_>
    <_>
      <internalNodes>
        0 -1 102 -268459485 -269553812 -287851982 -303379872 1668765299
        931066563 1946121585 -698763</internalNodes>
      <leafValues>
        -2.3515389859676361e-01 1.8414428830146790e-01</leafValues></_>
    <_>
      <internalNodes>
        0 -1 914 1572844801 524287423 487538432 1069530927 901756321
        196918255 -1660953111 -1599209553</internalNodes>
      <leafValues>
        -1.9622300565242767e-01 2.1157175302505493e-01</leafValues></_>
    <_>
      <internalNodes>
        0 -1 1100 -318776193 140786772 -536888321 1964266622 -21038085
        -1045669008 -33620484 646380088</internalNodes>
      <leafValues>
        -2.3144152760505676e-01 1.7369543015956879e-01</leafValues></_>
    <_>
      <internalNodes>
        0 -1 401 1593570800 875963008 -302514177 111978404 1694473649
        -896772116 955727543 -149608697</internalNodes>
      <leafValues>
        -1.6612860560417175e-01 2.3236460983753204e-01</leafValues></_>
    <_>
      <internalNodes>
        0 -1 126 729743919 708795999 -837886341 -1888818201 803956259
        1744179035 -12878467 -557193</internalNodes>
      <leafValues>
        -2.5390005111694336e-01 1.4481541514396667e-01</leafValues></_>
    <_>
      <internalNodes>
        0 -1 45 -274025489 -269565978 -4212737 -1344209824 -549715973 -2
        -134257339 -269494937</internalNodes>
      <leafValues>
        -1.5835826098918915e-01 2.2791013121604919e-01</leafValues></_>
    <_>
      <internalNodes>
        0 -1 107 1377829444 10503446 1107055108 132089045 1298006627
        752316215 1056915748 -2055908208</internalNodes>
      <leafValues>
        -3.1619465351104736e-01 1.0804561525583267e-01</leafValues></_>
    <_>
      <internalNodes>
        0 -1 1035 -16787123 354359565 -572548517 1768287 -50463832
        -631464703 -220562116 -1460929713</internalNodes>
      <leafValues>
        -1.7676715552806854e-01 1.9170407950878143e-01</leafValues></_>
    <_>
      <internalNodes>
        0 -1 813 -1401154220 -67208833 -576001 -1073840129 -269525252
        -1140928577 -540271623 -1415053056</internalNodes>
      <leafValues>
        -2.3815235495567322e-01 1.4326240122318268e-01</leafValues></_>
    <_>
      <internalNodes>
        0 -1 1121 1646739624 686765806 -1689272928 1924816710 1627885472
        -916490415 -1494252096 888927027</internalNodes>
      <leafValues>
        -2.3121321201324463e-01 1.4052118360996246e-01</leafValues></_>
    <_>
      <internalNodes>
        0 -1 356 -1901450383 -286347661 -839602499 -1395088289
        -1410392323 -269492737 -2351751 -272954332</internalNodes>
      <leafValues>
        -1.8866510689258575e-01 1.6947978734970093e-01</leafValues></_>
    <_>
      <internalNodes>
        0 -1 22 1954217716 -721648476 -172572953 -844190774 -34098736
        -2048904011 -281334794 149908230</internalNodes>
      <leafValues>
        -2.0541313290596008e-01 1.4842031896114349e-01</leafValues></_>
    <_>
      <internalNodes>
        0 -1 136 -292634761 -286351494 -33572949 -1380270340 -1077986307
        -1329157 -379457 -4255645</internalNodes>
      <leafValues>
        -1.2112124264240265e-01 2.2360992431640625e-01</leafValues></_>
    <_>
      <internalNodes>
        0 -1 1011 2100801827 227489539 1342148480 -1890421009 561952176
        195536889 796856721 -1342195377</internalNodes>
      <leafValues>
        -1.8566641211509705e-01 1.4596508443355560e-01</leafValues></_>
    <_>
      <internalNodes>
        0 -1 882 -1998629819 243206190 1006612207 718995407 -181164
        -67112335 -1695056267 -1979184121</internalNodes>
      <leafValues>
        -2.1826583147048950e-01 1.1949697881937027e-01</leafValues></_>
    <_>
      <internalNodes>
        0 -1 300 -601323504 -1653560587 -212993 -318736 -2932811
        653776895 -312387 771698503</internalNodes>
      <leafValues>
        -1.9193956255912781e-01 1.3905154168605804e-01</leafValues></_>
    <_>
      <internalNodes>
        0 -1 973 -1352684882 -276231493 1591672827 -418652876
        -1955357561 -1630283273 -1180699656 1371254529</internalNodes>
      <leafValues>
        -1.2152369320392609e-01 2.0783191919326782e-01</leafValues></_>
    <_>
      <internalNodes>
        0 -1 1110 1207945293 652024159 -2167809 171078399 1274257240
        -1431884800 -7079672 -527368325</internalNodes>
      <leafValues>
        -2.1288052201271057e-01 1.3069361448287964e-01</leafValues></_>
    <_>
      <internalNodes>
        0 -1 1056 150347092 501155775 -4195329 -1116063241 2046684666
        -49675 -4784131 -1430587685</internalNodes>
      <leafValues>
        -1.5792764723300934e-01 1.5812660753726959e-01</leafValues></_>
    <_>
      <internalNodes>
        0 -1 855 -1425926560 -1547919380 534593533 -1413961122
        -1342234640 -1078235172 -1344594459 -1349639839</internalNodes>
      <leafValues>
        -2.1041196584701538e-01 1.1316028237342834e-01</leafValues></_>
    <_>
      <internalNodes>
        0 -1 1115 1275035650 1374498571 465672218 310542510 2147336322
        1908087111 -1549805648 1619258207</internalNodes>
      <leafValues>
        -1.6865263879299164e-01 1.3913448154926300e-01</leafValues></_>
    <_>
      <internalNodes>
        0 -1 530 -285300133 710553441 -1086670338 -345842311 -1344337938
        -71335937 1048559285 -178923</internalNodes>
      <leafValues>
        -1.4191509783267975e-01 1.6291932761669159e-01</leafValues></_>
    <_>
      <internalNodes>
        0 -1 92 -272712145 -1148246 -34417 -1078004122 1538211311
        1332737910 1342072133 -34969</internalNodes>
      <leafValues>
        -1.3114720582962036e-01 1.7031751573085785e-01</leafValues></_></weakClassifiers></stage2>
</opencv_storage>
