<?xml version="1.0"?>
<opencv_storage>
<stage7>
  <maxWeakCount>100</maxWeakCount>
  <stageThreshold>-1.9254366159439087e+00</stageThreshold>
  <weakClassifiers>
    <_>
      <internalNodes>
        0 -1 65 -1 -3153118 -35684353 -64479 2147188735 -5 2147450879
        2147448799</internalNodes>
      <leafValues>
        -4.2213791608810425e-01 1.5410831570625305e-01</leafValues></_>
    <_>
      <internalNodes>
        0 -1 676 -33554955 -705324587 -1 -570425345 -33703428
        -1392737028 -268566529 -1997668353</internalNodes>
      <leafValues>
        -2.2614118456840515e-01 2.9284960031509399e-01</leafValues></_>
    <_>
      <internalNodes>
        0 -1 1100 -1 995876863 -2049 -1334118401 -5242881 -6569991 -1
        -1157955585</internalNodes>
      <leafValues>
        -2.2557811439037323e-01 2.6952829957008362e-01</leafValues></_>
    <_>
      <internalNodes>
        0 -1 406 -5592960 -328715 -1 -3627 -1153716311 -1 1073655693
        -64243</internalNodes>
      <leafValues>
        -1.9332405924797058e-01 2.2793726623058319e-01</leafValues></_>
    <_>
      <internalNodes>
        0 -1 928 1360352341 293015935 -545259521 808615807 -187378604
        -16827269 -68354051 -1434779777</internalNodes>
      <leafValues>
        -1.7659755051136017e-01 2.1613326668739319e-01</leafValues></_>
    <_>
      <internalNodes>
        0 -1 242 -1398099975 -858849412 -103614465 -1344733740 268353467
        -2375762 -1073790979 -1073803944</internalNodes>
      <leafValues>
        -2.2494603693485260e-01 1.3955943286418915e-01</leafValues></_>
    <_>
      <internalNodes>
        0 -1 1037 1602180913 1065288481 -10485891 894959423 -68174933
        -19792 -281018434 552599467</internalNodes>
      <leafValues>
        -1.6761411726474762e-01 1.7667512595653534e-01</leafValues></_>
    <_>
      <internalNodes>
        0 -1 796 544216437 611587445 -671761 733485695 -1464574668
        -448203 -291480707 708455200</internalNodes>
      <leafValues>
        -2.7065634727478027e-01 9.1930210590362549e-02</leafValues></_>
    <_>
      <internalNodes>
        0 -1 1029 -572531361 274584927 -101844229 13893503 -117704112
        -636947896 -85197064 -363069585</internalNodes>
      <leafValues>
        -1.6934780776500702e-01 1.5296708047389984e-01</leafValues></_>
    <_>
      <internalNodes>
        0 -1 80 -273680605 -274268382 -30942 -1079055648 778825647
        -1351624894 2004834247 -805317305</internalNodes>
      <leafValues>
        -1.4578342437744141e-01 1.7010381817817688e-01</leafValues></_>
    <_>
      <internalNodes>
        0 -1 634 -1342555147 1073422047 -1112196097 -1078247435
        -1346684424 -16847425 -1077270023 -268747781</internalNodes>
      <leafValues>
        -1.5721006691455841e-01 1.5120141208171844e-01</leafValues></_>
    <_>
      <internalNodes>
        0 -1 998 -806443744 -840029877 -12746760 -214814921 -873927175
        -1879069253 -349250055 -357896193</internalNodes>
      <leafValues>
        -1.2496571242809296e-01 1.7696970701217651e-01</leafValues></_>
    <_>
      <internalNodes>
        0 -1 771 -201415904 -605412565 2145336058 -377863 -12894295
        1601909543 -68216343 -335577080</internalNodes>
      <leafValues>
        -1.1649294197559357e-01 1.7843271791934967e-01</leafValues></_>
    <_>
      <internalNodes>
        0 -1 327 716835618 807090998 -28750 -1079313166 803680191
        -1342309733 1006319093 -302561899</internalNodes>
      <leafValues>
        -1.9500252604484558e-01 1.0577766597270966e-01</leafValues></_>
    <_>
      <internalNodes>
        0 -1 1055 -545262685 801110955 116863520 -1480605697 -1174685773
        196081539 1721726723 -402654229</internalNodes>
      <leafValues>
        -1.5704944729804993e-01 1.3086041808128357e-01</leafValues></_>
    <_>
      <internalNodes>
        0 -1 804 -1342302860 -335864449 -205529089 -1413849729
        -1078046728 -41798 -268558855 -1363523583</internalNodes>
      <leafValues>
        -1.8863271176815033e-01 1.0778530687093735e-01</leafValues></_>
    <_>
      <internalNodes>
        0 -1 137 -359991311 -353436718 -8449 -352541488 722122649
        -1627668737 2134867967 -1915808751</internalNodes>
      <leafValues>
        -1.5151821076869965e-01 1.2835054099559784e-01</leafValues></_>
    <_>
      <internalNodes>
        0 -1 747 -275876491 2113928059 -8929281 -1075906561 -268484868
        -4145 -68265283 -273737701</internalNodes>
      <leafValues>
        -8.8430382311344147e-02 2.1423834562301636e-01</leafValues></_>
    <_>
      <internalNodes>
        0 -1 676 -553785622 210691596 -33751074 114093990 -1895827713
        -606373435 -1327848308 655527012</internalNodes>
      <leafValues>
        -1.8274758756160736e-01 1.1451543122529984e-01</leafValues></_>
    <_>
      <internalNodes>
        0 -1 502 -1347780752 -286590884 -2106369 -304416528 730499769
        -68491526 -1417529283 1334312980</internalNodes>
      <leafValues>
        -2.4318502843379974e-01 7.6815918087959290e-02</leafValues></_>
    <_>
      <internalNodes>
        0 -1 131 1667232678 939523823 1837838858 734788843 1744532471
        2147480046 2013229943 1877998463</internalNodes>
      <leafValues>
        -1.8819327652454376e-01 9.8740026354789734e-02</leafValues></_>
    <_>
      <internalNodes>
        0 -1 845 -67638048 497002421 970961594 -1677721601 -1611802387
        -1610612769 -289411587 -1429344273</internalNodes>
      <leafValues>
        -9.5271915197372437e-02 1.8497399985790253e-01</leafValues></_>
    <_>
      <internalNodes>
        0 -1 65 2133329697 -275706147 -1075993837 1856831454 -1153648863
        753358710 -147802271 -1782468829</internalNodes>
      <leafValues>
        -1.1674861609935760e-01 1.5935464203357697e-01</leafValues></_>
    <_>
      <internalNodes>
        0 -1 60 799715106 1871371784 -9488110 -1400705184 800286355
        -349200120 1796698449 -539279</internalNodes>
      <leafValues>
        -1.7790701985359192e-01 1.0340348631143570e-01</leafValues></_>
    <_>
      <internalNodes>
        0 -1 752 -68500344 1556382752 2099215871 -537797172 2147388844
        -1120820 -33579073 785253380</internalNodes>
      <leafValues>
        -2.0963242650032043e-01 8.3222098648548126e-02</leafValues></_>
    <_>
      <internalNodes>
        0 -1 1101 -705180449 410520152 -136324161 990930815 2007887803
        -20993159 -67372033 -1473184001</internalNodes>
      <leafValues>
        -1.5843719244003296e-01 1.1434592306613922e-01</leafValues></_>
    <_>
      <internalNodes>
        0 -1 356 -1359072395 -285577609 -570507265 -1388806434
        -1883357328 -272896769 -286302849 -272957426</internalNodes>
      <leafValues>
        -1.2019664794206619e-01 1.4430674910545349e-01</leafValues></_>
    <_>
      <internalNodes>
        0 -1 457 -1426969993 -1154663587 -1487370536 -1153810958
        800545711 -385123 -1090555521 -5006465</internalNodes>
      <leafValues>
        -1.4334782958030701e-01 1.1738420277833939e-01</leafValues></_>
    <_>
      <internalNodes>
        0 -1 698 -270554624 -207645873 -1082155334 -279601 -285230193
        -14785745 -268453463 -269516785</internalNodes>
      <leafValues>
        -7.2588838636875153e-02 2.2657367587089539e-01</leafValues></_>
    <_>
      <internalNodes>
        0 -1 319 -268457180 -1089571294 -540037462 -4292896 -1083232369
        2138013567 1608467917 -807578555</internalNodes>
      <leafValues>
        -1.3310799002647400e-01 1.2065995484590530e-01</leafValues></_>
    <_>
      <internalNodes>
        0 -1 996 1668800581 1365181511 1064790015 307755007 -520771384
        -336919880 -1094780823 -355467313</internalNodes>
      <leafValues>
        -1.0487940907478333e-01 1.5093411505222321e-01</leafValues></_>
    <_>
      <internalNodes>
        0 -1 822 -287419012 -8492195 -5784130 -1482763905 -71569971
        -15809 -1143246339 -1416953589</internalNodes>
      <leafValues>
        -8.9898079633712769e-02 1.7736864089965820e-01</leafValues></_>
    <_>
      <internalNodes>
        0 -1 1100 226430169 -996771776 -278960257 1333945458 -817963011
        1805142599 -543162883 1812053648</internalNodes>
      <leafValues>
        -1.4462429285049438e-01 1.0457733273506165e-01</leafValues></_>
    <_>
      <internalNodes>
        0 -1 216 707928624 12428996 787181311 -1884787004 1568026452
        503177151 -41976107 217872229</internalNodes>
      <leafValues>
        -2.5914275646209717e-01 5.7212375104427338e-02</leafValues></_>
    <_>
      <internalNodes>
        0 -1 554 -285340331 -1365368961 -536961041 -1413830577
        -1149296652 -2098259 -1094902323 -1426453664</internalNodes>
      <leafValues>
        -1.4428155124187469e-01 1.0066759586334229e-01</leafValues></_>
    <_>
      <internalNodes>
        0 -1 24 -269485077 -374433818 -116130317 -4000540 -1343242293
        -106186006 -202673671 -2705</internalNodes>
      <leafValues>
        -6.3567668199539185e-02 2.2687555849552155e-01</leafValues></_>
    <_>
      <internalNodes>
        0 -1 1119 -509874688 23048474 -1960349391 -1141179433 1127727531
        182445520 -138432328 -251791685</internalNodes>
      <leafValues>
        -1.0509558767080307e-01 1.3201898336410522e-01</leafValues></_>
    <_>
      <internalNodes>
        0 -1 53 1889593589 1965591938 -302055425 -303256078 1568344181
        -53477892 -388202908 1691123703</internalNodes>
      <leafValues>
        -1.4797286689281464e-01 9.2222481966018677e-02</leafValues></_>
    <_>
      <internalNodes>
        0 -1 618 -268505394 -71811457 -89485318 -12943393 -1354854500
        -67141637 -1074807368 -268988979</internalNodes>
      <leafValues>
        -7.4322678148746490e-02 1.8919813632965088e-01</leafValues></_>
    <_>
      <internalNodes>
        0 -1 870 -352416395 -1610638465 -98698241 -1141219847
        -1073825092 -67125572 -353567617 -1413859029</internalNodes>
      <leafValues>
        -8.7152130901813507e-02 1.5467773377895355e-01</leafValues></_>
    <_>
      <internalNodes>
        0 -1 966 188420400 -1086350030 1006465786 -268747612 263393213
        -1111869701 465244221 -1376976779</internalNodes>
      <leafValues>
        -1.7473834753036499e-01 7.4128046631813049e-02</leafValues></_>
    <_>
      <internalNodes>
        0 -1 882 -975236027 255823149 -268718401 181026781 -1392657260
        -70530851 -335839619 -1425453713</internalNodes>
      <leafValues>
        -1.0775319486856461e-01 1.2013802677392960e-01</leafValues></_>
    <_>
      <internalNodes>
        0 -1 1115 -268468215 22744879 1996607192 849018687 -811603320
        -115729354 -1493181188 -525077701</internalNodes>
      <leafValues>
        -1.1791297048330307e-01 1.0981906205415726e-01</leafValues></_>
    <_>
      <internalNodes>
        0 -1 907 1912580352 333438799 935176866 62586823 -1359761427
        -1125148051 -3547283 -1462899889</internalNodes>
      <leafValues>
        -1.1384867876768112e-01 1.1449442803859711e-01</leafValues></_>
    <_>
      <internalNodes>
        0 -1 950 -276378624 1571760177 -15753761 -552431857 -4203672
        -872444567 -83723155 -1599452666</internalNodes>
      <leafValues>
        -1.2100005149841309e-01 1.1460785567760468e-01</leafValues></_>
    <_>
      <internalNodes>
        0 -1 411 -486889500 165644903 -34689106 62842854 736038145
        1030562663 -274903228 134604359</internalNodes>
      <leafValues>
        -1.8207217752933502e-01 6.9753125309944153e-02</leafValues></_>
    <_>
      <internalNodes>
        0 -1 33 -289427593 2130621279 -2818049 -1933639954 -887149130
        -2097161 -69925538 -288534266</internalNodes>
      <leafValues>
        -9.5238290727138519e-02 1.3478706777095795e-01</leafValues></_>
    <_>
      <internalNodes>
        0 -1 538 -1365630464 918174523 -1900396582 -1158542474 236133148
        -270565506 -1393418124 -34513411</internalNodes>
      <leafValues>
        -1.6773650050163269e-01 7.6206676661968231e-02</leafValues></_>
    <_>
      <internalNodes>
        0 -1 237 -338025941 186523143 -433287502 -1180536475 777748399
        998239196 -5538203 -269755561</internalNodes>
      <leafValues>
        -1.2813773751258850e-01 1.0042604058980942e-01</leafValues></_>
    <_>
      <internalNodes>
        0 -1 41 1392436474 -923482900 -1342777921 -856775986 1063203508
        -1930970636 1073703927 754741956</internalNodes>
      <leafValues>
        -1.7253065109252930e-01 7.4523538351058960e-02</leafValues></_>
    <_>
      <internalNodes>
        0 -1 915 -69695968 -1618073828 1006445040 -1077012240 1274750896
        -1355071521 -1228990407 -1109239121</internalNodes>
      <leafValues>
        -1.0033215582370758e-01 1.2952233850955963e-01</leafValues></_>
    <_>
      <internalNodes>
        0 -1 1056 283071573 503185437 -134482945 958033655 -356583433
        -543173283 -88802823 -1430733953</internalNodes>
      <leafValues>
        -1.3216054439544678e-01 9.2103794217109680e-02</leafValues></_>
    <_>
      <internalNodes>
        0 -1 1121 800035584 221228291 -1243631341 -1462081791 23426912
        20964333 626480433 1174402727</internalNodes>
      <leafValues>
        -2.3679156601428986e-01 5.0461333245038986e-02</leafValues></_>
    <_>
      <internalNodes>
        0 -1 789 -1353569936 -1078319272 1005534904 -1409409282
        -1151396368 -4378428 -1344523016 -1381207984</internalNodes>
      <leafValues>
        -1.5166324377059937e-01 7.8189805150032043e-02</leafValues></_>
    <_>
      <internalNodes>
        0 -1 406 137483560 -687494640 -71469482 -9957792 1979513222
        -71696715 -55223102 1569782482</internalNodes>
      <leafValues>
        -1.1049330234527588e-01 1.0848592221736908e-01</leafValues></_>
    <_>
      <internalNodes>
        0 -1 928 -1607824905 1310488661 -545412482 -1879210058
        -1938872167 -48754532 -1935527866 1854214000</internalNodes>
      <leafValues>
        -1.0887455195188522e-01 1.0886179655790329e-01</leafValues></_>
    <_>
      <internalNodes>
        0 -1 207 1872475939 -143662198 -42994896 -329660 194207098
        -1343508909 1534817785 -304098047</internalNodes>
      <leafValues>
        -9.8666511476039886e-02 1.1784540116786957e-01</leafValues></_>
    <_>
      <internalNodes>
        0 -1 1098 -809786590 1505735995 220151216 -601281 313656765
        -4289825 544895421 -167911425</internalNodes>
      <leafValues>
        -6.9695219397544861e-02 1.6394966840744019e-01</leafValues></_>
    <_>
      <internalNodes>
        0 -1 973 -1428324155 138418245 1583183869 1078735 -352809284
        -539436803 -236133639 -1442776091</internalNodes>
      <leafValues>
        -1.8052718043327332e-01 6.7060858011245728e-02</leafValues></_>
    <_>
      <internalNodes>
        0 -1 718 -22614231 -2474244 469246710 -1074054160 -279995432
        -1075879937 -46220872 -274894977</internalNodes>
      <leafValues>
        -5.7836677879095078e-02 1.9816711544990540e-01</leafValues></_>
    <_>
      <internalNodes>
        0 -1 602 -490800088 -18039116 -738263042 -419767952 -1438938179
        -1083187411 -1359299287 -872512255</internalNodes>
      <leafValues>
        -1.1079993844032288e-01 1.0187052935361862e-01</leafValues></_>
    <_>
      <internalNodes>
        0 -1 45 -306725017 -274022718 -273826074 -3218196 1865359151
        1341128694 1475310957 -841138105</internalNodes>
      <leafValues>
        -1.0397065430879593e-01 1.0917294770479202e-01</leafValues></_>
    <_>
      <internalNodes>
        0 -1 475 -824791811 1431667053 -361860417 298839855 -1420305227
        -50483011 -19076611 -1429649633</internalNodes>
      <leafValues>
        -7.7312357723712921e-02 1.4264248311519623e-01</leafValues></_>
    <_>
      <internalNodes>
        0 -1 1054 -1992413152 252391465 522919216 -1087235758 227345697
        -1662004824 1028133936 798982643</internalNodes>
      <leafValues>
        -1.8464183807373047e-01 5.8653600513935089e-02</leafValues></_>
    <_>
      <internalNodes>
        0 -1 14 -562899461 1290441102 -1619076097 -1563672602
        -1089500112 -1444429911 -269545929 231554887</internalNodes>
      <leafValues>
        -1.1190494149923325e-01 9.8544754087924957e-02</leafValues></_>
    <_>
      <internalNodes>
        0 -1 916 1979688864 -1611683960 336869688 -1325587971 462336509
        267056547 -1199587331 -1427248499</internalNodes>
      <leafValues>
        -9.7195371985435486e-02 1.1295577883720398e-01</leafValues></_>
    <_>
      <internalNodes>
        0 -1 849 -1949563872 -1952962024 1070934780 -1366162128
        -1422123432 -1074708567 -1392634511 -1359074271</internalNodes>
      <leafValues>
        -1.6955511271953583e-01 6.8308748304843903e-02</leafValues></_>
    <_>
      <internalNodes>
        0 -1 78 797631274 -642846926 -1082176909 -67441808 257361714
        -303137552 739723501 1708512704</internalNodes>
      <leafValues>
        -1.3323006033897400e-01 8.2240454852581024e-02</leafValues></_>
    <_>
      <internalNodes>
        0 -1 708 -345244 1474454829 -1073926014 -1142526209 2142584233
        2066156167 -63015427 -469938105</internalNodes>
      <leafValues>
        -8.6621500551700592e-02 1.2245486676692963e-01</leafValues></_>
    <_>
      <internalNodes>
        0 -1 132 -1430640717 -1366901186 -536871053 -299322544 736083882
        -612692278 -1007987595 -33816459</internalNodes>
      <leafValues>
        -1.4503243565559387e-01 7.3049210011959076e-02</leafValues></_>
    <_>
      <internalNodes>
        0 -1 642 -1880647343 -1352339667 -357130605 -1466254749
        -143675536 -536883711 -1083417475 -1953821918</internalNodes>
      <leafValues>
        -1.0019032657146454e-01 1.0860261321067810e-01</leafValues></_>
    <_>
      <internalNodes>
        0 -1 1037 614312590 1873148798 1829589936 1779522555 2109698935
        788524025 1995437055 -610425666</internalNodes>
      <leafValues>
        -7.8200072050094604e-02 1.3401030004024506e-01</leafValues></_>
    <_>
      <internalNodes>
        0 -1 1030 1224540368 13894149 1792567031 282425299 -1965491752
        -914375604 -83233806 -2146897928</internalNodes>
      <leafValues>
        -1.7280200123786926e-01 6.1521351337432861e-02</leafValues></_>
    <_>
      <internalNodes>
        0 -1 678 -810622559 -4523523 -335594018 -1749093890 -280033108
        -536872277 -470065747 -270565365</internalNodes>
      <leafValues>
        -6.1239048838615417e-02 1.7520573735237122e-01</leafValues></_>
    <_>
      <internalNodes>
        0 -1 122 572665376 811796424 720505378 -1411352734 257896230
        2045525340 1943107429 -406987929</internalNodes>
      <leafValues>
        -2.2187429666519165e-01 4.9317326396703720e-02</leafValues></_>
    <_>
      <internalNodes>
        0 -1 578 -349536495 2141384316 -36250625 -277833351 -1347897415
        -39063559 -275006019 -342753205</internalNodes>
      <leafValues>
        -8.3390995860099792e-02 1.2794223427772522e-01</leafValues></_>
    <_>
      <internalNodes>
        0 -1 744 -302013627 369049453 -537269333 32140643 -386140732
        -51885836 -1296761523 -1438515357</internalNodes>
      <leafValues>
        -9.2028439044952393e-02 1.1235454678535461e-01</leafValues></_>
    <_>
      <internalNodes>
        0 -1 210 -291852752 145389807 -1494211052 -18876767 2147466644
        2127298557 1874604968 -168279927</internalNodes>
      <leafValues>
        -1.0171573609113693e-01 9.9430724978446960e-02</leafValues></_>
    <_>
      <internalNodes>
        0 -1 1004 1926735104 1542423119 524432696 314858871 -1124089400
        -1947539025 -163652115 -1431699473</internalNodes>
      <leafValues>
        -9.1371431946754456e-02 1.0745423287153244e-01</leafValues></_>
    <_>
      <internalNodes>
        0 -1 954 -7572 -643333279 -4738561 -604328174 -606874932
        -1947240662 -285221443 -2120657</internalNodes>
      <leafValues>
        -4.9026031047105789e-02 2.2085690498352051e-01</leafValues></_>
    <_>
      <internalNodes>
        0 -1 894 -408983193 92219663 -675496412 10024937 -420899480
        -328296235 -522169739 -938083473</internalNodes>
      <leafValues>
        -1.4335982501506805e-01 7.1525506675243378e-02</leafValues></_>
    <_>
      <internalNodes>
        0 -1 1112 740098336 477963888 -3022882 802141051 1878111163
        -1073765193 1063252393 142736151</internalNodes>
      <leafValues>
        -1.5982842445373535e-01 6.1981547623872757e-02</leafValues></_>
    <_>
      <internalNodes>
        0 -1 1008 -405802524 -123064 -1133529128 -2452208 -1356705368
        -609278566 -1347732036 -304088645</internalNodes>
      <leafValues>
        -5.3354132920503616e-02 1.8512491881847382e-01</leafValues></_>
    <_>
      <internalNodes>
        0 -1 994 -404045056 1977557068 -1085286281 -621134471 -274285176
        -4201278 -349509288 -1431664307</internalNodes>
      <leafValues>
        -1.0537639260292053e-01 9.4872474670410156e-02</leafValues></_>
    <_>
      <internalNodes>
        0 -1 790 822883616 1073638252 789262848 -1088795665 193662912
        -1677754449 -1446701728 -1881182169</internalNodes>
      <leafValues>
        -1.4444361627101898e-01 6.7489795386791229e-02</leafValues></_>
    <_>
      <internalNodes>
        0 -1 109 1780672112 1050977376 263532126 -406878654 -16827083
        -23207963 -302417571 753694551</internalNodes>
      <leafValues>
        -1.2383130937814713e-01 7.7571727335453033e-02</leafValues></_>
    <_>
      <internalNodes>
        0 -1 1063 39470156 621301849 1777532767 -1435313085 -611822008
        -542021427 -189605040 705731924</internalNodes>
      <leafValues>
        -2.3833370208740234e-01 4.0916033089160919e-02</leafValues></_>
    <_>
      <internalNodes>
        0 -1 1095 -876617182 1605345138 469664752 -217390281 -312762467
        -4200975 -1699037544 -105645057</internalNodes>
      <leafValues>
        -5.6202568113803864e-02 1.7964166402816772e-01</leafValues></_>
    <_>
      <internalNodes>
        0 -1 423 -356582620 297579375 1033893674 -1548960274 -1426118204
        -1325662489 251469100 210627959</internalNodes>
      <leafValues>
        -1.1306653916835785e-01 8.3781510591506958e-02</leafValues></_>
    <_>
      <internalNodes>
        0 -1 908 149358724 212250280 893334320 785181486 616410945
        480159678 -268460673 13430756</internalNodes>
      <leafValues>
        -2.4369722604751587e-01 3.9041787385940552e-02</leafValues></_>
    <_>
      <internalNodes>
        0 -1 0 -340609105 -825309078 -1881414017 -1618417240 1945107439
        -10254 -611891749 -1073785649</internalNodes>
      <leafValues>
        -6.1190001666545868e-02 1.5375813841819763e-01</leafValues></_>
    <_>
      <internalNodes>
        0 -1 834 1985257384 98279399 -548177607 -556087395 -184621636
        2147268495 -1920991387 -1467227249</internalNodes>
      <leafValues>
        -8.6436100304126740e-02 1.0803571343421936e-01</leafValues></_>
    <_>
      <internalNodes>
        0 -1 944 -461442975 -536892647 -3282053 -72183437 -1412105572
        -16833322 -73437319 -341065109</internalNodes>
      <leafValues>
        -5.4008923470973969e-02 1.7771814763545990e-01</leafValues></_>
    <_>
      <internalNodes>
        0 -1 128 732081699 178416134 -1470650336 160053600 259735395
        775905064 -271501471 1865906790</internalNodes>
      <leafValues>
        -2.2630383074283600e-01 4.1550967842340469e-02</leafValues></_>
    <_>
      <internalNodes>
        0 -1 750 -285288107 -614825899 -1007379033 -1342641695
        -281366696 -2775191 -17269139 -1423437565</internalNodes>
      <leafValues>
        -8.6689166724681854e-02 1.0814279317855835e-01</leafValues></_>
    <_>
      <internalNodes>
        0 -1 1113 1790937156 721240703 1598281169 2259551 -1580622720
        -1108027156 -115480072 -268386477</internalNodes>
      <leafValues>
        -1.4614993333816528e-01 6.2961228191852570e-02</leafValues></_>
    <_>
      <internalNodes>
        0 -1 164 -385945906 1031761000 -269059956 63368231 -907052635
        -33574220 1685929293 1325752133</internalNodes>
      <leafValues>
        -9.9195808172225952e-02 9.4116941094398499e-02</leafValues></_>
    <_>
      <internalNodes>
        0 -1 114 674630184 201481028 -2047130274 -809361844 262080291
        779238940 -721979020 -168471179</internalNodes>
      <leafValues>
        -1.9564849138259888e-01 4.6442575752735138e-02</leafValues></_>
    <_>
      <internalNodes>
        0 -1 232 -1432641014 1010549834 -2100172778 -1173742362
        1776991963 -321914066 -539339331 -1716379</internalNodes>
      <leafValues>
        -8.9700289070606232e-02 1.0688779503107071e-01</leafValues></_>
    <_>
      <internalNodes>
        0 -1 962 -1947328480 -1883504088 -1074129168 -268826496
        -949742219 -1078445143 -1510372467 970362273</internalNodes>
      <leafValues>
        -1.4035919308662415e-01 6.4920604228973389e-02</leafValues></_></weakClassifiers></stage7>
</opencv_storage>
