<?xml version="1.0"?>
<opencv_storage>
<stage4>
  <maxWeakCount>71</maxWeakCount>
  <stageThreshold>-1.9945292472839355e+00</stageThreshold>
  <weakClassifiers>
    <_>
      <internalNodes>
        0 -1 371 -33554433 -572662275 -1 -572653569 -1 -1107317267 -1
        234881023</internalNodes>
      <leafValues>
        -4.8653191328048706e-01 2.8588384389877319e-01</leafValues></_>
    <_>
      <internalNodes>
        0 -1 1016 -536871425 291463007 -1 846921727 -1 -1025 -1
        -1426391041</internalNodes>
      <leafValues>
        -3.2631140947341919e-01 3.3943936228752136e-01</leafValues></_>
    <_>
      <internalNodes>
        0 -1 68 -1 -1053709 -1 -57120 1073430463 -1 2147434495
        2145335127</internalNodes>
      <leafValues>
        -3.0851146578788757e-01 3.5528171062469482e-01</leafValues></_>
    <_>
      <internalNodes>
        0 -1 713 280998072 1073725375 87929107 -1073741905 771732989
        -1073758273 -1376801345 754839023</internalNodes>
      <leafValues>
        -2.8002014756202698e-01 2.2334650158882141e-01</leafValues></_>
    <_>
      <internalNodes>
        0 -1 28 -1364527117 -286593542 -1 -268638992 789314559 -16777729
        -1073776641 -47627</internalNodes>
      <leafValues>
        -1.7596670985221863e-01 3.1646370887756348e-01</leafValues></_>
    <_>
      <internalNodes>
        0 -1 796 1971271029 1040151903 -1 1073397631 -688267 -33285
        -458755 -1430749315</internalNodes>
      <leafValues>
        -2.6212111115455627e-01 1.9478061795234680e-01</leafValues></_>
    <_>
      <internalNodes>
        0 -1 237 805251967 805007167 -37754305 -799885 805257023
        -8405025 -1081475 -268444809</internalNodes>
      <leafValues>
        -2.4315367639064789e-01 1.9702251255512238e-01</leafValues></_>
    <_>
      <internalNodes>
        0 -1 998 -269488864 -541119697 -4194305 -4800705 -269752992
        -1073798209 -68231683 -391581891</internalNodes>
      <leafValues>
        -2.0968638360500336e-01 2.2216539084911346e-01</leafValues></_>
    <_>
      <internalNodes>
        0 -1 1113 -285226929 1098842203 -12591105 3327695 -268448120
        -350492641 -519 -520945665</internalNodes>
      <leafValues>
        -2.2294884920120239e-01 2.0053286850452423e-01</leafValues></_>
    <_>
      <internalNodes>
        0 -1 590 800734001 2147416061 -16385 -1342513667 805288891
        -16705 -1342234691 -65507</internalNodes>
      <leafValues>
        -1.7133958637714386e-01 2.2300258278846741e-01</leafValues></_>
    <_>
      <internalNodes>
        0 -1 1099 733460275 264224563 1465595184 -1342525517 53940531
        267648575 1937708321 -268435617</internalNodes>
      <leafValues>
        -2.6121410727500916e-01 1.3837893307209015e-01</leafValues></_>
    <_>
      <internalNodes>
        0 -1 642 -1539953579 746471295 -269172737 802832191 -209960963
        -32771 -26731139 -1430781659</internalNodes>
      <leafValues>
        -2.3594993352890015e-01 1.5578743815422058e-01</leafValues></_>
    <_>
      <internalNodes>
        0 -1 68 2046962192 1401958540 2146377598 669638431 -551239823
        1072249783 -68162783 -1242216024</internalNodes>
      <leafValues>
        -1.9844587147235870e-01 1.6743287444114685e-01</leafValues></_>
    <_>
      <internalNodes>
        0 -1 131 -277880026 804240687 -1480644854 800941769 1073379319
        1073738703 2013229417 804256639</internalNodes>
      <leafValues>
        -2.7382391691207886e-01 1.2472829222679138e-01</leafValues></_>
    <_>
      <internalNodes>
        0 -1 928 -789162667 269750359 -545407233 146414459 -440051628
        -67406243 -69174403 -1430626464</internalNodes>
      <leafValues>
        -2.3728588223457336e-01 1.3607281446456909e-01</leafValues></_>
    <_>
      <internalNodes>
        0 -1 820 -570438204 -706902587 -1 -776077385 -387084892
        -270946935 -275906679 -1429606591</internalNodes>
      <leafValues>
        -1.5550039708614349e-01 2.0372502505779266e-01</leafValues></_>
    <_>
      <internalNodes>
        0 -1 227 732573195 724463139 -705706056 -271438702 805119919
        738192894 1005550973 -34253323</internalNodes>
      <leafValues>
        -2.3475490510463715e-01 1.2638023495674133e-01</leafValues></_>
    <_>
      <internalNodes>
        0 -1 371 -556272130 846113486 -2046955713 548310676 368784857
        1189895094 1073688543 -226155243</internalNodes>
      <leafValues>
        -1.5879620611667633e-01 1.9345842301845551e-01</leafValues></_>
    <_>
      <internalNodes>
        0 -1 1038 -335609855 1936654631 -67636225 574235503 -356873560
        -1363303 -366281495 -1465865365</internalNodes>
      <leafValues>
        -1.9447796046733856e-01 1.5024591982364655e-01</leafValues></_>
    <_>
      <internalNodes>
        0 -1 607 2126443744 1576791501 -138936321 -25633 1995947517
        2147483103 -20071172 686817231</internalNodes>
      <leafValues>
        -1.5307839214801788e-01 1.8598131835460663e-01</leafValues></_>
    <_>
      <internalNodes>
        0 -1 4 -1364280517 -291045396 -8540430 -1529943356 711932927
        -337117185 666321781 -43915</internalNodes>
      <leafValues>
        -2.0790566504001617e-01 1.2975558638572693e-01</leafValues></_>
    <_>
      <internalNodes>
        0 -1 1100 1577047423 1498766677 -1 542309751 -11534337
        -216051855 -1 -128779265</internalNodes>
      <leafValues>
        -1.5112878382205963e-01 1.8105481564998627e-01</leafValues></_>
    <_>
      <internalNodes>
        0 -1 35 -117246512 -176125047 1603304447 -303561053 -98582607
        -34607203 -43761795 1305309055</internalNodes>
      <leafValues>
        -1.6045731306076050e-01 1.6045470535755157e-01</leafValues></_>
    <_>
      <internalNodes>
        0 -1 1053 -235408605 29359915 1471613440 -402653267 16097706
        113172141 -453185496 -453119189</internalNodes>
      <leafValues>
        -1.6331578791141510e-01 1.5403729677200317e-01</leafValues></_>
    <_>
      <internalNodes>
        0 -1 104 -345267381 2066200362 -154078 -134548640 793735151
        926908367 1996452853 -134220219</internalNodes>
      <leafValues>
        -1.5588951110839844e-01 1.5361101925373077e-01</leafValues></_>
    <_>
      <internalNodes>
        0 -1 466 -297911727 -293982361 -606158865 -1363661201 -285524299
        -1074827267 -1074260515 -289797049</internalNodes>
      <leafValues>
        -1.5992562472820282e-01 1.5508566796779633e-01</leafValues></_>
    <_>
      <internalNodes>
        0 -1 790 490681649 1073659884 531607052 -1074119300 489362929
        -334 266274145 -1342229236</internalNodes>
      <leafValues>
        -1.7817017436027527e-01 1.3002353906631470e-01</leafValues></_>
    <_>
      <internalNodes>
        0 -1 246 -1496434315 -286380196 -306271249 -1883761536
        -1946417291 -290459650 -1611722435 -273742816</internalNodes>
      <leafValues>
        -1.6444081068038940e-01 1.3567523658275604e-01</leafValues></_>
    <_>
      <internalNodes>
        0 -1 1088 -268484543 1532956697 -69222465 134397771 -356791608
        -11054292 -353741652 -1476330929</internalNodes>
      <leafValues>
        -1.8842856585979462e-01 1.1900473386049271e-01</leafValues></_>
    <_>
      <internalNodes>
        0 -1 731 -320416556 -2061762147 1073215355 1037989279
        -1359433316 -266755 -588449028 -1440004747</internalNodes>
      <leafValues>
        -1.4691774547100067e-01 1.3761825859546661e-01</leafValues></_>
    <_>
      <internalNodes>
        0 -1 982 -1442885567 -6597249 -128851969 -1074594177 -269825299
        -4465427 -1348534403 -1415918981</internalNodes>
      <leafValues>
        -1.1551465839147568e-01 1.7875251173973083e-01</leafValues></_>
    <_>
      <internalNodes>
        0 -1 1016 -318783651 -286218083 -1243615249 -843617026
        -1126309640 -25346436 -23568391 -4886674</internalNodes>
      <leafValues>
        -9.0149521827697754e-02 2.3557752370834351e-01</leafValues></_>
    <_>
      <internalNodes>
        0 -1 713 -848870075 -711069844 -100905332 1301183354 1375305151
        499994546 2146302718 -1685100803</internalNodes>
      <leafValues>
        -9.7597926855087280e-02 1.9822095334529877e-01</leafValues></_>
    <_>
      <internalNodes>
        0 -1 1121 1237315601 220724267 1971321138 -1359030583 266843875
        113243761 638539024 637531647</internalNodes>
      <leafValues>
        -1.9238722324371338e-01 1.0358291864395142e-01</leafValues></_>
    <_>
      <internalNodes>
        0 -1 42 -1356071061 1848028770 -1141395614 -1346208672 737402707
        258732331 1475835765 -302136239</internalNodes>
      <leafValues>
        -1.6653186082839966e-01 1.1494921892881393e-01</leafValues></_>
    <_>
      <internalNodes>
        0 -1 28 1459889452 -1148807008 -1353161631 -1272859100
        -1121553616 118738854 1900469569 67112970</internalNodes>
      <leafValues>
        -2.0057649910449982e-01 1.0157288610935211e-01</leafValues></_>
    <_>
      <internalNodes>
        0 -1 82 -271601689 -404053206 -268459265 -1522970 191880619
        1874839014 1934448383 -268615609</internalNodes>
      <leafValues>
        -1.1015178263187408e-01 1.8669976294040680e-01</leafValues></_>
    <_>
      <internalNodes>
        0 -1 1071 1618960421 2071405067 305246130 572149883 -1438395671
        -608212606 -165480984 -358023317</internalNodes>
      <leafValues>
        -1.4730799198150635e-01 1.2859243154525757e-01</leafValues></_>
    <_>
      <internalNodes>
        0 -1 581 -272757179 -35329 2134747647 -551621427 -273019607
        -278597 -276211075 -271888115</internalNodes>
      <leafValues>
        -1.0324835777282715e-01 1.8197448551654816e-01</leafValues></_>
    <_>
      <internalNodes>
        0 -1 514 -335876311 -472195080 938999794 -1409645076 -1346458711
        -1346395906 -1712605383 -1912929187</internalNodes>
      <leafValues>
        -1.2026263773441315e-01 1.4817017316818237e-01</leafValues></_>
    <_>
      <internalNodes>
        0 -1 634 724970097 1060257334 -1133179905 -1086809089 798702016
        -270895682 -1074194052 -1349960720</internalNodes>
      <leafValues>
        -2.0061661303043365e-01 8.5741378366947174e-02</leafValues></_>
    <_>
      <internalNodes>
        0 -1 1114 1308467201 1026501173 732683754 939185234 2139092152
        163444309 -1220807990 -1201145857</internalNodes>
      <leafValues>
        -1.1008300632238388e-01 1.5621812641620636e-01</leafValues></_>
    <_>
      <internalNodes>
        0 -1 90 799747618 791570978 1710162530 -1346703648 804669003
        798981091 658446197 1974817137</internalNodes>
      <leafValues>
        -2.6362901926040649e-01 6.2715753912925720e-02</leafValues></_>
    <_>
      <internalNodes>
        0 -1 837 -503422868 -1044901105 1140700728 -268817637 -352371427
        -1812103441 -1428464483 -336682963</internalNodes>
      <leafValues>
        -1.2377112358808517e-01 1.3882356882095337e-01</leafValues></_>
    <_>
      <internalNodes>
        0 -1 509 -118294352 1354810606 2029991894 -706740500 1433909681
        1576001021 -1074937957 583992207</internalNodes>
      <leafValues>
        -1.2490717321634293e-01 1.4128370583057404e-01</leafValues></_>
    <_>
      <internalNodes>
        0 -1 1107 -402676641 1028726623 -699147361 813309467 -822235240
        -68016615 -19005571 707854191</internalNodes>
      <leafValues>
        -1.5613225102424622e-01 1.0708015412092209e-01</leafValues></_>
    <_>
      <internalNodes>
        0 -1 796 -2032613228 -507633707 2129903599 -360891091 -360932212
        -38553328 1828523571 -1151399902</internalNodes>
      <leafValues>
        -1.0435743629932404e-01 1.6306011378765106e-01</leafValues></_>
    <_>
      <internalNodes>
        0 -1 40 855634674 1423892733 -1078308962 233615082 357675504
        -724293647 -303083708 180846418</internalNodes>
      <leafValues>
        -1.5261185169219971e-01 1.1038838326931000e-01</leafValues></_>
    <_>
      <internalNodes>
        0 -1 152 193642291 1787755344 -2370818 -605386292 397109195
        1719516237 231691646 -304266920</internalNodes>
      <leafValues>
        -1.3869726657867432e-01 1.1530422419309616e-01</leafValues></_>
    <_>
      <internalNodes>
        0 -1 911 -707026144 498050560 90677432 -1761703749 -1126830195
        -1886541909 -8728 -1427308675</internalNodes>
      <leafValues>
        -1.2384051829576492e-01 1.2767894566059113e-01</leafValues></_>
    <_>
      <internalNodes>
        0 -1 525 -21319952 -69664900 259926865 -544819 -5459995 -8209
        -35668003 -303094673</internalNodes>
      <leafValues>
        -7.9050347208976746e-02 1.9128857553005219e-01</leafValues></_>
    <_>
      <internalNodes>
        0 -1 849 702168864 194526300 1073160380 -1906422346 -1364189384
        -1346487317 -1494609551 -1430772251</internalNodes>
      <leafValues>
        -2.2815421223640442e-01 6.8681150674819946e-02</leafValues></_>
    <_>
      <internalNodes>
        0 -1 783 -482912 1534995055 1069432552 -1277285384 -277994584
        -1350877201 -1107414439 -1113784211</internalNodes>
      <leafValues>
        -1.0764447599649429e-01 1.4645494520664215e-01</leafValues></_>
    <_>
      <internalNodes>
        0 -1 126 583737891 170525251 103154888 35785312 239303274
        494867279 -252766891 2138537799</internalNodes>
      <leafValues>
        -2.7192583680152893e-01 5.9494193643331528e-02</leafValues></_>
    <_>
      <internalNodes>
        0 -1 435 -352348249 891792383 -1954574546 770637606 2140667383
        32505807 -557235 1291321191</internalNodes>
      <leafValues>
        -1.4027230441570282e-01 1.0911752283573151e-01</leafValues></_>
    <_>
      <internalNodes>
        0 -1 1020 -1996874659 972905689 -302063621 -1812302465 -18286084
        -189858 -72549523 -1466245249</internalNodes>
      <leafValues>
        -1.2504389882087708e-01 1.2136036157608032e-01</leafValues></_>
    <_>
      <internalNodes>
        0 -1 74 877329620 214207715 2045767674 1734306526 1035433333
        1022222037 2147167856 753758502</internalNodes>
      <leafValues>
        -2.1252369880676270e-01 7.0715866982936859e-02</leafValues></_>
    <_>
      <internalNodes>
        0 -1 789 -279512715 -1083104647 2146219262 -1410395406
        -1350955024 -1078710044 -1686423048 -1375782023</internalNodes>
      <leafValues>
        -9.0701639652252197e-02 1.6541191935539246e-01</leafValues></_>
    <_>
      <internalNodes>
        0 -1 390 -1431423371 -305369098 -1090740021 -269049547
        -273289318 -271597826 -136284849 -271825659</internalNodes>
      <leafValues>
        -1.1638047546148300e-01 1.2473173439502716e-01</leafValues></_>
    <_>
      <internalNodes>
        0 -1 1119 -455112960 156177952 255580848 -1409637421 41112451
        138345940 -76048967 -1259345249</internalNodes>
      <leafValues>
        -1.2499130517244339e-01 1.1448457092046738e-01</leafValues></_>
    <_>
      <internalNodes>
        0 -1 1056 -2099370924 -1927543443 -2499585 -1959080633
        -533309480 -541229186 -25887395 705459029</internalNodes>
      <leafValues>
        -2.0150835812091827e-01 6.8831197917461395e-02</leafValues></_>
    <_>
      <internalNodes>
        0 -1 569 -805389968 -16844897 -269119542 -1561397638 -1347721324
        -536941570 -873197461 -1969465277</internalNodes>
      <leafValues>
        -1.2389117479324341e-01 1.1104438453912735e-01</leafValues></_>
    <_>
      <internalNodes>
        0 -1 427 648785447 -206885266 -1214518666 -269979784 653631279
        -1353763475 595552101 -268577727</internalNodes>
      <leafValues>
        -1.2760335206985474e-01 1.0862673819065094e-01</leafValues></_>
    <_>
      <internalNodes>
        0 -1 238 -294252988 712514407 -1942872022 -1383418075 738160194
        804993911 514856257 -1074042005</internalNodes>
      <leafValues>
        -1.9048196077346802e-01 7.1242161095142365e-02</leafValues></_>
    <_>
      <internalNodes>
        0 -1 24 -1349604673 -387265118 -114214381 -824659292 783006619
        -1146639558 1453749721 1708344823</internalNodes>
      <leafValues>
        -1.1576449126005173e-01 1.1806490272283554e-01</leafValues></_>
    <_>
      <internalNodes>
        0 -1 991 1004530117 360536901 2144329710 52152239 -973082496
        -111473504 -261986264 -1431311489</internalNodes>
      <leafValues>
        -8.9378505945205688e-02 1.5068373084068298e-01</leafValues></_>
    <_>
      <internalNodes>
        0 -1 897 -436289428 -706786226 1475980826 -650215957 -69488964
        -542345042 2096756105 -1431655903</internalNodes>
      <leafValues>
        -1.0556751489639282e-01 1.2439551949501038e-01</leafValues></_>
    <_>
      <internalNodes>
        0 -1 44 -350164717 2079174127 794783684 -34755081 1893826175
        1877442431 -603982957 -21921925</internalNodes>
      <leafValues>
        -7.7971778810024261e-02 1.6950307786464691e-01</leafValues></_>
    <_>
      <internalNodes>
        0 -1 867 80192644 4467781 -25202765 1281919 -386093324
        -1665579836 -606277658 33579876</internalNodes>
      <leafValues>
        -2.3464173078536987e-01 5.6822065263986588e-02</leafValues></_>
    <_>
      <internalNodes>
        0 -1 923 1975498531 532675439 -1116757504 -1378880791 2111746483
        161478136 1504949519 -838877779</internalNodes>
      <leafValues>
        -1.1251650005578995e-01 1.1859835684299469e-01</leafValues></_>
    <_>
      <internalNodes>
        0 -1 1120 195772681 25120333 1071452946 -1603097789 141250617
        230677963 30609792 -454164546</internalNodes>
      <leafValues>
        -1.7796640098094940e-01 7.2009138762950897e-02</leafValues></_></weakClassifiers></stage4>
</opencv_storage>
